{"learner":{"attributes":{"best_iteration":"65","best_score":"15.050470264223684","scikit_learn":"{\"_estimator_type\": \"regressor\"}"},"feature_names":["home_points","away_points","diff_points","home_rebounds","away_rebounds","diff_rebounds","home_assists","away_assists","diff_assists","home_steals","away_steals","diff_steals","home_blocks","away_blocks","diff_blocks","home_turnovers","away_turnovers","diff_turnovers","home_oreb","away_oreb","diff_oreb","home_dreb","away_dreb","diff_dreb","home_ts_pct","away_ts_pct","diff_ts_pct","home_fg3_rate","away_fg3_rate","diff_fg3_rate","home_ft_rate","away_ft_rate","diff_ft_rate","home_to_margin","away_to_margin","diff_to_margin","home_off_rating","away_off_rating","home_def_rating","away_def_rating","home_net_rating","away_net_rating","diff_net_rating","home_matchup_edge","away_matchup_edge","diff_matchup_edge","home_def_factor_raw","away_def_factor_raw","home_pace","away_pace","avg_pace","diff_pace","home_court","home_fatigue","away_fatigue","diff_fatigue","combined_fatigue","ff_efg_edge","ff_tov_edge","ff_oreb_edge","ff_fta_edge","home_clutch_net","away_clutch_net","diff_clutch_net","home_clutch_efg","away_clutch_efg","home_deflections","away_deflections","diff_deflections","home_contested","away_contested","home_loose_balls","away_loose_balls","home_injured_count","away_injured_count","diff_injured_count","home_injury_ppg_lost","away_injury_ppg_lost","diff_injury_ppg_lost","home_injury_minutes_lost","away_injury_minutes_lost","diff_injury_minutes_lost","home_games_played","away_games_played","min_games_played","games_played_diff","home_roster_changed","away_roster_changed"],"feature_types":["float","float","float","float","float","float","float","float","float","float","float","float","float","float","float","float","float","float","float","float","float","float","float","float","float","float","float","float","float","float","float","float","float","float","float","float","float","float","float","float","float","float","float","float","float","float","float","float","float","float","float","float","float","float","float","float","float","float","float","float","float","float","float","float","float","float","float","float","float","float","float","float","float","int","int","int","float","float","float","float","float","float","float","float","float","float","int","int"],"gradient_booster":{"model":{"cats":{"enc":[],"feature_segments":[],"sorted_idx":[]},"gbtree_model_param":{"num_parallel_tree":"1","num_trees":"86"},"iteration_indptr":[0,1,2,3,4,5,6,7,8,9,10,11,12,13,14,15,16,17,18,19,20,21,22,23,24,25,26,27,28,29,30,31,32,33,34,35,36,37,38,39,40,41,42,43,44,45,46,47,48,49,50,51,52,53,54,55,56,57,58,59,60,61,62,63,64,65,66,67,68,69,70,71,72,73,74,75,76,77,78,79,80,81,82,83,84,85,86],"tree_info":[0,0,0,0,0,0,0,0,0,0,0,0,0,0,0,0,0,0,0,0,0,0,0,0,0,0,0,0,0,0,0,0,0,0,0,0,0,0,0,0,0,0,0,0,0,0,0,0,0,0,0,0,0,0,0,0,0,0,0,0,0,0,0,0,0,0,0,0,0,0,0,0,0,0,0,0,0,0,0,0,0,0,0,0,0,0],"trees":[{"base_weights":[-2.4536072E-1,7.0524263E0,-4.7563205E0,1.2335287E1,3.1831012E0,1.7560407E0,-8.127938E0,7.051603E-1,-1.4053948E-1,-3.9444204E-2,3.5609272E-1,4.3188474E-1,-1.4743245E-1,-4.961925E-1,-1.3136826E-1],"categories":[],"categories_nodes":[],"categories_segments":[],"categories_sizes":[],"default_left":[0,0,0,0,0,0,0,0,0,0,0,0,0,0,0],"id":0,"left_children":[1,3,5,7,9,11,13,-1,-1,-1,-1,-1,-1,-1,-1],"loss_changes":[1.6460111E4,3.817963E3,6.8165054E3,2.2270928E3,1.7822511E3,3.5180205E3,1.9568008E3,0E0,0E0,0E0,0E0,0E0,0E0,0E0,0E0],"parents":[2147483647,0,0,1,1,2,2,3,3,4,4,5,5,6,6],"right_children":[2,4,6,8,10,12,14,-1,-1,-1,-1,-1,-1,-1,-1],"split_conditions":[-6E-1,2E0,1.131E2,4.745202E1,1.0669643E0,-1.1885898E1,5E-3,7.051603E-1,-1.4053948E-1,-3.9444204E-2,3.5609272E-1,4.3188474E-1,-1.4743245E-1,-4.961925E-1,-1.3136826E-1],"split_indices":[41,73,38,4,47,81,57,0,0,0,0,0,0,0,0],"split_type":[0,0,0,0,0,0,0,0,0,0,0,0,0,0,0],"sum_hessian":[4.96E2,1.89E2,3.07E2,7.8E1,1.11E2,1.05E2,2.02E2,7E1,8E0,5.6E1,5.5E1,4.2E1,6.3E1,1.51E2,5.1E1],"tree_param":{"num_deleted":"0","num_feature":"88","num_nodes":"15","size_leaf_vector":"1"}},{"base_weights":[3.9689776E-1,6.5081506E0,-4.639692E0,1.5076864E1,3.6734667E0,-1.2432318E0,-1.0858852E1,1.6016784E-1,8.649042E-1,9.612703E-1,1.00336336E-1,7.5936966E-2,-2.9858798E-1,-6.057578E-1,4.0726233E-1],"categories":[],"categories_nodes":[],"categories_segments":[],"categories_sizes":[],"default_left":[0,0,0,0,0,0,0,0,0,0,0,0,0,0,0],"id":1,"left_children":[1,3,5,7,9,11,13,-1,-1,-1,-1,-1,-1,-1,-1],"loss_changes":[1.4989562E4,5.2235674E3,5.6068247E3,1.3031025E3,4.266958E3,2.3058755E3,2.443587E3,0E0,0E0,0E0,0E0,0E0,0E0,0E0,0E0],"parents":[2147483647,0,0,1,1,2,2,3,3,4,4,5,5,6,6],"right_children":[2,4,6,8,10,12,14,-1,-1,-1,-1,-1,-1,-1,-1],"split_conditions":[3E-1,5.4358974E0,1.159E2,2E0,1.09E2,6.9139194E0,3.5E0,1.6016784E-1,8.649042E-1,9.612703E-1,1.00336336E-1,7.5936966E-2,-2.9858798E-1,-6.057578E-1,4.0726233E-1],"split_indices":[41,76,38,56,37,78,55,0,0,0,0,0,0,0,0],"split_type":[0,0,0,0,0,0,0,0,0,0,0,0,0,0,0],"sum_hessian":[4.83E2,2.18E2,2.65E2,5.2E1,1.66E2,1.73E2,9.2E1,9E0,4.3E1,1.4E1,1.52E2,1.1E2,6.3E1,8.7E1,5E0],"tree_param":{"num_deleted":"0","num_feature":"88","num_nodes":"15","size_leaf_vector":"1"}},{"base_weights":[4.1137624E-1,-5.830606E0,6.2216406E0,-8.775988E0,-2.6611564E0,1.4705174E1,4.5965586E0,-1.7018168E-1,-5.519271E-1,-3.13254E-1,5.7163488E-2,-4.4657547E-2,9.2779344E-1,-1.836493E-1,2.9647696E-1],"categories":[],"categories_nodes":[],"categories_segments":[],"categories_sizes":[],"default_left":[0,0,0,0,0,0,0,0,0,0,0,0,0,0,0],"id":2,"left_children":[1,3,5,7,9,11,13,-1,-1,-1,-1,-1,-1,-1,-1],"loss_changes":[1.8279066E4,2.2160352E3,3.4534229E3,1.437042E3,1.6621896E3,2.5046182E3,2.4918242E3,0E0,0E0,0E0,0E0,0E0,0E0,0E0,0E0],"parents":[2147483647,0,0,1,1,2,2,3,3,4,4,5,5,6,6],"right_children":[2,4,6,8,10,12,14,-1,-1,-1,-1,-1,-1,-1,-1],"split_conditions":[-5E-1,-6.1E0,2.0625E0,1.1207568E2,4.132733E1,1.139E2,6.870072E0,-1.7018168E-1,-5.519271E-1,-3.13254E-1,5.7163488E-2,-4.4657547E-2,9.2779344E-1,-1.836493E-1,2.9647696E-1],"split_indices":[42,42,76,1,27,39,9,0,0,0,0,0,0,0,0],"split_type":[0,0,0,0,0,0,0,0,0,0,0,0,0,0,0],"sum_hessian":[5E2,2.41E2,2.59E2,1.23E2,1.18E2,3.9E1,2.2E2,3.8E1,8.5E1,6E1,5.8E1,8E0,3.1E1,3E1,1.9E2],"tree_param":{"num_deleted":"0","num_feature":"88","num_nodes":"15","size_leaf_vector":"1"}},{"base_weights":[-1.4656156E-1,-5.042748E0,4.598177E0,-7.303086E0,1.8174037E0,1.2409228E1,1.9184538E0,-6.0881984E-1,-2.7403748E-1,2.4545239E-1,-2.9976684E-1,9.562966E-1,3.048719E-1,-1.6228807E-1,2.520118E-1],"categories":[],"categories_nodes":[],"categories_segments":[],"categories_sizes":[],"default_left":[0,0,0,0,0,0,0,0,0,0,0,0,0,0,0],"id":3,"left_children":[1,3,5,7,9,11,13,-1,-1,-1,-1,-1,-1,-1,-1],"loss_changes":[1.1894471E4,3.9368657E3,5.3874014E3,1.5450537E3,1.6041891E3,2.5521826E3,3.1934412E3,0E0,0E0,0E0,0E0,0E0,0E0,0E0,0E0],"parents":[2147483647,0,0,1,1,2,2,3,3,4,4,5,5,6,6],"right_children":[2,4,6,8,10,12,14,-1,-1,-1,-1,-1,-1,-1,-1],"split_conditions":[1.138E2,1.0526786E0,5.4358974E0,3.673953E0,2.7052744E1,4.2833333E0,7.847884E0,-6.0881984E-1,-2.7403748E-1,2.4545239E-1,-2.9976684E-1,9.562966E-1,3.048719E-1,-1.6228807E-1,2.520118E-1],"split_indices":[36,47,76,12,76,72,9,0,0,0,0,0,0,0,0],"split_type":[0,0,0,0,0,0,0,0,0,0,0,0,0,0,0],"sum_hessian":[5.08E2,2.5E2,2.58E2,1.88E2,6.2E1,6.4E1,1.94E2,4.8E1,1.4E2,4.5E1,1.7E1,2.9E1,3.5E1,7.3E1,1.21E2],"tree_param":{"num_deleted":"0","num_feature":"88","num_nodes":"15","size_leaf_vector":"1"}},{"base_weights":[4.067288E-1,-5.160478E0,5.131719E0,-8.136677E0,-1.7724617E0,1.0246208E1,1.3945493E0,-4.4834653E-1,1.5773131E-1,4.4734296E-1,-1.3821751E-1,3.7701508E-1,8.1967765E-1,-3.1747717E-1,1.8075962E-1],"categories":[],"categories_nodes":[],"categories_segments":[],"categories_sizes":[],"default_left":[0,0,0,0,0,0,0,0,0,0,0,0,0,0,0],"id":4,"left_children":[1,3,5,7,9,11,13,-1,-1,-1,-1,-1,-1,-1,-1],"loss_changes":[1.3521109E4,2.3458867E3,5.279214E3,1.2313115E3,1.2478313E3,1.6870039E3,2.8476318E3,0E0,0E0,0E0,0E0,0E0,0E0,0E0,0E0],"parents":[2147483647,0,0,1,1,2,2,3,3,4,4,5,5,6,6],"right_children":[2,4,6,8,10,12,14,-1,-1,-1,-1,-1,-1,-1,-1],"split_conditions":[-1E0,-6.1E0,-7.7652287E0,4E0,9.827E1,9.7E0,6.9791384E0,-4.4834653E-1,1.5773131E-1,4.4734296E-1,-1.3821751E-1,3.7701508E-1,8.1967765E-1,-3.1747717E-1,1.8075962E-1],"split_indices":[42,42,78,75,48,42,9,0,0,0,0,0,0,0,0],"split_type":[0,0,0,0,0,0,0,0,0,0,0,0,0,0,0],"sum_hessian":[5.1E2,2.34E2,2.76E2,1.23E2,1.11E2,1.15E2,1.61E2,1.15E2,8E0,8E0,1.03E2,8.3E1,3.2E1,3.5E1,1.26E2],"tree_param":{"num_deleted":"0","num_feature":"88","num_nodes":"15","size_leaf_vector":"1"}},{"base_weights":[-3.6779878E-1,-3.4394953E0,6.862498E0,4.087738E0,-4.9488344E0,1.03884E1,1.3693495E0,3.32512E-1,-2.2265656E-1,-4.336689E-1,-1.1824882E-1,2.4538653E-1,7.33812E-1,6.567607E-1,-3.1654265E-2],"categories":[],"categories_nodes":[],"categories_segments":[],"categories_sizes":[],"default_left":[0,0,0,0,0,0,0,0,0,0,0,0,0,0,0],"id":5,"left_children":[1,3,5,7,9,11,13,-1,-1,-1,-1,-1,-1,-1,-1],"loss_changes":[1.1172344E4,4.0513745E3,2.8709155E3,1.3734863E3,2.7924453E3,1.9846748E3,1.4600654E3,0E0,0E0,0E0,0E0,0E0,0E0,0E0,0E0],"parents":[2147483647,0,0,1,1,2,2,3,3,4,4,5,5,6,6],"right_children":[2,4,6,8,10,12,14,-1,-1,-1,-1,-1,-1,-1,-1],"split_conditions":[1.165E2,1.117E2,1.13840065E2,2.6168916E0,1.125E2,2.4521511E1,2.0625E0,3.32512E-1,-2.2265656E-1,-4.336689E-1,-1.1824882E-1,2.4538653E-1,7.33812E-1,6.567607E-1,-3.1654265E-2],"split_indices":[39,38,1,34,39,31,76,0,0,0,0,0,0,0,0],"split_type":[0,0,0,0,0,0,0,0,0,0,0,0,0,0,0],"sum_hessian":[4.99E2,3.51E2,1.48E2,5.8E1,2.93E2,8.9E1,5.9E1,4.5E1,1.3E1,1.18E2,1.75E2,4.1E1,4.8E1,7E0,5.2E1],"tree_param":{"num_deleted":"0","num_feature":"88","num_nodes":"15","size_leaf_vector":"1"}},{"base_weights":[-2.0168988E-1,-5.789519E0,4.7788596E0,-2.3187184E0,-8.782601E0,8.490582E0,7.920236E-1,-2.0619106E-1,1.858909E-1,-4.2175673E-2,-5.03679E-1,-1.7949352E-1,5.362254E-1,2.2588037E-1,-1.811579E-1],"categories":[],"categories_nodes":[],"categories_segments":[],"categories_sizes":[],"default_left":[0,0,0,0,0,0,0,0,0,0,0,0,0,0,0],"id":6,"left_children":[1,3,5,7,9,11,13,-1,-1,-1,-1,-1,-1,-1,-1],"loss_changes":[1.405456E4,2.4261567E3,3.932984E3,1.2621783E3,1.2791943E3,3.804749E3,2.188019E3,0E0,0E0,0E0,0E0,0E0,0E0,0E0,0E0],"parents":[2147483647,0,0,1,1,2,2,3,3,4,4,5,5,6,6],"right_children":[2,4,6,8,10,12,14,-1,-1,-1,-1,-1,-1,-1,-1],"split_conditions":[-5E-1,5.862092E1,3.6028717E1,1.176E2,3.882294E1,1.5E0,2.6685919E1,-2.0619106E-1,1.858909E-1,-4.2175673E-2,-5.03679E-1,-1.7949352E-1,5.362254E-1,2.2588037E-1,-1.811579E-1],"split_indices":[42,25,79,37,4,54,7,0,0,0,0,0,0,0,0],"split_type":[0,0,0,0,0,0,0,0,0,0,0,0,0,0,0],"sum_hessian":[5.01E2,2.36E2,2.65E2,1.11E2,1.25E2,1.36E2,1.29E2,8.6E1,2.5E1,1.8E1,1.07E2,2.1E1,1.15E2,7E1,5.9E1],"tree_param":{"num_deleted":"0","num_feature":"88","num_nodes":"15","size_leaf_vector":"1"}},{"base_weights":[3.269782E-1,-2.4139276E0,5.8576913E0,-7.5584364E0,-5.310451E-1,8.864882E0,-1.6129998E0,-4.6627846E-1,1.6024283E-1,5.612835E-2,-2.168941E-1,7.329678E-1,2.5725672E-1,4.7619015E-2,-6.6409427E-1],"categories":[],"categories_nodes":[],"categories_segments":[],"categories_sizes":[],"default_left":[0,0,0,0,0,0,0,0,0,0,0,0,0,0,0],"id":7,"left_children":[1,3,5,7,9,11,13,-1,-1,-1,-1,-1,-1,-1,-1],"loss_changes":[7.5489478E3,3.213534E3,3.7390796E3,1.7556294E3,1.5599244E3,2.3826191E3,1.4982848E3,0E0,0E0,0E0,0E0,0E0,0E0,0E0,0E0],"parents":[2147483647,0,0,1,1,2,2,3,3,4,4,5,5,6,6],"right_children":[2,4,6,8,10,12,14,-1,-1,-1,-1,-1,-1,-1,-1],"split_conditions":[1.1E-2,-5.2E0,5.7958157E1,2.4745004E0,4.9E0,2.6465117E1,2.749881E1,-4.6627846E-1,1.6024283E-1,5.612835E-2,-2.168941E-1,7.329678E-1,2.5725672E-1,4.7619015E-2,-6.6409427E-1],"split_indices":[57,40,25,20,41,79,76,0,0,0,0,0,0,0,0],"split_type":[0,0,0,0,0,0,0,0,0,0,0,0,0,0,0],"sum_hessian":[4.94E2,3.31E2,1.63E2,8.7E1,2.44E2,1.16E2,4.7E1,7.5E1,1.2E1,1.71E2,7.3E1,4.3E1,7.3E1,4E1,7E0],"tree_param":{"num_deleted":"0","num_feature":"88","num_nodes":"15","size_leaf_vector":"1"}},{"base_weights":[-2.1063153E-2,-1.8172796E0,1.1687723E1,-7.441892E0,2.841687E-1,1.7167303E1,6.8604717E0,-5.018742E-1,-1.51395E-1,1.3108717E-1,-1.7001979E-1,1.0165142E0,4.472879E-2,5.202386E-1,7.707958E-2],"categories":[],"categories_nodes":[],"categories_segments":[],"categories_sizes":[],"default_left":[0,0,0,0,0,0,0,0,0,0,0,0,0,0,0],"id":8,"left_children":[1,3,5,7,9,11,13,-1,-1,-1,-1,-1,-1,-1,-1],"loss_changes":[1.0595364E4,5.173075E3,1.5246719E3,1.2960562E3,2.7735828E3,1.497123E3,6.9716345E2,0E0,0E0,0E0,0E0,0E0,0E0,0E0,0E0],"parents":[2147483647,0,0,1,1,2,2,3,3,4,4,5,5,6,6],"right_children":[2,4,6,8,10,12,14,-1,-1,-1,-1,-1,-1,-1,-1],"split_conditions":[9.6E0,-6.1E0,2.5826797E1,1.128E2,4.822041E1,4.498497E1,1.1798707E0,-5.018742E-1,-1.51395E-1,1.3108717E-1,-1.7001979E-1,1.0165142E0,4.472879E-2,5.202386E-1,7.707958E-2],"split_indices":[42,42,79,39,79,27,20,0,0,0,0,0,0,0,0],"split_type":[0,0,0,0,0,0,0,0,0,0,0,0,0,0,0],"sum_hessian":[5E2,4.35E2,6.5E1,1.17E2,3.18E2,2.8E1,3.7E1,7.2E1,4.5E1,1.95E2,1.23E2,2.3E1,5E0,2.1E1,1.6E1],"tree_param":{"num_deleted":"0","num_feature":"88","num_nodes":"15","size_leaf_vector":"1"}},{"base_weights":[1.7975432E-1,-2.0481405E0,5.9321957E0,-6.0253043E0,7.618502E-1,2.289234E0,1.0361918E1,-3.925451E-1,-1.8356584E-2,1.3141617E-1,-2.5901496E-1,1.8749212E-1,-3.2854268E-1,5.532947E-2,7.6310086E-1],"categories":[],"categories_nodes":[],"categories_segments":[],"categories_sizes":[],"default_left":[0,0,0,0,0,0,0,0,0,0,0,0,0,0,0],"id":9,"left_children":[1,3,5,7,9,11,13,-1,-1,-1,-1,-1,-1,-1,-1],"loss_changes":[6.4726064E3,4.0798015E3,2.2215938E3,1.5498882E3,2.4104905E3,1.0831584E3,2.8152148E3,0E0,0E0,0E0,0E0,0E0,0E0,0E0,0E0],"parents":[2147483647,0,0,1,1,2,2,3,3,4,4,5,5,6,6],"right_children":[2,4,6,8,10,12,14,-1,-1,-1,-1,-1,-1,-1,-1],"split_conditions":[1.0526786E0,1.134E2,1.3E-2,4.4240007E0,5.2346375E1,6.2268267E0,1.4610169E1,-3.925451E-1,-1.8356584E-2,1.3141617E-1,-2.5901496E-1,1.8749212E-1,-3.2854268E-1,5.532947E-2,7.6310086E-1],"split_indices":[47,36,59,2,79,12,67,0,0,0,0,0,0,0,0],"split_type":[0,0,0,0,0,0,0,0,0,0,0,0,0,0,0],"sum_hessian":[5.01E2,3.62E2,1.39E2,1.49E2,2.13E2,7.8E1,6.1E1,1.12E2,3.7E1,1.63E2,5E1,6.8E1,1E1,2.2E1,3.9E1],"tree_param":{"num_deleted":"0","num_feature":"88","num_nodes":"15","size_leaf_vector":"1"}},{"base_weights":[-1.6808455E-1,7.796528E0,-2.1078455E0,-6.736798E0,1.0051048E1,-8.121261E0,-4.5534107E-1,2.4250244E-1,-6.775116E-1,5.964381E-1,-1.4337626E-1,2.5229278E-1,-4.8477998E-1,-1.0609404E-1,1.8275547E-1],"categories":[],"categories_nodes":[],"categories_segments":[],"categories_sizes":[],"default_left":[0,0,0,0,0,0,0,0,0,0,0,0,0,0,0],"id":10,"left_children":[1,3,5,7,9,11,13,-1,-1,-1,-1,-1,-1,-1,-1],"loss_changes":[8.125532E3,3.5119458E3,4.1917495E3,1.3199817E3,2.2561064E3,1.9865542E3,2.3027214E3,0E0,0E0,0E0,0E0,0E0,0E0,0E0,0E0],"parents":[2147483647,0,0,1,1,2,2,3,3,4,4,5,5,6,6],"right_children":[2,4,6,8,10,12,14,-1,-1,-1,-1,-1,-1,-1,-1],"split_conditions":[-4.9E0,-7.6E0,1.07994415E2,-1.0069164E-1,7.83317E1,1.117E2,8.979705E0,2.4250244E-1,-6.775116E-1,5.964381E-1,-1.4337626E-1,2.5229278E-1,-4.8477998E-1,-1.0609404E-1,1.8275547E-1],"split_indices":[41,43,0,14,79,38,9,0,0,0,0,0,0,0,0],"split_type":[0,0,0,0,0,0,0,0,0,0,0,0,0,0,0],"sum_hessian":[5.22E2,1.01E2,4.21E2,1.3E1,8.8E1,8.9E1,3.32E2,5E0,8E0,7.7E1,1.1E1,9E0,8E1,2.37E2,9.5E1],"tree_param":{"num_deleted":"0","num_feature":"88","num_nodes":"15","size_leaf_vector":"1"}},{"base_weights":[-2.961714E-1,-4.556825E0,3.634557E0,-1.0480132E0,-6.7500763E0,1.6860439E0,9.480486E0,-1.7626797E-1,1.6576241E-1,-4.5583436E-1,-1.3060354E-1,-1.2028837E-1,2.6414332E-1,3.4421325E-1,9.7708654E-1],"categories":[],"categories_nodes":[],"categories_segments":[],"categories_sizes":[],"default_left":[0,0,0,0,0,0,0,0,0,0,0,0,0,0,0],"id":11,"left_children":[1,3,5,7,9,11,13,-1,-1,-1,-1,-1,-1,-1,-1],"loss_changes":[8.306837E3,1.8135308E3,2.9012917E3,1.0395549E3,1.3762935E3,2.9114912E3,1.3894834E3,0E0,0E0,0E0,0E0,0E0,0E0,0E0,0E0],"parents":[2147483647,0,0,1,1,2,2,3,3,4,4,5,5,6,6],"right_children":[2,4,6,8,10,12,14,-1,-1,-1,-1,-1,-1,-1,-1],"split_conditions":[-7E-1,5.8043037E1,9.6E0,4.9345045E0,-5.1E0,1.8084723E1,1.4E0,-1.7626797E-1,1.6576241E-1,-4.5583436E-1,-1.3060354E-1,-1.2028837E-1,2.6414332E-1,3.4421325E-1,9.7708654E-1],"split_indices":[42,25,42,12,42,77,52,0,0,0,0,0,0,0,0],"split_type":[0,0,0,0,0,0,0,0,0,0,0,0,0,0,0],"sum_hessian":[4.92E2,2.36E2,2.56E2,9.2E1,1.44E2,1.94E2,6.2E1,5.9E1,3.3E1,9E1,5.4E1,9.1E1,1.03E2,5.2E1,1E1],"tree_param":{"num_deleted":"0","num_feature":"88","num_nodes":"15","size_leaf_vector":"1"}},{"base_weights":[-1.6416345E-2,3.4070482E0,-3.0456264E0,1.1873423E1,1.7700517E0,-5.193259E0,3.0525434E0,7.714395E-1,1.3120279E-1,-1.3123131E-1,2.0811203E-1,-3.323626E-1,7.593349E-2,6.851658E-1,7.25787E-2],"categories":[],"categories_nodes":[],"categories_segments":[],"categories_sizes":[],"default_left":[0,0,0,0,0,0,0,0,0,0,0,0,0,0,0],"id":12,"left_children":[1,3,5,7,9,11,13,-1,-1,-1,-1,-1,-1,-1,-1],"loss_changes":[5.2368804E3,3.2358289E3,3.5426716E3,1.1596274E3,2.1357097E3,1.9648145E3,1.1633005E3,0E0,0E0,0E0,0E0,0E0,0E0,0E0,0E0],"parents":[2147483647,0,0,1,1,2,2,3,3,4,4,5,5,6,6],"right_children":[2,4,6,8,10,12,14,-1,-1,-1,-1,-1,-1,-1,-1],"split_conditions":[7E-1,3.3243244E0,8.979705E0,5E-1,-2.8E0,7.468217E0,2.0625E0,7.714395E-1,1.3120279E-1,-1.3123131E-1,2.0811203E-1,-3.323626E-1,7.593349E-2,6.851658E-1,7.25787E-2],"split_indices":[41,76,9,43,40,2,76,0,0,0,0,0,0,0,0],"split_type":[0,0,0,0,0,0,0,0,0,0,0,0,0,0,0],"sum_hessian":[5.01E2,2.35E2,2.66E2,3.6E1,1.99E2,1.97E2,6.9E1,2.5E1,1.1E1,7E1,1.29E2,1.62E2,3.5E1,7E0,6.2E1],"tree_param":{"num_deleted":"0","num_feature":"88","num_nodes":"15","size_leaf_vector":"1"}},{"base_weights":[2.3441084E-1,-2.003421E0,5.178322E0,-4.659764E0,1.3051271E0,7.3076615E0,-1.6371889E0,-5.660891E-1,-1.4370403E-1,-2.618688E-1,1.4354864E-1,5.16096E-1,-4.877076E-2,3.338902E-1,-1.9808616E-1],"categories":[],"categories_nodes":[],"categories_segments":[],"categories_sizes":[],"default_left":[0,0,0,0,0,0,0,0,0,0,0,0,0,0,0],"id":13,"left_children":[1,3,5,7,9,11,13,-1,-1,-1,-1,-1,-1,-1,-1],"loss_changes":[5.4324565E3,2.9844006E3,2.2471812E3,2.164318E3,1.5860609E3,2.9459878E3,7.860356E2,0E0,0E0,0E0,0E0,0E0,0E0,0E0,0E0],"parents":[2147483647,0,0,1,1,2,2,3,3,4,4,5,5,6,6],"right_children":[2,4,6,8,10,12,14,-1,-1,-1,-1,-1,-1,-1,-1],"split_conditions":[1.165E2,0E0,1.7E0,-1.4382985E0,4.118644E0,2.808135E1,3.740464E1,-5.660891E-1,-1.4370403E-1,-2.618688E-1,1.4354864E-1,5.16096E-1,-4.877076E-2,3.338902E-1,-1.9808616E-1],"split_indices":[39,57,51,14,71,7,4,0,0,0,0,0,0,0,0],"split_type":[0,0,0,0,0,0,0,0,0,0,0,0,0,0,0],"sum_hessian":[4.87E2,3.36E2,1.51E2,1.86E2,1.5E2,1.15E2,3.6E1,3.7E1,1.49E2,2.8E1,1.22E2,8.4E1,3.1E1,7E0,2.9E1],"tree_param":{"num_deleted":"0","num_feature":"88","num_nodes":"15","size_leaf_vector":"1"}},{"base_weights":[1.7466636E-1,-1.1992217E0,8.439774E0,-5.1028104E0,3.892709E-1,1.0178125E1,-2.7743188E-1,-2.3873627E-2,-4.093779E-1,9.644254E-2,-1.9898233E-1,6.387289E-2,6.0011053E-1],"categories":[],"categories_nodes":[],"categories_segments":[],"categories_sizes":[],"default_left":[0,0,0,0,0,0,0,0,0,0,0,0,0],"id":14,"left_children":[1,3,5,7,9,11,-1,-1,-1,-1,-1,-1,-1],"loss_changes":[5.5766206E3,2.6168755E3,1.8174385E3,1.7285449E3,2.0389426E3,9.855376E2,0E0,0E0,0E0,0E0,0E0,0E0,0E0],"parents":[2147483647,0,0,1,1,2,2,3,3,4,4,5,5],"right_children":[2,4,6,8,10,12,-1,-1,-1,-1,-1,-1,-1],"split_conditions":[9.6E0,-6.1E0,4.885652E1,5.8636505E1,2.674619E1,-2.8E0,-2.7743188E-1,-2.3873627E-2,-4.093779E-1,9.644254E-2,-1.9898233E-1,6.387289E-2,6.0011053E-1],"split_indices":[42,42,3,25,76,63,0,0,0,0,0,0,0],"split_type":[0,0,0,0,0,0,0,0,0,0,0,0,0],"sum_hessian":[4.87E2,4.19E2,6.8E1,1.2E2,2.99E2,6.1E1,7E0,4.9E1,7.1E1,2.22E2,7.7E1,1.1E1,5E1],"tree_param":{"num_deleted":"0","num_feature":"88","num_nodes":"13","size_leaf_vector":"1"}},{"base_weights":[-4.054642E-1,1.1730827E1,-1.3037714E0,-3.564211E-3,1.7364977E1,-7.99141E0,-4.4591135E-1,-2.441554E-1,2.102214E-1,4.226505E-1,1.1440706E0,-1.7183553E-1,-8.092548E-1,-1.1626573E-1,1.08393155E-1],"categories":[],"categories_nodes":[],"categories_segments":[],"categories_sizes":[],"default_left":[0,0,0,0,0,0,0,0,0,0,0,0,0,0,0],"id":15,"left_children":[1,3,5,7,9,11,13,-1,-1,-1,-1,-1,-1,-1,-1],"loss_changes":[5.3783145E3,2.2566572E3,2.6219636E3,3.0833078E2,7.282324E2,1.819571E3,2.019306E3,0E0,0E0,0E0,0E0,0E0,0E0,0E0,0E0],"parents":[2147483647,0,0,1,1,2,2,3,3,4,4,5,5,6,6],"right_children":[2,4,6,8,10,12,14,-1,-1,-1,-1,-1,-1,-1,-1],"split_conditions":[1.097E2,1.0550834E0,1.0363474E2,1.1112524E2,1.220164E0,4.1766666E1,2E0,-2.441554E-1,2.102214E-1,4.226505E-1,1.1440706E0,-1.7183553E-1,-8.092548E-1,-1.1626573E-1,1.08393155E-1],"split_indices":[37,11,0,0,8,70,40,0,0,0,0,0,0,0,0],"split_type":[0,0,0,0,0,0,0,0,0,0,0,0,0,0,0],"sum_hessian":[4.89E2,3.2E1,4.57E2,1.1E1,2.1E1,5E1,4.07E2,5E0,6E0,1E1,1.1E1,3.4E1,1.6E1,2.37E2,1.7E2],"tree_param":{"num_deleted":"0","num_feature":"88","num_nodes":"15","size_leaf_vector":"1"}},{"base_weights":[1.2788728E-1,-2.482684E0,5.2538495E0,1.2035384E0,-4.313484E0,-5.5805045E-1,6.6969023E0,-5.3882487E-2,4.6016428E-1,-2.457015E-1,2.8216162E-1,1.09462075E-1,-4.3657357E-1,5.230254E-1,1.4751829E-1],"categories":[],"categories_nodes":[],"categories_segments":[],"categories_sizes":[],"default_left":[0,0,0,0,0,0,0,0,0,0,0,0,0,0,0],"id":16,"left_children":[1,3,5,7,9,11,13,-1,-1,-1,-1,-1,-1,-1,-1],"loss_changes":[6.4239204E3,2.158036E3,1.3692183E3,1.9765339E3,1.3287241E3,8.049639E2,1.7646328E3,0E0,0E0,0E0,0E0,0E0,0E0,0E0,0E0],"parents":[2147483647,0,0,1,1,2,2,3,3,4,4,5,5,6,6],"right_children":[2,4,6,8,10,12,14,-1,-1,-1,-1,-1,-1,-1,-1],"split_conditions":[2.8E0,-1.1770031E1,7.1889973E0,4.4882137E1,1.6810736E1,4.637931E0,2E0,-5.3882487E-2,4.6016428E-1,-2.457015E-1,2.8216162E-1,1.09462075E-1,-4.3657357E-1,5.230254E-1,1.4751829E-1],"split_indices":[42,81,9,27,15,72,73,0,0,0,0,0,0,0,0],"split_type":[0,0,0,0,0,0,0,0,0,0,0,0,0,0,0],"sum_hessian":[4.76E2,3.16E2,1.6E2,1.05E2,2.11E2,3.2E1,1.28E2,8.3E1,2.2E1,2E2,1.1E1,2.5E1,7E0,6.2E1,6.6E1],"tree_param":{"num_deleted":"0","num_feature":"88","num_nodes":"15","size_leaf_vector":"1"}},{"base_weights":[4.778389E-2,-4.179924E0,3.5197995E0,-9.327561E0,-2.7467878E0,5.8603954E0,-1.2340554E0,-2.8658566E-1,-8.47448E-1,-1.73456E-1,3.3749166E-1,5.8113295E-1,1.8227856E-1,2.7512913E-3,-8.303013E-1],"categories":[],"categories_nodes":[],"categories_segments":[],"categories_sizes":[],"default_left":[0,0,0,0,0,0,0,0,0,0,0,0,0,0,0],"id":17,"left_children":[1,3,5,7,9,11,13,-1,-1,-1,-1,-1,-1,-1,-1],"loss_changes":[7.1629272E3,1.5657197E3,2.9987742E3,1.0824199E3,1.2456417E3,2.204856E3,1.7935176E3,0E0,0E0,0E0,0E0,0E0,0E0,0E0,0E0],"parents":[2147483647,0,0,1,1,2,2,3,3,4,4,5,5,6,6],"right_children":[2,4,6,8,10,12,14,-1,-1,-1,-1,-1,-1,-1,-1],"split_conditions":[-1.4E0,-1.4382985E0,2.6997272E1,-1.6839255E0,4.6625214E0,1.276E1,3.5399357E1,-2.8658566E-1,-8.47448E-1,-1.73456E-1,3.3749166E-1,5.8113295E-1,1.8227856E-1,2.7512913E-3,-8.303013E-1],"split_indices":[42,14,7,14,23,79,78,0,0,0,0,0,0,0,0],"split_type":[0,0,0,0,0,0,0,0,0,0,0,0,0,0,0],"sum_hessian":[4.84E2,2.18E2,2.66E2,4.5E1,1.73E2,1.78E2,8.8E1,3.3E1,1.2E1,1.62E2,1.1E1,4.7E1,1.31E2,8.3E1,5E0],"tree_param":{"num_deleted":"0","num_feature":"88","num_nodes":"15","size_leaf_vector":"1"}},{"base_weights":[3.6313123E-1,-3.657425E0,3.9027767E0,-5.3879275E0,4.9403403E-2,2.0837026E0,9.399528E0,-8.398118E-2,-3.6116704E-1,-3.0639768E-1,8.748329E-2,1.91934E-1,-1.1755139E-1,1.03918254E-1,6.0239744E-1],"categories":[],"categories_nodes":[],"categories_segments":[],"categories_sizes":[],"default_left":[0,0,0,0,0,0,0,0,0,0,0,0,0,0,0],"id":18,"left_children":[1,3,5,7,9,11,13,-1,-1,-1,-1,-1,-1,-1,-1],"loss_changes":[7.1728057E3,1.5170657E3,2.634818E3,1.0670923E3,8.279954E2,1.6064951E3,1.222565E3,0E0,0E0,0E0,0E0,0E0,0E0,0E0,0E0],"parents":[2147483647,0,0,1,1,2,2,3,3,4,4,5,5,6,6],"right_children":[2,4,6,8,10,12,14,-1,-1,-1,-1,-1,-1,-1,-1],"split_conditions":[-1E0,5.90619E-1,9.7E0,-6E-1,-8.7E0,2.674619E1,7.550827E0,-8.398118E-2,-3.6116704E-1,-3.0639768E-1,8.748329E-2,1.91934E-1,-1.1755139E-1,1.03918254E-1,6.0239744E-1],"split_indices":[42,26,42,62,42,76,9,0,0,0,0,0,0,0,0],"split_type":[0,0,0,0,0,0,0,0,0,0,0,0,0,0,0],"sum_hessian":[5E2,2.34E2,2.66E2,1.59E2,7.5E1,2.02E2,6.4E1,5.4E1,1.05E2,1.5E1,6E1,1.45E2,5.7E1,1.8E1,4.6E1],"tree_param":{"num_deleted":"0","num_feature":"88","num_nodes":"15","size_leaf_vector":"1"}},{"base_weights":[7.773163E-1,-7.097296E-1,8.599383E0,-5.1070924E0,4.0302172E-2,9.534627E0,-1.7697027E-1,-3.869458E-1,1.5332682E-1,-2.6496246E-2,3.4915194E-1,1.71438E-1,5.7733685E-1],"categories":[],"categories_nodes":[],"categories_segments":[],"categories_sizes":[],"default_left":[0,0,0,0,0,0,0,0,0,0,0,0,0],"id":19,"left_children":[1,3,5,7,9,11,-1,-1,-1,-1,-1,-1,-1],"loss_changes":[5.6808247E3,1.3584896E3,9.560039E2,1.3404922E3,1.4081323E3,8.1018506E2,0E0,0E0,0E0,0E0,0E0,0E0,0E0],"parents":[2147483647,0,0,1,1,2,2,3,3,4,4,5,5],"right_children":[2,4,6,8,10,12,-1,-1,-1,-1,-1,-1,-1],"split_conditions":[9.6E0,-3.8804367E0,6.3E0,2.9637722E1,4.8920895E1,1.0981147E-1,-1.7697027E-1,-3.869458E-1,1.5332682E-1,-2.6496246E-2,3.4915194E-1,1.71438E-1,5.7733685E-1],"split_indices":[42,26,45,7,27,2,0,0,0,0,0,0,0],"split_type":[0,0,0,0,0,0,0,0,0,0,0,0,0],"sum_hessian":[4.85E2,4.09E2,7.6E1,5.8E1,3.51E2,7.1E1,5E0,4.4E1,1.4E1,3.26E2,2.5E1,1.9E1,5.2E1],"tree_param":{"num_deleted":"0","num_feature":"88","num_nodes":"13","size_leaf_vector":"1"}},{"base_weights":[-1.8448386E-1,-2.1374009E0,3.2830951E0,-6.507562E-1,-6.3137913E0,5.6198835E0,-1.5665433E0,2.1711346E-2,-3.906861E-1,1.9055434E-1,-4.2997193E-1,3.866626E-1,5.178796E-4,-5.0800794E-1,4.712558E-2],"categories":[],"categories_nodes":[],"categories_segments":[],"categories_sizes":[],"default_left":[0,0,0,0,0,0,0,0,0,0,0,0,0,0,0],"id":20,"left_children":[1,3,5,7,9,11,13,-1,-1,-1,-1,-1,-1,-1,-1],"loss_changes":[3.4400398E3,2.006163E3,2.0934963E3,1.8912261E3,2.0350022E3,1.465987E3,1.3390338E3,0E0,0E0,0E0,0E0,0E0,0E0,0E0,0E0],"parents":[2147483647,0,0,1,1,2,2,3,3,4,4,5,5,6,6],"right_children":[2,4,6,8,10,12,14,-1,-1,-1,-1,-1,-1,-1,-1],"split_conditions":[9E-3,3.0803656E1,8E-1,6.311177E0,-2.3E-2,4.507321E1,7.328544E0,2.1711346E-2,-3.906861E-1,1.9055434E-1,-4.2997193E-1,3.866626E-1,5.178796E-4,-5.0800794E-1,4.712558E-2],"split_indices":[57,76,41,12,57,3,10,0,0,0,0,0,0,0,0],"split_type":[0,0,0,0,0,0,0,0,0,0,0,0,0,0,0],"sum_hessian":[5.04E2,3.23E2,1.81E2,2.4E2,8.3E1,1.22E2,5.9E1,2.1E2,3E1,1.5E1,6.8E1,8.8E1,3.4E1,1.2E1,4.7E1],"tree_param":{"num_deleted":"0","num_feature":"88","num_nodes":"15","size_leaf_vector":"1"}},{"base_weights":[-5.5151176E-2,-1.374764E0,8.177436E0,-5.4900064E0,2.706337E-1,1.3914785E1,4.3604736E0,-5.0022495E-1,-1.4362708E-1,9.4628386E-2,-1.9995347E-1,8.1739897E-1,1.1102612E-1,-2.2328177E-2,3.8083813E-1],"categories":[],"categories_nodes":[],"categories_segments":[],"categories_sizes":[],"default_left":[0,0,0,0,0,0,0,0,0,0,0,0,0,0,0],"id":21,"left_children":[1,3,5,7,9,11,13,-1,-1,-1,-1,-1,-1,-1,-1],"loss_changes":[5.5053154E3,2.9646006E3,1.4024595E3,1.4131506E3,2.188589E3,6.863823E2,7.147774E2,0E0,0E0,0E0,0E0,0E0,0E0,0E0,0E0],"parents":[2147483647,0,0,1,1,2,2,3,3,4,4,5,5,6,6],"right_children":[2,4,6,8,10,12,14,-1,-1,-1,-1,-1,-1,-1,-1],"split_conditions":[9.6E0,-6.8E0,-2.1383085E0,-3.9005332E0,2.748211E1,1.13650826E2,2E-3,-5.0022495E-1,-1.4362708E-1,9.4628386E-2,-1.9995347E-1,8.1739897E-1,1.1102612E-1,-2.2328177E-2,3.8083813E-1],"split_indices":[42,42,29,29,76,1,59,0,0,0,0,0,0,0,0],"split_type":[0,0,0,0,0,0,0,0,0,0,0,0,0,0,0],"sum_hessian":[5.03E2,4.35E2,6.8E1,1.23E2,3.12E2,2.5E1,4.3E1,4.3E1,8E1,2.27E2,8.5E1,2E1,5E0,1.8E1,2.5E1],"tree_param":{"num_deleted":"0","num_feature":"88","num_nodes":"15","size_leaf_vector":"1"}},{"base_weights":[-5.3649163E-1,-2.1075292E0,6.0044518E0,-9.182171E0,-1.3589989E0,7.8203373E0,-6.4745765E0,3.4553908E-2,-6.4543194E-1,-6.4904183E-1,-5.0789554E-2,4.843528E-1,-9.501973E-2,-5.9084606E-1,7.047055E-2],"categories":[],"categories_nodes":[],"categories_segments":[],"categories_sizes":[],"default_left":[0,0,0,0,0,0,0,0,0,0,0,0,0,0,0],"id":22,"left_children":[1,3,5,7,9,11,13,-1,-1,-1,-1,-1,-1,-1,-1],"loss_changes":[4.9867017E3,2.0403453E3,2.2320247E3,1.3852673E3,1.3866095E3,1.5468193E3,5.860602E2,0E0,0E0,0E0,0E0,0E0,0E0,0E0,0E0],"parents":[2147483647,0,0,1,1,2,2,3,3,4,4,5,5,6,6],"right_children":[2,4,6,8,10,12,14,-1,-1,-1,-1,-1,-1,-1,-1],"split_conditions":[7.1E0,1.097E2,7.778216E1,9.393186E0,-3.7201834E0,4.372131E1,6E-1,3.4553908E-2,-6.4543194E-1,-6.4904183E-1,-5.0789554E-2,4.843528E-1,-9.501973E-2,-5.9084606E-1,7.047055E-2],"split_indices":[42,36,79,19,11,70,44,0,0,0,0,0,0,0,0],"split_type":[0,0,0,0,0,0,0,0,0,0,0,0,0,0,0],"sum_hessian":[4.81E2,3.89E2,9.2E1,3.5E1,3.54E2,8.1E1,1.1E1,1E1,2.5E1,8E0,3.46E2,6.8E1,1.3E1,6E0,5E0],"tree_param":{"num_deleted":"0","num_feature":"88","num_nodes":"15","size_leaf_vector":"1"}},{"base_weights":[-4.2337266E-1,-2.0344257E0,3.041044E0,3.5826042E-1,-4.5767746E0,6.649367E0,5.1804006E-1,-3.859814E-1,5.6777388E-2,1.3531156E-1,-2.9456866E-1,3.8948886E-2,4.8707414E-1,-6.3912314E-1,7.6210395E-2],"categories":[],"categories_nodes":[],"categories_segments":[],"categories_sizes":[],"default_left":[0,0,0,0,0,0,0,0,0,0,0,0,0,0,0],"id":23,"left_children":[1,3,5,7,9,11,13,-1,-1,-1,-1,-1,-1,-1,-1],"loss_changes":[2.8304568E3,2.1101216E3,1.4552406E3,1.1444313E3,1.6419502E3,1.1775898E3,1.3314431E3,0E0,0E0,0E0,0E0,0E0,0E0,0E0,0E0],"parents":[2147483647,0,0,1,1,2,2,3,3,4,4,5,5,6,6],"right_children":[2,4,6,8,10,12,14,-1,-1,-1,-1,-1,-1,-1,-1],"split_conditions":[1.1E-2,1.147E2,2.8258064E1,2.1677109E1,3.4001995E1,4.1095573E1,-8.428117E0,-3.859814E-1,5.6777388E-2,1.3531156E-1,-2.9456866E-1,3.8948886E-2,4.8707414E-1,-6.3912314E-1,7.6210395E-2],"split_indices":[57,38,79,30,27,4,8,0,0,0,0,0,0,0,0],"split_type":[0,0,0,0,0,0,0,0,0,0,0,0,0,0,0],"sum_hessian":[5.03E2,3.44E2,1.59E2,1.78E2,1.66E2,6.4E1,9.5E1,1.4E1,1.64E2,2.5E1,1.41E2,2.3E1,4.1E1,5E0,9E1],"tree_param":{"num_deleted":"0","num_feature":"88","num_nodes":"15","size_leaf_vector":"1"}},{"base_weights":[2.429707E-1,7.026513E0,-7.0134133E-1,-3.150923E0,9.986269E0,8.92746E-1,-1.0485116E0,-4.9746075E-1,1.7683265E-1,6.2912077E-1,-1.0429766E-1,6.284434E-2,-1.6360915E-1],"categories":[],"categories_nodes":[],"categories_segments":[],"categories_sizes":[],"default_left":[0,0,0,0,0,0,0,0,0,0,0,0,0],"id":24,"left_children":[1,3,5,7,9,-1,11,-1,-1,-1,-1,-1,-1],"loss_changes":[3.1454456E3,1.8737131E3,2.80562E3,7.5554156E2,1.5307798E3,0E0,2.1879736E3,0E0,0E0,0E0,0E0,0E0,0E0],"parents":[2147483647,0,0,1,1,2,2,3,3,4,4,6,6],"right_children":[2,4,6,8,10,-1,12,-1,-1,-1,-1,-1,-1],"split_conditions":[1.0594595E1,1.6896875E1,4.9446346E1,4.0689655E1,5.4E0,8.92746E-1,1.142E2,-4.9746075E-1,1.7683265E-1,6.2912077E-1,-1.0429766E-1,6.284434E-2,-1.6360915E-1],"split_indices":[79,31,25,70,41,0,38,0,0,0,0,0,0],"split_type":[0,0,0,0,0,0,0,0,0,0,0,0,0],"sum_hessian":[4.87E2,5.8E1,4.29E2,1.3E1,4.5E1,6E0,4.23E2,6E0,7E0,3.7E1,8E0,2.08E2,2.15E2],"tree_param":{"num_deleted":"0","num_feature":"88","num_nodes":"13","size_leaf_vector":"1"}},{"base_weights":[3.118091E-1,-4.393881E0,1.851532E0,-7.855822E-1,-3.3560388E0,4.3779364E0,-3.8381857E-1,1.6952124E-1,-2.718873E-1,4.4325152E-1,9.1389604E-2,-1.1928212E-1,1.8707596E-1],"categories":[],"categories_nodes":[],"categories_segments":[],"categories_sizes":[],"default_left":[0,0,0,0,0,0,0,0,0,0,0,0,0],"id":25,"left_children":[1,3,5,-1,7,9,11,-1,-1,-1,-1,-1,-1],"loss_changes":[3.7029382E3,1.365011E3,2.1796064E3,0E0,1.6951074E3,2.0333823E3,1.7183627E3,0E0,0E0,0E0,0E0,0E0,0E0],"parents":[2147483647,0,0,1,1,2,2,4,4,5,5,6,6],"right_children":[2,4,6,-1,8,10,12,-1,-1,-1,-1,-1,-1],"split_conditions":[-6.1E0,-2.7660807E1,-1.1770031E1,-7.855822E-1,1.1257426E2,3E0,2.6225334E-1,1.6952124E-1,-2.718873E-1,4.4325152E-1,9.1389604E-2,-1.1928212E-1,1.8707596E-1],"split_indices":[42,78,81,0,1,74,17,0,0,0,0,0,0],"split_type":[0,0,0,0,0,0,0,0,0,0,0,0,0],"sum_hessian":[5.07E2,1.24E2,3.83E2,8E0,1.16E2,1.79E2,2.04E2,2.7E1,8.9E1,6.3E1,1.16E2,1.38E2,6.6E1],"tree_param":{"num_deleted":"0","num_feature":"88","num_nodes":"13","size_leaf_vector":"1"}},{"base_weights":[-2.592032E-1,1.9742516E0,-3.151288E0,-8.539058E0,2.508593E0,-5.3926916E0,3.8254082E-1,-1.4773089E-1,-5.963117E-1,-8.958753E-2,1.8813398E-1,5.0423254E-4,-3.5548064E-1,1.539375E-1,-4.1161367E-1],"categories":[],"categories_nodes":[],"categories_segments":[],"categories_sizes":[],"default_left":[0,0,0,0,0,0,0,0,0,0,0,0,0,0,0],"id":26,"left_children":[1,3,5,7,9,11,13,-1,-1,-1,-1,-1,-1,-1,-1],"loss_changes":[3.2168643E3,1.6183994E3,1.7254309E3,1.8690137E2,1.4651873E3,1.2374194E3,2.0456644E3,0E0,0E0,0E0,0E0,0E0,0E0,0E0,0E0],"parents":[2147483647,0,0,1,1,2,2,3,3,4,4,5,5,6,6],"right_children":[2,4,6,8,10,12,14,-1,-1,-1,-1,-1,-1,-1,-1],"split_conditions":[5.869394E1,-3.1754036E0,5.36E-1,3E0,3.6745007E1,3E-1,1.6998492E-1,-1.4773089E-1,-5.963117E-1,-8.958753E-2,1.8813398E-1,5.0423254E-4,-3.5548064E-1,1.539375E-1,-4.1161367E-1],"split_indices":[25,11,65,73,27,41,26,0,0,0,0,0,0,0,0],"split_type":[0,0,0,0,0,0,0,0,0,0,0,0,0,0,0],"sum_hessian":[4.94E2,2.79E2,2.15E2,1.2E1,2.67E2,1.31E2,8.4E1,6E0,6E0,6E1,2.07E2,3.2E1,9.9E1,6.5E1,1.9E1],"tree_param":{"num_deleted":"0","num_feature":"88","num_nodes":"15","size_leaf_vector":"1"}},{"base_weights":[-4.062249E-2,-1.991265E0,2.6486032E0,-5.9466443E0,-7.453504E-1,1.0113387E1,1.3801244E0,-4.1313872E-1,-1.8636944E-2,2.0185347E-1,-1.03049375E-1,2.793363E-1,8.641228E-1,4.192562E-1,1.4620477E-2],"categories":[],"categories_nodes":[],"categories_segments":[],"categories_sizes":[],"default_left":[0,0,0,0,0,0,0,0,0,0,0,0,0,0,0],"id":27,"left_children":[1,3,5,7,9,11,13,-1,-1,-1,-1,-1,-1,-1,-1],"loss_changes":[2.6960269E3,1.4563525E3,2.011624E3,9.0612476E2,1.4565043E3,8.014712E2,1.4155934E3,0E0,0E0,0E0,0E0,0E0,0E0,0E0,0E0],"parents":[2147483647,0,0,1,1,2,2,3,3,4,4,5,5,6,6],"right_children":[2,4,6,8,10,12,14,-1,-1,-1,-1,-1,-1,-1,-1],"split_conditions":[1.154E2,7.144591E0,3.2857144E0,4.590726E0,-2.9798512E0,4.460031E1,1.02906494E2,-4.1313872E-1,-1.8636944E-2,2.0185347E-1,-1.03049375E-1,2.793363E-1,8.641228E-1,4.192562E-1,1.4620477E-2],"split_indices":[39,9,76,29,23,28,1,0,0,0,0,0,0,0,0],"split_type":[0,0,0,0,0,0,0,0,0,0,0,0,0,0,0],"sum_hessian":[5.1E2,2.96E2,2.14E2,6.9E1,2.27E2,2.9E1,1.85E2,4.8E1,2.1E1,4.8E1,1.79E2,2E1,9E0,2.3E1,1.62E2],"tree_param":{"num_deleted":"0","num_feature":"88","num_nodes":"15","size_leaf_vector":"1"}},{"base_weights":[-4.1802898E-1,-1.5893202E0,7.1042285E0,-4.723373E0,-3.7212467E-1,-7.805612E-2,1.0630148E1,1.6101333E-1,-3.5521102E-1,-4.3411624E-2,3.671729E-1,3.3543792E-1,-4.0123317E-1,3.29478E-1,7.96554E-1],"categories":[],"categories_nodes":[],"categories_segments":[],"categories_sizes":[],"default_left":[0,0,0,0,0,0,0,0,0,0,0,0,0,0,0],"id":28,"left_children":[1,3,5,7,9,11,13,-1,-1,-1,-1,-1,-1,-1,-1],"loss_changes":[4.3811475E3,1.6342817E3,1.7036536E3,2.317208E3,1.2037755E3,1.4027004E3,7.426323E2,0E0,0E0,0E0,0E0,0E0,0E0,0E0,0E0],"parents":[2147483647,0,0,1,1,2,2,3,3,4,4,5,5,6,6],"right_children":[2,4,6,8,10,12,14,-1,-1,-1,-1,-1,-1,-1,-1],"split_conditions":[9.6E0,-6.6E0,-2.0338982E-1,-3.0754404E0,6.342183E0,4.54184E0,2.5503006E1,1.6101333E-1,-3.5521102E-1,-4.3411624E-2,3.671729E-1,3.3543792E-1,-4.0123317E-1,3.29478E-1,7.96554E-1],"split_indices":[42,42,68,20,13,12,6,0,0,0,0,0,0,0,0],"split_type":[0,0,0,0,0,0,0,0,0,0,0,0,0,0,0],"sum_hessian":[4.93E2,4.28E2,6.5E1,1.18E2,3.1E2,2.2E1,4.3E1,2.7E1,9.1E1,2.93E2,1.7E1,1.2E1,1E1,2.7E1,1.6E1],"tree_param":{"num_deleted":"0","num_feature":"88","num_nodes":"15","size_leaf_vector":"1"}},{"base_weights":[2.310321E-1,-2.6014984E0,2.9009187E0,-3.9395967E0,4.2689734E0,5.073492E0,-1.6913159E-1,-2.5909114E-1,5.137911E-2,5.630529E-1,-3.0596295E-2,8.4049605E-2,3.5808712E-1,-2.6227966E-1,1.16654985E-1],"categories":[],"categories_nodes":[],"categories_segments":[],"categories_sizes":[],"default_left":[0,0,0,0,0,0,0,0,0,0,0,0,0,0,0],"id":29,"left_children":[1,3,5,7,9,11,13,-1,-1,-1,-1,-1,-1,-1,-1],"loss_changes":[3.8343235E3,2.2950396E3,1.7450146E3,1.289991E3,1.4183407E3,1.0554124E3,1.423206E3,0E0,0E0,0E0,0E0,0E0,0E0,0E0,0E0],"parents":[2147483647,0,0,1,1,2,2,3,3,4,4,5,5,6,6],"right_children":[2,4,6,8,10,12,14,-1,-1,-1,-1,-1,-1,-1,-1],"split_conditions":[-1E0,4.6474422E1,1.15282005E2,4E0,-4.975655E0,2.4348726E1,-7.899852E-1,-2.5909114E-1,5.137911E-2,5.630529E-1,-3.0596295E-2,8.4049605E-2,3.5808712E-1,-2.6227966E-1,1.16654985E-1],"split_indices":[42,27,1,73,78,31,11,0,0,0,0,0,0,0,0],"split_type":[0,0,0,0,0,0,0,0,0,0,0,0,0,0,0],"sum_hessian":[5.03E2,2.44E2,2.59E2,2.05E2,3.9E1,1.51E2,1.08E2,1.64E2,4.1E1,1.5E1,2.4E1,5.9E1,9.2E1,3.5E1,7.3E1],"tree_param":{"num_deleted":"0","num_feature":"88","num_nodes":"15","size_leaf_vector":"1"}},{"base_weights":[-5.320569E-1,1.9235923E0,-2.730527E0,8.444285E0,7.989619E-1,-1.8340396E0,-1.3882386E1,2.7243912E-1,7.749365E-1,-1.649866E-1,1.2967189E-1,-1.841387E-1,4.6218857E-2,-8.9053375E-1,-2.7520698E-1],"categories":[],"categories_nodes":[],"categories_segments":[],"categories_sizes":[],"default_left":[0,0,0,0,0,0,0,0,0,0,0,0,0,0,0],"id":30,"left_children":[1,3,5,7,9,11,13,-1,-1,-1,-1,-1,-1,-1,-1],"loss_changes":[2.6616558E3,1.6905603E3,2.5405698E3,5.3910254E2,1.4951185E3,1.2473855E3,4.176089E2,0E0,0E0,0E0,0E0,0E0,0E0,0E0,0E0],"parents":[2147483647,0,0,1,1,2,2,3,3,4,4,5,5,6,6],"right_children":[2,4,6,8,10,12,14,-1,-1,-1,-1,-1,-1,-1,-1],"split_conditions":[3E-1,3.3243244E0,1.0964285E0,4.4242466E1,-1.0254238E0,2.638861E1,5.820103E1,2.7243912E-1,7.749365E-1,-1.649866E-1,1.2967189E-1,-1.841387E-1,4.6218857E-2,-8.9053375E-1,-2.7520698E-1],"split_indices":[41,76,46,28,68,6,24,0,0,0,0,0,0,0,0],"split_type":[0,0,0,0,0,0,0,0,0,0,0,0,0,0,0],"sum_hessian":[4.89E2,2.31E2,2.58E2,3.2E1,1.99E2,2.41E2,1.7E1,2.5E1,7E0,6E1,1.39E2,1.44E2,9.7E1,1E1,7E0],"tree_param":{"num_deleted":"0","num_feature":"88","num_nodes":"15","size_leaf_vector":"1"}},{"base_weights":[9.3642366E-4,-8.674428E-1,5.520476E0,-5.0045104E0,-3.31319E-1,1.1281101E1,4.978871E-1,-3.640337E-2,-6.9848466E-1,-3.5120767E-2,3.1162307E-1,8.959204E-1,2.740938E-1,2.4327056E-1,-2.2926699E-1],"categories":[],"categories_nodes":[],"categories_segments":[],"categories_sizes":[],"default_left":[0,0,0,0,0,0,0,0,0,0,0,0,0,0,0],"id":31,"left_children":[1,3,5,7,9,11,13,-1,-1,-1,-1,-1,-1,-1,-1],"loss_changes":[2.4323958E3,9.654912E2,1.9792712E3,1.889264E3,9.5595044E2,1.02356665E3,9.106026E2,0E0,0E0,0E0,0E0,0E0,0E0,0E0,0E0],"parents":[2147483647,0,0,1,1,2,2,3,3,4,4,5,5,6,6],"right_children":[2,4,6,8,10,12,14,-1,-1,-1,-1,-1,-1,-1,-1],"split_conditions":[9.6E0,1.035193E2,2.5395142E1,1.0307804E0,5.57E0,-1.4842469E0,3.670077E0,-3.640337E-2,-6.9848466E-1,-3.5120767E-2,3.1162307E-1,8.959204E-1,2.740938E-1,2.4327056E-1,-2.2926699E-1],"split_indices":[42,0,7,32,51,29,2,0,0,0,0,0,0,0,0],"split_type":[0,0,0,0,0,0,0,0,0,0,0,0,0,0,0],"sum_hessian":[5.03E2,4.36E2,6.7E1,4.8E1,3.88E2,3E1,3.7E1,3.4E1,1.4E1,3.69E2,1.9E1,1.2E1,1.8E1,2E1,1.7E1],"tree_param":{"num_deleted":"0","num_feature":"88","num_nodes":"15","size_leaf_vector":"1"}},{"base_weights":[9.4824836E-2,4.395938E0,-6.4706916E-1,-3.8446805E0,7.504638E0,5.966993E-1,-9.5273274E-1,8.392393E-2,-5.152926E-1,-3.7597138E-1,4.6966854E-1,-6.129191E-2,5.069672E-1],"categories":[],"categories_nodes":[],"categories_segments":[],"categories_sizes":[],"default_left":[0,0,0,0,0,0,0,0,0,0,0,0,0],"id":32,"left_children":[1,3,5,7,9,-1,11,-1,-1,-1,-1,-1,-1],"loss_changes":[1.5615657E3,1.9040039E3,1.620852E3,7.883175E2,1.6461543E3,0E0,1.2593881E3,0E0,0E0,0E0,0E0,0E0,0E0],"parents":[2147483647,0,0,1,1,2,2,3,3,4,4,6,6],"right_children":[2,4,6,8,10,-1,12,-1,-1,-1,-1,-1,-1],"split_conditions":[3.64E0,9.250326E0,5.213632E1,4.97E-1,-1.2164651E1,5.966993E-1,4E0,8.392393E-2,-5.152926E-1,-3.7597138E-1,4.6966854E-1,-6.129191E-2,5.069672E-1],"split_indices":[76,19,25,65,32,0,75,0,0,0,0,0,0],"split_type":[0,0,0,0,0,0,0,0,0,0,0,0,0],"sum_hessian":[4.85E2,7E1,4.15E2,1.9E1,5.1E1,8E0,4.07E2,1.1E1,8E0,5E0,4.6E1,3.99E2,8E0],"tree_param":{"num_deleted":"0","num_feature":"88","num_nodes":"13","size_leaf_vector":"1"}},{"base_weights":[2.0266724E-1,5.113565E0,-4.875391E-1,1.0226078E1,-0E0,6.339305E-1,-7.5947523E-1,-6.353968E-2,6.277E-1,-2.1018724E-1,2.4969928E-1,4.578464E-1,-5.5518545E-2],"categories":[],"categories_nodes":[],"categories_segments":[],"categories_sizes":[],"default_left":[0,0,0,0,0,0,0,0,0,0,0,0,0],"id":33,"left_children":[1,3,5,7,9,-1,11,-1,-1,-1,-1,-1,-1],"loss_changes":[1.7054552E3,1.6205426E3,1.5922333E3,8.672268E2,7.3479626E2,0E0,1.5264685E3,0E0,0E0,0E0,0E0,0E0,0E0],"parents":[2147483647,0,0,1,1,2,2,3,3,4,4,6,6],"right_children":[2,4,6,8,10,-1,12,-1,-1,-1,-1,-1,-1],"split_conditions":[3.2857144E0,1.135E2,-8.126501E1,3.0213127E1,3.1E0,6.339305E-1,2.8643687E0,-6.353968E-2,6.277E-1,-2.1018724E-1,2.4969928E-1,4.578464E-1,-5.5518545E-2],"split_indices":[76,37,81,28,52,0,12,0,0,0,0,0,0],"split_type":[0,0,0,0,0,0,0,0,0,0,0,0,0],"sum_hessian":[4.99E2,6E1,4.39E2,2.9E1,3.1E1,7E0,4.32E2,5E0,2.4E1,1.7E1,1.4E1,1.3E1,4.19E2],"tree_param":{"num_deleted":"0","num_feature":"88","num_nodes":"13","size_leaf_vector":"1"}},{"base_weights":[1.19759336E-1,-1.5804002E0,3.0578787E0,8.9275587E-1,-3.5695221E0,5.4174275E0,-1.2328138E0,-4.755558E-1,9.328383E-2,-3.361885E-3,-3.019738E-1,-1.7956023E-1,3.178756E-1,-2.7788973E-1,1.711952E-1],"categories":[],"categories_nodes":[],"categories_segments":[],"categories_sizes":[],"default_left":[0,0,0,0,0,0,0,0,0,0,0,0,0,0,0],"id":34,"left_children":[1,3,5,7,9,11,13,-1,-1,-1,-1,-1,-1,-1,-1],"loss_changes":[2.3981438E3,1.5032118E3,1.7972911E3,1.4184003E3,1.4580657E3,1.0124966E3,1.3280992E3,0E0,0E0,0E0,0E0,0E0,0E0,0E0,0E0],"parents":[2147483647,0,0,1,1,2,2,3,3,4,4,5,5,6,6],"right_children":[2,4,6,8,10,12,14,-1,-1,-1,-1,-1,-1,-1,-1],"split_conditions":[9E-3,1.142E2,2.6997272E1,-4.662913E0,5.7998253E1,2E0,7E-1,-4.755558E-1,9.328383E-2,-3.361885E-3,-3.019738E-1,-1.7956023E-1,3.178756E-1,-2.7788973E-1,1.711952E-1],"split_indices":[57,38,7,23,25,56,52,0,0,0,0,0,0,0,0],"split_type":[0,0,0,0,0,0,0,0,0,0,0,0,0,0,0],"sum_hessian":[4.76E2,3.02E2,1.74E2,1.35E2,1.67E2,1.12E2,6.2E1,1E1,1.25E2,7E1,9.7E1,1E1,1.02E2,3.2E1,3E1],"tree_param":{"num_deleted":"0","num_feature":"88","num_nodes":"15","size_leaf_vector":"1"}},{"base_weights":[2.966755E-1,-2.4507837E0,1.7617043E0,8.7159187E-1,-4.2325935E0,1.084729E1,1.1973287E0,3.3036873E-1,-1.6182742E-1,-4.4601846E-1,-1.3633238E-1,7.320324E-1,4.496052E-3,8.096012E-2,-4.806435E-1],"categories":[],"categories_nodes":[],"categories_segments":[],"categories_sizes":[],"default_left":[0,0,0,0,0,0,0,0,0,0,0,0,0,0,0],"id":35,"left_children":[1,3,5,7,9,11,13,-1,-1,-1,-1,-1,-1,-1,-1],"loss_changes":[2.0369445E3,1.0509506E3,1.6601373E3,1.5289497E3,7.573777E2,7.653264E2,1.454582E3,0E0,0E0,0E0,0E0,0E0,0E0,0E0,0E0],"parents":[2147483647,0,0,1,1,2,2,3,3,4,4,5,5,6,6],"right_children":[2,4,6,8,10,12,14,-1,-1,-1,-1,-1,-1,-1,-1],"split_conditions":[7.6508226E0,-3.287278E0,-7.783085E1,3E0,-2.1E-2,1.53E0,9.595094E1,3.3036873E-1,-1.6182742E-1,-4.4601846E-1,-1.3633238E-1,7.320324E-1,4.496052E-3,8.096012E-2,-4.806435E-1],"split_indices":[9,78,81,74,57,51,79,0,0,0,0,0,0,0,0],"split_type":[0,0,0,0,0,0,0,0,0,0,0,0,0,0,0],"sum_hessian":[5.02E2,1.74E2,3.28E2,6.1E1,1.13E2,1.7E1,3.11E2,2.5E1,3.6E1,2.5E1,8.8E1,1.2E1,5E0,3.01E2,1E1],"tree_param":{"num_deleted":"0","num_feature":"88","num_nodes":"15","size_leaf_vector":"1"}},{"base_weights":[6.03106E-1,4.058799E0,-6.417377E-1,5.3491826E0,-3.2474391E0,-1.3843377E0,4.722393E0,3.044513E-1,-3.7612224E-1,1.7747492E-1,-5.0586456E-1,-2.0203484E-2,-2.976585E-1,-1.2913848E-1,3.4857273E-1],"categories":[],"categories_nodes":[],"categories_segments":[],"categories_sizes":[],"default_left":[0,0,0,0,0,0,0,0,0,0,0,0,0,0,0],"id":36,"left_children":[1,3,5,7,9,11,13,-1,-1,-1,-1,-1,-1,-1,-1],"loss_changes":[2.1449111E3,1.2802695E3,1.4733148E3,1.166989E3,1.0556794E3,1.4431025E3,7.775448E2,0E0,0E0,0E0,0E0,0E0,0E0,0E0,0E0],"parents":[2147483647,0,0,1,1,2,2,3,3,4,4,5,5,6,6],"right_children":[2,4,6,8,10,12,14,-1,-1,-1,-1,-1,-1,-1,-1],"split_conditions":[1.0922284E2,2.4E0,3.90977E0,3E0,6E1,2.0579095E0,-2.462545E0,3.044513E-1,-3.7612224E-1,1.7747492E-1,-5.0586456E-1,-2.0203484E-2,-2.976585E-1,-1.2913848E-1,3.4857273E-1],"split_indices":[1,41,68,55,83,68,34,0,0,0,0,0,0,0,0],"split_type":[0,0,0,0,0,0,0,0,0,0,0,0,0,0,0],"sum_hessian":[4.95E2,1.3E2,3.65E2,1.11E2,1.9E1,3.22E2,4.3E1,1.06E2,5E0,1E1,9E0,2.67E2,5.5E1,1E1,3.3E1],"tree_param":{"num_deleted":"0","num_feature":"88","num_nodes":"15","size_leaf_vector":"1"}},{"base_weights":[-5.685342E-1,3.2253054E-1,-5.39929E0,-1.4625998E0,2.4224815E0,3.5061288E0,-7.106414E0,1.4169858E-1,-1.2907268E-1,-3.91696E-2,2.6997104E-1,4.664928E-1,-8.735105E-2,-1.4628331E-1,-6.025479E-1],"categories":[],"categories_nodes":[],"categories_segments":[],"categories_sizes":[],"default_left":[0,0,0,0,0,0,0,0,0,0,0,0,0,0,0],"id":37,"left_children":[1,3,5,7,9,11,13,-1,-1,-1,-1,-1,-1,-1,-1],"loss_changes":[2.1841064E3,1.6157526E3,1.2526416E3,1.1345912E3,1.9004187E3,4.6469104E2,1.3070142E3,0E0,0E0,0E0,0E0,0E0,0E0,0E0,0E0],"parents":[2147483647,0,0,1,1,2,2,3,3,4,4,5,5,6,6],"right_children":[2,4,6,8,10,12,14,-1,-1,-1,-1,-1,-1,-1,-1],"split_conditions":[4.311624E1,4.8245615E-1,-5.360601E0,9.844E1,0E0,1.00835E2,1.1630174E1,1.4169858E-1,-1.2907268E-1,-3.91696E-2,2.6997104E-1,4.664928E-1,-8.735105E-2,-1.4628331E-1,-6.025479E-1],"split_indices":[81,68,23,49,57,50,19,0,0,0,0,0,0,0,0],"split_type":[0,0,0,0,0,0,0,0,0,0,0,0,0,0,0],"sum_hessian":[5.04E2,4.27E2,7.7E1,2.31E2,1.96E2,1.2E1,6.5E1,4.7E1,1.84E2,9.5E1,1.01E2,5E0,7E0,3.7E1,2.8E1],"tree_param":{"num_deleted":"0","num_feature":"88","num_nodes":"15","size_leaf_vector":"1"}},{"base_weights":[-1.4449914E-1,9.877612E0,-4.8499197E-1,1.6057161E1,-1.7333233E-1,-1.600766E0,1.8452727E0,1.1526817E0,2.2007512E-1,-1.19437754E-1,1.3259356E-1,-9.360217E-2,1.915224E-1],"categories":[],"categories_nodes":[],"categories_segments":[],"categories_sizes":[],"default_left":[0,0,0,0,0,0,0,0,0,0,0,0,0],"id":38,"left_children":[1,3,5,7,-1,9,11,-1,-1,-1,-1,-1,-1],"loss_changes":[1.7657128E3,1.5194698E3,1.3084098E3,7.6191284E2,0E0,1.1518884E3,1.2181833E3,0E0,0E0,0E0,0E0,0E0,0E0],"parents":[2147483647,0,0,1,1,2,2,3,3,5,5,6,6],"right_children":[2,4,6,8,-1,10,12,-1,-1,-1,-1,-1,-1],"split_conditions":[1.09E2,4.2316666E1,2.8E0,-6.8099445E-1,-1.7333233E-1,1.53640175E1,2.4348726E1,1.1526817E0,2.2007512E-1,-1.19437754E-1,1.3259356E-1,-9.360217E-2,1.915224E-1],"split_indices":[37,69,42,33,0,16,31,0,0,0,0,0,0],"split_type":[0,0,0,0,0,0,0,0,0,0,0,0,0],"sum_hessian":[5.14E2,1.5E1,4.99E2,1E1,5E0,3.38E2,1.61E2,5E0,5E0,2.86E2,5.2E1,5.6E1,1.05E2],"tree_param":{"num_deleted":"0","num_feature":"88","num_nodes":"13","size_leaf_vector":"1"}},{"base_weights":[3.3142403E-1,7.85761E0,-2.2133014E-1,1.5222873E1,2.526009E0,-6.652529E-1,6.534037E0,3.485753E-1,9.2873E-1,-1.3836986E-1,3.4994817E-1,-7.053078E-2,1.6690408E-1,5.213708E-1,-1.4461268E-3],"categories":[],"categories_nodes":[],"categories_segments":[],"categories_sizes":[],"default_left":[0,0,0,0,0,0,0,0,0,0,0,0,0,0,0],"id":39,"left_children":[1,3,5,7,9,11,13,-1,-1,-1,-1,-1,-1,-1,-1],"loss_changes":[1.9459174E3,1.170816E3,1.3132627E3,8.777319E1,5.380741E2,1.2348516E3,6.9570874E2,0E0,0E0,0E0,0E0,0E0,0E0,0E0,0E0],"parents":[2147483647,0,0,1,1,2,2,3,3,4,4,5,5,6,6],"right_children":[2,4,6,8,10,12,14,-1,-1,-1,-1,-1,-1,-1,-1],"split_conditions":[1.097E2,4.040678E1,6.322614E0,2.1998034E0,1.0550834E0,9.738108E0,2E0,3.485753E-1,9.2873E-1,-1.3836986E-1,3.4994817E-1,-7.053078E-2,1.6690408E-1,5.213708E-1,-1.4461268E-3],"split_indices":[37,69,23,8,11,10,62,0,0,0,0,0,0,0,0],"split_type":[0,0,0,0,0,0,0,0,0,0,0,0,0,0,0],"sum_hessian":[4.64E2,3E1,4.34E2,1.1E1,1.9E1,4.09E2,2.5E1,5E0,6E0,9E0,1E1,3.46E2,6.3E1,1.5E1,1E1],"tree_param":{"num_deleted":"0","num_feature":"88","num_nodes":"15","size_leaf_vector":"1"}},{"base_weights":[2.3249215E-1,-1.8133154E0,2.032319E0,1.6359E0,-2.9453893E0,1.2890507E0,9.074303E0,1.6467331E-1,-3.075237E-1,-1.9958445E-1,1.2154628E-1,1.7722695E-1,-7.489701E-2,-3.195447E-1,6.802346E-1],"categories":[],"categories_nodes":[],"categories_segments":[],"categories_sizes":[],"default_left":[0,0,0,0,0,0,0,0,0,0,0,0,0,0,0],"id":40,"left_children":[1,3,5,7,9,11,13,-1,-1,-1,-1,-1,-1,-1,-1],"loss_changes":[1.8411655E3,9.2400684E2,1.3636901E3,8.005638E2,1.01585425E3,1.5391462E3,1.9290833E3,0E0,0E0,0E0,0E0,0E0,0E0,0E0,0E0],"parents":[2147483647,0,0,1,1,2,2,3,3,4,4,5,5,6,6],"right_children":[2,4,6,8,10,12,14,-1,-1,-1,-1,-1,-1,-1,-1],"split_conditions":[-9E-1,-2.945346E0,4.7673157E1,2E-2,5.624142E0,1.3663849E0,-1.7534634E0,1.6467331E-1,-3.075237E-1,-1.9958445E-1,1.2154628E-1,1.7722695E-1,-7.489701E-2,-3.195447E-1,6.802346E-1],"split_indices":[42,20,28,57,32,5,8,0,0,0,0,0,0,0,0],"split_type":[0,0,0,0,0,0,0,0,0,0,0,0,0,0,0],"sum_hessian":[4.96E2,2.32E2,2.64E2,5.7E1,1.75E2,2.41E2,2.3E1,4.8E1,9E0,1.47E2,2.8E1,1.33E2,1.08E2,5E0,1.8E1],"tree_param":{"num_deleted":"0","num_feature":"88","num_nodes":"15","size_leaf_vector":"1"}},{"base_weights":[5.563003E-1,-7.526485E-1,2.9436715E0,-1.6527178E0,4.0918293E0,7.7821293E0,9.0214956E-1,1.8507895E-1,-1.3413669E-1,-1.1705082E-1,3.9361215E-1,4.7031638E-1,-1.6185066E-1,2.0319298E-1,-1.474033E-1],"categories":[],"categories_nodes":[],"categories_segments":[],"categories_sizes":[],"default_left":[0,0,0,0,0,0,0,0,0,0,0,0,0,0,0],"id":41,"left_children":[1,3,5,7,9,11,13,-1,-1,-1,-1,-1,-1,-1,-1],"loss_changes":[1.5273755E3,1.3901814E3,1.690479E3,1.497374E3,1.2555647E3,9.767417E2,1.5340038E3,0E0,0E0,0E0,0E0,0E0,0E0,0E0,0E0],"parents":[2147483647,0,0,1,1,2,2,3,3,4,4,5,5,6,6],"right_children":[2,4,6,8,10,12,14,-1,-1,-1,-1,-1,-1,-1,-1],"split_conditions":[2.9778438E0,6.1031998E1,2.9233334E1,1.1175E1,4.2908115E1,1.79E1,4.9645576E0,1.8507895E-1,-1.3413669E-1,-1.1705082E-1,3.9361215E-1,4.7031638E-1,-1.6185066E-1,2.0319298E-1,-1.474033E-1],"split_indices":[29,24,79,79,28,63,13,0,0,0,0,0,0,0,0],"split_type":[0,0,0,0,0,0,0,0,0,0,0,0,0,0,0],"sum_hessian":[4.85E2,3.14E2,1.71E2,2.66E2,4.8E1,4.9E1,1.22E2,4.2E1,2.24E2,1.8E1,3E1,4.3E1,6E0,6.7E1,5.5E1],"tree_param":{"num_deleted":"0","num_feature":"88","num_nodes":"15","size_leaf_vector":"1"}},{"base_weights":[-3.3036703E-1,-1.5891865E0,2.4157088E0,-1.1995456E0,-1.0399513E1,-6.796102E-1,4.185376E0,-3.0066684E-2,-2.779057E-1,-8.5493195E-1,5.5675425E-2,-1.5735257E-1,1.9718479E-1,1.4977376E-1,6.135623E-1],"categories":[],"categories_nodes":[],"categories_segments":[],"categories_sizes":[],"default_left":[0,0,0,0,0,0,0,0,0,0,0,0,0,0,0],"id":42,"left_children":[1,3,5,7,9,11,13,-1,-1,-1,-1,-1,-1,-1,-1],"loss_changes":[1.7045605E3,1.1295593E3,8.5648303E2,8.402311E2,1.1258518E3,6.860724E2,8.7136694E2,0E0,0E0,0E0,0E0,0E0,0E0,0E0,0E0],"parents":[2147483647,0,0,1,1,2,2,3,3,4,4,5,5,6,6],"right_children":[2,4,6,8,10,12,14,-1,-1,-1,-1,-1,-1,-1,-1],"split_conditions":[3.6E0,4.1572765E1,2.455844E1,1.8757237E0,1.154E2,4.4165783E1,4.7787533E1,-3.0066684E-2,-2.779057E-1,-8.5493195E-1,5.5675425E-2,-1.5735257E-1,1.9718479E-1,1.4977376E-1,6.135623E-1],"split_indices":[42,78,31,14,39,28,28,0,0,0,0,0,0,0,0],"split_type":[0,0,0,0,0,0,0,0,0,0,0,0,0,0,0],"sum_hessian":[4.89E2,3.36E2,1.53E2,3.24E2,1.2E1,5.6E1,9.7E1,2.87E2,3.7E1,7E0,5E0,3.7E1,1.9E1,8.7E1,1E1],"tree_param":{"num_deleted":"0","num_feature":"88","num_nodes":"15","size_leaf_vector":"1"}},{"base_weights":[-3.365505E-1,-2.9034176E0,1.0891331E0,-3.5414383E0,4.1730055E-1,3.1762445E0,-1.9581152E0,-2.2847764E-1,1.6578844E-1,3.8267893E-1,7.6996915E-2,1.0053728E-1,-1.886146E-1],"categories":[],"categories_nodes":[],"categories_segments":[],"categories_sizes":[],"default_left":[0,0,0,0,0,0,0,0,0,0,0,0,0],"id":43,"left_children":[1,3,5,7,-1,9,11,-1,-1,-1,-1,-1,-1],"loss_changes":[1.804066E3,1.3199282E3,2.029151E3,1.2153291E3,0E0,1.3564998E3,9.52079E2,0E0,0E0,0E0,0E0,0E0,0E0],"parents":[2147483647,0,0,1,1,2,2,3,3,5,5,6,6],"right_children":[2,4,6,8,-1,10,12,-1,-1,-1,-1,-1,-1],"split_conditions":[-3.4E0,7.470792E0,1.17919785E2,1.53640175E1,4.1730055E-1,-2.548725E1,2E0,-2.2847764E-1,1.6578844E-1,3.8267893E-1,7.6996915E-2,1.0053728E-1,-1.886146E-1],"split_indices":[42,8,0,16,0,81,74,0,0,0,0,0,0],"split_type":[0,0,0,0,0,0,0,0,0,0,0,0,0],"sum_hessian":[4.89E2,1.74E2,3.15E2,1.66E2,8E0,1.87E2,1.28E2,1.45E2,2.1E1,4.8E1,1.39E2,4E1,8.8E1],"tree_param":{"num_deleted":"0","num_feature":"88","num_nodes":"13","size_leaf_vector":"1"}},{"base_weights":[-2.3839702E-1,-2.2336693E0,1.5163877E0,4.597621E-1,-4.088553E0,2.34188E0,-6.0473733E0,-6.2428664E-2,3.5455993E-1,-5.4842483E-2,-3.5194075E-1,1.4406972E-1,-3.8590115E-1,-4.6798474E-1,9.3278706E-2],"categories":[],"categories_nodes":[],"categories_segments":[],"categories_sizes":[],"default_left":[0,0,0,0,0,0,0,0,0,0,0,0,0,0,0],"id":44,"left_children":[1,3,5,7,9,11,13,-1,-1,-1,-1,-1,-1,-1,-1],"loss_changes":[1.6387262E3,1.0996985E3,1.5811843E3,1.0515424E3,1.1279111E3,1.2686653E3,6.939249E2,0E0,0E0,0E0,0E0,0E0,0E0,0E0,0E0],"parents":[2147483647,0,0,1,1,2,2,3,3,4,4,5,5,6,6],"right_children":[2,4,6,8,10,12,14,-1,-1,-1,-1,-1,-1,-1,-1],"split_conditions":[3.773229E-1,1.139E2,2.9056103E1,7.5E0,5.8957123E1,4.3461235E1,1.53E1,-6.2428664E-2,3.5455993E-1,-5.4842483E-2,-3.5194075E-1,1.4406972E-1,-3.8590115E-1,-4.6798474E-1,9.3278706E-2],"split_indices":[2,38,7,56,25,81,61,0,0,0,0,0,0,0,0],"split_type":[0,0,0,0,0,0,0,0,0,0,0,0,0,0,0],"sum_hessian":[4.64E2,2.17E2,2.47E2,8.9E1,1.28E2,2.24E2,2.3E1,7.2E1,1.7E1,6.5E1,6.3E1,2.14E2,1E1,1.6E1,7E0],"tree_param":{"num_deleted":"0","num_feature":"88","num_nodes":"15","size_leaf_vector":"1"}},{"base_weights":[-1.5191618E-1,-2.0613203E0,1.7722142E0,5.805467E0,-2.512644E0,5.3497005E0,5.320734E-1,-2.5697518E-2,5.368009E-1,-1.4128257E-1,3.525988E-1,-3.0854762E-2,4.411981E-1,1.14132635E-1,-1.2698683E-1],"categories":[],"categories_nodes":[],"categories_segments":[],"categories_sizes":[],"default_left":[0,0,0,0,0,0,0,0,0,0,0,0,0,0,0],"id":45,"left_children":[1,3,5,7,9,11,13,-1,-1,-1,-1,-1,-1,-1,-1],"loss_changes":[1.8150306E3,9.080438E2,1.0827666E3,4.523615E2,7.442754E2,1.3209974E3,1.0062937E3,0E0,0E0,0E0,0E0,0E0,0E0,0E0,0E0],"parents":[2147483647,0,0,1,1,2,2,3,3,4,4,5,5,6,6],"right_children":[2,4,6,8,10,12,14,-1,-1,-1,-1,-1,-1,-1,-1],"split_conditions":[-1E0,-3.3E1,-5E-3,1.1551044E1,3.1447441E1,4.1721635E0,8.9999616E-1,-2.5697518E-2,5.368009E-1,-1.4128257E-1,3.525988E-1,-3.0854762E-2,4.411981E-1,1.14132635E-1,-1.2698683E-1],"split_indices":[42,78,58,16,7,13,14,0,0,0,0,0,0,0,0],"split_type":[0,0,0,0,0,0,0,0,0,0,0,0,0,0,0],"sum_hessian":[4.9E2,2.46E2,2.44E2,1.2E1,2.34E2,6.1E1,1.83E2,6E0,6E0,2.28E2,6E0,2.3E1,3.8E1,1.17E2,6.6E1],"tree_param":{"num_deleted":"0","num_feature":"88","num_nodes":"15","size_leaf_vector":"1"}},{"base_weights":[2.6942876E-1,5.1641335E0,-4.9303964E-1,-2.7678692E-1,6.5588202E0,5.9648104E0,-7.957947E-1,-1.3794602E-4,5.090164E-1,7.401433E-1,5.0587155E-2,-1.2999867E-1,1.6114185E-2],"categories":[],"categories_nodes":[],"categories_segments":[],"categories_sizes":[],"default_left":[0,0,0,0,0,0,0,0,0,0,0,0,0],"id":46,"left_children":[1,3,5,-1,7,9,11,-1,-1,-1,-1,-1,-1],"loss_changes":[1.9107772E3,1.1028123E3,8.730392E2,0E0,1.4784382E3,8.3764905E2,8.6013025E2,0E0,0E0,0E0,0E0,0E0,0E0],"parents":[2147483647,0,0,1,1,2,2,4,4,5,5,6,6],"right_children":[2,4,6,-1,8,10,12,-1,-1,-1,-1,-1,-1],"split_conditions":[3.64E0,-1.13888E1,1.09E2,-2.7678692E-1,3.922403E1,2.9364788E1,7.6775756E0,-1.3794602E-4,5.090164E-1,7.401433E-1,5.0587155E-2,-1.2999867E-1,1.6114185E-2],"split_indices":[76,29,37,0,28,21,10,0,0,0,0,0,0],"split_type":[0,0,0,0,0,0,0,0,0,0,0,0,0],"sum_hessian":[5.08E2,6.7E1,4.41E2,7E0,6E1,1.8E1,4.23E2,2.2E1,3.8E1,5E0,1.3E1,1.61E2,2.62E2],"tree_param":{"num_deleted":"0","num_feature":"88","num_nodes":"13","size_leaf_vector":"1"}},{"base_weights":[4.9326563E-1,-5.189554E-1,3.2916853E0,-7.0509453E0,-5.9797596E-2,-4.778517E0,4.0698686E0,-4.7176763E-1,-3.29849E-2,-4.2590824E-1,1.1497227E-2,-0E0,-4.4260398E-1,2.5187027E-1,-7.9259835E-2],"categories":[],"categories_nodes":[],"categories_segments":[],"categories_sizes":[],"default_left":[0,0,0,0,0,0,0,0,0,0,0,0,0,0,0],"id":47,"left_children":[1,3,5,7,9,11,13,-1,-1,-1,-1,-1,-1,-1,-1],"loss_changes":[1.4720996E3,1.1413011E3,9.051947E2,3.6348706E2,8.87879E2,2.5167029E2,7.1257544E2,0E0,0E0,0E0,0E0,0E0,0E0,0E0,0E0],"parents":[2147483647,0,0,1,1,2,2,3,3,4,4,5,5,6,6],"right_children":[2,4,6,8,10,12,14,-1,-1,-1,-1,-1,-1,-1,-1],"split_conditions":[1.2904302E0,-1.37E1,1E0,5E-1,-3.7033887E0,2.3190591E-2,3.7985158E0,-4.7176763E-1,-3.29849E-2,-4.2590824E-1,1.1497227E-2,-0E0,-4.4260398E-1,2.5187027E-1,-7.9259835E-2],"split_indices":[11,42,54,55,11,14,23,0,0,0,0,0,0,0,0],"split_type":[0,0,0,0,0,0,0,0,0,0,0,0,0,0,0],"sum_hessian":[5.16E2,3.8E2,1.36E2,2.3E1,3.57E2,1.1E1,1.25E2,1.6E1,7E0,1E1,3.47E2,6E0,5E0,1.07E2,1.8E1],"tree_param":{"num_deleted":"0","num_feature":"88","num_nodes":"15","size_leaf_vector":"1"}},{"base_weights":[7.1817935E-2,-6.241471E-1,2.8136978E-1,1.4251637E0,-1.6615134E0,-3.1201053E-2,2.0542781E-1,4.4006005E-2,-1.823369E-1],"categories":[],"categories_nodes":[],"categories_segments":[],"categories_sizes":[],"default_left":[0,0,0,0,0,0,0,0,0],"id":48,"left_children":[1,-1,3,5,7,-1,-1,-1,-1],"loss_changes":[1.2821592E3,0E0,1.0735237E3,1.6784954E3,9.10985E2,0E0,0E0,0E0,0E0],"parents":[2147483647,0,0,2,2,3,3,4,4],"right_children":[2,-1,4,6,8,-1,-1,-1,-1],"split_conditions":[-1.62E1,-6.241471E-1,1.17812935E2,9E-3,1.5364678E1,-3.1201053E-2,2.0542781E-1,4.4006005E-2,-1.823369E-1],"split_indices":[42,0,0,59,77,0,0,0,0],"split_type":[0,0,0,0,0,0,0,0,0],"sum_hessian":[4.85E2,6E0,4.79E2,3.02E2,1.77E2,1.72E2,1.3E2,7.8E1,9.9E1],"tree_param":{"num_deleted":"0","num_feature":"88","num_nodes":"9","size_leaf_vector":"1"}},{"base_weights":[4.720749E-3,-2.0993559E-1,4.9812683E-1,-7.0757514E-1,3.6668396E0,-2.0809459E-2,-6.13419E-1,3.6569574E-1,-3.7265312E-2],"categories":[],"categories_nodes":[],"categories_segments":[],"categories_sizes":[],"default_left":[0,0,0,0,0,0,0,0,0],"id":49,"left_children":[1,3,-1,5,7,-1,-1,-1,-1],"loss_changes":[1.1141511E3,9.8376184E2,0E0,1.5060784E3,9.474892E2,0E0,0E0,0E0,0E0],"parents":[2147483647,0,0,1,1,3,3,4,4],"right_children":[2,4,-1,6,8,-1,-1,-1,-1],"split_conditions":[4E0,4.247677E1,4.9812683E-1,1.0337829E2,-1.7E-1,-2.0809459E-2,-6.13419E-1,3.6569574E-1,-3.7265312E-2],"split_indices":[75,77,0,79,51,0,0,0,0],"split_type":[0,0,0,0,0,0,0,0,0],"sum_hessian":[5.15E2,5.06E2,9E0,4.5E2,5.6E1,4.41E2,9E0,3E1,2.6E1],"tree_param":{"num_deleted":"0","num_feature":"88","num_nodes":"9","size_leaf_vector":"1"}},{"base_weights":[-3.6046827E-1,-7.369608E-1,-1.5631561E-1,5.418197E-1,-4.187277E0,-2.779497E-2,1.9406252E-1,-6.451772E-2,-6.205482E-1],"categories":[],"categories_nodes":[],"categories_segments":[],"categories_sizes":[],"default_left":[0,0,0,0,0,0,0,0,0],"id":50,"left_children":[1,-1,3,5,7,-1,-1,-1,-1],"loss_changes":[1.4674158E3,0E0,1.4106243E3,1.5712559E3,1.7240505E3,0E0,0E0,0E0,0E0],"parents":[2147483647,0,0,2,2,3,3,4,4],"right_children":[2,-1,4,6,8,-1,-1,-1,-1],"split_conditions":[-1.4292369E1,-7.369608E-1,4.311624E1,1.6E-2,1.2444519E0,-2.779497E-2,1.9406252E-1,-6.451772E-2,-6.205482E-1],"split_indices":[32,0,81,57,23,0,0,0,0],"split_type":[0,0,0,0,0,0,0,0,0],"sum_hessian":[5.02E2,5E0,4.97E2,4.25E2,7.2E1,3.21E2,1.04E2,5.5E1,1.7E1],"tree_param":{"num_deleted":"0","num_feature":"88","num_nodes":"9","size_leaf_vector":"1"}},{"base_weights":[-1.5716631E-2,5.610608E-1,-2.4275462E-1,-4.3406873E0,2.9616964E-1,-4.851254E-1,-3.79759E-2,-5.806917E-1,2.5749594E-2],"categories":[],"categories_nodes":[],"categories_segments":[],"categories_sizes":[],"default_left":[0,0,0,0,0,0,0,0,0],"id":51,"left_children":[1,-1,3,5,7,-1,-1,-1,-1],"loss_changes":[1.28832E3,0E0,1.1022057E3,1.0937224E3,1.1557354E3,0E0,0E0,0E0,0E0],"parents":[2147483647,0,0,2,2,3,3,4,4],"right_children":[2,-1,4,6,8,-1,-1,-1,-1],"split_conditions":[8.778724E1,5.610608E-1,6.4386034E0,-5.954957E-1,-1.4292369E1,-4.851254E-1,-3.79759E-2,-5.806917E-1,2.5749594E-2],"split_indices":[1,0,9,26,32,0,0,0,0],"split_type":[0,0,0,0,0,0,0,0,0],"sum_hessian":[5.03E2,8E0,4.95E2,5.6E1,4.39E2,2.1E1,3.5E1,6E0,4.33E2],"tree_param":{"num_deleted":"0","num_feature":"88","num_nodes":"9","size_leaf_vector":"1"}},{"base_weights":[2.0497668E-1,4.4017715E0,-4.574691E-1,-4.6189854E-1,7.027369E0,-9.659789E0,-1.733257E-1,-3.8984948E-1,2.1546331E-1,8.7218605E-2,5.5471087E-1,-5.91534E-1,-2.1737014E-1,-3.2569042E-1,1.0981198E-2],"categories":[],"categories_nodes":[],"categories_segments":[],"categories_sizes":[],"default_left":[0,0,0,0,0,0,0,0,0,0,0,0,0,0,0],"id":52,"left_children":[1,3,5,7,9,11,13,-1,-1,-1,-1,-1,-1,-1,-1],"loss_changes":[1.4071947E3,8.909072E2,1.1343931E3,9.788624E2,9.217075E2,3.8969482E1,1.0673833E3,0E0,0E0,0E0,0E0,0E0,0E0,0E0,0E0],"parents":[2147483647,0,0,1,1,2,2,3,3,4,4,5,5,6,6],"right_children":[2,4,6,8,10,12,14,-1,-1,-1,-1,-1,-1,-1,-1],"split_conditions":[3.64E0,2.4348726E1,1.8085312E1,4.0689655E1,5.9E1,1.2902285E0,-3.0902874E0,-3.8984948E-1,2.1546331E-1,8.7218605E-2,5.5471087E-1,-5.91534E-1,-2.1737014E-1,-3.2569042E-1,1.0981198E-2],"split_indices":[76,31,30,70,83,33,11,0,0,0,0,0,0,0,0],"split_type":[0,0,0,0,0,0,0,0,0,0,0,0,0,0,0],"sum_hessian":[5.02E2,6.7E1,4.35E2,2.4E1,4.3E1,1.1E1,4.24E2,9E0,1.5E1,2E1,2.3E1,6E0,5E0,2.3E1,4.01E2],"tree_param":{"num_deleted":"0","num_feature":"88","num_nodes":"15","size_leaf_vector":"1"}},{"base_weights":[7.311147E-2,8.197467E0,-2.2768155E-1,-0E0,8.205063E-1,-2.0081615E0,9.7138864E-1,7.504787E-2,-1.7724746E-1,-2.1348532E-1,8.616274E-2],"categories":[],"categories_nodes":[],"categories_segments":[],"categories_sizes":[],"default_left":[0,0,0,0,0,0,0,0,0,0,0],"id":53,"left_children":[1,3,5,-1,-1,7,9,-1,-1,-1,-1],"loss_changes":[1.232036E3,1.214058E3,1.0398562E3,0E0,0E0,1.0686467E3,1.1601575E3,0E0,0E0,0E0,0E0],"parents":[2147483647,0,0,1,1,2,2,5,5,6,6],"right_children":[2,4,6,-1,-1,8,10,-1,-1,-1,-1],"split_conditions":[1.09E2,2.4699855E0,7.731828E0,-0E0,8.205063E-1,-2.283333E0,-7.5400987E0,7.504787E-2,-1.7724746E-1,-2.1348532E-1,8.616274E-2],"split_indices":[37,8,10,0,0,32,32,0,0,0,0],"split_type":[0,0,0,0,0,0,0,0,0,0,0],"sum_hessian":[4.99E2,1.6E1,4.83E2,9E0,7E0,1.94E2,2.89E2,5.9E1,1.35E2,3.5E1,2.54E2],"tree_param":{"num_deleted":"0","num_feature":"88","num_nodes":"11","size_leaf_vector":"1"}},{"base_weights":[-3.663373E-1,-2.3345535E0,1.3594875E0,-2.2878286E-1,-4.4321394E0,9.769532E-1,5.4726154E-1,-2.6907942E-1,6.6107154E-2,-4.0385675E-1,-5.2175205E-2,1.2959427E-1,-7.374765E-2],"categories":[],"categories_nodes":[],"categories_segments":[],"categories_sizes":[],"default_left":[0,0,0,0,0,0,0,0,0,0,0,0,0],"id":54,"left_children":[1,3,5,7,9,11,-1,-1,-1,-1,-1,-1,-1],"loss_changes":[1.7018364E3,1.0292279E3,9.51709E2,9.6726294E2,1.4237156E3,1.0337567E3,0E0,0E0,0E0,0E0,0E0,0E0,0E0],"parents":[2147483647,0,0,1,1,2,2,3,3,4,4,5,5],"right_children":[2,4,6,8,10,12,-1,-1,-1,-1,-1,-1,-1],"split_conditions":[-1E0,5.8744007E1,5.7200665E1,3.7684553E0,6.004925E1,3.2279285E1,5.4726154E-1,-2.6907942E-1,6.6107154E-2,-4.0385675E-1,-5.2175205E-2,1.2959427E-1,-7.374765E-2],"split_indices":[42,25,77,12,25,21,0,0,0,0,0,0,0],"split_type":[0,0,0,0,0,0,0,0,0,0,0,0,0],"sum_hessian":[4.97E2,2.32E2,2.65E2,1.17E2,1.15E2,2.57E2,8E0,2.6E1,9.1E1,5.4E1,6.1E1,1.55E2,1.02E2],"tree_param":{"num_deleted":"0","num_feature":"88","num_nodes":"13","size_leaf_vector":"1"}},{"base_weights":[-5.31986E-1,-1.1744267E0,3.5170465E0,-2.0021346E0,1.4524316E0,2.51631E-1,7.0489163E0,-1.2035859E-1,2.6403493E-1,-3.8536713E-1,1.1859729E-1,3.3611873E-1,-2.031167E-1,4.6184707E-1,-1.0176994E-1],"categories":[],"categories_nodes":[],"categories_segments":[],"categories_sizes":[],"default_left":[0,0,0,0,0,0,0,0,0,0,0,0,0,0,0],"id":55,"left_children":[1,3,5,7,9,11,13,-1,-1,-1,-1,-1,-1,-1,-1],"loss_changes":[1.3103226E3,9.497245E2,7.885808E2,1.000376E3,9.1826196E2,1.1167003E3,6.9713403E2,0E0,0E0,0E0,0E0,0E0,0E0,0E0,0E0],"parents":[2147483647,0,0,1,1,2,2,3,3,4,4,5,5,6,6],"right_children":[2,4,6,8,10,12,14,-1,-1,-1,-1,-1,-1,-1,-1],"split_conditions":[1.65E1,4.5349297E1,8.6E0,5.76E0,1.8085312E1,-1.5110798E0,1.72E1,-1.2035859E-1,2.6403493E-1,-3.8536713E-1,1.1859729E-1,3.3611873E-1,-2.031167E-1,4.6184707E-1,-1.0176994E-1],"split_indices":[61,27,42,51,30,23,42,0,0,0,0,0,0,0,0],"split_type":[0,0,0,0,0,0,0,0,0,0,0,0,0,0,0],"sum_hessian":[4.99E2,4.32E2,6.7E1,3.29E2,1.03E2,3.6E1,3.1E1,3.13E2,1.6E1,8E0,9.5E1,1.4E1,2.2E1,2.5E1,6E0],"tree_param":{"num_deleted":"0","num_feature":"88","num_nodes":"15","size_leaf_vector":"1"}},{"base_weights":[-5.8341765E-1,5.3870314E-1,-7.898211E-1,3.0982828E-1,-2.3740685E0,2.183518E-1,-2.5105083E-2,9.452299E-3,-2.3289685E-1],"categories":[],"categories_nodes":[],"categories_segments":[],"categories_sizes":[],"default_left":[0,0,0,0,0,0,0,0,0],"id":56,"left_children":[1,-1,3,5,7,-1,-1,-1,-1],"loss_changes":[1.1817944E3,0E0,8.5962463E2,9.68215E2,1.1864664E3,0E0,0E0,0E0,0E0],"parents":[2147483647,0,0,2,2,3,3,4,4],"right_children":[2,-1,4,6,8,-1,-1,-1,-1],"split_conditions":[-9.8060265E1,5.3870314E-1,5.8778942E1,4.4375E0,4.7191005E0,2.183518E-1,-2.5105083E-2,9.452299E-3,-2.3289685E-1],"split_indices":[81,0,25,76,12,0,0,0,0],"split_type":[0,0,0,0,0,0,0,0,0],"sum_hessian":[4.97E2,7E0,4.9E2,2.9E2,2E2,4.7E1,2.43E2,9.5E1,1.05E2],"tree_param":{"num_deleted":"0","num_feature":"88","num_nodes":"9","size_leaf_vector":"1"}},{"base_weights":[-8.191557E-2,5.399824E-1,-3.8179724E0,1.1206903E-1,7.4774466E0,-8.1727546E-1,-1.1003734E1,2.2658898E-2,-4.1459084E-1,6.023779E-1,6.8347484E-2,6.661373E-2,-4.2126417E-1,-7.13212E-1,-2.2571643E-1],"categories":[],"categories_nodes":[],"categories_segments":[],"categories_sizes":[],"default_left":[0,0,0,0,0,0,0,0,0,0,0,0,0,0,0],"id":57,"left_children":[1,3,5,7,9,11,13,-1,-1,-1,-1,-1,-1,-1,-1],"loss_changes":[1.1721322E3,1.276979E3,1.5285885E3,1.1760519E3,6.584971E2,8.927472E2,3.0615747E2,0E0,0E0,0E0,0E0,0E0,0E0,0E0,0E0],"parents":[2147483647,0,0,1,1,2,2,3,3,4,4,5,5,6,6],"right_children":[2,4,6,8,10,12,14,-1,-1,-1,-1,-1,-1,-1,-1],"split_conditions":[4.247948E1,7.470792E0,7.9350406E-1,1.26795105E2,5E-1,4.632001E1,3.1373307E-1,2.2658898E-2,-4.1459084E-1,6.023779E-1,6.8347484E-2,6.661373E-2,-4.2126417E-1,-7.13212E-1,-2.2571643E-1],"split_indices":[81,8,23,0,43,4,11,0,0,0,0,0,0,0,0],"split_type":[0,0,0,0,0,0,0,0,0,0,0,0,0,0,0],"sum_hessian":[5E2,4.3E2,7E1,4.07E2,2.3E1,5.1E1,1.9E1,3.93E2,1.4E1,1.2E1,1.1E1,4.1E1,1E1,1.1E1,8E0],"tree_param":{"num_deleted":"0","num_feature":"88","num_nodes":"15","size_leaf_vector":"1"}},{"base_weights":[1.8363993E-1,7.7404726E-1,-5.4419603E0,-7.728655E0,1.185254E0,-8.09727E0,2.3014584E0,-5.1731783E-1,-5.7650674E-2,-1.3009894E-1,9.964468E-2,3.3283222E-3,-5.762625E-1,2.975231E-1,-1.22748114E-1],"categories":[],"categories_nodes":[],"categories_segments":[],"categories_sizes":[],"default_left":[0,0,0,0,0,0,0,0,0,0,0,0,0,0,0],"id":58,"left_children":[1,3,5,7,9,11,13,-1,-1,-1,-1,-1,-1,-1,-1],"loss_changes":[1.5737894E3,1.514991E3,9.654215E2,3.146527E2,1.2672E3,9.587698E2,2.5659457E2,0E0,0E0,0E0,0E0,0E0,0E0,0E0,0E0],"parents":[2147483647,0,0,1,1,2,2,3,3,4,4,5,5,6,6],"right_children":[2,4,6,8,10,12,14,-1,-1,-1,-1,-1,-1,-1,-1],"split_conditions":[2.8669682E1,-3.1754036E0,2.099452E0,4.4E0,-2E-2,2.2587572E1,-1.6545978E0,-5.1731783E-1,-5.7650674E-2,-1.3009894E-1,9.964468E-2,3.3283222E-3,-5.762625E-1,2.975231E-1,-1.22748114E-1],"split_indices":[78,11,33,52,57,6,68,0,0,0,0,0,0,0,0],"split_type":[0,0,0,0,0,0,0,0,0,0,0,0,0,0,0],"sum_hessian":[4.7E2,4.27E2,4.3E1,1.8E1,4.09E2,3.2E1,1.1E1,1.2E1,6E0,7.1E1,3.38E2,1E1,2.2E1,6E0,5E0],"tree_param":{"num_deleted":"0","num_feature":"88","num_nodes":"15","size_leaf_vector":"1"}},{"base_weights":[-2.5100994E-1,-1.5928854E0,2.0864615E0,-9.0771663E-1,-7.772693E0,1.1532005E0,6.4900794E0,-1.12934224E-1,7.2807394E-2,-1.19988754E-1,-6.754348E-1,-3.608718E-1,9.144127E-2,5.3681916E-1,4.352394E-2],"categories":[],"categories_nodes":[],"categories_segments":[],"categories_sizes":[],"default_left":[0,0,0,0,0,0,0,0,0,0,0,0,0,0,0],"id":59,"left_children":[1,3,5,7,9,11,13,-1,-1,-1,-1,-1,-1,-1,-1],"loss_changes":[1.5997905E3,1.3534335E3,7.4561847E2,9.458697E2,9.134204E2,9.059485E2,7.3910596E2,0E0,0E0,0E0,0E0,0E0,0E0,0E0,0E0],"parents":[2147483647,0,0,1,1,2,2,3,3,4,4,5,5,6,6],"right_children":[2,4,6,8,10,12,14,-1,-1,-1,-1,-1,-1,-1,-1],"split_conditions":[8.696924E0,8.427461E0,9.7E0,4.4666667E0,4.263922E1,2.094566E1,4.8101654E1,-1.12934224E-1,7.2807394E-2,-1.19988754E-1,-6.754348E-1,-3.608718E-1,9.144127E-2,5.3681916E-1,4.352394E-2],"split_indices":[9,9,42,71,3,30,80,0,0,0,0,0,0,0,0],"split_type":[0,0,0,0,0,0,0,0,0,0,0,0,0,0,0],"sum_hessian":[5.06E2,3.22E2,1.84E2,2.92E2,3E1,1.54E2,3E1,1.86E2,1.06E2,1.7E1,1.3E1,1E1,1.44E2,1.6E1,1.4E1],"tree_param":{"num_deleted":"0","num_feature":"88","num_nodes":"15","size_leaf_vector":"1"}},{"base_weights":[3.893493E-1,9.1820965E0,5.4675594E-2,1.6278446E0,8.5792047E-1,2.2651234E-1,-6.0572374E-1,-1.5236457E-1,2.9546553E-1,7.473211E-2,-6.678975E-2],"categories":[],"categories_nodes":[],"categories_segments":[],"categories_sizes":[],"default_left":[0,0,0,0,0,0,0,0,0,0,0],"id":60,"left_children":[1,3,5,7,-1,9,-1,-1,-1,-1,-1],"loss_changes":[1.5245823E3,1.079591E3,1.0513711E3,2.77643E2,0E0,9.907142E2,0E0,0E0,0E0,0E0,0E0],"parents":[2147483647,0,0,1,1,2,2,3,3,5,5],"right_children":[2,4,6,8,-1,10,-1,-1,-1,-1,-1],"split_conditions":[1.09E2,2.715981E1,8.108632E0,1.0941643E2,8.5792047E-1,5E-1,-6.0572374E-1,-1.5236457E-1,2.9546553E-1,7.473211E-2,-6.678975E-2],"split_indices":[37,6,12,1,0,45,0,0,0,0,0],"split_type":[0,0,0,0,0,0,0,0,0,0,0],"sum_hessian":[5.18E2,1.7E1,5.01E2,1E1,7E0,4.96E2,5E0,5E0,5E0,2.74E2,2.22E2],"tree_param":{"num_deleted":"0","num_feature":"88","num_nodes":"11","size_leaf_vector":"1"}},{"base_weights":[-5.3477824E-1,-2.206021E0,7.584186E-1,3.5993155E-2,-4.582882E0,-6.866082E0,1.1877773E0,-4.3427593E-1,7.8445904E-2,-5.0641984E-1,-1.3759865E-1,-5.314657E-1,-9.698179E-2,3.038843E-2,4.2882726E-1],"categories":[],"categories_nodes":[],"categories_segments":[],"categories_sizes":[],"default_left":[0,0,0,0,0,0,0,0,0,0,0,0,0,0,0],"id":61,"left_children":[1,3,5,7,9,11,13,-1,-1,-1,-1,-1,-1,-1,-1],"loss_changes":[1.0609193E3,1.1429998E3,9.2027136E2,1.5210707E3,9.9376074E2,2.305719E2,1.1163677E3,0E0,0E0,0E0,0E0,0E0,0E0,0E0,0E0],"parents":[2147483647,0,0,1,1,2,2,3,3,4,4,5,5,6,6],"right_children":[2,4,6,8,10,12,14,-1,-1,-1,-1,-1,-1,-1,-1],"split_conditions":[-2.9E0,4.687494E0,-3.0902874E0,1.0882353E1,2.4018456E1,1.4E0,9.738108E0,-4.3427593E-1,7.8445904E-2,-5.0641984E-1,-1.3759865E-1,-5.314657E-1,-9.698179E-2,3.038843E-2,4.2882726E-1],"split_indices":[63,13,11,79,30,52,10,0,0,0,0,0,0,0,0],"split_type":[0,0,0,0,0,0,0,0,0,0,0,0,0,0,0],"sum_hessian":[4.87E2,2.12E2,2.75E2,1.1E2,1.02E2,1.3E1,2.62E2,1.5E1,9.5E1,2.3E1,7.9E1,6E0,7E0,2.45E2,1.7E1],"tree_param":{"num_deleted":"0","num_feature":"88","num_nodes":"15","size_leaf_vector":"1"}},{"base_weights":[4.9833655E-1,-4.4852405E0,8.6527437E-1,-1.0635229E1,6.0382104E-1,1.1679846E0,-6.480468E0,-2.3383866E-1,-7.0873725E-1,-1.5479152E-1,3.7261063E-1,4.9139917E-2,6.3602936E-1,3.0402035E-2,-6.515867E-1],"categories":[],"categories_nodes":[],"categories_segments":[],"categories_sizes":[],"default_left":[0,0,0,0,0,0,0,0,0,0,0,0,0,0,0],"id":62,"left_children":[1,3,5,7,9,11,13,-1,-1,-1,-1,-1,-1,-1,-1],"loss_changes":[9.3308405E2,1.1132777E3,1.066483E3,1.9543091E2,5.803896E2,9.458427E2,9.043951E2,0E0,0E0,0E0,0E0,0E0,0E0,0E0,0E0],"parents":[2147483647,0,0,1,1,2,2,3,3,4,4,5,5,6,6],"right_children":[2,4,6,8,10,12,14,-1,-1,-1,-1,-1,-1,-1,-1],"split_conditions":[-6.2895646E0,2E0,4.1572765E1,1.3045644E1,1.5031587E1,3.895843E1,5.9E1,-2.3383866E-1,-7.0873725E-1,-1.5479152E-1,3.7261063E-1,4.9139917E-2,6.3602936E-1,3.0402035E-2,-6.515867E-1],"split_indices":[26,73,78,16,16,78,82,0,0,0,0,0,0,0,0],"split_type":[0,0,0,0,0,0,0,0,0,0,0,0,0,0,0],"sum_hessian":[5.05E2,3.3E1,4.72E2,1.4E1,1.9E1,4.55E2,1.7E1,7E0,7E0,1.3E1,6E0,4.5E2,5E0,9E0,8E0],"tree_param":{"num_deleted":"0","num_feature":"88","num_nodes":"15","size_leaf_vector":"1"}},{"base_weights":[-1.4324138E-1,-1.9657799E0,7.589031E-1,4.3281212E-2,-4.6239123E0,-8.9977205E-1,2.5940695E0,3.152739E-1,-8.641209E-2,-2.9206845E-1,2.367496E-1,-3.154086E-3,-5.9668696E-1,-8.161152E-2,2.3310708E-1],"categories":[],"categories_nodes":[],"categories_segments":[],"categories_sizes":[],"default_left":[0,0,0,0,0,0,0,0,0,0,0,0,0,0,0],"id":63,"left_children":[1,3,5,7,9,11,13,-1,-1,-1,-1,-1,-1,-1,-1],"loss_changes":[7.944439E2,8.571466E2,9.887095E2,1.0557905E3,8.420609E2,1.5711702E3,1.3627391E3,0E0,0E0,0E0,0E0,0E0,0E0,0E0,0E0],"parents":[2147483647,0,0,1,1,2,2,3,3,4,4,5,5,6,6],"right_children":[2,4,6,8,10,12,14,-1,-1,-1,-1,-1,-1,-1,-1],"split_conditions":[-1.2810735E0,4.7235023E1,2.5851881E1,-9.708671E0,4.7951702E1,4.55E0,3.927882E1,3.152739E-1,-8.641209E-2,-2.9206845E-1,2.367496E-1,-3.154086E-3,-5.9668696E-1,-8.161152E-2,2.3310708E-1],"split_indices":[68,80,6,81,3,51,28,0,0,0,0,0,0,0,0],"split_type":[0,0,0,0,0,0,0,0,0,0,0,0,0,0,0],"sum_hessian":[4.79E2,1.58E2,3.21E2,9.1E1,6.7E1,1.69E2,1.52E2,1.9E1,7.2E1,6E1,7E0,1.59E2,1E1,5E1,1.02E2],"tree_param":{"num_deleted":"0","num_feature":"88","num_nodes":"15","size_leaf_vector":"1"}},{"base_weights":[-4.6300194E-1,-4.4334016E0,-7.6766E-2,-8.708211E0,-1.0782835E0,-3.8477635E-1,6.3162847E0,-5.6831276E-1,-4.163173E-2,-3.9878288E-1,5.9581693E-2,3.482127E-2,-1.04701675E-1,-8.523554E-2,4.8926553E-1],"categories":[],"categories_nodes":[],"categories_segments":[],"categories_sizes":[],"default_left":[0,0,0,0,0,0,0,0,0,0,0,0,0,0,0],"id":64,"left_children":[1,3,5,7,9,11,13,-1,-1,-1,-1,-1,-1,-1,-1],"loss_changes":[7.6075275E2,6.073964E2,8.998164E2,3.7271155E2,4.4512482E2,8.112141E2,6.2172845E2,0E0,0E0,0E0,0E0,0E0,0E0,0E0,0E0],"parents":[2147483647,0,0,1,1,2,2,3,3,4,4,5,5,6,6],"right_children":[2,4,6,8,10,12,14,-1,-1,-1,-1,-1,-1,-1,-1],"split_conditions":[-1.2E1,-3.654101E0,7.470792E0,9.8E0,1.7622223E1,1.0587374E0,-3.5E-2,-5.6831276E-1,-4.163173E-2,-3.9878288E-1,5.9581693E-2,3.482127E-2,-1.04701675E-1,-8.523554E-2,4.8926553E-1],"split_indices":[42,29,8,62,79,5,60,0,0,0,0,0,0,0,0],"split_type":[0,0,0,0,0,0,0,0,0,0,0,0,0,0,0],"sum_hessian":[4.96E2,4.2E1,4.54E2,1.7E1,2.5E1,4.35E2,1.9E1,1.2E1,5E0,5E0,2E1,2.67E2,1.68E2,6E0,1.3E1],"tree_param":{"num_deleted":"0","num_feature":"88","num_nodes":"15","size_leaf_vector":"1"}},{"base_weights":[-2.4546033E-1,3.4316832E-3,-7.0628405E0,-1.709643E-1,6.115886E-1,-1.130671E1,1.382579E-1,1.7526155E-2,-1.9915767E-1,-7.89152E-1,-2.250372E-1],"categories":[],"categories_nodes":[],"categories_segments":[],"categories_sizes":[],"default_left":[0,0,0,0,0,0,0,0,0,0,0],"id":65,"left_children":[1,3,5,7,-1,9,-1,-1,-1,-1,-1],"loss_changes":[8.67245E2,1.0615714E3,8.1755786E2,9.747569E2,0E0,2.4384204E2,0E0,0E0,0E0,0E0,0E0],"parents":[2147483647,0,0,1,1,2,2,3,3,5,5],"right_children":[2,4,6,8,-1,10,-1,-1,-1,-1,-1],"split_conditions":[4.1572765E1,3.895843E1,2.5859848E1,2.9099577E1,6.115886E-1,1.731579E1,1.382579E-1,1.7526155E-2,-1.9915767E-1,-7.89152E-1,-2.250372E-1],"split_indices":[78,78,80,7,0,67,0,0,0,0,0],"split_type":[0,0,0,0,0,0,0,0,0,0,0],"sum_hessian":[5.07E2,4.91E2,1.6E1,4.86E2,5E0,1.1E1,5E0,4.29E2,5.7E1,5E0,6E0],"tree_param":{"num_deleted":"0","num_feature":"88","num_nodes":"11","size_leaf_vector":"1"}},{"base_weights":[1.8791437E-1,1.1802673E0,-2.527474E0,-3.0748823E0,1.8402431E0,-5.3316915E-1,-5.859707E0,-3.6618635E-1,6.1292388E-2,1.8165646E-1,-4.270309E-3,-1.6000523E-1,5.8713425E-2,-4.9660966E-1,-1.2876907E-1],"categories":[],"categories_nodes":[],"categories_segments":[],"categories_sizes":[],"default_left":[0,0,0,0,0,0,0,0,0,0,0,0,0,0,0],"id":66,"left_children":[1,3,5,7,9,11,13,-1,-1,-1,-1,-1,-1,-1,-1],"loss_changes":[1.3795508E3,1.0638105E3,9.00987E2,9.529342E2,1.1278997E3,4.0924753E2,6.247318E2,0E0,0E0,0E0,0E0,0E0,0E0,0E0,0E0],"parents":[2147483647,0,0,1,1,2,2,3,3,4,4,5,5,6,6],"right_children":[2,4,6,8,10,12,14,-1,-1,-1,-1,-1,-1,-1,-1],"split_conditions":[2.7966667E1,2.2953981E1,4.974583E-1,2E-1,1.17812935E2,6E0,-5.168554E-1,-3.6618635E-1,6.1292388E-2,1.8165646E-1,-4.270309E-3,-1.6000523E-1,5.8713425E-2,-4.9660966E-1,-1.2876907E-1],"split_indices":[76,6,5,45,0,56,11,0,0,0,0,0,0,0,0],"split_type":[0,0,0,0,0,0,0,0,0,0,0,0,0,0,0],"sum_hessian":[5.08E2,3.73E2,1.35E2,4.9E1,3.24E2,8.6E1,4.9E1,2.4E1,2.5E1,1.67E2,1.57E2,3.3E1,5.3E1,2E1,2.9E1],"tree_param":{"num_deleted":"0","num_feature":"88","num_nodes":"15","size_leaf_vector":"1"}},{"base_weights":[4.9009728E-1,2.2462586E-1,5.2116543E-1,2.1391053E0,-9.0173745E-1,-1.1560248E-2,2.671123E-1,-7.890364E-2,1.2991638E-1],"categories":[],"categories_nodes":[],"categories_segments":[],"categories_sizes":[],"default_left":[0,0,0,0,0,0,0,0,0],"id":67,"left_children":[1,3,-1,5,7,-1,-1,-1,-1],"loss_changes":[1.316396E3,1.065425E3,0E0,1.3944419E3,7.4389526E2,0E0,0E0,0E0,0E0],"parents":[2147483647,0,0,1,1,3,3,4,4],"right_children":[2,4,-1,6,8,-1,-1,-1,-1],"split_conditions":[4E0,4.78E-1,5.2116543E-1,2.7834728E0,3.6E-2,-1.1560248E-2,2.671123E-1,-7.890364E-2,1.2991638E-1],"split_indices":[75,65,0,29,59,0,0,0,0],"split_type":[0,0,0,0,0,0,0,0,0],"sum_hessian":[5.01E2,4.9E2,1.1E1,1.81E2,3.09E2,1.05E2,7.6E1,2.6E2,4.9E1],"tree_param":{"num_deleted":"0","num_feature":"88","num_nodes":"9","size_leaf_vector":"1"}},{"base_weights":[9.065529E-2,8.840479E0,-1.9793664E-1,1.8288185E-3,8.7863696E-1,-1.891682E0,9.1738325E-1,-9.976228E-3,-2.9074118E-1,-3.5097573E-2,1.4003807E-1],"categories":[],"categories_nodes":[],"categories_segments":[],"categories_sizes":[],"default_left":[0,0,0,0,0,0,0,0,0,0,0],"id":68,"left_children":[1,3,5,-1,-1,7,9,-1,-1,-1,-1],"loss_changes":[1.2653351E3,1.2199572E3,9.182667E2,0E0,0E0,1.275917E3,8.985786E2,0E0,0E0,0E0,0E0],"parents":[2147483647,0,0,1,1,2,2,5,5,6,6],"right_children":[2,4,6,-1,-1,8,10,-1,-1,-1,-1],"split_conditions":[1.09E2,2.715981E1,7.6775756E0,1.8288185E-3,8.7863696E-1,2.7505352E1,4.2445766E1,-9.976228E-3,-2.9074118E-1,-3.5097573E-2,1.4003807E-1],"split_indices":[37,6,10,0,0,7,27,0,0,0,0],"split_type":[0,0,0,0,0,0,0,0,0,0,0],"sum_hessian":[4.96E2,1.4E1,4.82E2,8E0,6E0,1.91E2,2.91E2,1.35E2,5.6E1,1.57E2,1.34E2],"tree_param":{"num_deleted":"0","num_feature":"88","num_nodes":"11","size_leaf_vector":"1"}},{"base_weights":[1.0647603E-1,-1.1026698E-1,5.9573704E-1,-2.3395724E0,6.5853584E-1,-2.1511386E-1,4.0291492E-2,1.9409488E-1,-3.268497E-2],"categories":[],"categories_nodes":[],"categories_segments":[],"categories_sizes":[],"default_left":[0,0,0,0,0,0,0,0,0],"id":69,"left_children":[1,3,-1,5,7,-1,-1,-1,-1],"loss_changes":[1.2779719E3,8.420172E2,0E0,7.8654266E2,1.5505695E3,0E0,0E0,0E0,0E0],"parents":[2147483647,0,0,1,1,3,3,4,4],"right_children":[2,4,-1,6,8,-1,-1,-1,-1],"split_conditions":[9.493256E0,4.0235295E0,5.9573704E-1,4.518877E1,4.1629463E1,-2.1511386E-1,4.0291492E-2,1.9409488E-1,-3.268497E-2],"split_indices":[26,12,0,27,3,0,0,0,0],"split_type":[0,0,0,0,0,0,0,0,0],"sum_hessian":[4.94E2,4.87E2,7E0,1.24E2,3.63E2,7.6E1,4.8E1,1.04E2,2.59E2],"tree_param":{"num_deleted":"0","num_feature":"88","num_nodes":"9","size_leaf_vector":"1"}},{"base_weights":[-2.8329182E-1,-3.7196598E0,3.7862262E-1,2.2921088E-1,-4.734319E0,-8.66367E-1,2.4597025E0,-4.201094E-2,-3.640966E-1,2.0714989E-2,-2.084885E-1,2.950982E-1,2.1083647E-2],"categories":[],"categories_nodes":[],"categories_segments":[],"categories_sizes":[],"default_left":[0,0,0,0,0,0,0,0,0,0,0,0,0],"id":70,"left_children":[1,3,5,-1,7,9,11,-1,-1,-1,-1,-1,-1],"loss_changes":[1.1690729E3,7.4280676E2,1.1217465E3,0E0,7.277516E2,1.1518141E3,1.1283604E3,0E0,0E0,0E0,0E0,0E0,0E0],"parents":[2147483647,0,0,1,1,2,2,4,4,5,5,6,6],"right_children":[2,4,6,-1,8,10,12,-1,-1,-1,-1,-1,-1],"split_conditions":[-8.7E0,9.8355E1,1.6E-2,2.2921088E-1,5.6709915E1,2.903179E-1,3.047209E1,-4.201094E-2,-3.640966E-1,2.0714989E-2,-2.084885E-1,2.950982E-1,2.1083647E-2],"split_indices":[42,50,59,0,24,20,22,0,0,0,0,0,0],"split_type":[0,0,0,0,0,0,0,0,0,0,0,0,0],"sum_hessian":[5.1E2,8.1E1,4.29E2,8E0,7.3E1,2.69E2,1.6E2,3E1,4.3E1,1.95E2,7.4E1,5.8E1,1.02E2],"tree_param":{"num_deleted":"0","num_feature":"88","num_nodes":"13","size_leaf_vector":"1"}},{"base_weights":[-3.5301883E-2,2.4592237E0,-8.4154934E-1,9.801786E0,9.095903E-1,-1.6701796E0,2.1842422E0,6.619758E-1,2.1119693E-1,2.7000114E-1,-8.8191725E-2,3.5236308E-1,-1.02757476E-1,-6.0565967E-2,2.665953E-1],"categories":[],"categories_nodes":[],"categories_segments":[],"categories_sizes":[],"default_left":[0,0,0,0,0,0,0,0,0,0,0,0,0,0,0],"id":71,"left_children":[1,3,5,7,9,11,13,-1,-1,-1,-1,-1,-1,-1,-1],"loss_changes":[1.0049104E3,1.3649634E3,9.5478436E2,2.8210022E2,1.2573652E3,1.0265442E3,8.9140063E2,0E0,0E0,0E0,0E0,0E0,0E0,0E0,0E0],"parents":[2147483647,0,0,1,1,2,2,3,3,4,4,5,5,6,6],"right_children":[2,4,6,8,10,12,14,-1,-1,-1,-1,-1,-1,-1,-1],"split_conditions":[4.237288E0,1E0,3.1013283E1,3.1827674E0,3.979384E1,-7.971217E1,-2.1666667E-1,6.619758E-1,2.1119693E-1,2.7000114E-1,-8.8191725E-2,3.5236308E-1,-1.02757476E-1,-6.0565967E-2,2.665953E-1],"split_indices":[72,73,30,2,4,81,68,0,0,0,0,0,0,0,0],"split_type":[0,0,0,0,0,0,0,0,0,0,0,0,0,0,0],"sum_hessian":[4.96E2,1.2E2,3.76E2,1.9E1,1.01E2,2.96E2,8E1,1E1,9E0,3.7E1,6.4E1,1.1E1,2.85E2,3.9E1,4.1E1],"tree_param":{"num_deleted":"0","num_feature":"88","num_nodes":"15","size_leaf_vector":"1"}},{"base_weights":[2.854403E-1,-2.0541747E0,1.1389743E0,2.6970322E0,-3.78031E0,1.8110772E0,-3.077065E0,2.7305716E-1,-1.8498565E-1,-3.5265377E-1,4.1470524E-2,1.3731731E-1,-5.480045E-2,-2.569767E-1,3.0753586E-1],"categories":[],"categories_nodes":[],"categories_segments":[],"categories_sizes":[],"default_left":[0,0,0,0,0,0,0,0,0,0,0,0,0,0,0],"id":72,"left_children":[1,3,5,7,9,11,13,-1,-1,-1,-1,-1,-1,-1,-1],"loss_changes":[9.7872894E2,1.0952933E3,1.0277795E3,6.7781726E2,1.4782057E3,8.524255E2,1.0143186E3,0E0,0E0,0E0,0E0,0E0,0E0,0E0,0E0],"parents":[2147483647,0,0,1,1,2,2,3,3,4,4,5,5,6,6],"right_children":[2,4,6,8,10,12,14,-1,-1,-1,-1,-1,-1,-1,-1],"split_conditions":[-5.5E0,-4.589711E0,6.096033E0,-2.9805782E0,1E0,2.7934309E1,3.775862E0,2.7305716E-1,-1.8498565E-1,-3.5265377E-1,4.1470524E-2,1.3731731E-1,-5.480045E-2,-2.569767E-1,3.0753586E-1],"split_indices":[42,5,12,20,85,76,68,0,0,0,0,0,0,0,0],"split_type":[0,0,0,0,0,0,0,0,0,0,0,0,0,0,0],"sum_hessian":[4.86E2,1.29E2,3.57E2,3.4E1,9.5E1,3.09E2,4.8E1,2.4E1,1E1,5.5E1,4E1,2.34E2,7.5E1,4E1,8E0],"tree_param":{"num_deleted":"0","num_feature":"88","num_nodes":"15","size_leaf_vector":"1"}},{"base_weights":[1.629315E-1,4.399437E-1,-1.015836E1,-4.3698943E-1,2.7711802E0,-1.5882139E-1,-6.83273E-1,-2.2200094E-1,1.5574465E-2,2.7439675E-1,-1.6075306E-2],"categories":[],"categories_nodes":[],"categories_segments":[],"categories_sizes":[],"default_left":[0,0,0,0,0,0,0,0,0,0,0],"id":73,"left_children":[1,3,5,7,9,-1,-1,-1,-1,-1,-1],"loss_changes":[1.4222042E3,9.9509314E2,2.2308667E2,1.0654788E3,1.1235873E3,0E0,0E0,0E0,0E0,0E0,0E0],"parents":[2147483647,0,0,1,1,2,2,3,3,4,4],"right_children":[2,4,6,8,10,-1,-1,-1,-1,-1,-1],"split_conditions":[3E-2,4.4389404E1,5.735046E1,6.8961267E0,1.0096E2,-1.5882139E-1,-6.83273E-1,-2.2200094E-1,1.5574465E-2,2.7439675E-1,-1.6075306E-2],"split_indices":[58,28,25,9,48,0,0,0,0,0,0],"split_type":[0,0,0,0,0,0,0,0,0,0,0],"sum_hessian":[4.94E2,4.83E2,1.1E1,3.52E2,1.31E2,5E0,6E0,5.4E1,2.98E2,6.9E1,6.2E1],"tree_param":{"num_deleted":"0","num_feature":"88","num_nodes":"11","size_leaf_vector":"1"}},{"base_weights":[-3.598821E-1,-3.2452486E0,3.2459927E-1,-6.215913E-6,-7.405798E0,-3.8741424E0,7.6916915E-1,2.4111383E-1,-2.1080938E-1,-4.8180667E-1,1.4289534E-1,3.3679068E-1,-3.113304E-1,2.0158006E-2,3.536205E-1],"categories":[],"categories_nodes":[],"categories_segments":[],"categories_sizes":[],"default_left":[0,0,0,0,0,0,0,0,0,0,0,0,0,0,0],"id":74,"left_children":[1,3,5,7,9,11,13,-1,-1,-1,-1,-1,-1,-1,-1],"loss_changes":[9.890819E2,1.292488E3,7.603941E2,1.1789309E3,1.0199109E3,1.0570508E3,8.3955145E2,0E0,0E0,0E0,0E0,0E0,0E0,0E0,0E0],"parents":[2147483647,0,0,1,1,2,2,3,3,4,4,5,5,6,6],"right_children":[2,4,6,8,10,12,14,-1,-1,-1,-1,-1,-1,-1,-1],"split_conditions":[-3.7E-2,2.9E0,-7.5400987E0,-5.8E-2,1.00835E2,-2.4E-2,3E0,2.4111383E-1,-2.1080938E-1,-4.8180667E-1,1.4289534E-1,3.3679068E-1,-3.113304E-1,2.0158006E-2,3.536205E-1],"split_indices":[59,63,32,59,50,59,75,0,0,0,0,0,0,0,0],"split_type":[0,0,0,0,0,0,0,0,0,0,0,0,0,0,0],"sum_hessian":[4.97E2,9.4E1,4.03E2,5.4E1,4E1,3.7E1,3.66E2,2.5E1,2.9E1,3.3E1,7E0,6E0,3.1E1,3.48E2,1.8E1],"tree_param":{"num_deleted":"0","num_feature":"88","num_nodes":"15","size_leaf_vector":"1"}},{"base_weights":[-1.3769083E-1,2.2871351E0,-7.139076E-1,3.2950828E0,-5.527999E0,-1.1619004E0,4.227722E0,1.2075168E-1,6.4213955E-1,-4.3964797E-1,-3.0609071E-2,3.52014E-1,-7.100978E-2,-2.0668842E-2,4.9109745E-1],"categories":[],"categories_nodes":[],"categories_segments":[],"categories_sizes":[],"default_left":[0,0,0,0,0,0,0,0,0,0,0,0,0,0,0],"id":75,"left_children":[1,3,5,7,9,11,13,-1,-1,-1,-1,-1,-1,-1,-1],"loss_changes":[7.2065283E2,8.151613E2,9.31452E2,6.781577E2,1.7713107E2,8.307229E2,9.215423E2,0E0,0E0,0E0,0E0,0E0,0E0,0E0,0E0],"parents":[2147483647,0,0,1,1,2,2,3,3,4,4,5,5,6,6],"right_children":[2,4,6,8,10,12,14,-1,-1,-1,-1,-1,-1,-1,-1],"split_conditions":[-3.7E0,1.0295E2,4.535E1,9.309172E0,7.463553E-1,-9.2E-2,1.5046211E0,1.2075168E-1,6.4213955E-1,-4.3964797E-1,-3.0609071E-2,3.52014E-1,-7.100978E-2,-2.0668842E-2,4.9109745E-1],"split_indices":[44,49,69,5,17,59,8,0,0,0,0,0,0,0,0],"split_type":[0,0,0,0,0,0,0,0,0,0,0,0,0,0,0],"sum_hessian":[5.12E2,9.7E1,4.15E2,8.7E1,1E1,3.82E2,3.3E1,8.2E1,5E0,5E0,5E0,1E1,3.72E2,1.9E1,1.4E1],"tree_param":{"num_deleted":"0","num_feature":"88","num_nodes":"15","size_leaf_vector":"1"}},{"base_weights":[1.14116296E-1,-4.9477224E0,5.213502E-1,-8.8708E0,3.0090969E0,3.8794394E0,3.2125972E-2,-1.6922206E-2,-8.656313E-1,-1.4518504E-1,3.4974036E-1,5.9570935E-2,5.254486E-1,-6.7084255E-3,4.91724E-1],"categories":[],"categories_nodes":[],"categories_segments":[],"categories_sizes":[],"default_left":[0,0,0,0,0,0,0,0,0,0,0,0,0,0,0],"id":76,"left_children":[1,3,5,7,9,11,13,-1,-1,-1,-1,-1,-1,-1,-1],"loss_changes":[1.0521742E3,1.2424955E3,7.74867E2,1.8522013E3,3.7260098E2,1.0383279E3,6.8397125E2,0E0,0E0,0E0,0E0,0E0,0E0,0E0,0E0],"parents":[2147483647,0,0,1,1,2,2,3,3,4,4,5,5,6,6],"right_children":[2,4,6,8,10,12,14,-1,-1,-1,-1,-1,-1,-1,-1],"split_conditions":[1.097E2,8.12712E-1,2.8133907E1,3.922802E1,1.57E0,2.7746311E1,3.773509E1,-1.6922206E-2,-8.656313E-1,-1.4518504E-1,3.4974036E-1,5.9570935E-2,5.254486E-1,-6.7084255E-3,4.91724E-1],"split_indices":[36,20,22,3,51,22,21,0,0,0,0,0,0,0,0],"split_type":[0,0,0,0,0,0,0,0,0,0,0,0,0,0,0],"sum_hessian":[5.07E2,3.6E1,4.71E2,2.4E1,1.2E1,5.8E1,4.13E2,1.3E1,1.1E1,5E0,7E0,4.3E1,1.5E1,4.08E2,5E0],"tree_param":{"num_deleted":"0","num_feature":"88","num_nodes":"15","size_leaf_vector":"1"}},{"base_weights":[-2.9580173E-1,-1.5822549E0,2.6476636E0,-7.350954E-1,-5.13115E0,1.3244648E-1,4.399817E0,-3.0038896E-1,1.2505722E-3,6.3134946E-2,-3.9581534E-1,1.2382602E-1,-2.1708234E-1,4.6551344E-1,1.539856E-1],"categories":[],"categories_nodes":[],"categories_segments":[],"categories_sizes":[],"default_left":[0,0,0,0,0,0,0,0,0,0,0,0,0,0,0],"id":77,"left_children":[1,3,5,7,9,11,13,-1,-1,-1,-1,-1,-1,-1,-1],"loss_changes":[1.9049476E3,1.041791E3,6.7084644E2,1.1455157E3,1.2164459E3,7.022661E2,5.1986707E2,0E0,0E0,0E0,0E0,0E0,0E0,0E0,0E0],"parents":[2147483647,0,0,1,1,2,2,3,3,4,4,5,5,6,6],"right_children":[2,4,6,8,10,12,14,-1,-1,-1,-1,-1,-1,-1,-1],"split_conditions":[8.916604E0,5.7607994E0,5.9E1,1.0458478E2,-6.2414926E-1,6.841068E0,4.804878E0,-3.0038896E-1,1.2505722E-3,6.3134946E-2,-3.9581534E-1,1.2382602E-1,-2.1708234E-1,4.6551344E-1,1.539856E-1],"split_indices":[9,12,83,0,34,2,76,0,0,0,0,0,0,0,0],"split_type":[0,0,0,0,0,0,0,0,0,0,0,0,0,0,0],"sum_hessian":[4.99E2,3.48E2,1.51E2,2.83E2,6.5E1,6.3E1,8.8E1,3.4E1,2.49E2,2E1,4.5E1,4.2E1,2.1E1,1.6E1,7.2E1],"tree_param":{"num_deleted":"0","num_feature":"88","num_nodes":"15","size_leaf_vector":"1"}},{"base_weights":[1.3297817E-1,-1.07136756E-1,7.816251E0,2.687991E0,-6.2418187E-1,5.898954E-1,-1.6808271E-3,2.2328232E-1,-2.4923587E-1,-6.039961E-2,1.3229637E-1],"categories":[],"categories_nodes":[],"categories_segments":[],"categories_sizes":[],"default_left":[0,0,0,0,0,0,0,0,0,0,0],"id":78,"left_children":[1,3,5,7,9,-1,-1,-1,-1,-1,-1],"loss_changes":[9.132046E2,6.945778E2,4.755077E2,1.0672178E3,7.8077783E2,0E0,0E0,0E0,0E0,0E0,0E0],"parents":[2147483647,0,0,1,1,2,2,3,3,4,4],"right_children":[2,4,6,8,10,-1,-1,-1,-1,-1,-1],"split_conditions":[4E0,1.1357142E1,-1.3245755E0,5.4E0,5.1E0,5.898954E-1,-1.6808271E-3,2.2328232E-1,-2.4923587E-1,-6.039961E-2,1.3229637E-1],"split_indices":[75,79,23,41,44,0,0,0,0,0,0],"split_type":[0,0,0,0,0,0,0,0,0,0,0],"sum_hessian":[4.9E2,4.77E2,1.3E1,7.3E1,4.04E2,8E0,5E0,6E1,1.3E1,3.44E2,6E1],"tree_param":{"num_deleted":"0","num_feature":"88","num_nodes":"11","size_leaf_vector":"1"}},{"base_weights":[-3.9251557E-1,-1.3778585E-1,-6.46725E0,-4.0377197E-1,6.7358313E0,-9.059065E0,-6.1539795E-2,-1.0591689E-2,-4.5318937E-1,4.8755834E-1,2.3318542E-2,-5.505525E-1,-2.0842464E-1],"categories":[],"categories_nodes":[],"categories_segments":[],"categories_sizes":[],"default_left":[0,0,0,0,0,0,0,0,0,0,0,0,0],"id":79,"left_children":[1,3,5,7,9,11,-1,-1,-1,-1,-1,-1,-1],"loss_changes":[7.68623E2,8.835077E2,2.4399365E2,7.6610156E2,3.260772E2,2.4713379E1,0E0,0E0,0E0,0E0,0E0,0E0,0E0],"parents":[2147483647,0,0,1,1,2,2,3,3,4,4,5,5],"right_children":[2,4,6,8,10,12,-1,-1,-1,-1,-1,-1,-1],"split_conditions":[1.2743856E2,3.1205814E1,3.7692633E-1,4.7230453E1,3.2794277E1,4.822041E1,-6.1539795E-2,-1.0591689E-2,-4.5318937E-1,4.8755834E-1,2.3318542E-2,-5.505525E-1,-2.0842464E-1],"split_indices":[0,7,23,78,7,79,0,0,0,0,0,0,0],"split_type":[0,0,0,0,0,0,0,0,0,0,0,0,0],"sum_hessian":[4.98E2,4.8E2,1.8E1,4.64E2,1.6E1,1.1E1,7E0,4.56E2,8E0,1E1,6E0,6E0,5E0],"tree_param":{"num_deleted":"0","num_feature":"88","num_nodes":"13","size_leaf_vector":"1"}},{"base_weights":[2.4357828E-1,-8.926073E-1,2.3331888E0,-3.2930917E-1,-8.857727E0,4.050468E0,-3.90221E-1,-4.3558538E-2,2.4991055E-1,-5.860178E-1,7.2387406E-3,1.3931309E-1,4.7930676E-1,-1.919912E-1,1.485675E-1],"categories":[],"categories_nodes":[],"categories_segments":[],"categories_sizes":[],"default_left":[0,0,0,0,0,0,0,0,0,0,0,0,0,0,0],"id":80,"left_children":[1,3,5,7,9,11,13,-1,-1,-1,-1,-1,-1,-1,-1],"loss_changes":[1.1729847E3,1.4253285E3,8.1876416E2,8.7556537E2,5.5036865E2,6.892052E2,8.2338306E2,0E0,0E0,0E0,0E0,0E0,0E0,0E0,0E0],"parents":[2147483647,0,0,1,1,2,2,3,3,4,4,5,5,6,6],"right_children":[2,4,6,8,10,12,14,-1,-1,-1,-1,-1,-1,-1,-1],"split_conditions":[8.666852E0,8.488148E0,1E0,5E0,4.817363E0,2.8363361E1,9.654955E0,-4.3558538E-2,2.4991055E-1,-5.860178E-1,7.2387406E-3,1.3931309E-1,4.7930676E-1,-1.919912E-1,1.485675E-1],"split_indices":[9,9,85,71,26,6,9,0,0,0,0,0,0,0,0],"split_type":[0,0,0,0,0,0,0,0,0,0,0,0,0,0,0],"sum_hessian":[4.9E2,3.18E2,1.72E2,2.99E2,1.9E1,1.05E2,6.7E1,2.73E2,2.6E1,1.4E1,5E0,8.8E1,1.7E1,3.3E1,3.4E1],"tree_param":{"num_deleted":"0","num_feature":"88","num_nodes":"15","size_leaf_vector":"1"}},{"base_weights":[1.5779637E-1,-3.4823796E-1,4.5569654E0,-8.132409E-1,4.238534E0,1.5828122E0,9.373137E0,1.3637868E-1,-7.240681E-2,-6.288955E-2,3.7627375E-1,-5.1414292E-2,2.9986995E-1,6.3784707E-1,1.8631633E-1],"categories":[],"categories_nodes":[],"categories_segments":[],"categories_sizes":[],"default_left":[0,0,0,0,0,0,0,0,0,0,0,0,0,0,0],"id":81,"left_children":[1,3,5,7,9,11,13,-1,-1,-1,-1,-1,-1,-1,-1],"loss_changes":[1.1005343E3,9.5003925E2,6.95376E2,9.1547095E2,7.6277466E2,4.067339E2,2.5973157E2,0E0,0E0,0E0,0E0,0E0,0E0,0E0,0E0],"parents":[2147483647,0,0,1,1,2,2,3,3,4,4,5,5,6,6],"right_children":[2,4,6,8,10,12,14,-1,-1,-1,-1,-1,-1,-1,-1],"split_conditions":[2.0966667E1,1.198E2,1.394341E0,1.1357142E1,-5.9413604E-2,1.145E2,1.17919785E2,1.3637868E-1,-7.240681E-2,-6.288955E-2,3.7627375E-1,-5.1414292E-2,2.9986995E-1,6.3784707E-1,1.8631633E-1],"split_indices":[66,39,8,79,33,37,0,0,0,0,0,0,0,0,0],"split_type":[0,0,0,0,0,0,0,0,0,0,0,0,0,0,0],"sum_hessian":[4.9E2,4.41E2,4.9E1,4.02E2,3.9E1,3.2E1,1.7E1,6E1,3.42E2,1.5E1,2.4E1,2.1E1,1.1E1,9E0,8E0],"tree_param":{"num_deleted":"0","num_feature":"88","num_nodes":"15","size_leaf_vector":"1"}},{"base_weights":[-3.8576297E-2,1.583668E-1,-5.3274196E-1,4.0245576E0,-4.5019004E-1,3.3500966E-1,-1.6365434E-1,-1.17640115E-1,3.2999013E-2],"categories":[],"categories_nodes":[],"categories_segments":[],"categories_sizes":[],"default_left":[0,0,0,0,0,0,0,0,0],"id":82,"left_children":[1,3,-1,5,7,-1,-1,-1,-1],"loss_changes":[1.0331147E3,1.1418116E3,0E0,1.3342793E3,8.889737E2,0E0,0E0,0E0,0E0],"parents":[2147483647,0,0,1,1,3,3,4,4],"right_children":[2,4,-1,6,8,-1,-1,-1,-1],"split_conditions":[7.8197813E0,1.1372093E1,-5.3274196E-1,2.842666E1,7.6775756E0,3.3500966E-1,-1.6365434E-1,-1.17640115E-1,3.2999013E-2],"split_indices":[12,79,0,6,10,0,0,0,0],"split_type":[0,0,0,0,0,0,0,0,0],"sum_hessian":[4.88E2,4.81E2,7E0,6.4E1,4.17E2,4.7E1,1.7E1,1.53E2,2.64E2],"tree_param":{"num_deleted":"0","num_feature":"88","num_nodes":"9","size_leaf_vector":"1"}},{"base_weights":[-1.5605867E-1,-3.539745E-1,8.0912695E0,-9.782294E-1,2.6753542E0,1.4588897E-1,5.44077E-1,3.821593E-2,-9.622525E-2,1.7687617E-1,-3.9970666E-1],"categories":[],"categories_nodes":[],"categories_segments":[],"categories_sizes":[],"default_left":[0,0,0,0,0,0,0,0,0,0,0],"id":83,"left_children":[1,3,5,7,9,-1,-1,-1,-1,-1,-1],"loss_changes":[8.3595294E2,9.5181335E2,1.0282562E2,6.91126E2,8.454362E2,0E0,0E0,0E0,0E0,0E0,0E0],"parents":[2147483647,0,0,1,1,2,2,3,3,4,4],"right_children":[2,4,6,8,10,-1,-1,-1,-1,-1,-1],"split_conditions":[4E0,8.4E0,8.975757E0,-7.4152412E0,2.87E0,1.4588897E-1,5.44077E-1,3.821593E-2,-9.622525E-2,1.7687617E-1,-3.9970666E-1],"split_indices":[75,42,10,78,51,0,0,0,0,0,0],"split_type":[0,0,0,0,0,0,0,0,0,0,0],"sum_hessian":[5.09E2,4.99E2,1E1,4.15E2,8.4E1,5E0,5E0,1.46E2,2.69E2,7.9E1,5E0],"tree_param":{"num_deleted":"0","num_feature":"88","num_nodes":"11","size_leaf_vector":"1"}},{"base_weights":[3.4934068E-3,-4.5849463E-1,1.6993326E-1,-4.613408E-1,3.2274082E-1,-6.503132E-3,1.8015707E-1],"categories":[],"categories_nodes":[],"categories_segments":[],"categories_sizes":[],"default_left":[0,0,0,0,0,0,0],"id":84,"left_children":[1,-1,3,-1,5,-1,-1],"loss_changes":[7.711859E2,0E0,7.1801495E2,0E0,7.3496454E2,0E0,0E0],"parents":[2147483647,0,0,2,2,4,4],"right_children":[2,-1,4,-1,6,-1,-1],"split_conditions":[9.684E1,-4.5849463E-1,-1.8E1,-4.613408E-1,4.247677E1,-6.503132E-3,1.8015707E-1],"split_indices":[50,0,42,0,77,0,0],"split_type":[0,0,0,0,0,0,0],"sum_hessian":[5.04E2,7E0,4.97E2,6E0,4.91E2,4.33E2,5.8E1],"tree_param":{"num_deleted":"0","num_feature":"88","num_nodes":"7","size_leaf_vector":"1"}},{"base_weights":[-1.2811342E-1,-2.3241994E0,8.530859E-1,-1.4456075E0,-1.049135E1,2.6610556E0,-9.512802E-1,1.02549985E-1,-1.5559012E-1,-7.074731E-1,-1.3595536E-1,-1.305961E-1,2.0062125E-1,2.4233282E-1,-8.165683E-2],"categories":[],"categories_nodes":[],"categories_segments":[],"categories_sizes":[],"default_left":[0,0,0,0,0,0,0,0,0,0,0,0,0,0,0],"id":85,"left_children":[1,3,5,7,9,11,13,-1,-1,-1,-1,-1,-1,-1,-1],"loss_changes":[1.0325398E3,1.0256865E3,1.0857189E3,8.056349E2,3.126621E2,1.2045332E3,6.7443475E2,0E0,0E0,0E0,0E0,0E0,0E0,0E0,0E0],"parents":[2147483647,0,0,1,1,2,2,3,3,4,4,5,5,6,6],"right_children":[2,4,6,8,10,12,14,-1,-1,-1,-1,-1,-1,-1,-1],"split_conditions":[7.377566E0,7.2579274E0,1.15065216E2,3.901712E0,1.0276786E0,-5.5588813E0,3.0468102E0,1.02549985E-1,-1.5559012E-1,-7.074731E-1,-1.3595536E-1,-1.305961E-1,2.0062125E-1,2.4233282E-1,-8.165683E-2],"split_indices":[10,10,0,13,47,29,13,0,0,0,0,0,0,0,0],"split_type":[0,0,0,0,0,0,0,0,0,0,0,0,0,0,0],"sum_hessian":[4.75E2,1.46E2,3.29E2,1.34E2,1.2E1,1.64E2,1.65E2,4.3E1,9.1E1,7E0,5E0,3.3E1,1.31E2,1.6E1,1.49E2],"tree_param":{"num_deleted":"0","num_feature":"88","num_nodes":"15","size_leaf_vector":"1"}}]},"name":"gbtree"},"learner_model_param":{"base_score":"[1.7009873E0]","boost_from_average":"1","num_class":"0","num_feature":"88","num_target":"1"},"objective":{"name":"reg:squarederror","reg_loss_param":{"scale_pos_weight":"1"}}},"version":[3,2,0]}