{"learner":{"attributes":{"best_iteration":"56","best_score":"15.92561039313533","scikit_learn":"{\"_estimator_type\": \"regressor\"}"},"feature_names":["home_points","away_points","diff_points","home_rebounds","away_rebounds","diff_rebounds","home_assists","away_assists","diff_assists","home_steals","away_steals","diff_steals","home_blocks","away_blocks","diff_blocks","home_turnovers","away_turnovers","diff_turnovers","home_oreb","away_oreb","diff_oreb","home_dreb","away_dreb","diff_dreb","home_ts_pct","away_ts_pct","diff_ts_pct","home_fg3_rate","away_fg3_rate","diff_fg3_rate","home_ft_rate","away_ft_rate","diff_ft_rate","home_to_margin","away_to_margin","diff_to_margin","home_off_rating","away_off_rating","home_def_rating","away_def_rating","home_net_rating","away_net_rating","diff_net_rating","home_matchup_edge","away_matchup_edge","diff_matchup_edge","home_def_factor_raw","away_def_factor_raw","home_pace","away_pace","avg_pace","diff_pace","home_court","home_fatigue","away_fatigue","diff_fatigue","combined_fatigue","ff_efg_edge","ff_tov_edge","ff_oreb_edge","ff_fta_edge","home_clutch_net","away_clutch_net","diff_clutch_net","home_clutch_efg","away_clutch_efg","home_deflections","away_deflections","diff_deflections","home_contested","away_contested","home_loose_balls","away_loose_balls","home_injured_count","away_injured_count","diff_injured_count","home_injury_ppg_lost","away_injury_ppg_lost","diff_injury_ppg_lost","home_injury_minutes_lost","away_injury_minutes_lost","diff_injury_minutes_lost","home_games_played","away_games_played","min_games_played","games_played_diff","home_roster_changed","away_roster_changed"],"feature_types":["float","float","float","float","float","float","float","float","float","float","float","float","float","float","float","float","float","float","float","float","float","float","float","float","float","float","float","float","float","float","float","float","float","float","float","float","float","float","float","float","float","float","float","float","float","float","float","float","float","float","float","float","float","float","float","float","float","float","float","float","float","float","float","float","float","float","float","float","float","float","float","float","float","int","int","int","int","int","int","int","int","int","int","int","int","int","int","int"],"gradient_booster":{"model":{"cats":{"enc":[],"feature_segments":[],"sorted_idx":[]},"gbtree_model_param":{"num_parallel_tree":"1","num_trees":"77"},"iteration_indptr":[0,1,2,3,4,5,6,7,8,9,10,11,12,13,14,15,16,17,18,19,20,21,22,23,24,25,26,27,28,29,30,31,32,33,34,35,36,37,38,39,40,41,42,43,44,45,46,47,48,49,50,51,52,53,54,55,56,57,58,59,60,61,62,63,64,65,66,67,68,69,70,71,72,73,74,75,76,77],"tree_info":[0,0,0,0,0,0,0,0,0,0,0,0,0,0,0,0,0,0,0,0,0,0,0,0,0,0,0,0,0,0,0,0,0,0,0,0,0,0,0,0,0,0,0,0,0,0,0,0,0,0,0,0,0,0,0,0,0,0,0,0,0,0,0,0,0,0,0,0,0,0,0,0,0,0,0,0,0],"trees":[{"base_weights":[4.529725E-2,-6.618205E0,4.8435254E0,-1.8860315E0,-1.0060041E1,1.7484962E1,1.6939313E0,-1.853517E-1,2.7898797E-1,-3.520575E-1,-9.164376E-1,9.71307E-1,4.5942973E-2,-1.4034626E-1,2.0147796E-1],"categories":[],"categories_nodes":[],"categories_segments":[],"categories_sizes":[],"default_left":[0,0,0,0,0,0,0,0,0,0,0,0,0,0,0],"id":0,"left_children":[1,3,5,7,9,11,13,-1,-1,-1,-1,-1,-1,-1,-1],"loss_changes":[1.5506185E4,3.262416E3,1.1159117E4,1.236812E3,2.6497988E3,1.7549609E3,2.420043E3,0E0,0E0,0E0,0E0,0E0,0E0,0E0,0E0],"parents":[2147483647,0,0,1,1,2,2,3,3,4,4,5,5,6,6],"right_children":[2,4,6,8,10,12,14,-1,-1,-1,-1,-1,-1,-1,-1],"split_conditions":[-7E-1,4E-1,-5.6E0,2.9241755E1,3.3171284E1,1E0,8.02415E0,-1.853517E-1,2.7898797E-1,-3.520575E-1,-9.164376E-1,9.71307E-1,4.5942973E-2,-1.4034626E-1,2.0147796E-1],"split_indices":[40,41,41,6,21,44,9,0,0,0,0,0,0,0,0],"split_type":[0,0,0,0,0,0,0,0,0,0,0,0,0,0,0],"sum_hessian":[4.81E2,2.01E2,2.8E2,8.6E1,1.15E2,5.4E1,2.26E2,7E1,1.6E1,8.7E1,2.8E1,4.8E1,6E0,7.7E1,1.49E2],"tree_param":{"num_deleted":"0","num_feature":"88","num_nodes":"15","size_leaf_vector":"1"}},{"base_weights":[1.9627933E-1,7.5589576E0,-3.6395903E0,1.5546979E1,4.746443E0,-8.215766E0,-8.525547E-2,9.105018E-1,9.8805405E-2,5.3458697E-1,1.5691364E-2,-2.9672968E-1,-7.734863E-1,-3.3815968E-1,7.445959E-2],"categories":[],"categories_nodes":[],"categories_segments":[],"categories_sizes":[],"default_left":[0,0,0,0,0,0,0,0,0,0,0,0,0,0,0],"id":1,"left_children":[1,3,5,7,9,11,13,-1,-1,-1,-1,-1,-1,-1,-1],"loss_changes":[1.3274366E4,3.4593633E3,5.0204146E3,1.3996768E3,3.2028787E3,2.0396016E3,1.8732551E3,0E0,0E0,0E0,0E0,0E0,0E0,0E0,0E0],"parents":[2147483647,0,0,1,1,2,2,3,3,4,4,5,5,6,6],"right_children":[2,4,6,8,10,12,14,-1,-1,-1,-1,-1,-1,-1,-1],"split_conditions":[-1.4E0,1E0,-7E-1,3.4785973E1,-8.395957E-1,3.3208645E1,9.9642855E-1,9.105018E-1,9.8805405E-2,5.3458697E-1,1.5691364E-2,-2.9672968E-1,-7.734863E-1,-3.3815968E-1,7.445959E-2],"split_indices":[41,46,40,22,5,21,47,0,0,0,0,0,0,0,0],"split_type":[0,0,0,0,0,0,0,0,0,0,0,0,0,0,0],"sum_hessian":[4.66E2,1.59E2,3.07E2,3.9E1,1.2E2,1.33E2,1.74E2,3.2E1,7E0,5E1,7E1,1.04E2,2.9E1,3.2E1,1.42E2],"tree_param":{"num_deleted":"0","num_feature":"88","num_nodes":"15","size_leaf_vector":"1"}},{"base_weights":[5.623948E-1,-3.5707269E0,9.140566E0,-7.759503E0,-9.537886E-1,5.566386E0,1.3768079E1,-5.3946674E-1,-2.2136544E-1,1.598543E-1,-2.1274295E-1,-6.5591514E-2,3.5277665E-1,2.1520856E-1,7.833663E-1],"categories":[],"categories_nodes":[],"categories_segments":[],"categories_sizes":[],"default_left":[0,0,0,0,0,0,0,0,0,0,0,0,0,0,0],"id":2,"left_children":[1,3,5,7,9,11,13,-1,-1,-1,-1,-1,-1,-1,-1],"loss_changes":[1.7121736E4,3.554378E3,2.4337656E3,1.1588545E3,2.8093076E3,9.6370874E2,1.0594219E3,0E0,0E0,0E0,0E0,0E0,0E0,0E0,0E0],"parents":[2147483647,0,0,1,1,2,2,3,3,4,4,5,5,6,6],"right_children":[2,4,6,8,10,12,14,-1,-1,-1,-1,-1,-1,-1,-1],"split_conditions":[3.3E0,-5.7E0,9.1E0,4.47193E1,-4.305986E-2,7.1203523E0,1.0828323E2,-5.3946674E-1,-2.2136544E-1,1.598543E-1,-2.1274295E-1,-6.5591514E-2,3.5277665E-1,2.1520856E-1,7.833663E-1],"split_indices":[42,42,42,4,14,9,1,0,0,0,0,0,0,0,0],"split_type":[0,0,0,0,0,0,0,0,0,0,0,0,0,0,0],"sum_hessian":[4.79E2,3.24E2,1.55E2,1.23E2,2.01E2,9E1,6.5E1,6.2E1,6.1E1,8.9E1,1.12E2,1.6E1,7.4E1,1.2E1,5.3E1],"tree_param":{"num_deleted":"0","num_feature":"88","num_nodes":"15","size_leaf_vector":"1"}},{"base_weights":[-1.1166181E-1,8.572661E0,-2.0614517E0,1.1846737E1,8.5155445E-1,-5.206323E0,1.6639798E0,7.772905E-1,-0E0,3.7167737E-1,-1.9844732E-1,-1.8494163E-1,-5.335669E-1,2.8118095E-1,-9.421324E-2],"categories":[],"categories_nodes":[],"categories_segments":[],"categories_sizes":[],"default_left":[0,0,0,0,0,0,0,0,0,0,0,0,0,0,0],"id":3,"left_children":[1,3,5,7,9,11,13,-1,-1,-1,-1,-1,-1,-1,-1],"loss_changes":[8.312134E3,2.248629E3,4.717215E3,2.7585195E3,9.808654E2,1.709855E3,2.6222695E3,0E0,0E0,0E0,0E0,0E0,0E0,0E0,0E0],"parents":[2147483647,0,0,1,1,2,2,3,3,4,4,5,5,6,6],"right_children":[2,4,6,8,10,12,14,-1,-1,-1,-1,-1,-1,-1,-1],"split_conditions":[1.128E2,4.2344826E1,1.141E2,1.2666451E1,5.244927E0,1.1E0,5E-1,7.772905E-1,-0E0,3.7167737E-1,-1.9844732E-1,-1.8494163E-1,-5.335669E-1,2.8118095E-1,-9.421324E-2],"split_indices":[37,69,36,2,12,43,45,0,0,0,0,0,0,0,0],"split_type":[0,0,0,0,0,0,0,0,0,0,0,0,0,0,0],"sum_hessian":[4.87E2,8.8E1,3.99E2,6.1E1,2.7E1,2.16E2,1.83E2,4.6E1,1.5E1,1.1E1,1.6E1,1.72E2,4.4E1,8.6E1,9.7E1],"tree_param":{"num_deleted":"0","num_feature":"88","num_nodes":"15","size_leaf_vector":"1"}},{"base_weights":[-2.7212015E-1,-6.2622514E0,4.241726E0,-9.997842E0,-4.0564504E0,1.9026667E0,9.759661E0,-2.1841675E-2,-5.857697E-1,4.010296E-1,-2.3174222E-1,2.1765988E-1,-1.1340171E-1,7.0578384E-1,2.46904E-1],"categories":[],"categories_nodes":[],"categories_segments":[],"categories_sizes":[],"default_left":[0,0,0,0,0,0,0,0,0,0,0,0,0,0,0],"id":4,"left_children":[1,3,5,7,9,11,13,-1,-1,-1,-1,-1,-1,-1,-1],"loss_changes":[1.3465248E4,1.6752148E3,3.6225542E3,1.2645684E3,1.0366252E3,2.085316E3,1.6153071E3,0E0,0E0,0E0,0E0,0E0,0E0,0E0,0E0],"parents":[2147483647,0,0,1,1,2,2,3,3,4,4,5,5,6,6],"right_children":[2,4,6,8,10,12,14,-1,-1,-1,-1,-1,-1,-1,-1],"split_conditions":[-2.3E0,-9.1E0,8.3E0,-8.109597E-1,-7.595224E0,1E0,-1.6006763E-1,-2.1841675E-2,-5.857697E-1,4.010296E-1,-2.3174222E-1,2.1765988E-1,-1.1340171E-1,7.0578384E-1,2.46904E-1],"split_indices":[42,42,42,17,32,85,32,0,0,0,0,0,0,0,0],"split_type":[0,0,0,0,0,0,0,0,0,0,0,0,0,0,0],"sum_hessian":[4.94E2,2.12E2,2.82E2,7.6E1,1.36E2,2E2,8.2E1,1.2E1,6.4E1,5E0,1.31E2,1.26E2,7.4E1,4.1E1,4.1E1],"tree_param":{"num_deleted":"0","num_feature":"88","num_nodes":"15","size_leaf_vector":"1"}},{"base_weights":[1.5505861E-2,-3.8815677E0,4.8799343E0,-6.251124E0,6.071075E-1,1.2231411E1,2.486418E0,-1.0904577E-1,-5.2517796E-1,-7.399262E-2,4.5135984E-1,-1.0686805E-2,7.0939666E-1,4.0114805E-1,6.045938E-3],"categories":[],"categories_nodes":[],"categories_segments":[],"categories_sizes":[],"default_left":[0,0,0,0,0,0,0,0,0,0,0,0,0,0,0],"id":5,"left_children":[1,3,5,7,9,11,13,-1,-1,-1,-1,-1,-1,-1,-1],"loss_changes":[9.118803E3,2.850269E3,3.6973345E3,2.976795E3,1.6822961E3,1.2792104E3,2.1418445E3,0E0,0E0,0E0,0E0,0E0,0E0,0E0,0E0],"parents":[2147483647,0,0,1,1,2,2,3,3,4,4,5,5,6,6],"right_children":[2,4,6,8,10,12,14,-1,-1,-1,-1,-1,-1,-1,-1],"split_conditions":[1.155E2,2.1E0,1E0,-1.2510312E0,1.2404159E0,3.5E0,5.597352E1,-1.0904577E-1,-5.2517796E-1,-7.399262E-2,4.5135984E-1,-1.0686805E-2,7.0939666E-1,4.0114805E-1,6.045938E-3],"split_indices":[39,40,46,5,14,56,25,0,0,0,0,0,0,0,0],"split_type":[0,0,0,0,0,0,0,0,0,0,0,0,0,0,0],"sum_hessian":[4.77E2,2.65E2,2.12E2,1.73E2,9.2E1,5E1,1.62E2,9E1,8.3E1,7.5E1,1.7E1,7E0,4.3E1,4.7E1,1.15E2],"tree_param":{"num_deleted":"0","num_feature":"88","num_nodes":"15","size_leaf_vector":"1"}},{"base_weights":[-6.8364614E-1,-4.200466E0,6.5519733E0,-9.618033E0,-2.4237843E0,1.6783568E0,9.727796E0,-1.9971539E-1,-6.752826E-1,-8.2612164E-2,-4.1127396E-1,-1.1740227E-1,3.3416212E-1,6.067809E-1,-1.08024515E-1],"categories":[],"categories_nodes":[],"categories_segments":[],"categories_sizes":[],"default_left":[0,0,0,0,0,0,0,0,0,0,0,0,0,0,0],"id":6,"left_children":[1,3,5,7,9,11,13,-1,-1,-1,-1,-1,-1,-1,-1],"loss_changes":[1.2522589E4,3.1333276E3,2.4535596E3,1.6542524E3,1.0958943E3,1.3635638E3,2.834038E3,0E0,0E0,0E0,0E0,0E0,0E0,0E0,0E0],"parents":[2147483647,0,0,1,1,2,2,3,3,4,4,5,5,6,6],"right_children":[2,4,6,8,10,12,14,-1,-1,-1,-1,-1,-1,-1,-1],"split_conditions":[3.4E0,-9.1E0,1.5517241E-1,4.1844826E1,2.2156637E0,8.279836E0,1.2238659E2,-1.9971539E-1,-6.752826E-1,-8.2612164E-2,-4.1127396E-1,-1.1740227E-1,3.3416212E-1,6.067809E-1,-1.08024515E-1],"split_indices":[42,42,68,70,33,10,0,0,0,0,0,0,0,0,0],"split_type":[0,0,0,0,0,0,0,0,0,0,0,0,0,0,0],"sum_hessian":[4.88E2,3.29E2,1.59E2,7.9E1,2.5E2,6.4E1,9.5E1,3.4E1,4.5E1,2.23E2,2.7E1,3.6E1,2.8E1,7.9E1,1.6E1],"tree_param":{"num_deleted":"0","num_feature":"88","num_nodes":"15","size_leaf_vector":"1"}},{"base_weights":[5.400889E-1,9.275154E0,-1.5659765E0,1.3139348E1,1.7820323E0,3.3538003E0,-4.180751E0,2.7722546E-1,8.4184563E-1,2.1625148E-1,-3.7507325E-1,1.06743716E-1,7.2130233E-1,-4.571425E-1,-1.4017813E-1],"categories":[],"categories_nodes":[],"categories_segments":[],"categories_sizes":[],"default_left":[0,0,0,0,0,0,0,0,0,0,0,0,0,0,0],"id":7,"left_children":[1,3,5,7,9,11,13,-1,-1,-1,-1,-1,-1,-1,-1],"loss_changes":[8.808091E3,2.6385137E3,4.994001E3,1.5151318E3,8.6596857E2,1.7521176E3,1.6716987E3,0E0,0E0,0E0,0E0,0E0,0E0,0E0,0E0],"parents":[2147483647,0,0,1,1,2,2,3,3,4,4,5,5,6,6],"right_children":[2,4,6,8,10,12,14,-1,-1,-1,-1,-1,-1,-1,-1],"split_conditions":[-4.4E0,4.2285713E1,1.132E2,-9E-1,2.78087E1,2.6E-2,-2.6E-2,2.7722546E-1,8.4184563E-1,2.1625148E-1,-3.7507325E-1,1.06743716E-1,7.2130233E-1,-4.571425E-1,-1.4017813E-1],"split_indices":[41,69,38,45,6,57,57,0,0,0,0,0,0,0,0],"split_type":[0,0,0,0,0,0,0,0,0,0,0,0,0,0,0],"sum_hessian":[4.75E2,9.1E1,3.84E2,5.9E1,3.2E1,1.33E2,2.51E2,2.1E1,3.8E1,2.6E1,6E0,1.22E2,1.1E1,5.2E1,1.99E2],"tree_param":{"num_deleted":"0","num_feature":"88","num_nodes":"15","size_leaf_vector":"1"}},{"base_weights":[-3.2385102E-1,-8.355755E0,2.4955573E0,-6.3548822E0,-1.3820512E1,6.04566E-1,1.1705496E1,-8.058722E-3,-4.2040148E-1,-3.1582192E-1,-9.131838E-1,6.459517E-1,-2.075904E-3,7.4147564E-1,2.6164073E-1],"categories":[],"categories_nodes":[],"categories_segments":[],"categories_sizes":[],"default_left":[0,0,0,0,0,0,0,0,0,0,0,0,0,0,0],"id":8,"left_children":[1,3,5,7,9,11,13,-1,-1,-1,-1,-1,-1,-1,-1],"loss_changes":[1.0982272E4,1.1919775E3,6.232005E3,1.2137976E3,8.239258E2,2.3943657E3,1.0682354E3,0E0,0E0,0E0,0E0,0E0,0E0,0E0,0E0],"parents":[2147483647,0,0,1,1,2,2,3,3,4,4,5,5,6,6],"right_children":[2,4,6,8,10,12,14,-1,-1,-1,-1,-1,-1,-1,-1],"split_conditions":[-5.8E0,3.3745926E1,9.8E0,4.72E-1,4.180702E1,1.096E2,1.8467615E0,-8.058722E-3,-4.2040148E-1,-3.1582192E-1,-9.131838E-1,6.459517E-1,-2.075904E-3,7.4147564E-1,2.6164073E-1],"split_indices":[42,21,42,65,70,37,32,0,0,0,0,0,0,0,0],"split_type":[0,0,0,0,0,0,0,0,0,0,0,0,0,0,0],"sum_hessian":[4.81E2,1.24E2,3.57E2,9.4E1,3E1,2.98E2,5.9E1,2.4E1,7E1,1.3E1,1.7E1,1.3E1,2.85E2,3.8E1,2.1E1],"tree_param":{"num_deleted":"0","num_feature":"88","num_nodes":"15","size_leaf_vector":"1"}},{"base_weights":[-3.5141265E-1,-2.1405509E0,6.6445394E0,-7.0719457E0,-6.8292993E-1,1.700806E1,3.91541E0,-2.047948E-1,-6.1318284E-1,-2.4253772E-1,6.270785E-2,2.1362308E-1,1.1584964E0,3.8443315E-1,-6.0720768E-2],"categories":[],"categories_nodes":[],"categories_segments":[],"categories_sizes":[],"default_left":[0,0,0,0,0,0,0,0,0,0,0,0,0,0,0],"id":9,"left_children":[1,3,5,7,9,11,13,-1,-1,-1,-1,-1,-1,-1,-1],"loss_changes":[6.084289E3,2.7682595E3,2.6564062E3,1.2510283E3,2.4440703E3,1.3577949E3,1.589758E3,0E0,0E0,0E0,0E0,0E0,0E0,0E0,0E0],"parents":[2147483647,0,0,1,1,2,2,3,3,4,4,5,5,6,6],"right_children":[2,4,6,8,10,12,14,-1,-1,-1,-1,-1,-1,-1,-1],"split_conditions":[1.0625E0,-1.3E-2,1.0741072E0,4.180702E1,-9.689483E-1,3.3128098E1,1.0096E2,-2.047948E-1,-6.1318284E-1,-2.4253772E-1,6.270785E-2,2.1362308E-1,1.1584964E0,3.8443315E-1,-6.0720768E-2],"split_indices":[47,58,47,69,33,22,48,0,0,0,0,0,0,0,0],"split_type":[0,0,0,0,0,0,0,0,0,0,0,0,0,0,0],"sum_hessian":[4.82E2,3.85E2,9.7E1,8.6E1,2.99E2,1.8E1,7.9E1,5.7E1,2.9E1,9.4E1,2.05E2,7E0,1.1E1,4.5E1,3.4E1],"tree_param":{"num_deleted":"0","num_feature":"88","num_nodes":"15","size_leaf_vector":"1"}},{"base_weights":[9.140305E-2,8.642673E0,-1.4626338E0,6.4553623E0,1.1087655E0,2.6344993E0,-3.509888E0,4.795259E-1,-1.6603146E-2,4.474392E-2,3.205391E-1,5.518083E-2,-2.3200165E-1],"categories":[],"categories_nodes":[],"categories_segments":[],"categories_sizes":[],"default_left":[0,0,0,0,0,0,0,0,0,0,0,0,0],"id":10,"left_children":[1,3,5,7,-1,9,11,-1,-1,-1,-1,-1,-1],"loss_changes":[6.739811E3,2.0081914E3,3.6173286E3,1.500573E3,0E0,9.3085266E2,1.5084075E3,0E0,0E0,0E0,0E0,0E0,0E0],"parents":[2147483647,0,0,1,1,2,2,3,3,5,5,6,6],"right_children":[2,4,6,8,-1,10,12,-1,-1,-1,-1,-1,-1],"split_conditions":[-5.6E0,6.2455697E0,1.132E2,1.161E2,1.1087655E0,3.3929497E1,1.0832913E2,4.795259E-1,-1.6603146E-2,4.474392E-2,3.205391E-1,5.518083E-2,-2.3200165E-1],"split_indices":[41,26,38,38,0,21,0,0,0,0,0,0,0],"split_type":[0,0,0,0,0,0,0,0,0,0,0,0,0],"sum_hessian":[5.03E2,7.6E1,4.27E2,6.8E1,8E0,1.42E2,2.85E2,4.6E1,2.2E1,9.9E1,4.3E1,5.6E1,2.29E2],"tree_param":{"num_deleted":"0","num_feature":"88","num_nodes":"13","size_leaf_vector":"1"}},{"base_weights":[-7.164648E-2,-5.971118E0,3.2046719E0,-1.1141287E1,-4.412098E0,1.791239E0,9.30752E0,-7.527086E-1,-1.1235871E-1,-3.114507E-1,3.371786E-2,1.3527827E-1,-2.988089E-1,5.6393725E-1,-0E0],"categories":[],"categories_nodes":[],"categories_segments":[],"categories_sizes":[],"default_left":[0,0,0,0,0,0,0,0,0,0,0,0,0,0,0],"id":11,"left_children":[1,3,5,7,9,11,13,-1,-1,-1,-1,-1,-1,-1,-1],"loss_changes":[9.201385E3,1.2641768E3,2.6006523E3,1.2461533E3,1.249561E3,1.8132932E3,1.0409678E3,0E0,0E0,0E0,0E0,0E0,0E0,0E0,0E0],"parents":[2147483647,0,0,1,1,2,2,3,3,4,4,5,5,6,6],"right_children":[2,4,6,8,10,12,14,-1,-1,-1,-1,-1,-1,-1,-1],"split_conditions":[-3E0,7.4530754E0,9.8E0,6E-3,1.2924708E1,5.3333335E0,2.49E1,-7.527086E-1,-1.1235871E-1,-3.114507E-1,3.371786E-2,1.3527827E-1,-2.988089E-1,5.6393725E-1,-0E0],"split_indices":[42,10,42,59,19,72,63,0,0,0,0,0,0,0,0],"split_type":[0,0,0,0,0,0,0,0,0,0,0,0,0,0,0],"sum_hessian":[4.72E2,1.68E2,3.04E2,3.6E1,1.32E2,2.49E2,5.5E1,2.4E1,1.2E1,9.7E1,3.5E1,2.24E2,2.5E1,4.5E1,1E1],"tree_param":{"num_deleted":"0","num_feature":"88","num_nodes":"15","size_leaf_vector":"1"}},{"base_weights":[-9.550248E-2,-7.0596313E0,1.4260308E0,9.6653086E-1,-1.2009565E1,-2.543464E0,3.0786843E0,4.892451E-1,-2.23174E-1,-7.0296186E-1,-6.977678E-2,-7.214195E-2,-5.23885E-1,3.1991422E-1,4.70913E-2],"categories":[],"categories_nodes":[],"categories_segments":[],"categories_sizes":[],"default_left":[0,0,0,0,0,0,0,0,0,0,0,0,0,0,0],"id":12,"left_children":[1,3,5,7,9,11,13,-1,-1,-1,-1,-1,-1,-1,-1],"loss_changes":[5.1408936E3,3.4851577E3,2.6268882E3,1.7659448E3,1.1278159E3,9.942534E2,1.9846489E3,0E0,0E0,0E0,0E0,0E0,0E0,0E0,0E0],"parents":[2147483647,0,0,1,1,2,2,3,3,4,4,5,5,6,6],"right_children":[2,4,6,8,10,12,14,-1,-1,-1,-1,-1,-1,-1,-1],"split_conditions":[-5.6E0,3.2928678E-1,1.0053571E0,5.6625153E1,4.165502E0,6.161333E0,1.127E2,4.892451E-1,-2.23174E-1,-7.0296186E-1,-6.977678E-2,-7.214195E-2,-5.23885E-1,3.1991422E-1,4.70913E-2],"split_indices":[40,23,47,25,29,13,38,0,0,0,0,0,0,0,0],"split_type":[0,0,0,0,0,0,0,0,0,0,0,0,0,0,0],"sum_hessian":[4.81E2,8.5E1,3.96E2,3.3E1,5.2E1,1.16E2,2.8E2,1.2E1,2.1E1,4.3E1,9E0,1.04E2,1.2E1,1.08E2,1.72E2],"tree_param":{"num_deleted":"0","num_feature":"88","num_nodes":"15","size_leaf_vector":"1"}},{"base_weights":[2.2922532E-1,-2.6376557E0,3.9508574E0,-8.117956E0,-9.92161E-1,-3.2083302E0,5.1963196E0,-2.8627953E-1,-1.1386265E0,-2.1563302E-1,1.6775295E-1,-2.8115815E-1,2.0784722E-1,3.0225632E-1,-2.7873605E-1],"categories":[],"categories_nodes":[],"categories_segments":[],"categories_sizes":[],"default_left":[0,0,0,0,0,0,0,0,0,0,0,0,0,0,0],"id":13,"left_children":[1,3,5,7,9,11,13,-1,-1,-1,-1,-1,-1,-1,-1],"loss_changes":[5.1001694E3,2.4141436E3,1.8889688E3,1.8986428E3,3.0607546E3,6.166324E2,1.6950049E3,0E0,0E0,0E0,0E0,0E0,0E0,0E0,0E0],"parents":[2147483647,0,0,1,1,2,2,3,3,4,4,5,5,6,6],"right_children":[2,4,6,8,10,12,14,-1,-1,-1,-1,-1,-1,-1,-1],"split_conditions":[1.155E2,-4E-2,1.5431034E1,1.6355438E0,-1.1E0,3.4E0,1.6763563E1,-2.8627953E-1,-1.1386265E0,-2.1563302E-1,1.6775295E-1,-2.8115815E-1,2.0784722E-1,3.0225632E-1,-2.7873605E-1],"split_indices":[39,59,67,5,63,52,15,0,0,0,0,0,0,0,0],"split_type":[0,0,0,0,0,0,0,0,0,0,0,0,0,0,0],"sum_hessian":[4.74E2,2.68E2,2.06E2,6E1,2.08E2,3E1,1.76E2,5.4E1,6E0,1.18E2,9E1,2.3E1,7E0,1.64E2,1.2E1],"tree_param":{"num_deleted":"0","num_feature":"88","num_nodes":"15","size_leaf_vector":"1"}},{"base_weights":[2.8595412E-1,-1.3414946E0,1.1151951E1,-5.7686524E0,4.8179063E-1,4.132206E0,1.4793701E1,-1.9798881E-1,-5.7380044E-1,1.433001E-1,-8.826015E-2,7.409384E-1,-9.9105805E-2,8.013259E-1,2.1657081E-1],"categories":[],"categories_nodes":[],"categories_segments":[],"categories_sizes":[],"default_left":[0,0,0,0,0,0,0,0,0,0,0,0,0,0,0],"id":14,"left_children":[1,3,5,7,9,11,13,-1,-1,-1,-1,-1,-1,-1,-1],"loss_changes":[8.416972E3,3.349998E3,1.4532534E3,1.1505898E3,1.5910745E3,1.6333494E3,3.6690918E2,0E0,0E0,0E0,0E0,0E0,0E0,0E0,0E0],"parents":[2147483647,0,0,1,1,2,2,3,3,4,4,5,5,6,6],"right_children":[2,4,6,8,10,12,14,-1,-1,-1,-1,-1,-1,-1,-1],"split_conditions":[9.8E0,-5.7E0,1.7089285E1,4.5917763E1,5.500687E-1,-2.0821493E0,6.7887135E0,-1.9798881E-1,-5.7380044E-1,1.433001E-1,-8.826015E-2,7.409384E-1,-9.9105805E-2,8.013259E-1,2.1657081E-1],"split_indices":[42,42,66,3,2,5,5,0,0,0,0,0,0,0,0],"split_type":[0,0,0,0,0,0,0,0,0,0,0,0,0,0,0],"sum_hessian":[4.72E2,4.12E2,6E1,1.19E2,2.93E2,2.2E1,3.8E1,9.3E1,2.6E1,1.42E2,1.51E2,7E0,1.5E1,3.3E1,5E0],"tree_param":{"num_deleted":"0","num_feature":"88","num_nodes":"15","size_leaf_vector":"1"}},{"base_weights":[-5.6508124E-1,-2.6984537E0,3.3970203E0,2.4934323E0,-4.082747E0,2.0976703E0,1.3819713E1,-1.899956E-1,3.0240038E-1,-7.771956E-2,-4.3429515E-1,1.5978955E-1,-3.1412628E-1,9.8627234E-1,4.237565E-1],"categories":[],"categories_nodes":[],"categories_segments":[],"categories_sizes":[],"default_left":[0,0,0,0,0,0,0,0,0,0,0,0,0,0,0],"id":15,"left_children":[1,3,5,7,9,11,13,-1,-1,-1,-1,-1,-1,-1,-1],"loss_changes":[4.0076292E3,2.2347795E3,2.182155E3,1.5235188E3,2.8076506E3,1.4189819E3,2.1969458E2,0E0,0E0,0E0,0E0,0E0,0E0,0E0,0E0],"parents":[2147483647,0,0,1,1,2,2,3,3,4,4,5,5,6,6],"right_children":[2,4,6,8,10,12,14,-1,-1,-1,-1,-1,-1,-1,-1],"split_conditions":[1.04375E0,3.9780514E1,9.5336895E0,7.904063E0,1.2768843E0,1.8289664E0,1.0502425E1,-1.899956E-1,3.0240038E-1,-7.771956E-2,-4.3429515E-1,1.5978955E-1,-3.1412628E-1,9.8627234E-1,4.237565E-1],"split_indices":[47,4,29,10,5,17,18,0,0,0,0,0,0,0,0],"split_type":[0,0,0,0,0,0,0,0,0,0,0,0,0,0,0],"sum_hessian":[4.7E2,3.06E2,1.64E2,6.4E1,2.42E2,1.48E2,1.6E1,2.3E1,4.1E1,1.58E2,8.4E1,1.32E2,1.6E1,5E0,1.1E1],"tree_param":{"num_deleted":"0","num_feature":"88","num_nodes":"15","size_leaf_vector":"1"}},{"base_weights":[-1.414642E-1,-5.794841E0,2.1432836E0,-4.6172423E0,-1.5109107E1,-2.4230395E-1,4.996649E0,-3.6108992E-1,1.2881535E-2,-9.014074E-1,-3.483869E-1,1.7571943E-1,-1.311958E-1,-1.8153457E-2,3.6526743E-1],"categories":[],"categories_nodes":[],"categories_segments":[],"categories_sizes":[],"default_left":[0,0,0,0,0,0,0,0,0,0,0,0,0,0,0],"id":16,"left_children":[1,3,5,7,9,11,13,-1,-1,-1,-1,-1,-1,-1,-1],"loss_changes":[5.968274E3,1.309418E3,2.2442861E3,1.5435259E3,6.898096E1,1.6374019E3,1.8648721E3,0E0,0E0,0E0,0E0,0E0,0E0,0E0,0E0],"parents":[2147483647,0,0,1,1,2,2,3,3,4,4,5,5,6,6],"right_children":[2,4,6,8,10,12,14,-1,-1,-1,-1,-1,-1,-1,-1],"split_conditions":[-5.7E0,3.5333068E0,3.4E0,4.706897E0,-1E1,-1.912988E-1,7.9192348E0,-3.6108992E-1,1.2881535E-2,-9.014074E-1,-3.483869E-1,1.7571943E-1,-1.311958E-1,-1.8153457E-2,3.6526743E-1],"split_indices":[42,23,42,72,42,14,9,0,0,0,0,0,0,0,0],"split_type":[0,0,0,0,0,0,0,0,0,0,0,0,0,0,0],"sum_hessian":[4.58E2,1.31E2,3.27E2,1.19E2,1.2E1,1.79E2,1.48E2,7.7E1,4.2E1,7E0,5E0,6.9E1,1.1E2,4.5E1,1.03E2],"tree_param":{"num_deleted":"0","num_feature":"88","num_nodes":"15","size_leaf_vector":"1"}},{"base_weights":[-1.8354537E-1,-6.0519595E0,2.1283884E0,-4.0350204E0,-1.1396905E1,8.0519235E-1,7.592273E0,3.2672542E-1,-2.62137E-1,-2.0321684E-1,-7.423717E-1,1.6737838E-1,-6.6756256E-2,7.959816E-3,5.1038855E-1],"categories":[],"categories_nodes":[],"categories_segments":[],"categories_sizes":[],"default_left":[0,0,0,0,0,0,0,0,0,0,0,0,0,0,0],"id":17,"left_children":[1,3,5,7,9,11,13,-1,-1,-1,-1,-1,-1,-1,-1],"loss_changes":[6.336557E3,1.3233271E3,2.405555E3,1.3316094E3,7.5539746E2,1.4900304E3,1.2552441E3,0E0,0E0,0E0,0E0,0E0,0E0,0E0,0E0],"parents":[2147483647,0,0,1,1,2,2,3,3,4,4,5,5,6,6],"right_children":[2,4,6,8,10,12,14,-1,-1,-1,-1,-1,-1,-1,-1],"split_conditions":[-5.7E0,3.43435E1,9.8E0,2.2365469E1,-2.2E-2,-7.238361E-2,7.9192348E0,3.2672542E-1,-2.62137E-1,-2.0321684E-1,-7.423717E-1,1.6737838E-1,-6.6756256E-2,7.959816E-3,5.1038855E-1],"split_indices":[42,22,42,31,57,14,9,0,0,0,0,0,0,0,0],"split_type":[0,0,0,0,0,0,0,0,0,0,0,0,0,0,0],"sum_hessian":[4.63E2,1.3E2,3.33E2,9.7E1,3.3E1,2.7E2,6.3E1,9E0,8.8E1,1.2E1,2.1E1,1.23E2,1.47E2,1.7E1,4.6E1],"tree_param":{"num_deleted":"0","num_feature":"88","num_nodes":"15","size_leaf_vector":"1"}},{"base_weights":[1.2162106E0,-3.8419E-1,8.369328E0,-4.1487308E0,1.2629153E0,-3.0371306E0,1.0062216E1,-1.5120724E-2,-3.808596E-1,2.2561396E-2,5.118186E-1,1.5708725E-1,-4.6511897E-1,5.654679E-1,-2.8735897E-1],"categories":[],"categories_nodes":[],"categories_segments":[],"categories_sizes":[],"default_left":[0,0,0,0,0,0,0,0,0,0,0,0,0,0,0],"id":18,"left_children":[1,3,5,7,9,11,13,-1,-1,-1,-1,-1,-1,-1,-1],"loss_changes":[5.5740796E3,2.4859595E3,1.7832104E3,1.6190105E3,2.0175544E3,5.6479016E2,1.6706675E3,0E0,0E0,0E0,0E0,0E0,0E0,0E0,0E0],"parents":[2147483647,0,0,1,1,2,2,3,3,4,4,5,5,6,6],"right_children":[2,4,6,8,10,12,14,-1,-1,-1,-1,-1,-1,-1,-1],"split_conditions":[8.3E0,-5.7E0,1.4586206E1,4.1844826E1,3.3681248E1,3.269842E1,2.99E0,-1.5120724E-2,-3.808596E-1,2.2561396E-2,5.118186E-1,1.5708725E-1,-4.6511897E-1,5.654679E-1,-2.8735897E-1],"split_indices":[42,42,67,70,30,22,51,0,0,0,0,0,0,0,0],"split_type":[0,0,0,0,0,0,0,0,0,0,0,0,0,0,0],"sum_hessian":[4.84E2,3.97E2,8.7E1,1.2E2,2.77E2,1.1E1,7.6E1,5.8E1,6.2E1,2.56E2,2.1E1,6E0,5E0,7.1E1,5E0],"tree_param":{"num_deleted":"0","num_feature":"88","num_nodes":"15","size_leaf_vector":"1"}},{"base_weights":[3.0408856E-1,-1.7458652E0,4.3648834E0,-3.5311098E0,9.766442E-1,5.252531E0,-3.6903305E0,4.3511763E-1,-2.0109999E-1,-3.312527E-1,1.3950008E-1,1.07133664E-1,3.9312342E-1,5.7471514E-2,-5.502056E-1],"categories":[],"categories_nodes":[],"categories_segments":[],"categories_sizes":[],"default_left":[0,0,0,0,0,0,0,0,0,0,0,0,0,0,0],"id":19,"left_children":[1,3,5,7,9,11,13,-1,-1,-1,-1,-1,-1,-1,-1],"loss_changes":[3.9706604E3,1.548904E3,1.1835791E3,1.2206758E3,1.7856938E3,1.1382014E3,6.319724E2,0E0,0E0,0E0,0E0,0E0,0E0,0E0,0E0],"parents":[2147483647,0,0,1,1,2,2,3,3,4,4,5,5,6,6],"right_children":[2,4,6,8,10,12,14,-1,-1,-1,-1,-1,-1,-1,-1],"split_conditions":[3.4E0,1.0075E2,2.84E0,-5.9108157E0,-2.3E-2,8.511283E0,1.4979464E0,4.3511763E-1,-2.0109999E-1,-3.312527E-1,1.3950008E-1,1.07133664E-1,3.9312342E-1,5.7471514E-2,-5.502056E-1],"split_indices":[42,49,51,20,57,9,32,0,0,0,0,0,0,0,0],"split_type":[0,0,0,0,0,0,0,0,0,0,0,0,0,0,0],"sum_hessian":[4.73E2,3.15E2,1.58E2,1.9E2,1.25E2,1.43E2,1.5E1,6E0,1.84E2,2.3E1,1.02E2,6.7E1,7.6E1,1E1,5E0],"tree_param":{"num_deleted":"0","num_feature":"88","num_nodes":"15","size_leaf_vector":"1"}},{"base_weights":[-4.619803E-1,-1.7182478E0,3.589616E0,8.0942017E-1,-3.5317147E0,4.490534E0,-4.8727593E-1,8.160948E-2,-3.1128678E-1,-1.17311016E-1,-4.4502425E-1,-3.6569318E-1,2.7771255E-1],"categories":[],"categories_nodes":[],"categories_segments":[],"categories_sizes":[],"default_left":[0,0,0,0,0,0,0,0,0,0,0,0,0],"id":20,"left_children":[1,3,5,7,9,11,-1,-1,-1,-1,-1,-1,-1],"loss_changes":[2.5156252E3,1.7351869E3,1.4905188E3,9.38368E2,1.3528337E3,1.4741428E3,0E0,0E0,0E0,0E0,0E0,0E0,0E0],"parents":[2147483647,0,0,1,1,2,2,3,3,4,4,5,5],"right_children":[2,4,6,8,10,12,-1,-1,-1,-1,-1,-1,-1],"split_conditions":[1.7E-2,3E-1,3.05E0,1.6688496E1,3.1099248E0,3.5454643E1,-4.8727593E-1,8.160948E-2,-3.1128678E-1,-1.17311016E-1,-4.4502425E-1,-3.6569318E-1,2.7771255E-1],"split_indices":[57,41,51,15,8,3,0,0,0,0,0,0,0],"split_type":[0,0,0,0,0,0,0,0,0,0,0,0,0],"sum_hessian":[4.9E2,3.75E2,1.15E2,1.57E2,2.18E2,1.09E2,6E0,1.42E2,1.5E1,1.81E2,3.7E1,8E0,1.01E2],"tree_param":{"num_deleted":"0","num_feature":"88","num_nodes":"13","size_leaf_vector":"1"}},{"base_weights":[1.4874923E-2,-2.941161E0,3.3169591E0,-3.5149422E0,5.6108932E0,5.41328E0,5.3413326E-1,-2.0104817E-1,3.4483147E-1,4.021023E-1,-4.4240407E-3,1.9540566E-1,6.2805516E-1,5.073771E-1,-2.4730753E-2],"categories":[],"categories_nodes":[],"categories_segments":[],"categories_sizes":[],"default_left":[0,0,0,0,0,0,0,0,0,0,0,0,0,0,0],"id":21,"left_children":[1,3,5,7,9,11,13,-1,-1,-1,-1,-1,-1,-1,-1],"loss_changes":[4.792867E3,1.3093108E3,1.3446606E3,1.3395327E3,2.409527E2,1.3137288E3,1.02362195E3,0E0,0E0,0E0,0E0,0E0,0E0,0E0,0E0],"parents":[2147483647,0,0,1,1,2,2,3,3,4,4,5,5,6,6],"right_children":[2,4,6,8,10,12,14,-1,-1,-1,-1,-1,-1,-1,-1],"split_conditions":[3E-1,3.8405929E0,2.6365725E1,3.4934204E1,1.21243095E2,2.5767551E1,9.913E1,-2.0104817E-1,3.4483147E-1,4.021023E-1,-4.4240407E-3,1.9540566E-1,6.2805516E-1,5.073771E-1,-2.4730753E-2],"split_indices":[42,68,7,30,1,7,50,0,0,0,0,0,0,0,0],"split_type":[0,0,0,0,0,0,0,0,0,0,0,0,0,0,0],"sum_hessian":[4.87E2,2.57E2,2.3E2,2.42E2,1.5E1,1.3E2,1E2,2.32E2,1E1,1E1,5E0,1.1E2,2E1,8E0,9.2E1],"tree_param":{"num_deleted":"0","num_feature":"88","num_nodes":"15","size_leaf_vector":"1"}},{"base_weights":[1.891076E-1,-8.817556E-1,7.9690924E0,1.1851501E1,-1.3220593E0,2.4116433E0,1.3151344E1,9.489096E-1,1.8096487E-1,-8.471956E-2,3.920498E-1,4.0368038E-1,-2.1467344E-1,1.4333357E-1,7.517131E-1],"categories":[],"categories_nodes":[],"categories_segments":[],"categories_sizes":[],"default_left":[0,0,0,0,0,0,0,0,0,0,0,0,0,0,0],"id":22,"left_children":[1,3,5,7,9,11,13,-1,-1,-1,-1,-1,-1,-1,-1],"loss_changes":[3.9249766E3,2.347163E3,1.5703911E3,6.726832E2,1.3950002E3,1.2101409E3,4.6644336E2,0E0,0E0,0E0,0E0,0E0,0E0,0E0,0E0],"parents":[2147483647,0,0,1,1,2,2,3,3,4,4,5,5,6,6],"right_children":[2,4,6,8,10,12,14,-1,-1,-1,-1,-1,-1,-1,-1],"split_conditions":[9.8E0,1.096E2,-6E-1,-3E-3,8.305677E0,-2E0,1.4586206E1,9.489096E-1,1.8096487E-1,-8.471956E-2,3.920498E-1,4.0368038E-1,-2.1467344E-1,1.4333357E-1,7.517131E-1],"split_indices":[42,37,43,58,8,44,67,0,0,0,0,0,0,0,0],"split_type":[0,0,0,0,0,0,0,0,0,0,0,0,0,0,0],"sum_hessian":[4.67E2,4.12E2,5.5E1,1.2E1,4E2,2.8E1,2.7E1,5E0,7E0,3.86E2,1.4E1,1.5E1,1.3E1,5E0,2.2E1],"tree_param":{"num_deleted":"0","num_feature":"88","num_nodes":"15","size_leaf_vector":"1"}},{"base_weights":[-3.969417E-1,2.4479494E0,-1.921666E0,3.1298985E0,-3.9664656E-1,3.2668517E0,-2.8059196E0,5.929352E-2,3.8233185E-1,3.369821E-1,-1.8125443E-1,3.998221E-1,-1.6839622E-1],"categories":[],"categories_nodes":[],"categories_segments":[],"categories_sizes":[],"default_left":[0,0,0,0,0,0,0,0,0,0,0,0,0],"id":23,"left_children":[1,3,5,7,-1,9,11,-1,-1,-1,-1,-1,-1],"loss_changes":[2.1129175E3,1.2507262E3,1.4724878E3,1.3911351E3,0E0,1.175331E3,1.7028545E3,0E0,0E0,0E0,0E0,0E0,0E0],"parents":[2147483647,0,0,1,1,2,2,3,3,5,5,6,6],"right_children":[2,4,6,8,-1,10,12,-1,-1,-1,-1,-1,-1],"split_conditions":[1.132E2,3.5E0,1.125E2,1.4216325E1,-3.9664656E-1,5.2544346E0,-5.499207E0,5.929352E-2,3.8233185E-1,3.369821E-1,-1.8125443E-1,3.998221E-1,-1.6839622E-1],"split_indices":[38,55,37,15,0,12,20,0,0,0,0,0,0],"split_type":[0,0,0,0,0,0,0,0,0,0,0,0,0],"sum_hessian":[4.83E2,1.68E2,3.15E2,1.59E2,9E0,4.5E1,2.7E2,1.13E2,4.6E1,3E1,1.5E1,1.2E1,2.58E2],"tree_param":{"num_deleted":"0","num_feature":"88","num_nodes":"13","size_leaf_vector":"1"}},{"base_weights":[-2.3333289E-1,2.5910356E0,-2.4886587E0,1.3291975E1,1.7474002E0,-4.8930442E-1,-5.73282E0,1.8352485E-1,8.6593074E-1,4.207502E-1,2.7008196E-2,-6.697579E-2,4.0790388E-1,-1.9815876E-1,-7.5995266E-1],"categories":[],"categories_nodes":[],"categories_segments":[],"categories_sizes":[],"default_left":[0,0,0,0,0,0,0,0,0,0,0,0,0,0,0],"id":24,"left_children":[1,3,5,7,9,11,13,-1,-1,-1,-1,-1,-1,-1,-1],"loss_changes":[3.0130544E3,1.8418425E3,1.6971567E3,4.4350317E2,1.572158E3,1.2315432E3,1.5451335E3,0E0,0E0,0E0,0E0,0E0,0E0,0E0,0E0],"parents":[2147483647,0,0,1,1,2,2,3,3,4,4,5,5,6,6],"right_children":[2,4,6,8,10,12,14,-1,-1,-1,-1,-1,-1,-1,-1],"split_conditions":[3E-1,5.3072285E1,1.9E0,4E-1,9.8865E1,1.0212E2,4.3689655E1,1.8352485E-1,8.6593074E-1,4.207502E-1,2.7008196E-2,-6.697579E-2,4.0790388E-1,-1.9815876E-1,-7.5995266E-1],"split_indices":[41,25,45,45,50,50,70,0,0,0,0,0,0,0,0],"split_type":[0,0,0,0,0,0,0,0,0,0,0,0,0,0,0],"sum_hessian":[4.69E2,2.08E2,2.61E2,1.3E1,1.95E2,1.63E2,9.8E1,5E0,8E0,2.8E1,1.67E2,1.5E2,1.3E1,8.5E1,1.3E1],"tree_param":{"num_deleted":"0","num_feature":"88","num_nodes":"15","size_leaf_vector":"1"}},{"base_weights":[4.203662E-1,-4.0161257E0,1.9960321E0,-1.6330425E-1,-1.0720483E1,8.6981606E-1,6.4393616E0,-1.6795082E-1,2.6120207E-1,-3.5274237E-1,-8.7832624E-1,1.2292172E-1,-1.8927388E-1,-1.7260684E-2,4.260111E-1],"categories":[],"categories_nodes":[],"categories_segments":[],"categories_sizes":[],"default_left":[0,0,0,0,0,0,0,0,0,0,0,0,0,0,0],"id":25,"left_children":[1,3,5,7,9,11,13,-1,-1,-1,-1,-1,-1,-1,-1],"loss_changes":[3.440333E3,3.3232158E3,1.8016493E3,1.480341E3,9.193008E2,2.1774304E3,1.0405664E3,0E0,0E0,0E0,0E0,0E0,0E0,0E0,0E0],"parents":[2147483647,0,0,1,1,2,2,3,3,4,4,5,5,6,6],"right_children":[2,4,6,8,10,12,14,-1,-1,-1,-1,-1,-1,-1,-1],"split_conditions":[-5.7E0,1.7454207E-1,9.8E0,-1.3672772E-1,3.433549E1,2.6768422E0,7.9192348E0,-1.6795082E-1,2.6120207E-1,-3.5274237E-1,-8.7832624E-1,1.2292172E-1,-1.8927388E-1,-1.7260684E-2,4.260111E-1],"split_indices":[42,5,42,14,21,35,9,0,0,0,0,0,0,0,0],"split_type":[0,0,0,0,0,0,0,0,0,0,0,0,0,0,0],"sum_hessian":[4.88E2,1.27E2,3.61E2,8.2E1,4.5E1,2.9E2,7.1E1,5.2E1,3E1,3.2E1,1.3E1,2.17E2,7.3E1,1.7E1,5.4E1],"tree_param":{"num_deleted":"0","num_feature":"88","num_nodes":"15","size_leaf_vector":"1"}},{"base_weights":[-3.064874E-1,-2.8929715E0,1.854304E0,-6.911211E0,-1.5154618E0,2.5569556E0,-6.8433433E0,2.6033244E-1,-4.1706315E-1,-6.019141E-1,-4.1136425E-2,-3.3549854E-1,1.4864314E-1,-6.269023E-1,2.5074405E-3],"categories":[],"categories_nodes":[],"categories_segments":[],"categories_sizes":[],"default_left":[0,0,0,0,0,0,0,0,0,0,0,0,0,0,0],"id":26,"left_children":[1,3,5,7,9,11,13,-1,-1,-1,-1,-1,-1,-1,-1],"loss_changes":[2.6771306E3,1.1815052E3,1.6279326E3,1.0415317E3,1.1765297E3,9.74593E2,7.926293E2,0E0,0E0,0E0,0E0,0E0,0E0,0E0,0E0],"parents":[2147483647,0,0,1,1,2,2,3,3,4,4,5,5,6,6],"right_children":[2,4,6,8,10,12,14,-1,-1,-1,-1,-1,-1,-1,-1],"split_conditions":[-2E0,5.56757E1,4.8726444E1,7E0,6.036939E0,3.428062E1,2.771492E1,2.6033244E-1,-4.1706315E-1,-6.019141E-1,-4.1136425E-2,-3.3549854E-1,1.4864314E-1,-6.269023E-1,2.5074405E-3],"split_indices":[42,24,28,18,10,3,31,0,0,0,0,0,0,0,0],"split_type":[0,0,0,0,0,0,0,0,0,0,0,0,0,0,0],"sum_hessian":[4.75E2,2.16E2,2.59E2,5.3E1,1.63E2,2.41E2,1.8E1,5E0,4.8E1,8E0,1.55E2,9E0,2.32E2,9E0,9E0],"tree_param":{"num_deleted":"0","num_feature":"88","num_nodes":"15","size_leaf_vector":"1"}},{"base_weights":[-2.3934537E-1,-2.8077965E0,2.829064E0,-3.4215848E0,3.7478342E0,-1.3148925E0,4.6323476E0,-2.0558932E-1,1.2569508E-1,-1.9719808E-1,4.0589887E-1,2.8137106E-1,-2.2650324E-1,1.7713457E-1,6.6119426E-1],"categories":[],"categories_nodes":[],"categories_segments":[],"categories_sizes":[],"default_left":[0,0,0,0,0,0,0,0,0,0,0,0,0,0,0],"id":27,"left_children":[1,3,5,7,9,11,13,-1,-1,-1,-1,-1,-1,-1,-1],"loss_changes":[3.9091196E3,1.1119021E3,1.7026772E3,1.0374492E3,8.728629E2,1.6128878E3,1.3770881E3,0E0,0E0,0E0,0E0,0E0,0E0,0E0,0E0],"parents":[2147483647,0,0,1,1,2,2,3,3,4,4,5,5,6,6],"right_children":[2,4,6,8,10,12,14,-1,-1,-1,-1,-1,-1,-1,-1],"split_conditions":[3E-1,3.3206852E1,7.9290442E0,4.8537746E1,-1.823562E0,-3.8E0,9.692171E0,-2.0558932E-1,1.2569508E-1,-1.9719808E-1,4.0589887E-1,2.8137106E-1,-2.2650324E-1,1.7713457E-1,6.6119426E-1],"split_indices":[42,30,9,28,23,63,29,0,0,0,0,0,0,0,0],"split_type":[0,0,0,0,0,0,0,0,0,0,0,0,0,0,0],"sum_hessian":[4.92E2,2.68E2,2.24E2,2.46E2,2.2E1,6.8E1,1.56E2,2.21E2,2.5E1,8E0,1.4E1,2.1E1,4.7E1,1.41E2,1.5E1],"tree_param":{"num_deleted":"0","num_feature":"88","num_nodes":"15","size_leaf_vector":"1"}},{"base_weights":[-4.001868E-1,-1.5945836E0,6.9311185E0,-3.9799361E0,3.150193E-1,3.4386995E0,1.2503286E1,-7.673418E-2,-3.5769105E-1,-5.4899048E-2,2.0936386E-1,3.3871278E-1,-8.184765E-2,2.48654E-1,1.0568768E0],"categories":[],"categories_nodes":[],"categories_segments":[],"categories_sizes":[],"default_left":[0,0,0,0,0,0,0,0,0,0,0,0,0,0,0],"id":28,"left_children":[1,3,5,7,9,11,13,-1,-1,-1,-1,-1,-1,-1,-1],"loss_changes":[4.1875244E3,1.8764762E3,1.2098823E3,1.3939521E3,1.269185E3,7.6967236E2,1.4021497E3,0E0,0E0,0E0,0E0,0E0,0E0,0E0,0E0],"parents":[2147483647,0,0,1,1,2,2,3,3,4,4,5,5,6,6],"right_children":[2,4,6,8,10,12,14,-1,-1,-1,-1,-1,-1,-1,-1],"split_conditions":[9.2E0,-2.5E0,2.6119448E1,-1.6218928E-1,1.4849098E1,5.4697447E0,4.0233765E1,-7.673418E-2,-3.5769105E-1,-5.4899048E-2,2.0936386E-1,3.3871278E-1,-8.184765E-2,2.48654E-1,1.0568768E0],"split_indices":[42,42,6,5,15,12,28,0,0,0,0,0,0,0,0],"split_type":[0,0,0,0,0,0,0,0,0,0,0,0,0,0,0],"sum_hessian":[4.74E2,4.09E2,6.5E1,1.81E2,2.28E2,4.2E1,2.3E1,1.04E2,7.7E1,1.68E2,6E1,2.5E1,1.7E1,1.4E1,9E0],"tree_param":{"num_deleted":"0","num_feature":"88","num_nodes":"15","size_leaf_vector":"1"}},{"base_weights":[1.4656113E-1,-4.2727427E0,1.418094E0,-3.0349112E0,-1.1591832E1,2.5198367E0,-1.7011646E0,-3.8653472E-1,-3.820892E-2,-8.162605E-2,-8.097491E-1,-3.6253485E-1,1.4305514E-1,-6.6780084E-1,-2.6565755E-2],"categories":[],"categories_nodes":[],"categories_segments":[],"categories_sizes":[],"default_left":[0,0,0,0,0,0,0,0,0,0,0,0,0,0,0],"id":29,"left_children":[1,3,5,7,9,11,13,-1,-1,-1,-1,-1,-1,-1,-1],"loss_changes":[2.741666E3,9.0984424E2,1.3114617E3,1.00757263E3,6.258722E2,9.762483E2,1.3423062E3,0E0,0E0,0E0,0E0,0E0,0E0,0E0,0E0],"parents":[2147483647,0,0,1,1,2,2,3,3,4,4,5,5,6,6],"right_children":[2,4,6,8,10,12,14,-1,-1,-1,-1,-1,-1,-1,-1],"split_conditions":[-7.3E0,3.5333068E0,6.704429E0,-1.25E1,2.8768824E1,-1.057292E1,-5.9E0,-3.8653472E-1,-3.820892E-2,-8.162605E-2,-8.097491E-1,-3.6253485E-1,1.4305514E-1,-6.6780084E-1,-2.6565755E-2],"split_indices":[42,23,2,42,22,5,43,0,0,0,0,0,0,0,0],"split_type":[0,0,0,0,0,0,0,0,0,0,0,0,0,0,0],"sum_hessian":[4.84E2,1.07E2,3.77E2,9.4E1,1.3E1,2.79E2,9.8E1,2.9E1,6.5E1,5E0,8E0,8E0,2.71E2,7E0,9.1E1],"tree_param":{"num_deleted":"0","num_feature":"88","num_nodes":"15","size_leaf_vector":"1"}},{"base_weights":[-4.263025E-1,-4.2945213E0,8.5685045E-1,-1.0131814E1,-2.5020921E0,3.2379272E0,-1.0090338E0,-1.2537348E-1,-7.9318136E-1,1.6946038E-2,-2.8463584E-1,-9.691521E-3,3.2344034E-1,6.41213E-2,-1.906305E-1],"categories":[],"categories_nodes":[],"categories_segments":[],"categories_sizes":[],"default_left":[0,0,0,0,0,0,0,0,0,0,0,0,0,0,0],"id":30,"left_children":[1,3,5,7,9,11,13,-1,-1,-1,-1,-1,-1,-1,-1],"loss_changes":[2.3518582E3,1.1776077E3,1.5892905E3,1.0911948E3,8.4954395E2,1.7463976E3,1.3023245E3,0E0,0E0,0E0,0E0,0E0,0E0,0E0,0E0],"parents":[2147483647,0,0,1,1,2,2,3,3,4,4,5,5,6,6],"right_children":[2,4,6,8,10,12,14,-1,-1,-1,-1,-1,-1,-1,-1],"split_conditions":[1.125E2,-2.5177085E0,4.0435678E-4,4.180702E1,5.8933342E1,7.9824905E0,1.147E2,-1.2537348E-1,-7.9318136E-1,1.6946038E-2,-2.8463584E-1,-9.691521E-3,3.2344034E-1,6.41213E-2,-1.906305E-1],"split_indices":[39,26,14,69,24,9,38,0,0,0,0,0,0,0,0],"split_type":[0,0,0,0,0,0,0,0,0,0,0,0,0,0,0],"sum_hessian":[4.7E2,1.16E2,3.54E2,2.5E1,9.1E1,1.55E2,1.99E2,1.2E1,1.3E1,4.9E1,4.2E1,7.6E1,7.9E1,1.1E2,8.9E1],"tree_param":{"num_deleted":"0","num_feature":"88","num_nodes":"15","size_leaf_vector":"1"}},{"base_weights":[7.0706826E-1,-1.6990583E-1,5.636583E0,3.090721E0,-1.2060174E0,3.6531916E0,8.143167E-1,3.132966E-1,-8.2808346E-2,-6.441167E-1,-4.486456E-2,-3.4739585E-3,4.148236E-1],"categories":[],"categories_nodes":[],"categories_segments":[],"categories_sizes":[],"default_left":[0,0,0,0,0,0,0,0,0,0,0,0,0],"id":31,"left_children":[1,3,5,7,9,11,-1,-1,-1,-1,-1,-1,-1],"loss_changes":[2.118623E3,1.4152942E3,1.4341101E3,1.5453691E3,1.1163131E3,1.1288176E3,0E0,0E0,0E0,0E0,0E0,0E0,0E0],"parents":[2147483647,0,0,1,1,2,2,3,3,4,4,5,5],"right_children":[2,4,6,8,10,12,-1,-1,-1,-1,-1,-1,-1],"split_conditions":[9.2E0,4.0475597E1,2.5E0,3.2709015E1,-1.7E1,1.8E-2,8.143167E-1,3.132966E-1,-8.2808346E-2,-6.441167E-1,-4.486456E-2,-3.4739585E-3,4.148236E-1],"split_indices":[42,3,52,22,42,60,0,0,0,0,0,0,0],"split_type":[0,0,0,0,0,0,0,0,0,0,0,0,0],"sum_hessian":[4.87E2,4.15E2,7.2E1,9.9E1,3.16E2,6.3E1,9E0,5.9E1,4E1,6E0,3.1E2,3.6E1,2.7E1],"tree_param":{"num_deleted":"0","num_feature":"88","num_nodes":"13","size_leaf_vector":"1"}},{"base_weights":[1.0407528E-1,2.8107834E0,-1.4700898E0,3.7486959E0,-3.9874017E0,-4.714121E0,7.2417647E-1,3.0458915E-1,7.683366E-2,1.3205123E-1,-7.102123E-1,-1.1882924E-1,-5.0436914E-1,-4.489307E-1,9.246793E-2],"categories":[],"categories_nodes":[],"categories_segments":[],"categories_sizes":[],"default_left":[0,0,0,0,0,0,0,0,0,0,0,0,0,0,0],"id":32,"left_children":[1,3,5,7,9,11,13,-1,-1,-1,-1,-1,-1,-1,-1],"loss_changes":[2.015774E3,1.1392174E3,2.1371848E3,7.756399E2,1.5706841E3,1.4656045E3,1.9947778E3,0E0,0E0,0E0,0E0,0E0,0E0,0E0,0E0],"parents":[2147483647,0,0,1,1,2,2,3,3,4,4,5,5,6,6],"right_children":[2,4,6,8,10,12,14,-1,-1,-1,-1,-1,-1,-1,-1],"split_conditions":[1.132E2,5.3333335E0,8.0155325E0,3.2433968E1,3E0,3.2704628E1,-2.6399813E0,3.0458915E-1,7.683366E-2,1.3205123E-1,-7.102123E-1,-1.1882924E-1,-5.0436914E-1,-4.489307E-1,9.246793E-2],"split_indices":[38,72,10,21,53,21,11,0,0,0,0,0,0,0,0],"split_type":[0,0,0,0,0,0,0,0,0,0,0,0,0,0,0],"sum_hessian":[4.69E2,1.72E2,2.97E2,1.52E2,2E1,1.19E2,1.78E2,7.2E1,8E1,1.3E1,7E0,8.5E1,3.4E1,1.7E1,1.61E2],"tree_param":{"num_deleted":"0","num_feature":"88","num_nodes":"15","size_leaf_vector":"1"}},{"base_weights":[3.3066672E-1,4.7720747E0,-7.379284E-1,6.015858E0,-3.960387E0,-3.5204165E0,2.9207873E-1,1.7935434E-1,5.7203966E-1,-5.0893205E-1,1.20409094E-1,-2.7846226E-1,2.3989312E-2,-9.7883664E-2,8.559216E-2],"categories":[],"categories_nodes":[],"categories_segments":[],"categories_sizes":[],"default_left":[0,0,0,0,0,0,0,0,0,0,0,0,0,0,0],"id":33,"left_children":[1,3,5,7,9,11,13,-1,-1,-1,-1,-1,-1,-1,-1],"loss_changes":[2.3251404E3,1.080501E3,1.1357336E3,1.0171858E3,5.677272E2,8.8483203E2,9.3287366E2,0E0,0E0,0E0,0E0,0E0,0E0,0E0,0E0],"parents":[2147483647,0,0,1,1,2,2,3,3,4,4,5,5,6,6],"right_children":[2,4,6,8,10,12,14,-1,-1,-1,-1,-1,-1,-1,-1],"split_conditions":[1.128E2,3.493907E1,7.725305E0,4.3007996E1,1.0028E2,4E0,5.7421013E1,1.7935434E-1,5.7203966E-1,-5.0893205E-1,1.20409094E-1,-2.7846226E-1,2.3989312E-2,-9.7883664E-2,8.559216E-2],"split_indices":[37,21,10,27,49,44,24,0,0,0,0,0,0,0,0],"split_type":[0,0,0,0,0,0,0,0,0,0,0,0,0,0,0],"sum_hessian":[4.86E2,9.3E1,3.93E2,8.2E1,1.1E1,1.05E2,2.88E2,5.9E1,2.3E1,5E0,6E0,6.9E1,3.6E1,1.11E2,1.77E2],"tree_param":{"num_deleted":"0","num_feature":"88","num_nodes":"15","size_leaf_vector":"1"}},{"base_weights":[-3.47294E-2,5.1384554E0,-8.1304175E-1,6.7352116E-1,1.1494079E1,-1.4863142E0,4.1426907E0,2.796475E-1,-2.1441297E-1,2.1030009E-1,7.518311E-1,-9.1464706E-2,3.5956517E-1,-5.4158926E-2,5.083062E-1],"categories":[],"categories_nodes":[],"categories_segments":[],"categories_sizes":[],"default_left":[0,0,0,0,0,0,0,0,0,0,0,0,0,0,0],"id":34,"left_children":[1,3,5,7,9,11,13,-1,-1,-1,-1,-1,-1,-1,-1],"loss_changes":[1.8784474E3,1.709457E3,1.3656292E3,9.761671E2,5.0934888E2,1.092102E3,1.5689708E3,0E0,0E0,0E0,0E0,0E0,0E0,0E0,0E0],"parents":[2147483647,0,0,1,1,2,2,3,3,4,4,5,5,6,6],"right_children":[2,4,6,8,10,12,14,-1,-1,-1,-1,-1,-1,-1,-1],"split_conditions":[1.103E2,2.3E-2,4.7624254E0,1.3527944E0,-1.6537813E0,9.797587E0,-6E-3,2.796475E-1,-2.1441297E-1,2.1030009E-1,7.518311E-1,-9.1464706E-2,3.5956517E-1,-5.4158926E-2,5.083062E-1],"split_indices":[37,59,23,32,8,32,57,0,0,0,0,0,0,0,0],"split_type":[0,0,0,0,0,0,0,0,0,0,0,0,0,0,0],"sum_hessian":[4.63E2,5.9E1,4.04E2,3.6E1,2.3E1,3.57E2,4.7E1,1.8E1,1.8E1,9E0,1.4E1,3.45E2,1.2E1,2.6E1,2.1E1],"tree_param":{"num_deleted":"0","num_feature":"88","num_nodes":"15","size_leaf_vector":"1"}},{"base_weights":[-3.9891398E-1,-3.3664055E0,1.2801398E0,-1.5138158E0,-7.751907E0,-5.956091E-1,4.0043955E0,-1.7102216E-1,1.6476512E-1,2.3313792E-1,-4.7924048E-1,1.6219667E-1,-1.4762484E-1,2.4995625E-1,-2.0612235E-1],"categories":[],"categories_nodes":[],"categories_segments":[],"categories_sizes":[],"default_left":[0,0,0,0,0,0,0,0,0,0,0,0,0,0,0],"id":35,"left_children":[1,3,5,7,9,11,13,-1,-1,-1,-1,-1,-1,-1,-1],"loss_changes":[2.4411602E3,1.4099401E3,1.6059109E3,1.1870933E3,1.2750979E3,1.7112416E3,1.0764084E3,0E0,0E0,0E0,0E0,0E0,0E0,0E0,0E0],"parents":[2147483647,0,0,1,1,2,2,3,3,4,4,5,5,6,6],"right_children":[2,4,6,8,10,12,14,-1,-1,-1,-1,-1,-1,-1,-1],"split_conditions":[-3E0,1.7677757E0,2.8796862E1,1.0741072E0,7.095857E0,2.5889374E1,3.9E-2,-1.7102216E-1,1.6476512E-1,2.3313792E-1,-4.7924048E-1,1.6219667E-1,-1.4762484E-1,2.4995625E-1,-2.0612235E-1],"split_indices":[42,5,31,46,9,30,60,0,0,0,0,0,0,0,0],"split_type":[0,0,0,0,0,0,0,0,0,0,0,0,0,0,0],"sum_hessian":[4.86E2,1.75E2,3.11E2,1.25E2,5E1,1.85E2,1.26E2,9E1,3.5E1,6E0,4.4E1,7E1,1.15E2,1.13E2,1.3E1],"tree_param":{"num_deleted":"0","num_feature":"88","num_nodes":"15","size_leaf_vector":"1"}},{"base_weights":[-3.3509392E-1,8.281303E0,-7.477095E-1,-1.1522511E0,1.6376307E1,-7.171299E0,-2.79973E-1,-2.3256695E-1,1.3023116E-1,3.9667684E-1,1.0034351E0,-1.943299E-1,-7.140662E-1,-1.1750171E-1,5.123912E-2],"categories":[],"categories_nodes":[],"categories_segments":[],"categories_sizes":[],"default_left":[0,0,0,0,0,0,0,0,0,0,0,0,0,0,0],"id":36,"left_children":[1,3,5,7,9,11,13,-1,-1,-1,-1,-1,-1,-1,-1],"loss_changes":[1.7115867E3,1.7253737E3,1.371346E3,1.8300095E2,4.165576E1,6.0388794E2,1.1668763E3,0E0,0E0,0E0,0E0,0E0,0E0,0E0,0E0],"parents":[2147483647,0,0,1,1,2,2,3,3,4,4,5,5,6,6],"right_children":[2,4,6,8,10,12,14,-1,-1,-1,-1,-1,-1,-1,-1],"split_conditions":[1.094E2,-9E-1,-2.405694E0,5.609083E0,1.10112236E2,1.2059877E2,7.925709E0,-2.3256695E-1,1.3023116E-1,3.9667684E-1,1.0034351E0,-1.943299E-1,-7.140662E-1,-1.1750171E-1,5.123912E-2],"split_indices":[37,52,11,2,1,1,10,0,0,0,0,0,0,0,0],"split_type":[0,0,0,0,0,0,0,0,0,0,0,0,0,0,0],"sum_hessian":[4.77E2,2E1,4.57E2,1E1,1E1,2.9E1,4.28E2,5E0,5E0,5E0,5E0,2.2E1,7E0,1.65E2,2.63E2],"tree_param":{"num_deleted":"0","num_feature":"88","num_nodes":"15","size_leaf_vector":"1"}},{"base_weights":[-6.566715E-1,6.686709E-1,-3.0090513E0,1.117314E0,-8.326338E-1,-4.448064E0,4.897019E0,1.7635584E-2,4.6672693E-1,-2.8689903E-1,1.220279E-1,4.5595184E-1,-2.9600201E-2],"categories":[],"categories_nodes":[],"categories_segments":[],"categories_sizes":[],"default_left":[0,0,0,0,0,0,0,0,0,0,0,0,0],"id":37,"left_children":[1,3,5,7,-1,9,11,-1,-1,-1,-1,-1,-1],"loss_changes":[1.5235186E3,2.4618E3,2.0456803E3,1.9174246E3,0E0,1.3625186E3,6.639536E2,0E0,0E0,0E0,0E0,0E0,0E0],"parents":[2147483647,0,0,1,1,2,2,3,3,5,5,6,6],"right_children":[2,4,6,8,-1,10,12,-1,-1,-1,-1,-1,-1],"split_conditions":[1.8683447E0,7.294002E0,3.3681248E1,3.2E-2,-8.326338E-1,4.7041393E1,1.0206E2,1.7635584E-2,4.6672693E-1,-2.8689903E-1,1.220279E-1,4.5595184E-1,-2.9600201E-2],"split_indices":[32,12,30,57,0,3,49,0,0,0,0,0,0],"split_type":[0,0,0,0,0,0,0,0,0,0,0,0,0],"sum_hessian":[4.85E2,3.11E2,1.74E2,3.05E2,6E0,1.48E2,2.6E1,2.81E2,2.4E1,1.25E2,2.3E1,1.4E1,1.2E1],"tree_param":{"num_deleted":"0","num_feature":"88","num_nodes":"13","size_leaf_vector":"1"}},{"base_weights":[-8.116546E-1,-2.120825E0,1.861432E0,1.699178E0,-3.076118E0,5.9219046E0,7.4824244E-2,2.004164E-1,-2.1093073E-1,-2.586299E-1,-1.7998936E-2,8.1633165E-2,6.08375E-1,-1.7572227E-1,1.1460935E-1],"categories":[],"categories_nodes":[],"categories_segments":[],"categories_sizes":[],"default_left":[0,0,0,0,0,0,0,0,0,0,0,0,0,0,0],"id":38,"left_children":[1,3,5,7,9,11,13,-1,-1,-1,-1,-1,-1,-1,-1],"loss_changes":[1.7437899E3,1.2299824E3,1.1858486E3,9.629388E2,1.5195903E3,1.2928124E3,9.38711E2,0E0,0E0,0E0,0E0,0E0,0E0,0E0,0E0],"parents":[2147483647,0,0,1,1,2,2,3,3,4,4,5,5,6,6],"right_children":[2,4,6,8,10,12,14,-1,-1,-1,-1,-1,-1,-1,-1],"split_conditions":[3.4E0,1.0832913E2,-1.5331155E0,9.8E0,3.2417995E1,8E-1,1.4296314E0,2.004164E-1,-2.1093073E-1,-2.586299E-1,-1.7998936E-2,8.1633165E-2,6.08375E-1,-1.7572227E-1,1.1460935E-1],"split_indices":[42,0,5,62,22,45,5,0,0,0,0,0,0,0,0],"split_type":[0,0,0,0,0,0,0,0,0,0,0,0,0,0,0],"sum_hessian":[4.94E2,3.32E2,1.62E2,6.6E1,2.66E2,4.8E1,1.14E2,4.8E1,1.8E1,1.49E2,1.17E2,3E1,1.8E1,4.3E1,7.1E1],"tree_param":{"num_deleted":"0","num_feature":"88","num_nodes":"15","size_leaf_vector":"1"}},{"base_weights":[6.5663E-1,-1.0963305E0,2.4609692E0,-1.4439279E1,-3.5629392E-1,1.2166241E-2,5.9421525E0,-8.786859E-1,-3.5539517E-1,-1.2744196E-1,8.802601E-2,-3.2969597E-1,6.5125816E-2,3.448425E-1,-2.8719386E-1],"categories":[],"categories_nodes":[],"categories_segments":[],"categories_sizes":[],"default_left":[0,0,0,0,0,0,0,0,0,0,0,0,0,0,0],"id":39,"left_children":[1,3,5,7,9,11,13,-1,-1,-1,-1,-1,-1,-1,-1],"loss_changes":[1.4325621E3,2.253395E3,1.8978938E3,1.3591553E1,1.0304349E3,1.1482452E3,1.1062144E3,0E0,0E0,0E0,0E0,0E0,0E0,0E0,0E0],"parents":[2147483647,0,0,1,1,2,2,3,3,4,4,5,5,6,6],"right_children":[2,4,6,8,10,12,14,-1,-1,-1,-1,-1,-1,-1,-1],"split_conditions":[1.1589455E2,1.4357142E1,2E-1,1.0998122E0,-2.529221E-1,-2.85E0,1.173E2,-8.786859E-1,-3.5539517E-1,-1.2744196E-1,8.802601E-2,-3.2969597E-1,6.5125816E-2,3.448425E-1,-2.8719386E-1],"split_indices":[1,67,42,20,68,51,37,0,0,0,0,0,0,0,0],"split_type":[0,0,0,0,0,0,0,0,0,0,0,0,0,0,0],"sum_hessian":[4.49E2,2.28E2,2.21E2,1E1,2.18E2,1.31E2,9E1,5E0,5E0,1.07E2,1.11E2,2E1,1.11E2,8.4E1,6E0],"tree_param":{"num_deleted":"0","num_feature":"88","num_nodes":"15","size_leaf_vector":"1"}},{"base_weights":[3.7060997E-1,-1.7765694E0,1.8871988E0,-5.1224465E0,-4.6545804E-1,3.1765862E0,-1.2371017E0,-4.3162498E-1,-3.4721337E-2,-5.342316E-1,9.96576E-3,8.684554E-2,4.1116476E-1,1.2297509E-1,-3.158217E-1],"categories":[],"categories_nodes":[],"categories_segments":[],"categories_sizes":[],"default_left":[0,0,0,0,0,0,0,0,0,0,0,0,0,0,0],"id":40,"left_children":[1,3,5,7,9,11,13,-1,-1,-1,-1,-1,-1,-1,-1],"loss_changes":[1.5730836E3,8.698009E2,1.1488759E3,8.537323E2,1.001343E3,1.4268441E3,1.6102063E3,0E0,0E0,0E0,0E0,0E0,0E0,0E0,0E0],"parents":[2147483647,0,0,1,1,2,2,3,3,4,4,5,5,6,6],"right_children":[2,4,6,8,10,12,14,-1,-1,-1,-1,-1,-1,-1,-1],"split_conditions":[-2.3E0,-2.172875E0,6.0573564E0,8.767604E0,-1.7E1,6.060713E-1,1.3868805E0,-4.3162498E-1,-3.4721337E-2,-5.342316E-1,9.96576E-3,8.684554E-2,4.1116476E-1,1.2297509E-1,-3.158217E-1],"split_indices":[42,32,2,10,42,17,32,0,0,0,0,0,0,0,0],"split_type":[0,0,0,0,0,0,0,0,0,0,0,0,0,0,0],"sum_hessian":[4.79E2,1.98E2,2.81E2,5.4E1,1.44E2,1.99E2,8.2E1,2.9E1,2.5E1,7E0,1.37E2,1.57E2,4.2E1,4.8E1,3.4E1],"tree_param":{"num_deleted":"0","num_feature":"88","num_nodes":"15","size_leaf_vector":"1"}},{"base_weights":[5.005509E-1,9.756211E0,1.7321685E-1,7.531994E-1,-6.503197E-2,-2.8668952E-1,4.626115E0,-3.247644E-2,3.4687403E-1,4.7003958E-1,2.0814238E-2],"categories":[],"categories_nodes":[],"categories_segments":[],"categories_sizes":[],"default_left":[0,0,0,0,0,0,0,0,0,0,0],"id":41,"left_children":[1,3,5,-1,-1,7,9,-1,-1,-1,-1],"loss_changes":[1.4186409E3,9.8506384E2,9.4072003E2,0E0,0E0,1.0962926E3,8.5158923E2,0E0,0E0,0E0,0E0],"parents":[2147483647,0,0,1,1,2,2,5,5,6,6],"right_children":[2,4,6,-1,-1,8,10,-1,-1,-1,-1],"split_conditions":[1.094E2,5.8865166E1,1.6244005E1,7.531994E-1,-6.503197E-2,3.4934204E1,-5.1484957E0,-3.247644E-2,3.4687403E-1,4.7003958E-1,2.0814238E-2],"split_indices":[37,24,16,0,0,30,2,0,0,0,0],"split_type":[0,0,0,0,0,0,0,0,0,0,0],"sum_hessian":[4.69E2,1.4E1,4.55E2,9E0,5E0,4.14E2,4.1E1,3.96E2,1.8E1,1.8E1,2.3E1],"tree_param":{"num_deleted":"0","num_feature":"88","num_nodes":"11","size_leaf_vector":"1"}},{"base_weights":[-3.006708E-1,-1.2987521E0,4.426405E0,5.33832E-2,-3.1514115E0,8.880966E-1,7.510901E0,2.217269E-1,-6.4050935E-2,-2.1709597E-1,1.3774568E-1,1.960654E-1,-3.5270244E-1,5.2017945E-1,2.489461E-2],"categories":[],"categories_nodes":[],"categories_segments":[],"categories_sizes":[],"default_left":[0,0,0,0,0,0,0,0,0,0,0,0,0,0,0],"id":42,"left_children":[1,3,5,7,9,11,13,-1,-1,-1,-1,-1,-1,-1,-1],"loss_changes":[2.2462683E3,9.863686E2,8.8831335E2,1.3517229E3,1.1919503E3,1.0414542E3,8.767932E2,0E0,0E0,0E0,0E0,0E0,0E0,0E0,0E0],"parents":[2147483647,0,0,1,1,2,2,3,3,4,4,5,5,6,6],"right_children":[2,4,6,8,10,12,14,-1,-1,-1,-1,-1,-1,-1,-1],"split_conditions":[8.2E0,9.316748E-1,1.2967692E1,-3.2E0,2.9259487E1,1.3527944E0,2.7577864E1,2.217269E-1,-6.4050935E-2,-2.1709597E-1,1.3774568E-1,1.960654E-1,-3.5270244E-1,5.2017945E-1,2.489461E-2],"split_indices":[42,5,15,44,6,32,7,0,0,0,0,0,0,0,0],"split_type":[0,0,0,0,0,0,0,0,0,0,0,0,0,0,0],"sum_hessian":[4.72E2,3.91E2,8.1E1,2.27E2,1.64E2,3.9E1,4.2E1,5.2E1,1.75E2,1.37E2,2.7E1,2.9E1,1E1,2.9E1,1.3E1],"tree_param":{"num_deleted":"0","num_feature":"88","num_nodes":"15","size_leaf_vector":"1"}},{"base_weights":[-2.1384808E-1,1.0869616E0,-2.6810684E0,2.576341E0,-1.8373351E0,-4.7281194E0,4.1096396E0,7.5104795E-2,3.4868547E-1,-1.5805468E-1,2.717705E-1,-2.8328675E-1,1.4974202E-1,-3.4563372E-1,3.075951E-1],"categories":[],"categories_nodes":[],"categories_segments":[],"categories_sizes":[],"default_left":[0,0,0,0,0,0,0,0,0,0,0,0,0,0,0],"id":43,"left_children":[1,3,5,7,9,11,13,-1,-1,-1,-1,-1,-1,-1,-1],"loss_changes":[1.5246642E3,1.3643622E3,2.3189229E3,9.5264905E2,1.0537263E3,9.548994E2,9.625795E2,0E0,0E0,0E0,0E0,0E0,0E0,0E0,0E0],"parents":[2147483647,0,0,1,1,2,2,3,3,4,4,5,5,6,6],"right_children":[2,4,6,8,10,12,14,-1,-1,-1,-1,-1,-1,-1,-1],"split_conditions":[1.8467615E0,1.167E2,4.672155E1,1.4849098E1,6.023439E1,9.797587E0,-3.9E0,7.5104795E-2,3.4868547E-1,-1.5805468E-1,2.717705E-1,-2.8328675E-1,1.4974202E-1,-3.4563372E-1,3.075951E-1],"split_indices":[32,37,3,15,24,32,43,0,0,0,0,0,0,0,0],"split_type":[0,0,0,0,0,0,0,0,0,0,0,0,0,0,0],"sum_hessian":[4.71E2,3.09E2,1.62E2,2.05E2,1.04E2,1.25E2,3.7E1,1.67E2,3.8E1,8.9E1,1.5E1,1.12E2,1.3E1,5E0,3.2E1],"tree_param":{"num_deleted":"0","num_feature":"88","num_nodes":"15","size_leaf_vector":"1"}},{"base_weights":[4.6981636E-1,2.737907E0,-7.667111E-1,-9.949243E-1,4.2795005E0,-7.311222E0,8.6244615E-3,-3.8628963E-1,1.4188735E-1,3.5301125E-1,2.416893E-2,-5.3125066E-3,-5.912115E-1,2.321306E-2,-7.2841805E-1],"categories":[],"categories_nodes":[],"categories_segments":[],"categories_sizes":[],"default_left":[0,0,0,0,0,0,0,0,0,0,0,0,0,0,0],"id":44,"left_children":[1,3,5,7,9,11,13,-1,-1,-1,-1,-1,-1,-1,-1],"loss_changes":[1.2644298E3,9.2512463E2,1.4854415E3,1.2845576E3,1.1822273E3,9.99521E2,1.7532712E3,0E0,0E0,0E0,0E0,0E0,0E0,0E0,0E0],"parents":[2147483647,0,0,1,1,2,2,3,3,4,4,5,5,6,6],"right_children":[2,4,6,8,10,12,14,-1,-1,-1,-1,-1,-1,-1,-1],"split_conditions":[1.132E2,1.141028E2,1.2469338E1,-2.8E0,1.152625E0,1.184423E1,7.3942184E0,-3.8628963E-1,1.4188735E-1,3.5301125E-1,2.416893E-2,-5.3125066E-3,-5.912115E-1,2.321306E-2,-7.2841805E-1],"split_indices":[38,0,15,45,20,15,12,0,0,0,0,0,0,0,0],"split_type":[0,0,0,0,0,0,0,0,0,0,0,0,0,0,0],"sum_hessian":[4.47E2,1.57E2,2.9E2,4.6E1,1.11E2,2.9E1,2.61E2,1.6E1,3E1,6.3E1,4.8E1,1.2E1,1.7E1,2.55E2,6E0],"tree_param":{"num_deleted":"0","num_feature":"88","num_nodes":"15","size_leaf_vector":"1"}},{"base_weights":[3.4553744E-2,1.0843476E0,-2.9281108E0,3.068152E0,-1.2725227E0,-4.2279754E0,2.6415794E0,2.1933568E-1,-1.6900903E-1,-2.2277306E-1,8.560651E-2,-2.862675E-1,7.282005E-2,-4.5868065E-2,3.6916938E-1],"categories":[],"categories_nodes":[],"categories_segments":[],"categories_sizes":[],"default_left":[0,0,0,0,0,0,0,0,0,0,0,0,0,0,0],"id":45,"left_children":[1,3,5,7,9,11,13,-1,-1,-1,-1,-1,-1,-1,-1],"loss_changes":[1.4983181E3,1.6732091E3,9.353501E2,1.679649E3,1.5746228E3,8.9551025E2,4.3867487E2,0E0,0E0,0E0,0E0,0E0,0E0,0E0,0E0],"parents":[2147483647,0,0,1,1,2,2,3,3,4,4,5,5,6,6],"right_children":[2,4,6,8,10,12,14,-1,-1,-1,-1,-1,-1,-1,-1],"split_conditions":[1.9677965E1,5.8414716E-1,1.2E-2,1.171E2,4.448276E0,1.3107947E1,1.4441668E1,2.1933568E-1,-1.6900903E-1,-2.2277306E-1,8.560651E-2,-2.862675E-1,7.282005E-2,-4.5868065E-2,3.6916938E-1],"split_indices":[67,23,58,36,71,19,16,0,0,0,0,0,0,0,0],"split_type":[0,0,0,0,0,0,0,0,0,0,0,0,0,0,0],"sum_hessian":[4.78E2,3.54E2,1.24E2,1.92E2,1.62E2,1.01E2,2.3E1,1.6E2,3.2E1,7.8E1,8.4E1,8E1,2.1E1,1.4E1,9E0],"tree_param":{"num_deleted":"0","num_feature":"88","num_nodes":"15","size_leaf_vector":"1"}},{"base_weights":[1.7144276E-1,-5.6490797E-1,4.2774653E0,2.3644552E0,-1.5643075E0,1.2177064E1,2.220225E0,7.2932662E-3,4.0162227E-1,-1.4163299E-1,6.782512E-2,2.7244747E-1,7.200666E-1,3.16439E-1,-8.79367E-2],"categories":[],"categories_nodes":[],"categories_segments":[],"categories_sizes":[],"default_left":[0,0,0,0,0,0,0,0,0,0,0,0,0,0,0],"id":46,"left_children":[1,3,5,7,9,11,13,-1,-1,-1,-1,-1,-1,-1,-1],"loss_changes":[1.4912141E3,1.2307358E3,1.1575831E3,1.3390867E3,1.1679679E3,5.760742E1,1.0381079E3,0E0,0E0,0E0,0E0,0E0,0E0,0E0,0E0],"parents":[2147483647,0,0,1,1,2,2,3,3,4,4,5,5,6,6],"right_children":[2,4,6,8,10,12,14,-1,-1,-1,-1,-1,-1,-1,-1],"split_conditions":[1.72E1,4.106147E1,9.872E1,2.4210527E0,4.546496E1,2.4542452E-3,2.29E1,7.2932662E-3,4.0162227E-1,-1.4163299E-1,6.782512E-2,2.7244747E-1,7.200666E-1,3.16439E-1,-8.79367E-2],"split_indices":[63,3,48,68,4,23,63,0,0,0,0,0,0,0,0],"split_type":[0,0,0,0,0,0,0,0,0,0,0,0,0,0,0],"sum_hessian":[4.89E2,4.16E2,7.3E1,1.05E2,3.11E2,1.3E1,6E1,7.7E1,2.8E1,2.17E2,9.4E1,5E0,8E0,2.9E1,3.1E1],"tree_param":{"num_deleted":"0","num_feature":"88","num_nodes":"15","size_leaf_vector":"1"}},{"base_weights":[9.579014E-2,9.024721E0,-1.602604E-1,5.5908036E-1,2.2745769E-1,-2.7645369E0,9.049493E-1,-3.9175543E-1,-7.980991E-2,-8.3020315E-2,1.1742794E-1],"categories":[],"categories_nodes":[],"categories_segments":[],"categories_sizes":[],"default_left":[0,0,0,0,0,0,0,0,0,0,0],"id":47,"left_children":[1,3,5,-1,-1,7,9,-1,-1,-1,-1],"loss_changes":[1.1481672E3,2.5546997E1,1.3569203E3,0E0,0E0,8.115E2,1.2932133E3,0E0,0E0,0E0,0E0],"parents":[2147483647,0,0,1,1,2,2,5,5,6,6],"right_children":[2,4,6,-1,-1,8,10,-1,-1,-1,-1],"split_conditions":[-5.9108157E0,5.3660524E-1,1.126E2,5.5908036E-1,2.2745769E-1,7.9483666E0,7.725305E0,-3.9175543E-1,-7.980991E-2,-8.3020315E-2,1.1742794E-1],"split_indices":[20,8,39,0,0,10,10,0,0,0,0],"split_type":[0,0,0,0,0,0,0,0,0,0,0],"sum_hessian":[4.97E2,1.2E1,4.85E2,6E0,6E0,1.4E2,3.45E2,2.4E1,1.16E2,1.24E2,2.21E2],"tree_param":{"num_deleted":"0","num_feature":"88","num_nodes":"11","size_leaf_vector":"1"}},{"base_weights":[-2.2388014E-1,-7.0059323E0,2.0273833E-1,-1.0688713E1,-1.0736902E0,-8.277876E-1,3.213788E0,-6.76622E-1,-2.0219563E-1,-1.8726757E-1,7.349679E-2,-6.582243E-2,3.4632006E-1,-1.9973473E-4,3.8244113E-1],"categories":[],"categories_nodes":[],"categories_segments":[],"categories_sizes":[],"default_left":[0,0,0,0,0,0,0,0,0,0,0,0,0,0,0],"id":48,"left_children":[1,3,5,7,9,11,13,-1,-1,-1,-1,-1,-1,-1,-1],"loss_changes":[1.3690095E3,5.828862E2,1.3873329E3,2.029956E2,1.0049275E2,1.2772249E3,1.6307748E3,0E0,0E0,0E0,0E0,0E0,0E0,0E0,0E0],"parents":[2147483647,0,0,1,1,2,2,3,3,4,4,5,5,6,6],"right_children":[2,4,6,8,10,12,14,-1,-1,-1,-1,-1,-1,-1,-1],"split_conditions":[-2.2E-2,9.20897E0,2.4E-2,4.3E-2,1.176E2,7.767253E0,2.7377316E-1,-6.76622E-1,-2.0219563E-1,-1.8726757E-1,7.349679E-2,-6.582243E-2,3.4632006E-1,-1.9973473E-4,3.8244113E-1],"split_indices":[58,9,59,59,37,5,34,0,0,0,0,0,0,0,0],"split_type":[0,0,0,0,0,0,0,0,0,0,0,0,0,0,0],"sum_hessian":[4.69E2,2.6E1,4.43E2,1.5E1,1.1E1,3.31E2,1.12E2,9E0,6E0,5E0,6E0,3.13E2,1.8E1,6.6E1,4.6E1],"tree_param":{"num_deleted":"0","num_feature":"88","num_nodes":"15","size_leaf_vector":"1"}},{"base_weights":[-1.1928605E-2,1.2403036E0,-2.4313016E0,6.9552517E-1,8.429692E0,-8.879926E0,-9.8573864E-1,1.3171113E-1,-5.6984473E-2,6.088123E-1,5.369615E-2,-1.8432342E-1,-8.223411E-1,4.2131147E-1,-8.011516E-2],"categories":[],"categories_nodes":[],"categories_segments":[],"categories_sizes":[],"default_left":[0,0,0,0,0,0,0,0,0,0,0,0,0,0,0],"id":49,"left_children":[1,3,5,7,9,11,13,-1,-1,-1,-1,-1,-1,-1,-1],"loss_changes":[1.5184054E3,1.2761971E3,1.5716042E3,1.1061508E3,6.010742E2,1.0869209E3,8.4762915E2,0E0,0E0,0E0,0E0,0E0,0E0,0E0,0E0],"parents":[2147483647,0,0,1,1,2,2,3,3,4,4,5,5,6,6],"right_children":[2,4,6,8,10,12,14,-1,-1,-1,-1,-1,-1,-1,-1],"split_conditions":[5.8951324E1,5.9E0,-3.9E-2,-3.089928E-1,2.4531472E0,-5.7E-2,-4.9E0,1.3171113E-1,-5.6984473E-2,6.088123E-1,5.369615E-2,-1.8432342E-1,-8.223411E-1,4.2131147E-1,-8.011516E-2],"split_indices":[25,44,59,5,11,59,51,0,0,0,0,0,0,0,0],"split_type":[0,0,0,0,0,0,0,0,0,0,0,0,0,0,0],"sum_hessian":[4.97E2,3.28E2,1.69E2,3.07E2,2.1E1,2.9E1,1.4E2,1.49E2,1.58E2,1.3E1,8E0,1.9E1,1E1,7E0,1.33E2],"tree_param":{"num_deleted":"0","num_feature":"88","num_nodes":"15","size_leaf_vector":"1"}},{"base_weights":[-2.698184E-1,9.9638987E-1,-1.919902E0,1.8691729E0,-6.518885E0,7.043287E-1,-4.7968726E0,6.289626E-2,4.3433028E-1,1.1829751E-1,-5.0763613E-1,1.5692069E-1,-1.2147365E-1,-3.9364913E-1,-1.349442E-2],"categories":[],"categories_nodes":[],"categories_segments":[],"categories_sizes":[],"default_left":[0,0,0,0,0,0,0,0,0,0,0,0,0,0,0],"id":50,"left_children":[1,3,5,7,9,11,13,-1,-1,-1,-1,-1,-1,-1,-1],"loss_changes":[1.0155329E3,1.8258262E3,1.6018186E3,1.0066245E3,9.882306E2,8.6993304E2,1.3981543E3,0E0,0E0,0E0,0E0,0E0,0E0,0E0,0E0],"parents":[2147483647,0,0,1,1,2,2,3,3,4,4,5,5,6,6],"right_children":[2,4,6,8,10,12,14,-1,-1,-1,-1,-1,-1,-1,-1],"split_conditions":[8.232181E-1,3.5057106E1,4.2614735E1,3.1E-2,-4.6149883E0,3.911677E-1,6.182179E-1,6.289626E-2,4.3433028E-1,1.1829751E-1,-5.0763613E-1,1.5692069E-1,-1.2147365E-1,-3.9364913E-1,-1.349442E-2],"split_indices":[32,31,28,57,26,11,14,0,0,0,0,0,0,0,0],"split_type":[0,0,0,0,0,0,0,0,0,0,0,0,0,0,0],"sum_hessian":[4.82E2,2.73E2,2.09E2,2.46E2,2.7E1,1.1E2,9.9E1,2.28E2,1.8E1,8E0,1.9E1,6.2E1,4.8E1,5.8E1,4.1E1],"tree_param":{"num_deleted":"0","num_feature":"88","num_nodes":"15","size_leaf_vector":"1"}},{"base_weights":[-2.8650207E-3,3.898394E0,-7.047763E-1,-2.4474041E0,6.8660054E0,2.9341524E0,-1.614509E0,-3.4729967E-1,2.302311E-3,4.749281E-1,-1.1260078E-1,1.9300799E-1,-3.3248547E-1,-2.2621386E-1,-3.398425E-2],"categories":[],"categories_nodes":[],"categories_segments":[],"categories_sizes":[],"default_left":[0,0,0,0,0,0,0,0,0,0,0,0,0,0,0],"id":51,"left_children":[1,3,5,7,9,11,13,-1,-1,-1,-1,-1,-1,-1,-1],"loss_changes":[1.3292537E3,1.429375E3,1.372721E3,2.8451483E2,1.2705938E3,7.8654553E2,8.916079E2,0E0,0E0,0E0,0E0,0E0,0E0,0E0,0E0],"parents":[2147483647,0,0,1,1,2,2,3,3,4,4,5,5,6,6],"right_children":[2,4,6,8,10,12,14,-1,-1,-1,-1,-1,-1,-1,-1],"split_conditions":[1.0824396E2,1.0143218E2,2.3605831E1,-3.05E1,3.3522243E1,9.4913025E0,9.956E1,-3.4729967E-1,2.302311E-3,4.749281E-1,-1.1260078E-1,1.9300799E-1,-3.3248547E-1,-2.2621386E-1,-3.398425E-2],"split_indices":[0,0,7,63,22,10,50,0,0,0,0,0,0,0,0],"split_type":[0,0,0,0,0,0,0,0,0,0,0,0,0,0,0],"sum_hessian":[4.82E2,7.2E1,4.1E2,2.3E1,4.9E1,8.1E1,3.29E2,7E0,1.6E1,3.8E1,1.1E1,7.5E1,6E0,7.8E1,2.51E2],"tree_param":{"num_deleted":"0","num_feature":"88","num_nodes":"15","size_leaf_vector":"1"}},{"base_weights":[5.3881374E-3,-6.0055275E0,5.886282E-1,1.0565373E0,-8.224731E0,1.4581992E-1,5.905092E0,-8.929146E-2,1.8342322E-1,3.0421853E-2,-5.125623E-1,-2.8663112E-2,2.0777209E-1,5.054825E-1,-3.6765095E-2],"categories":[],"categories_nodes":[],"categories_segments":[],"categories_sizes":[],"default_left":[0,0,0,0,0,0,0,0,0,0,0,0,0,0,0],"id":52,"left_children":[1,3,5,7,9,11,13,-1,-1,-1,-1,-1,-1,-1,-1],"loss_changes":[1.7046779E3,6.9486633E2,1.0405056E3,1.0313247E2,6.080139E2,1.1944535E3,9.6883167E2,0E0,0E0,0E0,0E0,0E0,0E0,0E0,0E0],"parents":[2147483647,0,0,1,1,2,2,3,3,4,4,5,5,6,6],"right_children":[2,4,6,8,10,12,14,-1,-1,-1,-1,-1,-1,-1,-1],"split_conditions":[-1.15E1,2.1034554E1,3.3681248E1,-1.1606905E0,1.157E2,9.8E0,1.0206E2,-8.929146E-2,1.8342322E-1,3.0421853E-2,-5.125623E-1,-2.8663112E-2,2.0777209E-1,5.054825E-1,-3.6765095E-2],"split_indices":[42,6,30,11,38,42,49,0,0,0,0,0,0,0,0],"split_type":[0,0,0,0,0,0,0,0,0,0,0,0,0,0,0],"sum_hessian":[4.83E2,4.1E1,4.42E2,1E1,3.1E1,4.1E2,3.2E1,5E0,5E0,6E0,2.5E1,3.49E2,6.1E1,1.9E1,1.3E1],"tree_param":{"num_deleted":"0","num_feature":"88","num_nodes":"15","size_leaf_vector":"1"}},{"base_weights":[2.61083E-1,2.9990563E0,-6.766398E-1,5.890759E0,-2.5817974E-2,-1.0281938E0,6.6114316E0,-1.4377134E-1,3.6273468E-1,2.2289553E-1,-2.0635553E-1,-6.932253E-2,2.66632E-1,-5.2899737E-2,5.012513E-1],"categories":[],"categories_nodes":[],"categories_segments":[],"categories_sizes":[],"default_left":[0,0,0,0,0,0,0,0,0,0,0,0,0,0,0],"id":53,"left_children":[1,3,5,7,9,11,13,-1,-1,-1,-1,-1,-1,-1,-1],"loss_changes":[1.2581401E3,1.0966162E3,9.459892E2,8.0912646E2,1.1951433E3,8.103976E2,4.7076154E2,0E0,0E0,0E0,0E0,0E0,0E0,0E0,0E0],"parents":[2147483647,0,0,1,1,2,2,3,3,4,4,5,5,6,6],"right_children":[2,4,6,8,10,12,14,-1,-1,-1,-1,-1,-1,-1,-1],"split_conditions":[1.131E2,4.1844826E1,3.4464546E1,-1.3E-2,1.3093571E-1,1.02405E2,3.548332E1,-1.4377134E-1,3.6273468E-1,2.2289553E-1,-2.0635553E-1,-6.932253E-2,2.66632E-1,-5.2899737E-2,5.012513E-1],"split_indices":[37,69,30,58,14,50,27,0,0,0,0,0,0,0,0],"split_type":[0,0,0,0,0,0,0,0,0,0,0,0,0,0,0],"sum_hessian":[4.86E2,1.23E2,3.63E2,6.2E1,6.1E1,3.48E2,1.5E1,8E0,5.4E1,2.9E1,3.2E1,3.31E2,1.7E1,5E0,1E1],"tree_param":{"num_deleted":"0","num_feature":"88","num_nodes":"15","size_leaf_vector":"1"}},{"base_weights":[1.3564643E-1,-1.4582237E0,1.6656548E0,-4.6541756E-1,-6.2872033E0,2.692421E0,-2.904738E0,2.5677794E-1,-6.68534E-2,-5.677192E-1,-5.4319173E-2,2.9629356E-1,6.680781E-2,-2.951567E-1,3.2664523E-1],"categories":[],"categories_nodes":[],"categories_segments":[],"categories_sizes":[],"default_left":[0,0,0,0,0,0,0,0,0,0,0,0,0,0,0],"id":54,"left_children":[1,3,5,7,9,11,13,-1,-1,-1,-1,-1,-1,-1,-1],"loss_changes":[1.1755061E3,1.1222122E3,1.1699458E3,9.784884E2,1.023249E3,8.6638696E2,1.3785123E3,0E0,0E0,0E0,0E0,0E0,0E0,0E0,0E0],"parents":[2147483647,0,0,1,1,2,2,3,3,4,4,5,5,6,6],"right_children":[2,4,6,8,10,12,14,-1,-1,-1,-1,-1,-1,-1,-1],"split_conditions":[-3E-1,1.2131446E2,1.01665E2,3.92433E1,3.1350063E1,-1E0,2.9E0,2.5677794E-1,-6.68534E-2,-5.677192E-1,-5.4319173E-2,2.9629356E-1,6.680781E-2,-2.951567E-1,3.2664523E-1],"split_indices":[42,0,50,3,21,55,45,0,0,0,0,0,0,0,0],"split_type":[0,0,0,0,0,0,0,0,0,0,0,0,0,0,0],"sum_hessian":[4.78E2,2.34E2,2.44E2,1.96E2,3.8E1,2E2,4.4E1,2.5E1,1.71E2,1.8E1,2E1,5.7E1,1.43E2,3.4E1,1E1],"tree_param":{"num_deleted":"0","num_feature":"88","num_nodes":"15","size_leaf_vector":"1"}},{"base_weights":[-1.8648875E-1,-6.9445086E0,1.039056E-1,1.5070106E-1,-1.1678739E1,4.8587437E0,-3.5303378E-1,-7.1384203E-1,-2.4650554E-1,-1.1418714E-1,3.6631194E-1,6.463719E-2,-7.343864E-2],"categories":[],"categories_nodes":[],"categories_segments":[],"categories_sizes":[],"default_left":[0,0,0,0,0,0,0,0,0,0,0,0,0],"id":55,"left_children":[1,3,5,-1,7,9,11,-1,-1,-1,-1,-1,-1],"loss_changes":[9.527466E2,1.0176516E3,1.01597626E3,0E0,9.509448E1,7.585699E2,7.8613153E2,0E0,0E0,0E0,0E0,0E0,0E0],"parents":[2147483647,0,0,1,1,2,2,4,4,5,5,6,6],"right_children":[2,4,6,-1,8,10,12,-1,-1,-1,-1,-1,-1],"split_conditions":[-1.0733347E1,4.1741524E1,2.7693504E1,1.5070106E-1,8.591795E0,1E-3,2.6832197E1,-7.1384203E-1,-2.4650554E-1,-1.1418714E-1,3.6631194E-1,6.463719E-2,-7.343864E-2],"split_indices":[32,27,22,0,10,58,30,0,0,0,0,0,0],"split_type":[0,0,0,0,0,0,0,0,0,0,0,0,0],"sum_hessian":[4.81E2,1.8E1,4.63E2,6E0,1.2E1,3.9E1,4.24E2,7E0,5E0,1E1,2.9E1,1.71E2,2.53E2],"tree_param":{"num_deleted":"0","num_feature":"88","num_nodes":"13","size_leaf_vector":"1"}},{"base_weights":[-1.7285264E-1,-6.3468903E-1,3.8050911E0,-2.2085147E0,9.499847E-1,8.580303E0,-1.6365448E0,-1.3563865E-1,1.8199919E-1,-4.3942782E-1,6.813247E-2,-7.142457E-2,5.5038095E-1,-3.0411193E-1,2.541009E-1],"categories":[],"categories_nodes":[],"categories_segments":[],"categories_sizes":[],"default_left":[0,0,0,0,0,0,0,0,0,0,0,0,0,0,0],"id":56,"left_children":[1,3,5,7,9,11,13,-1,-1,-1,-1,-1,-1,-1,-1],"loss_changes":[8.8324414E2,1.0797394E3,1.3308041E3,6.5925183E2,8.882887E2,6.9219006E2,8.090369E2,0E0,0E0,0E0,0E0,0E0,0E0,0E0,0E0],"parents":[2147483647,0,0,1,1,2,2,3,3,4,4,5,5,6,6],"right_children":[2,4,6,8,10,12,14,-1,-1,-1,-1,-1,-1,-1,-1],"split_conditions":[4.7996373E0,1.159319E2,5.49298E1,7.52662E0,-1.5E1,1.0346189E2,-1.21E0,-1.3563865E-1,1.8199919E-1,-4.3942782E-1,6.813247E-2,-7.142457E-2,5.5038095E-1,-3.0411193E-1,2.541009E-1],"split_indices":[26,1,25,5,42,1,51,0,0,0,0,0,0,0,0],"split_type":[0,0,0,0,0,0,0,0,0,0,0,0,0,0,0],"sum_hessian":[4.77E2,4.29E2,4.8E1,2.15E2,2.14E2,2.5E1,2.3E1,1.99E2,1.6E1,7E0,2.07E2,5E0,2E1,1.4E1,9E0],"tree_param":{"num_deleted":"0","num_feature":"88","num_nodes":"15","size_leaf_vector":"1"}},{"base_weights":[6.7104496E-2,-5.5264E0,4.858846E-1,-2.0189762E0,-1.0212866E1,2.4930813E0,-5.9702194E-1,2.1285318E-2,-3.2330486E-1,-1.7045288E-1,-6.589818E-1,-6.171322E-2,2.2099614E-1,-1.3179578E-1,9.258776E-2],"categories":[],"categories_nodes":[],"categories_segments":[],"categories_sizes":[],"default_left":[0,0,0,0,0,0,0,0,0,0,0,0,0,0,0],"id":57,"left_children":[1,3,5,7,9,11,13,-1,-1,-1,-1,-1,-1,-1,-1],"loss_changes":[1.1436224E3,5.1151746E2,9.929157E2,2.4770511E2,1.8444006E2,1.161624E3,1.4930146E3,0E0,0E0,0E0,0E0,0E0,0E0,0E0,0E0],"parents":[2147483647,0,0,1,1,2,2,3,3,4,4,5,5,6,6],"right_children":[2,4,6,8,10,12,14,-1,-1,-1,-1,-1,-1,-1,-1],"split_conditions":[-1.25E1,1.698276E1,-1.5226556E0,1.7677757E0,-7.280271E-1,1.171563E1,5.8223938E1,2.1285318E-2,-3.2330486E-1,-1.7045288E-1,-6.589818E-1,-6.171322E-2,2.2099614E-1,-1.3179578E-1,9.258776E-2],"split_indices":[42,66,5,5,8,19,25,0,0,0,0,0,0,0,0],"split_type":[0,0,0,0,0,0,0,0,0,0,0,0,0,0,0],"sum_hessian":[4.85E2,3.2E1,4.53E2,2E1,1.2E1,1.58E2,2.95E2,1.4E1,6E0,5E0,7E0,5.4E1,1.04E2,1.61E2,1.34E2],"tree_param":{"num_deleted":"0","num_feature":"88","num_nodes":"15","size_leaf_vector":"1"}},{"base_weights":[5.5196933E-3,-5.0109234E0,4.8673183E-1,-1.1002883E0,-9.640556E0,4.3556905E0,-1.3446452E-1,1.7119758E-1,-1.910826E-1,-5.736055E-1,-1.7066137E-1,2.977704E-1,-2.2320174E-1,-5.271649E-2,1.4181833E-1],"categories":[],"categories_nodes":[],"categories_segments":[],"categories_sizes":[],"default_left":[0,0,0,0,0,0,0,0,0,0,0,0,0,0,0],"id":58,"left_children":[1,3,5,7,9,11,13,-1,-1,-1,-1,-1,-1,-1,-1],"loss_changes":[1.1033876E3,6.9760693E2,1.0078961E3,3.2185962E2,1.1954578E2,8.722418E2,9.9435046E2,0E0,0E0,0E0,0E0,0E0,0E0,0E0,0E0],"parents":[2147483647,0,0,1,1,2,2,3,3,4,4,5,5,6,6],"right_children":[2,4,6,8,10,12,14,-1,-1,-1,-1,-1,-1,-1,-1],"split_conditions":[6.6023874E0,5.32E-1,-5.6E0,3.3421455E1,1.3838561E-1,3.5E-2,5.57E-1,1.7119758E-1,-1.910826E-1,-5.736055E-1,-1.7066137E-1,2.977704E-1,-2.2320174E-1,-5.271649E-2,1.4181833E-1],"split_indices":[9,65,41,28,8,57,65,0,0,0,0,0,0,0,0],"split_type":[0,0,0,0,0,0,0,0,0,0,0,0,0,0,0],"sum_hessian":[4.54E2,3.8E1,4.16E2,2.2E1,1.6E1,5.6E1,3.6E2,8E0,1.4E1,1.1E1,5E0,4.8E1,8E0,2.76E2,8.4E1],"tree_param":{"num_deleted":"0","num_feature":"88","num_nodes":"15","size_leaf_vector":"1"}},{"base_weights":[-1.2198547E-1,-1.3404938E0,2.1233795E0,-6.2833247E0,-6.456308E-1,6.1771355E0,8.476277E-1,-4.0861588E-2,-5.2050513E-1,3.629722E-1,-5.109606E-2,1.5890677E-1,5.7355934E-1,3.661507E-1,1.3375626E-3],"categories":[],"categories_nodes":[],"categories_segments":[],"categories_sizes":[],"default_left":[0,0,0,0,0,0,0,0,0,0,0,0,0,0,0],"id":59,"left_children":[1,3,5,7,9,11,13,-1,-1,-1,-1,-1,-1,-1,-1],"loss_changes":[1.3459393E3,1.0840566E3,8.807003E2,8.571083E2,8.505567E2,5.707124E2,7.082093E2,0E0,0E0,0E0,0E0,0E0,0E0,0E0,0E0],"parents":[2147483647,0,0,1,1,2,2,3,3,4,4,5,5,6,6],"right_children":[2,4,6,8,10,12,14,-1,-1,-1,-1,-1,-1,-1,-1],"split_conditions":[3.4E0,1.2469338E1,4.189599E1,1.1764517E1,1.117E2,4.3651264E1,3.3477182E0,-4.0861588E-2,-5.2050513E-1,3.629722E-1,-5.109606E-2,1.5890677E-1,5.7355934E-1,3.661507E-1,1.3375626E-3],"split_indices":[42,15,3,15,38,28,13,0,0,0,0,0,0,0,0],"split_type":[0,0,0,0,0,0,0,0,0,0,0,0,0,0,0],"sum_hessian":[4.88E2,3.17E2,1.71E2,3.7E1,2.8E2,3.9E1,1.32E2,1.7E1,2E1,1.1E1,2.69E2,2.7E1,1.2E1,1.3E1,1.19E2],"tree_param":{"num_deleted":"0","num_feature":"88","num_nodes":"15","size_leaf_vector":"1"}},{"base_weights":[-6.0399104E-2,-7.592607E0,2.0068133E-1,-6.158288E-1,-3.004754E-2,3.7047305E0,-3.2428473E-1,6.6662043E-1,8.1769325E-2,3.943483E-3,-3.7171885E-1],"categories":[],"categories_nodes":[],"categories_segments":[],"categories_sizes":[],"default_left":[0,0,0,0,0,0,0,0,0,0,0],"id":60,"left_children":[1,3,5,-1,-1,7,9,-1,-1,-1,-1],"loss_changes":[9.978654E2,5.4022015E2,9.036119E2,0E0,0E0,1.2239795E3,1.2288309E3,0E0,0E0,0E0,0E0],"parents":[2147483647,0,0,1,1,2,2,5,5,6,6],"right_children":[2,4,6,-1,-1,8,10,-1,-1,-1,-1],"split_conditions":[1.094E2,-1.8804866E0,1.103E2,-6.158288E-1,-3.004754E-2,-2.5E-2,6.7698107E0,6.6662043E-1,8.1769325E-2,3.943483E-3,-3.7171885E-1],"split_indices":[36,26,37,0,0,60,12,0,0,0,0],"split_type":[0,0,0,0,0,0,0,0,0,0,0],"sum_hessian":[5.02E2,1.5E1,4.87E2,8E0,7E0,6.2E1,4.25E2,9E0,5.3E1,4.04E2,2.1E1],"tree_param":{"num_deleted":"0","num_feature":"88","num_nodes":"11","size_leaf_vector":"1"}},{"base_weights":[-4.5411327E-1,-1.1424083E0,2.6439505E0,2.8873165E0,-1.5313902E0,6.248264E0,-8.2938385E-1,-6.7322697E-3,4.3717584E-1,-1.4023381E-2,-1.5540609E-1,8.130069E-2,4.563098E-1,3.2468364E-1,-2.2273505E-1],"categories":[],"categories_nodes":[],"categories_segments":[],"categories_sizes":[],"default_left":[0,0,0,0,0,0,0,0,0,0,0,0,0,0,0],"id":61,"left_children":[1,3,5,7,9,11,13,-1,-1,-1,-1,-1,-1,-1,-1],"loss_changes":[1.02030383E3,6.2105396E2,1.1022256E3,6.260615E2,7.026704E2,5.369535E2,1.2780618E3,0E0,0E0,0E0,0E0,0E0,0E0,0E0,0E0],"parents":[2147483647,0,0,1,1,2,2,3,3,4,4,5,5,6,6],"right_children":[2,4,6,8,10,12,14,-1,-1,-1,-1,-1,-1,-1,-1],"split_conditions":[1.326179E1,3.248496E0,1.6554062E0,2.6165144E0,1.7309092E1,5.739531E1,2.692108E1,-6.7322697E-3,4.3717584E-1,-1.4023381E-2,-1.5540609E-1,8.130069E-2,4.563098E-1,3.2468364E-1,-2.2273505E-1],"split_indices":[19,13,8,13,67,24,30,0,0,0,0,0,0,0,0],"split_type":[0,0,0,0,0,0,0,0,0,0,0,0,0,0,0],"sum_hessian":[4.74E2,3.89E2,8.5E1,3.3E1,3.56E2,4.1E1,4.4E1,2.3E1,1E1,2E2,1.56E2,1.7E1,2.4E1,1.4E1,3E1],"tree_param":{"num_deleted":"0","num_feature":"88","num_nodes":"15","size_leaf_vector":"1"}},{"base_weights":[4.9454427E-1,-9.337443E-1,1.7045728E0,-4.506634E0,6.308678E-2,6.8380636E-1,1.3659241E0,-0E0,-4.5914003E-1,1.023942E-1,-9.699057E-2,1.942824E-1,3.276679E-3],"categories":[],"categories_nodes":[],"categories_segments":[],"categories_sizes":[],"default_left":[0,0,0,0,0,0,0,0,0,0,0,0,0],"id":62,"left_children":[1,3,5,7,9,-1,11,-1,-1,-1,-1,-1,-1],"loss_changes":[8.435079E2,8.005816E2,1.025414E3,1.028594E3,7.116354E2,0E0,8.46161E2,0E0,0E0,0E0,0E0,0E0,0E0],"parents":[2147483647,0,0,1,1,2,2,3,3,4,4,6,6],"right_children":[2,4,6,8,10,-1,12,-1,-1,-1,-1,-1,-1],"split_conditions":[2.5767551E1,7.428578E0,5.3072285E1,1.1034066E1,6.2489018E-2,6.8380636E-1,5.7E1,-0E0,-4.5914003E-1,1.023942E-1,-9.699057E-2,1.942824E-1,3.276679E-3],"split_indices":[7,9,25,19,14,0,82,0,0,0,0,0,0],"split_type":[0,0,0,0,0,0,0,0,0,0,0,0,0],"sum_hessian":[4.84E2,2.22E2,2.62E2,4.7E1,1.75E2,5E0,2.57E2,2.5E1,2.2E1,8.8E1,8.7E1,8.6E1,1.71E2],"tree_param":{"num_deleted":"0","num_feature":"88","num_nodes":"13","size_leaf_vector":"1"}},{"base_weights":[2.0484135E-1,-2.2849777E0,8.749022E-1,-1.0731446E-1,-6.427139E0,-2.8505533E0,1.679607E0,2.1619847E-1,-2.2100718E-1,-4.648811E-1,1.1357726E-1,-2.3171763E-1,1.8994723E-1,9.744663E-2,-4.355085E-1],"categories":[],"categories_nodes":[],"categories_segments":[],"categories_sizes":[],"default_left":[0,0,0,0,0,0,0,0,0,0,0,0,0,0,0],"id":63,"left_children":[1,3,5,7,9,11,13,-1,-1,-1,-1,-1,-1,-1,-1],"loss_changes":[7.7906683E2,8.8835626E2,1.1122144E3,1.318735E3,8.947134E2,8.184794E2,8.8123285E2,0E0,0E0,0E0,0E0,0E0,0E0,0E0,0E0],"parents":[2147483647,0,0,1,1,2,2,3,3,4,4,5,5,6,6],"right_children":[2,4,6,8,10,12,14,-1,-1,-1,-1,-1,-1,-1,-1],"split_conditions":[1.122E2,5.7E1,-2.711207E0,-1.2957792E0,5.42E-1,1.3539873E1,1.3276285E2,2.1619847E-1,-2.2100718E-1,-4.648811E-1,1.1357726E-1,-2.3171763E-1,1.8994723E-1,9.744663E-2,-4.355085E-1],"split_indices":[39,84,68,68,64,19,0,0,0,0,0,0,0,0,0],"split_type":[0,0,0,0,0,0,0,0,0,0,0,0,0,0,0],"sum_hessian":[4.63E2,9.7E1,3.66E2,6.5E1,3.2E1,6.4E1,3.02E2,3.2E1,3.3E1,2.4E1,8E0,5.1E1,1.3E1,2.96E2,6E0],"tree_param":{"num_deleted":"0","num_feature":"88","num_nodes":"15","size_leaf_vector":"1"}},{"base_weights":[3.0975285E-1,1.5477748E-1,4.2081386E-1,2.985273E-1,-4.765698E-1,-1.0492957E-2,2.2616048E-1],"categories":[],"categories_nodes":[],"categories_segments":[],"categories_sizes":[],"default_left":[0,0,0,0,0,0,0],"id":64,"left_children":[1,3,-1,5,-1,-1,-1],"loss_changes":[6.024203E2,6.6663464E2,0E0,1.0199509E3,0E0,0E0,0E0],"parents":[2147483647,0,0,1,1,3,3],"right_children":[2,4,-1,6,-1,-1,-1],"split_conditions":[1.8198433E1,6.391916E1,4.2081386E-1,4.5683136E0,-4.765698E-1,-1.0492957E-2,2.2616048E-1],"split_indices":[16,24,0,26,0,0,0],"split_type":[0,0,0,0,0,0,0],"sum_hessian":[4.83E2,4.76E2,7E0,4.71E2,5E0,4.22E2,4.9E1],"tree_param":{"num_deleted":"0","num_feature":"88","num_nodes":"7","size_leaf_vector":"1"}},{"base_weights":[8.60107E-2,3.1876333E0,-5.609425E-1,-1.7347156E0,6.086934E0,1.1514313E0,-2.71453E0,-3.2490858E-1,1.4645363E-1,3.8596115E-1,-1.8671685E-1,-2.0834775E-1,1.3093725E-1,-4.7804943E-1,-5.2768704E-2],"categories":[],"categories_nodes":[],"categories_segments":[],"categories_sizes":[],"default_left":[0,0,0,0,0,0,0,0,0,0,0,0,0,0,0],"id":65,"left_children":[1,3,5,7,9,11,13,-1,-1,-1,-1,-1,-1,-1,-1],"loss_changes":[9.8812573E2,1.2363606E3,1.5079458E3,7.729715E2,9.25327E2,1.800303E3,2.0305519E3,0E0,0E0,0E0,0E0,0E0,0E0,0E0,0E0],"parents":[2147483647,0,0,1,1,2,2,3,3,4,4,5,5,6,6],"right_children":[2,4,6,8,10,12,14,-1,-1,-1,-1,-1,-1,-1,-1],"split_conditions":[3.9780514E1,7.904063E0,2.6838025E-1,-1.5E-2,6.3167233E0,1.0742376E1,4.52E-1,-3.2490858E-1,1.4645363E-1,3.8596115E-1,-1.8671685E-1,-2.0834775E-1,1.3093725E-1,-4.7804943E-1,-5.2768704E-2],"split_indices":[4,10,23,57,12,19,65,0,0,0,0,0,0,0,0],"split_type":[0,0,0,0,0,0,0,0,0,0,0,0,0,0,0],"sum_hessian":[4.88E2,8.3E1,4.05E2,3.1E1,5.2E1,2.26E2,1.79E2,1.5E1,1.6E1,4.5E1,7E0,4.8E1,1.78E2,3.3E1,1.46E2],"tree_param":{"num_deleted":"0","num_feature":"88","num_nodes":"15","size_leaf_vector":"1"}},{"base_weights":[-2.974835E-1,-7.279289E-1,3.2859387E0,-2.3030121E0,4.370574E-1,9.920438E0,8.4801537E-1,2.7527002E-1,-1.37996E-1,-1.2048903E-2,3.502032E-1,1.1590791E-1,6.786613E-1,-1.179415E-1,3.3771956E-1],"categories":[],"categories_nodes":[],"categories_segments":[],"categories_sizes":[],"default_left":[0,0,0,0,0,0,0,0,0,0,0,0,0,0,0],"id":66,"left_children":[1,3,5,7,9,11,13,-1,-1,-1,-1,-1,-1,-1,-1],"loss_changes":[7.62399E2,8.121591E2,8.3503375E2,6.997484E2,1.1421863E3,3.1789758E2,8.106369E2,0E0,0E0,0E0,0E0,0E0,0E0,0E0,0E0],"parents":[2147483647,0,0,1,1,2,2,3,3,4,4,5,5,6,6],"right_children":[2,4,6,8,10,12,14,-1,-1,-1,-1,-1,-1,-1,-1],"split_conditions":[4.7263274E0,6.5E0,5.998358E1,-5.293103E0,7.52662E0,2.4527777E1,2.8E0,2.7527002E-1,-1.37996E-1,-1.2048903E-2,3.502032E-1,1.1590791E-1,6.786613E-1,-1.179415E-1,3.3771956E-1],"split_indices":[26,56,24,68,5,6,43,0,0,0,0,0,0,0,0],"split_type":[0,0,0,0,0,0,0,0,0,0,0,0,0,0,0],"sum_hessian":[4.9E2,4.39E2,5.1E1,1.86E2,2.53E2,1.2E1,3.9E1,9E0,1.77E2,2.31E2,2.2E1,5E0,7E0,2.6E1,1.3E1],"tree_param":{"num_deleted":"0","num_feature":"88","num_nodes":"15","size_leaf_vector":"1"}},{"base_weights":[-9.429406E-2,-3.0448577E0,5.6972814E-1,1.674557E-1,-5.9332E0,2.7982714E0,-4.6878085E-1,-8.897245E-2,4.09487E-1,-3.7673083E-1,7.2448246E-2,6.145233E-2,3.657715E-1,3.0019283E-2,-2.1696793E-1],"categories":[],"categories_nodes":[],"categories_segments":[],"categories_sizes":[],"default_left":[0,0,0,0,0,0,0,0,0,0,0,0,0,0,0],"id":67,"left_children":[1,3,5,7,9,11,13,-1,-1,-1,-1,-1,-1,-1,-1],"loss_changes":[9.490605E2,8.3063513E2,9.179615E2,7.1957104E2,5.8050806E2,8.7088873E2,1.1285571E3,0E0,0E0,0E0,0E0,0E0,0E0,0E0,0E0],"parents":[2147483647,0,0,1,1,2,2,3,3,4,4,5,5,6,6],"right_children":[2,4,6,8,10,12,14,-1,-1,-1,-1,-1,-1,-1,-1],"split_conditions":[1.25638E1,1.184423E1,1.132E2,2.7707626E1,1.20978745E2,4.5578472E1,4.3155174E1,-8.897245E-2,4.09487E-1,-3.7673083E-1,7.2448246E-2,6.145233E-2,3.657715E-1,3.0019283E-2,-2.1696793E-1],"split_indices":[15,15,38,7,1,28,70,0,0,0,0,0,0,0,0],"split_type":[0,0,0,0,0,0,0,0,0,0,0,0,0,0,0],"sum_hessian":[4.8E2,8.7E1,3.93E2,4.2E1,4.5E1,1.24E2,2.69E2,3.5E1,7E0,3.7E1,8E0,9.4E1,3E1,2.12E2,5.7E1],"tree_param":{"num_deleted":"0","num_feature":"88","num_nodes":"15","size_leaf_vector":"1"}},{"base_weights":[4.1858512E-1,-4.7782132E-1,5.85524E-1,3.4249038E-1,7.49868E0,7.754492E-2,-4.935243E-2,1.6440427E-2,5.8424205E-1],"categories":[],"categories_nodes":[],"categories_segments":[],"categories_sizes":[],"default_left":[0,0,0,0,0,0,0,0,0],"id":68,"left_children":[1,-1,3,5,7,-1,-1,-1,-1],"loss_changes":[8.0934033E2,0E0,7.906847E2,7.4560443E2,4.665368E2,0E0,0E0,0E0,0E0],"parents":[2147483647,0,0,2,2,3,3,4,4],"right_children":[2,-1,4,6,8,-1,-1,-1,-1],"split_conditions":[-1.247234E1,-4.7782132E-1,8.305677E0,5.500687E-1,-4E-3,7.754492E-2,-4.935243E-2,1.6440427E-2,5.8424205E-1],"split_indices":[35,0,8,2,58,0,0,0,0],"split_type":[0,0,0,0,0,0,0,0,0],"sum_hessian":[4.8E2,6E0,4.74E2,4.6E2,1.4E1,2.41E2,2.19E2,6E0,8E0],"tree_param":{"num_deleted":"0","num_feature":"88","num_nodes":"9","size_leaf_vector":"1"}},{"base_weights":[1.5725449E-1,2.2098365E0,-1.0777932E0,9.654459E-1,7.1198745E0,1.8917938E0,-2.4816873E0,-3.5971825E-3,2.780746E-1,-2.1849795E-1,4.6355677E-1,-2.5158484E-2,4.0783745E-1,2.7057305E-1,-1.5840186E-1],"categories":[],"categories_nodes":[],"categories_segments":[],"categories_sizes":[],"default_left":[0,0,0,0,0,0,0,0,0,0,0,0,0,0,0],"id":69,"left_children":[1,3,5,7,9,11,13,-1,-1,-1,-1,-1,-1,-1,-1],"loss_changes":[1.2145421E3,1.0820105E3,1.2562113E3,6.996569E2,9.7331396E2,1.467456E3,1.1383279E3,0E0,0E0,0E0,0E0,0E0,0E0,0E0,0E0],"parents":[2147483647,0,0,1,1,2,2,3,3,4,4,5,5,6,6],"right_children":[2,4,6,8,10,12,14,-1,-1,-1,-1,-1,-1,-1,-1],"split_conditions":[2.641647E1,4.5971462E1,4.2253708E1,2.856053E1,1E0,4.3651264E1,2.5E0,-3.5971825E-3,2.780746E-1,-2.1849795E-1,4.6355677E-1,-2.5158484E-2,4.0783745E-1,2.7057305E-1,-1.5840186E-1],"split_indices":[30,28,3,7,54,28,56,0,0,0,0,0,0,0,0],"split_type":[0,0,0,0,0,0,0,0,0,0,0,0,0,0,0],"sum_hessian":[4.75E2,1.78E2,2.97E2,1.44E2,3.4E1,9.5E1,2.02E2,1.19E2,2.5E1,5E0,2.9E1,7E1,2.5E1,1.5E1,1.87E2],"tree_param":{"num_deleted":"0","num_feature":"88","num_nodes":"15","size_leaf_vector":"1"}},{"base_weights":[-4.202419E-2,2.7714298E0,-6.2347937E-1,4.4885545E0,-2.8653843E0,-4.206264E-1,-6.084182E-1,5.6008863E-1,7.469703E-2,-5.0453055E-1,3.1128764E-2,-7.871421E-2,6.098617E-2],"categories":[],"categories_nodes":[],"categories_segments":[],"categories_sizes":[],"default_left":[0,0,0,0,0,0,0,0,0,0,0,0,0],"id":70,"left_children":[1,3,5,7,9,11,-1,-1,-1,-1,-1,-1,-1],"loss_changes":[8.12151E2,8.4925903E2,9.4833746E2,1.2870134E3,5.4652563E2,7.742253E2,0E0,0E0,0E0,0E0,0E0,0E0,0E0],"parents":[2147483647,0,0,1,1,2,2,3,3,4,4,5,5],"right_children":[2,4,6,8,10,12,-1,-1,-1,-1,-1,-1,-1],"split_conditions":[-3.8E0,2.5568419E0,7.3942184E0,3.1217617E1,5.5300632E1,2.8535192E1,-6.084182E-1,5.6008863E-1,7.469703E-2,-5.0453055E-1,3.1128764E-2,-7.871421E-2,6.098617E-2],"split_indices":[44,23,12,22,25,31,0,0,0,0,0,0,0],"split_type":[0,0,0,0,0,0,0,0,0,0,0,0,0],"sum_hessian":[4.93E2,8.3E1,4.1E2,6.4E1,1.9E1,4.05E2,5E0,1.8E1,4.6E1,5E0,1.4E1,2.38E2,1.67E2],"tree_param":{"num_deleted":"0","num_feature":"88","num_nodes":"13","size_leaf_vector":"1"}},{"base_weights":[-3.811818E-1,4.3840584E-1,-5.9385115E-1,-1.0706035E0,2.471089E0,3.6203198E-2,-1.12539105E-1,-0E0,4.6628433E-1],"categories":[],"categories_nodes":[],"categories_segments":[],"categories_sizes":[],"default_left":[0,0,0,0,0,0,0,0,0],"id":71,"left_children":[1,-1,3,5,7,-1,-1,-1,-1],"loss_changes":[9.4224475E2,0E0,6.9428546E2,8.724142E2,1.0876614E3,0E0,0E0,0E0,0E0],"parents":[2147483647,0,0,2,2,3,3,4,4],"right_children":[2,-1,4,6,8,-1,-1,-1,-1],"split_conditions":[-8.5E0,4.3840584E-1,2.9369282E1,1.12305145E2,5.32E-1,3.6203198E-2,-1.12539105E-1,-0E0,4.6628433E-1],"split_indices":[44,0,6,0,65,0,0,0,0],"split_type":[0,0,0,0,0,0,0,0,0],"sum_hessian":[4.79E2,9E0,4.7E2,4.08E2,6.2E1,1.62E2,2.46E2,4.7E1,1.5E1],"tree_param":{"num_deleted":"0","num_feature":"88","num_nodes":"9","size_leaf_vector":"1"}},{"base_weights":[4.187625E-1,-7.3052907E-1,1.6733532E0,4.3298957E-1,-1.1194084E0,-1.1009635E0,3.3025155E0,-4.0125784E-2,-5.6607103E-1,-1.1336442E-1,2.0904867E-1,2.257992E-1,-8.809387E-2],"categories":[],"categories_nodes":[],"categories_segments":[],"categories_sizes":[],"default_left":[0,0,0,0,0,0,0,0,0,0,0,0,0],"id":72,"left_children":[1,3,5,-1,7,9,11,-1,-1,-1,-1,-1,-1],"loss_changes":[6.820467E2,9.1758765E2,1.0298503E3,0E0,7.4844025E2,5.4164075E2,8.960941E2,0E0,0E0,0E0,0E0,0E0,0E0],"parents":[2147483647,0,0,1,1,2,2,4,4,5,5,6,6],"right_children":[2,4,6,-1,8,10,12,-1,-1,-1,-1,-1,-1],"split_conditions":[3E-1,9.771E1,8.082222E0,4.3298957E-1,1E-1,3.1E-2,1.01655E2,-4.0125784E-2,-5.6607103E-1,-1.1336442E-1,2.0904867E-1,2.257992E-1,-8.809387E-2],"split_indices":[42,50,9,0,42,57,50,0,0,0,0,0,0],"split_type":[0,0,0,0,0,0,0,0,0,0,0,0,0],"sum_hessian":[4.69E2,2.45E2,2.24E2,8E0,2.37E2,8.3E1,1.41E2,2.32E2,5E0,6.9E1,1.4E1,1.14E2,2.7E1],"tree_param":{"num_deleted":"0","num_feature":"88","num_nodes":"13","size_leaf_vector":"1"}},{"base_weights":[6.0680594E-2,7.682508E0,-1.5158848E-1,9.875378E-2,5.9694284E-1,1.3786311E0,-1.147197E0,-9.311772E-3,2.3966058E-1,2.9340118E-1,-9.674403E-2],"categories":[],"categories_nodes":[],"categories_segments":[],"categories_sizes":[],"default_left":[0,0,0,0,0,0,0,0,0,0,0],"id":73,"left_children":[1,3,5,-1,-1,7,9,-1,-1,-1,-1],"loss_changes":[7.7620465E2,2.6168945E2,7.114748E2,0E0,0E0,9.8726746E2,1.5845354E3,0E0,0E0,0E0,0E0],"parents":[2147483647,0,0,1,1,2,2,5,5,6,6],"right_children":[2,4,6,-1,-1,8,10,-1,-1,-1,-1],"split_conditions":[-7.7E0,3.6915703E1,-1.5098485E0,9.875378E-2,5.9694284E-1,-2.9724095E0,-2E0,-9.311772E-3,2.3966058E-1,2.9340118E-1,-9.674403E-2],"split_indices":[44,28,5,0,0,5,85,0,0,0,0],"split_type":[0,0,0,0,0,0,0,0,0,0,0],"sum_hessian":[4.74E2,1.1E1,4.63E2,6E0,5E0,1.82E2,2.81E2,1.26E2,5.6E1,2.7E1,2.54E2],"tree_param":{"num_deleted":"0","num_feature":"88","num_nodes":"11","size_leaf_vector":"1"}},{"base_weights":[-5.305628E-1,-3.1720358E-1,-8.81038E0,-4.7673246E-1,-1.5687388E-1,-4.671819E-2,-7.048858E-1,-5.1802088E-2,7.2337516E-2],"categories":[],"categories_nodes":[],"categories_segments":[],"categories_sizes":[],"default_left":[0,0,0,0,0,0,0,0,0],"id":74,"left_children":[1,3,5,-1,7,-1,-1,-1,-1],"loss_changes":[8.431028E2,6.911766E2,4.6585675E2,0E0,6.6119464E2,0E0,0E0,0E0,0E0],"parents":[2147483647,0,0,1,1,2,2,4,4],"right_children":[2,4,6,-1,8,-1,-1,-1,-1],"split_conditions":[7.3942184E0,9.662E1,1.1086857E2,-4.7673246E-1,1.5E-2,-4.671819E-2,-7.048858E-1,-5.1802088E-2,7.2337516E-2],"split_indices":[12,50,0,0,59,0,0,0,0],"split_type":[0,0,0,0,0,0,0,0,0],"sum_hessian":[4.81E2,4.71E2,1E1,6E0,4.65E2,5E0,5E0,3.01E2,1.64E2],"tree_param":{"num_deleted":"0","num_feature":"88","num_nodes":"9","size_leaf_vector":"1"}},{"base_weights":[3.2769468E-1,5.6702894E-1,-8.723729E0,-8.257943E-1,1.5813208E0,8.47238E-3,-8.233148E-1,4.299347E-2,-1.9541045E-1,6.305808E-2,6.1445206E-1],"categories":[],"categories_nodes":[],"categories_segments":[],"categories_sizes":[],"default_left":[0,0,0,0,0,0,0,0,0,0,0],"id":75,"left_children":[1,3,5,7,9,-1,-1,-1,-1,-1,-1],"loss_changes":[1.0933055E3,6.966395E2,9.088568E2,1.0889955E3,9.392576E2,0E0,0E0,0E0,0E0,0E0,0E0],"parents":[2147483647,0,0,1,1,2,2,3,3,4,4],"right_children":[2,4,6,8,10,-1,-1,-1,-1,-1,-1],"split_conditions":[7.3942184E0,-9E-3,9.986E1,9.1259666E-2,5.54E0,8.47238E-3,-8.233148E-1,4.299347E-2,-1.9541045E-1,6.305808E-2,6.1445206E-1],"split_indices":[12,59,49,5,51,0,0,0,0,0,0],"split_type":[0,0,0,0,0,0,0,0,0,0,0],"sum_hessian":[5E2,4.89E2,1.1E1,2.06E2,2.83E2,6E0,5E0,1.34E2,7.2E1,2.77E2,6E0],"tree_param":{"num_deleted":"0","num_feature":"88","num_nodes":"11","size_leaf_vector":"1"}},{"base_weights":[9.423778E-2,4.6377783E0,-2.3032907E-1,7.8245945E0,-1.5565266E-1,-1.1725554E0,1.4239415E0,1.0339772E-1,6.169495E-1,3.9924984E-3,-1.627279E-1,1.3181299E-1,-1.4245282E-1],"categories":[],"categories_nodes":[],"categories_segments":[],"categories_sizes":[],"default_left":[0,0,0,0,0,0,0,0,0,0,0,0,0],"id":76,"left_children":[1,3,5,7,-1,9,11,-1,-1,-1,-1,-1,-1],"loss_changes":[7.2988403E2,8.6618823E2,7.217731E2,5.654695E2,0E0,7.71323E2,8.851946E2,0E0,0E0,0E0,0E0,0E0,0E0],"parents":[2147483647,0,0,1,1,2,2,3,3,5,5,6,6],"right_children":[2,4,6,8,-1,10,12,-1,-1,-1,-1,-1,-1],"split_conditions":[3.2078164E0,2.9103024E1,6.993823E-1,2.2543238E1,-1.5565266E-1,1.148E2,5.600851E0,1.0339772E-1,6.169495E-1,3.9924984E-3,-1.627279E-1,1.3181299E-1,-1.4245282E-1],"split_indices":[13,31,17,7,0,37,13,0,0,0,0,0,0],"split_type":[0,0,0,0,0,0,0,0,0,0,0,0,0],"sum_hessian":[4.9E2,3.1E1,4.59E2,2.2E1,9E0,2.93E2,1.66E2,1.1E1,1.1E1,1.84E2,1.09E2,1.3E2,3.6E1],"tree_param":{"num_deleted":"0","num_feature":"88","num_nodes":"13","size_leaf_vector":"1"}}]},"name":"gbtree"},"learner_model_param":{"base_score":"[1.6915205E0]","boost_from_average":"1","num_class":"0","num_feature":"88","num_target":"1"},"objective":{"name":"reg:squarederror","reg_loss_param":{"scale_pos_weight":"1"}}},"version":[3,2,0]}