{"learner":{"attributes":{"best_iteration":"57","best_score":"15.714524360359375","scikit_learn":"{\"_estimator_type\": \"regressor\"}"},"feature_names":["home_points","away_points","diff_points","home_rebounds","away_rebounds","diff_rebounds","home_assists","away_assists","diff_assists","home_steals","away_steals","diff_steals","home_blocks","away_blocks","diff_blocks","home_turnovers","away_turnovers","diff_turnovers","home_oreb","away_oreb","diff_oreb","home_dreb","away_dreb","diff_dreb","home_ts_pct","away_ts_pct","diff_ts_pct","home_fg3_rate","away_fg3_rate","diff_fg3_rate","home_ft_rate","away_ft_rate","diff_ft_rate","home_to_margin","away_to_margin","diff_to_margin","home_off_rating","away_off_rating","home_def_rating","away_def_rating","home_net_rating","away_net_rating","diff_net_rating","home_matchup_edge","away_matchup_edge","diff_matchup_edge","home_def_factor_raw","away_def_factor_raw","home_pace","away_pace","avg_pace","diff_pace","home_court","home_fatigue","away_fatigue","diff_fatigue","combined_fatigue","ff_efg_edge","ff_tov_edge","ff_oreb_edge","ff_fta_edge","home_clutch_net","away_clutch_net","diff_clutch_net","home_clutch_efg","away_clutch_efg","home_deflections","away_deflections","diff_deflections","home_contested","away_contested","home_loose_balls","away_loose_balls","home_injured_count","away_injured_count","diff_injured_count","home_injury_ppg_lost","away_injury_ppg_lost","diff_injury_ppg_lost","home_injury_minutes_lost","away_injury_minutes_lost","diff_injury_minutes_lost","home_games_played","away_games_played","min_games_played","games_played_diff","home_roster_changed","away_roster_changed"],"feature_types":["float","float","float","float","float","float","float","float","float","float","float","float","float","float","float","float","float","float","float","float","float","float","float","float","float","float","float","float","float","float","float","float","float","float","float","float","float","float","float","float","float","float","float","float","float","float","float","float","float","float","float","float","float","float","float","float","float","float","float","float","float","float","float","float","float","float","float","float","float","float","float","float","float","int","int","int","int","int","int","int","int","int","int","int","int","int","int","int"],"gradient_booster":{"model":{"cats":{"enc":[],"feature_segments":[],"sorted_idx":[]},"gbtree_model_param":{"num_parallel_tree":"1","num_trees":"78"},"iteration_indptr":[0,1,2,3,4,5,6,7,8,9,10,11,12,13,14,15,16,17,18,19,20,21,22,23,24,25,26,27,28,29,30,31,32,33,34,35,36,37,38,39,40,41,42,43,44,45,46,47,48,49,50,51,52,53,54,55,56,57,58,59,60,61,62,63,64,65,66,67,68,69,70,71,72,73,74,75,76,77,78],"tree_info":[0,0,0,0,0,0,0,0,0,0,0,0,0,0,0,0,0,0,0,0,0,0,0,0,0,0,0,0,0,0,0,0,0,0,0,0,0,0,0,0,0,0,0,0,0,0,0,0,0,0,0,0,0,0,0,0,0,0,0,0,0,0,0,0,0,0,0,0,0,0,0,0,0,0,0,0,0,0],"trees":[{"base_weights":[-1.1391917E-1,7.608682E0,-3.656154E0,1.1335762E1,2.4994538E0,2.841003E0,-6.111115E0,6.913139E-1,6.679286E-2,-6.2377554E-1,2.0459639E-1,1.1736411E-2,4.9977714E-1,-5.244493E-1,-2.0513704E-1],"categories":[],"categories_nodes":[],"categories_segments":[],"categories_sizes":[],"default_left":[0,0,0,0,0,0,0,0,0,0,0,0,0,0,0],"id":0,"left_children":[1,3,5,7,9,11,13,-1,-1,-1,-1,-1,-1,-1,-1],"loss_changes":[1.3485097E4,2.888004E3,5.427549E3,2.1720166E3,1.7195182E3,1.7429819E3,2.0695684E3,0E0,0E0,0E0,0E0,0E0,0E0,0E0,0E0],"parents":[2147483647,0,0,1,1,2,2,3,3,4,4,5,5,6,6],"right_children":[2,4,6,8,10,12,14,-1,-1,-1,-1,-1,-1,-1,-1],"split_conditions":[-2.6E0,6.0791487E-1,1.127E2,4.268421E1,5.450072E1,6.0089523E1,-4.8E0,6.913139E-1,6.679286E-2,-6.2377554E-1,2.0459639E-1,1.1736411E-2,4.9977714E-1,-5.244493E-1,-2.0513704E-1],"split_indices":[41,23,38,70,24,24,40,0,0,0,0,0,0,0,0],"split_type":[0,0,0,0,0,0,0,0,0,0,0,0,0,0,0],"sum_hessian":[4.89E2,1.53E2,3.36E2,8.7E1,6.6E1,9.2E1,2.44E2,6.9E1,1.8E1,5E0,6.1E1,6.9E1,2.3E1,7.4E1,1.7E2],"tree_param":{"num_deleted":"0","num_feature":"88","num_nodes":"15","size_leaf_vector":"1"}},{"base_weights":[4.7838092E-1,1.4891232E1,-1.9365304E0,5.1652472E-2,1.6666632E1,-4.522953E0,3.553378E0,1.3821988E0,6.4198864E-1,-6.272519E-1,-1.581581E-1,2.7127272E-1,-2.4740134E-1],"categories":[],"categories_nodes":[],"categories_segments":[],"categories_sizes":[],"default_left":[0,0,0,0,0,0,0,0,0,0,0,0,0],"id":1,"left_children":[1,3,5,-1,7,9,11,-1,-1,-1,-1,-1,-1],"loss_changes":[1.673611E4,1.654376E3,5.882709E3,0E0,1.8324082E3,2.9780317E3,2.1706611E3,0E0,0E0,0E0,0E0,0E0,0E0],"parents":[2147483647,0,0,1,1,2,2,4,4,5,5,6,6],"right_children":[2,4,6,-1,8,10,12,-1,-1,-1,-1,-1,-1],"split_conditions":[-5.5E0,3.5E0,2.6E0,5.1652472E-2,5.4481216E1,9.776786E-1,5.7E0,1.3821988E0,6.4198864E-1,-6.272519E-1,-1.581581E-1,2.7127272E-1,-2.4740134E-1],"split_indices":[41,56,40,0,25,47,41,0,0,0,0,0,0],"split_type":[0,0,0,0,0,0,0,0,0,0,0,0,0],"sum_hessian":[4.77E2,6.7E1,4.1E2,8E0,5.9E1,2.79E2,1.31E2,1.2E1,4.7E1,3.8E1,2.41E2,1.08E2,2.3E1],"tree_param":{"num_deleted":"0","num_feature":"88","num_nodes":"13","size_leaf_vector":"1"}},{"base_weights":[7.722466E-1,-5.3449802E0,6.123764E0,-6.3209095E0,1.3744919E0,3.379761E0,1.3813113E1,-6.0983294E-1,-1.8994662E-1,-2.1651697E-1,2.7298424E-1,-6.759014E-2,3.176776E-1,3.7541494E-1,9.580755E-1],"categories":[],"categories_nodes":[],"categories_segments":[],"categories_sizes":[],"default_left":[0,0,0,0,0,0,0,0,0,0,0,0,0,0,0],"id":2,"left_children":[1,3,5,7,9,11,13,-1,-1,-1,-1,-1,-1,-1,-1],"loss_changes":[1.6270394E4,1.5412427E3,5.4894277E3,2.9074912E3,7.7031464E2,2.8056726E3,2.0256504E3,0E0,0E0,0E0,0E0,0E0,0E0,0E0,0E0],"parents":[2147483647,0,0,1,1,2,2,3,3,4,4,5,5,6,6],"right_children":[2,4,6,8,10,12,14,-1,-1,-1,-1,-1,-1,-1,-1],"split_conditions":[-1E0,4.7660378E1,9.5E0,-3.5614455E0,1.12E2,1.3152633E1,1.1E-2,-6.0983294E-1,-1.8994662E-1,-2.1651697E-1,2.7298424E-1,-6.759014E-2,3.176776E-1,3.7541494E-1,9.580755E-1],"split_indices":[42,28,42,29,0,15,59,0,0,0,0,0,0,0,0],"split_type":[0,0,0,0,0,0,0,0,0,0,0,0,0,0,0],"sum_hessian":[4.93E2,2.3E2,2.63E2,2.01E2,2.9E1,1.96E2,6.7E1,5.8E1,1.43E2,1.2E1,1.7E1,7.6E1,1.2E2,3.3E1,3.4E1],"tree_param":{"num_deleted":"0","num_feature":"88","num_nodes":"15","size_leaf_vector":"1"}},{"base_weights":[1.7380011E-1,5.7180405E0,-3.1522603E0,-3.661019E0,7.397765E0,-7.3129916E0,-3.718588E-1,-4.9101305E-1,4.561269E-2,7.547729E-1,2.625173E-1,-3.9579075E-2,-5.0003666E-1,9.988046E-2,-2.3619573E-1],"categories":[],"categories_nodes":[],"categories_segments":[],"categories_sizes":[],"default_left":[0,0,0,0,0,0,0,0,0,0,0,0,0,0,0],"id":3,"left_children":[1,3,5,7,9,11,13,-1,-1,-1,-1,-1,-1,-1,-1],"loss_changes":[9.294451E3,3.033587E3,3.6347974E3,8.674081E2,2.4926729E3,2.1872822E3,1.989839E3,0E0,0E0,0E0,0E0,0E0,0E0,0E0,0E0],"parents":[2147483647,0,0,1,1,2,2,3,3,4,4,5,5,6,6],"right_children":[2,4,6,8,10,12,14,-1,-1,-1,-1,-1,-1,-1,-1],"split_conditions":[1.133E2,1.124E2,1.132E2,5.5805065E1,1.094E2,1.0788035E2,1.8E0,-4.9101305E-1,4.561269E-2,7.547729E-1,2.625173E-1,-3.9579075E-2,-5.0003666E-1,9.988046E-2,-2.3619573E-1],"split_indices":[37,36,36,25,37,0,45,0,0,0,0,0,0,0,0],"split_type":[0,0,0,0,0,0,0,0,0,0,0,0,0,0,0],"sum_hessian":[5E2,1.87E2,3.13E2,2.8E1,1.59E2,1.24E2,1.89E2,1.1E1,1.7E1,3.2E1,1.27E2,3.7E1,8.7E1,1.23E2,6.6E1],"tree_param":{"num_deleted":"0","num_feature":"88","num_nodes":"15","size_leaf_vector":"1"}},{"base_weights":[-2.7984402E-1,-8.917682E0,2.5620024E0,2.9707057E0,-9.998072E0,9.791869E-1,9.99053E0,2.8947496E-1,-3.127161E-2,-2.0877908E-1,-5.963127E-1,-2.3008685E-1,1.0159295E-1,5.642776E-1,-4.0375646E-2],"categories":[],"categories_nodes":[],"categories_segments":[],"categories_sizes":[],"default_left":[0,0,0,0,0,0,0,0,0,0,0,0,0,0,0],"id":4,"left_children":[1,3,5,7,9,11,13,-1,-1,-1,-1,-1,-1,-1,-1],"loss_changes":[1.2494408E4,1.6812744E3,4.4782607E3,1.3146515E2,1.1946611E3,1.8856277E3,9.6037354E2,0E0,0E0,0E0,0E0,0E0,0E0,0E0,0E0],"parents":[2147483647,0,0,1,1,2,2,3,3,4,4,5,5,6,6],"right_children":[2,4,6,8,10,12,14,-1,-1,-1,-1,-1,-1,-1,-1],"split_conditions":[-6.1E0,3.4548126E1,9.5E0,1.00265E2,5.739361E1,-1.9589442E0,1.0124E2,2.8947496E-1,-3.127161E-2,-2.0877908E-1,-5.963127E-1,-2.3008685E-1,1.0159295E-1,5.642776E-1,-4.0375646E-2],"split_indices":[42,28,42,50,25,17,48,0,0,0,0,0,0,0,0],"split_type":[0,0,0,0,0,0,0,0,0,0,0,0,0,0,0],"sum_hessian":[5.05E2,1.24E2,3.81E2,1E1,1.14E2,3.16E2,6.5E1,5E0,5E0,3E1,8.4E1,4.9E1,2.67E2,5.8E1,7E0],"tree_param":{"num_deleted":"0","num_feature":"88","num_nodes":"15","size_leaf_vector":"1"}},{"base_weights":[4.174355E-2,-2.3522909E0,8.046513E0,-4.210198E0,5.7312317E0,1.05202055E1,5.3260565E-2,-4.4267568E-1,-1.2888208E-1,5.10229E-2,5.610756E-1,1.9001393E-1,6.957447E-1,-1.6645864E-1,4.9134704E-1],"categories":[],"categories_nodes":[],"categories_segments":[],"categories_sizes":[],"default_left":[0,0,0,0,0,0,0,0,0,0,0,0,0,0,0],"id":5,"left_children":[1,3,5,7,9,11,13,-1,-1,-1,-1,-1,-1,-1,-1],"loss_changes":[9.488402E3,5.769522E3,2.2476973E3,2.30617E3,1.833147E3,1.8700303E3,1.0273859E3,0E0,0E0,0E0,0E0,0E0,0E0,0E0,0E0],"parents":[2147483647,0,0,1,1,2,2,3,3,4,4,5,5,6,6],"right_children":[2,4,6,8,10,12,14,-1,-1,-1,-1,-1,-1,-1,-1],"split_conditions":[1.05625E0,5.4E0,1.01845E2,-4.8E0,3.5E0,4.317357E1,9E0,-4.4267568E-1,-1.2888208E-1,5.10229E-2,5.610756E-1,1.9001393E-1,6.957447E-1,-1.6645864E-1,4.9134704E-1],"split_indices":[47,40,50,40,54,4,63,0,0,0,0,0,0,0,0],"split_type":[0,0,0,0,0,0,0,0,0,0,0,0,0,0,0],"sum_hessian":[4.91E2,3.79E2,1.12E2,3.09E2,7E1,8.5E1,2.7E1,7.8E1,2.31E2,3.9E1,3.1E1,3E1,5.5E1,2.1E1,6E0],"tree_param":{"num_deleted":"0","num_feature":"88","num_nodes":"15","size_leaf_vector":"1"}},{"base_weights":[-1.0385487E0,-4.436659E0,5.7671156E0,-9.056836E0,-1.826499E0,2.908327E0,9.939686E0,-2.8682908E-1,-8.906688E-1,1.4754857E-1,-2.5805125E-1,-3.9033744E-1,2.1240778E-1,7.383652E-1,2.7325338E-1],"categories":[],"categories_nodes":[],"categories_segments":[],"categories_sizes":[],"default_left":[0,0,0,0,0,0,0,0,0,0,0,0,0,0,0],"id":6,"left_children":[1,3,5,7,9,11,13,-1,-1,-1,-1,-1,-1,-1,-1],"loss_changes":[1.1590582E4,3.989315E3,1.9278193E3,3.2727217E3,3.4725747E3,1.5288986E3,1.275792E3,0E0,0E0,0E0,0E0,0E0,0E0,0E0,0E0],"parents":[2147483647,0,0,1,1,2,2,3,3,4,4,5,5,6,6],"right_children":[2,4,6,8,10,12,14,-1,-1,-1,-1,-1,-1,-1,-1],"split_conditions":[3.5E0,-6.1E0,9.5E0,1.7677757E0,-8.794345E-2,1.4403509E1,-1.1168995E0,-2.8682908E-1,-8.906688E-1,1.4754857E-1,-2.5805125E-1,-3.9033744E-1,2.1240778E-1,7.383652E-1,2.7325338E-1],"split_indices":[42,42,42,5,14,67,32,0,0,0,0,0,0,0,0],"split_type":[0,0,0,0,0,0,0,0,0,0,0,0,0,0,0],"sum_hessian":[4.97E2,3.32E2,1.65E2,1.18E2,2.14E2,1E2,6.5E1,8.8E1,3E1,8.8E1,1.26E2,1E1,9E1,2.9E1,3.6E1],"tree_param":{"num_deleted":"0","num_feature":"88","num_nodes":"15","size_leaf_vector":"1"}},{"base_weights":[1.5144065E-1,5.3795695E0,-2.890663E0,1.9598656E1,4.1350346E0,3.670902E0,-5.3532763E0,1.2068896E0,5.0486773E-1,1.331634E-1,5.66917E-1,2.7088177E-1,-4.589107E-1,-5.201593E-1,-1.921717E-1],"categories":[],"categories_nodes":[],"categories_segments":[],"categories_sizes":[],"default_left":[0,0,0,0,0,0,0,0,0,0,0,0,0,0,0],"id":7,"left_children":[1,3,5,7,9,11,13,-1,-1,-1,-1,-1,-1,-1,-1],"loss_changes":[7.8255547E3,3.0290527E3,5.0654673E3,9.9214355E1,1.724273E3,2.0277505E3,1.6436855E3,0E0,0E0,0E0,0E0,0E0,0E0,0E0,0E0],"parents":[2147483647,0,0,1,1,2,2,3,3,4,4,5,5,6,6],"right_children":[2,4,6,8,10,12,14,-1,-1,-1,-1,-1,-1,-1,-1],"split_conditions":[1.131E2,1.094E2,-2.8E0,-1.7142346E0,2.6E-2,1.6755564E1,9.9464285E-1,1.2068896E0,5.0486773E-1,1.331634E-1,5.66917E-1,2.7088177E-1,-4.589107E-1,-5.201593E-1,-1.921717E-1],"split_indices":[38,37,41,23,57,15,47,0,0,0,0,0,0,0,0],"split_type":[0,0,0,0,0,0,0,0,0,0,0,0,0,0,0],"sum_hessian":[4.88E2,1.79E2,3.09E2,1.2E1,1.67E2,8.4E1,2.25E2,6E0,6E0,1.41E2,2.6E1,7.5E1,9E0,4.9E1,1.76E2],"tree_param":{"num_deleted":"0","num_feature":"88","num_nodes":"15","size_leaf_vector":"1"}},{"base_weights":[1.3019621E-1,-2.0361607E0,1.0226172E1,-5.179631E0,7.776266E-1,5.9456506E0,1.6064945E1,-1.8135749E-1,-5.8889514E-1,-2.2907732E-1,9.813457E-2,5.778584E-1,1.4692466E-2,1.0724701E0,3.7470773E-1],"categories":[],"categories_nodes":[],"categories_segments":[],"categories_sizes":[],"default_left":[0,0,0,0,0,0,0,0,0,0,0,0,0,0,0],"id":8,"left_children":[1,3,5,7,9,11,13,-1,-1,-1,-1,-1,-1,-1,-1],"loss_changes":[1.0893997E4,3.63673E3,1.9973457E3,1.8941348E3,1.4011858E3,1.6999019E3,1.3254023E3,0E0,0E0,0E0,0E0,0E0,0E0,0E0,0E0],"parents":[2147483647,0,0,1,1,2,2,3,3,4,4,5,5,6,6],"right_children":[2,4,6,8,10,12,14,-1,-1,-1,-1,-1,-1,-1,-1],"split_conditions":[8.1E0,-2.6E0,4.8474574E0,2.6840415E0,1.2440221E1,1.0595352E1,1.106E2,-1.8135749E-1,-5.8889514E-1,-2.2907732E-1,9.813457E-2,5.778584E-1,1.4692466E-2,1.0724701E0,3.7470773E-1],"split_indices":[42,42,71,23,15,18,37,0,0,0,0,0,0,0,0],"split_type":[0,0,0,0,0,0,0,0,0,0,0,0,0,0,0],"sum_hessian":[4.94E2,4.08E2,8.6E1,1.92E2,2.16E2,5.2E1,3.4E1,1.58E2,3.4E1,3.8E1,1.78E2,2.5E1,2.7E1,1.9E1,1.5E1],"tree_param":{"num_deleted":"0","num_feature":"88","num_nodes":"15","size_leaf_vector":"1"}},{"base_weights":[6.1756533E-1,-1.6787992E0,4.465579E0,-7.5371084E0,-2.5107405E-1,1.6674947E0,1.1414829E1,-5.2823967E-1,1.2071911E-2,-1.4593337E-1,1.11732714E-1,-9.582754E-2,2.5792554E-1,8.2518065E-1,2.4207921E-1],"categories":[],"categories_nodes":[],"categories_segments":[],"categories_sizes":[],"default_left":[0,0,0,0,0,0,0,0,0,0,0,0,0,0,0],"id":9,"left_children":[1,3,5,7,9,11,13,-1,-1,-1,-1,-1,-1,-1,-1],"loss_changes":[4.3992627E3,2.6019062E3,3.572084E3,1.4468735E3,1.6910074E3,1.7105087E3,1.6023604E3,0E0,0E0,0E0,0E0,0E0,0E0,0E0,0E0],"parents":[2147483647,0,0,1,1,2,2,3,3,4,4,5,5,6,6],"right_children":[2,4,6,8,10,12,14,-1,-1,-1,-1,-1,-1,-1,-1],"split_conditions":[8E-3,-1.5E-2,1.7E-2,5.2E-2,5.739606E1,4.6401434E0,-7.1E0,-5.2823967E-1,1.2071911E-2,-1.4593337E-1,1.11732714E-1,-9.582754E-2,2.5792554E-1,8.2518065E-1,2.4207921E-1],"split_indices":[57,58,59,59,24,12,62,0,0,0,0,0,0,0,0],"split_type":[0,0,0,0,0,0,0,0,0,0,0,0,0,0,0],"sum_hessian":[4.94E2,3.1E2,1.84E2,5.9E1,2.51E2,1.33E2,5.1E1,4.2E1,1.7E1,1.21E2,1.3E2,6.6E1,6.7E1,2.7E1,2.4E1],"tree_param":{"num_deleted":"0","num_feature":"88","num_nodes":"15","size_leaf_vector":"1"}},{"base_weights":[-2.457573E-1,5.1003504E0,-3.20695E0,8.114979E0,1.9382449E0,4.3547693E-1,-6.1837707E0,5.212471E-1,-2.2089803E-1,2.065871E-1,-2.5375792E-1,-7.261794E-2,2.9963303E-1,-1.283596E-1,-4.5826766E-1],"categories":[],"categories_nodes":[],"categories_segments":[],"categories_sizes":[],"default_left":[0,0,0,0,0,0,0,0,0,0,0,0,0,0,0],"id":10,"left_children":[1,3,5,7,9,11,13,-1,-1,-1,-1,-1,-1,-1,-1],"loss_changes":[8.216318E3,1.727042E3,3.6297722E3,2.8164766E3,1.4721677E3,1.6143168E3,1.9311709E3,0E0,0E0,0E0,0E0,0E0,0E0,0E0,0E0],"parents":[2147483647,0,0,1,1,2,2,3,3,4,4,5,5,6,6],"right_children":[2,4,6,8,10,12,14,-1,-1,-1,-1,-1,-1,-1,-1],"split_conditions":[-1E0,4.4266826E-1,1.142E2,1.05625E0,8E0,3.4169533E1,-3.4333432E-1,5.212471E-1,-2.2089803E-1,2.065871E-1,-2.5375792E-1,-7.261794E-2,2.9963303E-1,-1.283596E-1,-4.5826766E-1],"split_indices":[41,32,38,46,56,21,14,0,0,0,0,0,0,0,0],"split_type":[0,0,0,0,0,0,0,0,0,0,0,0,0,0,0],"sum_hessian":[5.15E2,1.83E2,3.32E2,9.2E1,9.1E1,1.5E2,1.82E2,7.8E1,1.4E1,7E1,2.1E1,1.13E2,3.7E1,8.4E1,9.8E1],"tree_param":{"num_deleted":"0","num_feature":"88","num_nodes":"15","size_leaf_vector":"1"}},{"base_weights":[1.9445254E-2,-4.6886325E0,4.4304276E0,-1.2330246E1,-3.53899E0,2.2958245E0,1.0248486E1,-3.0159122E-1,-8.895546E-1,-3.1667548E-1,-5.130626E-2,-8.564552E-2,2.1577819E-1,1.1158698E-1,6.777131E-1],"categories":[],"categories_nodes":[],"categories_segments":[],"categories_sizes":[],"default_left":[0,0,0,0,0,0,0,0,0,0,0,0,0,0,0],"id":11,"left_children":[1,3,5,7,9,11,13,-1,-1,-1,-1,-1,-1,-1,-1],"loss_changes":[1.0134299E4,1.978082E3,3.0763198E3,8.053047E2,1.44395E3,1.5301495E3,1.7072119E3,0E0,0E0,0E0,0E0,0E0,0E0,0E0,0E0],"parents":[2147483647,0,0,1,1,2,2,3,3,4,4,5,5,6,6],"right_children":[2,4,6,8,10,12,14,-1,-1,-1,-1,-1,-1,-1,-1],"split_conditions":[-2E-1,-1.29E1,9.5E0,1.6109476E0,2.6173891E1,-1.3382684E0,7.94E0,-3.0159122E-1,-8.895546E-1,-3.1667548E-1,-5.130626E-2,-8.564552E-2,2.1577819E-1,1.1158698E-1,6.777131E-1],"split_indices":[42,42,42,32,7,34,9,0,0,0,0,0,0,0,0],"split_type":[0,0,0,0,0,0,0,0,0,0,0,0,0,0,0],"sum_hessian":[4.84E2,2.34E2,2.5E2,2.8E1,2.06E2,1.85E2,6.5E1,1.5E1,1.3E1,9.6E1,1.1E2,6.2E1,1.23E2,2E1,4.5E1],"tree_param":{"num_deleted":"0","num_feature":"88","num_nodes":"15","size_leaf_vector":"1"}},{"base_weights":[-3.6156464E-1,3.0694797E0,-3.5781348E0,4.731717E0,-2.2100227E0,-7.792015E0,-1.2887532E0,1.8001235E-1,6.812374E-1,2.3333395E-1,-3.6032143E-1,-4.6925616E-1,2.0428549E-1,-1.2397653E-1,3.657864E-1],"categories":[],"categories_nodes":[],"categories_segments":[],"categories_sizes":[],"default_left":[0,0,0,0,0,0,0,0,0,0,0,0,0,0,0],"id":12,"left_children":[1,3,5,7,9,11,13,-1,-1,-1,-1,-1,-1,-1,-1],"loss_changes":[5.496173E3,2.1371401E3,2.454701E3,1.7447266E3,2.0956987E3,1.7823652E3,1.7654387E3,0E0,0E0,0E0,0E0,0E0,0E0,0E0,0E0],"parents":[2147483647,0,0,1,1,2,2,3,3,4,4,5,5,6,6],"right_children":[2,4,6,8,10,12,14,-1,-1,-1,-1,-1,-1,-1,-1],"split_conditions":[6E-1,1.05625E0,-2.6E0,9.692171E0,8.817496E-2,1.2E-2,4.7649555E1,1.8001235E-1,6.812374E-1,2.3333395E-1,-3.6032143E-1,-4.6925616E-1,2.0428549E-1,-1.2397653E-1,3.657864E-1],"split_indices":[41,46,40,29,23,58,3,0,0,0,0,0,0,0,0],"split_type":[0,0,0,0,0,0,0,0,0,0,0,0,0,0,0],"sum_hessian":[4.94E2,2.39E2,2.55E2,1.82E2,5.7E1,8.8E1,1.67E2,1.64E2,1.8E1,2.4E1,3.3E1,7.8E1,1E1,1.48E2,1.9E1],"tree_param":{"num_deleted":"0","num_feature":"88","num_nodes":"15","size_leaf_vector":"1"}},{"base_weights":[3.1192037E-1,4.9808702E0,-2.3006876E0,5.724913E0,-4.1582075E-1,-3.9151373E0,1.9403124E0,5.6153357E-2,3.7330347E-1,-2.5618878E-1,2.6711045E-2,3.311494E-1,-1.9402403E-1],"categories":[],"categories_nodes":[],"categories_segments":[],"categories_sizes":[],"default_left":[0,0,0,0,0,0,0,0,0,0,0,0,0],"id":13,"left_children":[1,3,5,7,-1,9,11,-1,-1,-1,-1,-1,-1],"loss_changes":[5.9159585E3,1.8154375E3,2.1455605E3,1.3090166E3,0E0,1.2231216E3,2.4241208E3,0E0,0E0,0E0,0E0,0E0,0E0],"parents":[2147483647,0,0,1,1,2,2,3,3,5,5,6,6],"right_children":[2,4,6,8,-1,10,12,-1,-1,-1,-1,-1,-1],"split_conditions":[1.131E2,5.767857E0,8E-3,2.4647657E1,-4.1582075E-1,1.0204E2,1.3151621E0,5.6153357E-2,3.7330347E-1,-2.5618878E-1,2.6711045E-2,3.311494E-1,-1.9402403E-1],"split_indices":[38,72,57,31,0,49,32,0,0,0,0,0,0],"split_type":[0,0,0,0,0,0,0,0,0,0,0,0,0],"sum_hessian":[4.81E2,1.72E2,3.09E2,1.64E2,8E0,2.24E2,8.5E1,4.6E1,1.18E2,1.76E2,4.8E1,4.7E1,3.8E1],"tree_param":{"num_deleted":"0","num_feature":"88","num_nodes":"13","size_leaf_vector":"1"}},{"base_weights":[4.1380167E-1,-1.5105504E0,7.913522E0,-5.2548857E0,3.2106525E-1,9.556008E0,-1.7701275E0,1.2921646E-1,-3.764648E-1,-3.153943E-1,8.261301E-2,5.859541E-1,1.863398E-1,-5.875074E-1,2.4285911E-1],"categories":[],"categories_nodes":[],"categories_segments":[],"categories_sizes":[],"default_left":[0,0,0,0,0,0,0,0,0,0,0,0,0,0,0],"id":14,"left_children":[1,3,5,7,9,11,13,-1,-1,-1,-1,-1,-1,-1,-1],"loss_changes":[6.997814E3,2.6531E3,1.6123447E3,2.3057473E3,2.3216924E3,9.7669434E2,1.1758427E3,0E0,0E0,0E0,0E0,0E0,0E0,0E0,0E0],"parents":[2147483647,0,0,1,1,2,2,3,3,4,4,5,5,6,6],"right_children":[2,4,6,8,10,12,14,-1,-1,-1,-1,-1,-1,-1,-1],"split_conditions":[7.8E0,-6.1E0,4.3633335E1,5.6837135E1,1.2440221E1,1.4E1,4.2181697E0,1.2921646E-1,-3.764648E-1,-3.153943E-1,8.261301E-2,5.859541E-1,1.863398E-1,-5.875074E-1,2.4285911E-1],"split_indices":[42,42,70,25,15,42,5,0,0,0,0,0,0,0,0],"split_type":[0,0,0,0,0,0,0,0,0,0,0,0,0,0,0],"sum_hessian":[4.81E2,3.84E2,9.7E1,1.25E2,2.59E2,8.3E1,1.4E1,2.8E1,9.7E1,4.2E1,2.17E2,5.9E1,2.4E1,5E0,9E0],"tree_param":{"num_deleted":"0","num_feature":"88","num_nodes":"15","size_leaf_vector":"1"}},{"base_weights":[-9.713753E-1,7.172214E0,-1.9250166E0,-2.3326099E-1,8.968993E0,-5.4097426E-1,-6.4725823E0,7.486071E-1,1.919664E-1,-4.9947444E-2,4.664505E-1,3.2869603E-2,-5.0589323E-1],"categories":[],"categories_nodes":[],"categories_segments":[],"categories_sizes":[],"default_left":[0,0,0,0,0,0,0,0,0,0,0,0,0],"id":15,"left_children":[1,3,5,-1,7,9,11,-1,-1,-1,-1,-1,-1],"loss_changes":[3.7759978E3,1.1705684E3,2.7210962E3,0E0,1.2613645E3,1.528741E3,2.643101E3,0E0,0E0,0E0,0E0,0E0,0E0],"parents":[2147483647,0,0,1,1,2,2,4,4,5,5,6,6],"right_children":[2,4,6,-1,8,10,12,-1,-1,-1,-1,-1,-1],"split_conditions":[1.097E2,1.5E0,1.0642858E0,-2.3326099E-1,5.4883217E1,8.305677E0,7.870849E-2,7.486071E-1,1.919664E-1,-4.9947444E-2,4.664505E-1,3.2869603E-2,-5.0589323E-1],"split_indices":[37,54,46,0,25,8,5,0,0,0,0,0,0],"split_type":[0,0,0,0,0,0,0,0,0,0,0,0,0],"sum_hessian":[4.81E2,4.9E1,4.32E2,6E0,4.3E1,3.33E2,9.9E1,1.8E1,2.5E1,3.2E2,1.3E1,3.4E1,6.5E1],"tree_param":{"num_deleted":"0","num_feature":"88","num_nodes":"13","size_leaf_vector":"1"}},{"base_weights":[5.8589976E-2,-3.0798538E0,5.503191E0,-6.330246E0,-8.70146E-1,5.688195E-1,8.04258E0,9.347049E-2,-3.7213567E-1,1.811641E-1,-2.0612696E-1,1.0446779E-1,-3.776893E-1,2.4953714E-1,6.08503E-1],"categories":[],"categories_nodes":[],"categories_segments":[],"categories_sizes":[],"default_left":[0,0,0,0,0,0,0,0,0,0,0,0,0,0,0],"id":16,"left_children":[1,3,5,7,9,11,13,-1,-1,-1,-1,-1,-1,-1,-1],"loss_changes":[8.0833574E3,2.1401084E3,2.1542842E3,1.1343569E3,2.675329E3,7.822265E2,1.3059331E3,0E0,0E0,0E0,0E0,0E0,0E0,0E0,0E0],"parents":[2147483647,0,0,1,1,2,2,3,3,4,4,5,5,6,6],"right_children":[2,4,6,8,10,12,14,-1,-1,-1,-1,-1,-1,-1,-1],"split_conditions":[2.8E0,-6.1E0,7.927703E0,-1.5378568E1,-4.305986E-2,3.3457478E1,9.1E0,9.347049E-2,-3.7213567E-1,1.811641E-1,-2.0612696E-1,1.0446779E-1,-3.776893E-1,2.4953714E-1,6.08503E-1],"split_indices":[42,42,9,2,14,31,42,0,0,0,0,0,0,0,0],"split_type":[0,0,0,0,0,0,0,0,0,0,0,0,0,0,0],"sum_hessian":[4.69E2,2.98E2,1.71E2,1.19E2,1.79E2,5.9E1,1.12E2,1.4E1,1.05E2,7.5E1,1.04E2,5.1E1,8E0,6.7E1,4.5E1],"tree_param":{"num_deleted":"0","num_feature":"88","num_nodes":"15","size_leaf_vector":"1"}},{"base_weights":[2.870312E-1,-5.090963E0,1.9812647E0,-3.1720064E0,-1.3354672E1,8.7413406E-1,7.4619117E0,-3.4788913E-1,1.6136771E-1,-1.0277559E-2,-9.9320775E-1,-1.6222113E-1,1.4388207E-1,5.6531006E-1,8.8246964E-2],"categories":[],"categories_nodes":[],"categories_segments":[],"categories_sizes":[],"default_left":[0,0,0,0,0,0,0,0,0,0,0,0,0,0,0],"id":17,"left_children":[1,3,5,7,9,11,13,-1,-1,-1,-1,-1,-1,-1,-1],"loss_changes":[4.373952E3,1.7306499E3,2.1975308E3,2.3725244E3,1.7792722E3,2.5434656E3,1.2895046E3,0E0,0E0,0E0,0E0,0E0,0E0,0E0,0E0],"parents":[2147483647,0,0,1,1,2,2,3,3,4,4,5,5,6,6],"right_children":[2,4,6,8,10,12,14,-1,-1,-1,-1,-1,-1,-1,-1],"split_conditions":[-6.2E0,3.4160362E1,9.5E0,-1.6593549E-1,1.2945534E1,7.925709E0,4E-1,-3.4788913E-1,1.6136771E-1,-1.0277559E-2,-9.9320775E-1,-1.6222113E-1,1.4388207E-1,5.6531006E-1,8.8246964E-2],"split_indices":[42,21,42,14,16,10,44,0,0,0,0,0,0,0,0],"split_type":[0,0,0,0,0,0,0,0,0,0,0,0,0,0,0],"sum_hessian":[4.76E2,1.13E2,3.63E2,9.4E1,1.9E1,3.04E2,5.9E1,5.9E1,3.5E1,7E0,1.2E1,9.9E1,2.05E2,3.4E1,2.5E1],"tree_param":{"num_deleted":"0","num_feature":"88","num_nodes":"15","size_leaf_vector":"1"}},{"base_weights":[-2.3806598E-2,-3.68935E0,3.495643E0,-9.289277E0,-2.628408E0,-7.037747E-1,3.9635413E0,-2.6653206E-1,-8.021738E-1,-1.0096697E-1,-5.7076555E-1,3.988705E-1,1.1189081E-1],"categories":[],"categories_nodes":[],"categories_segments":[],"categories_sizes":[],"default_left":[0,0,0,0,0,0,0,0,0,0,0,0,0],"id":18,"left_children":[1,3,5,7,9,-1,11,-1,-1,-1,-1,-1,-1],"loss_changes":[6.424635E3,1.3948611E3,2.194784E3,8.34291E2,1.0603602E3,0E0,1.6839702E3,0E0,0E0,0E0,0E0,0E0,0E0],"parents":[2147483647,0,0,1,1,2,2,3,3,4,4,6,6],"right_children":[2,4,6,8,10,-1,12,-1,-1,-1,-1,-1,-1],"split_conditions":[-5E-1,-1.29E1,-1.3315146E1,6.49371E-1,3E0,-7.037747E-1,-1E0,-2.6653206E-1,-8.021738E-1,-1.0096697E-1,-5.7076555E-1,3.988705E-1,1.1189081E-1],"split_indices":[42,42,32,5,85,0,55,0,0,0,0,0,0],"split_type":[0,0,0,0,0,0,0,0,0,0,0,0,0],"sum_hessian":[4.94E2,2.42E2,2.52E2,3.6E1,2.06E2,5E0,2.47E2,2.5E1,1.1E1,1.95E2,1.1E1,7.2E1,1.75E2],"tree_param":{"num_deleted":"0","num_feature":"88","num_nodes":"13","size_leaf_vector":"1"}},{"base_weights":[-6.4866024E-1,-1.8951031E0,7.8882604E0,-5.9138E0,-3.774934E-1,1.0911949E1,2.1705914E0,-2.116144E-1,-5.6948125E-1,8.691047E-2,-1.16745174E-1,8.919037E-1,3.1186453E-1,-1.2828656E-1,2.977963E-1],"categories":[],"categories_nodes":[],"categories_segments":[],"categories_sizes":[],"default_left":[0,0,0,0,0,0,0,0,0,0,0,0,0,0,0],"id":19,"left_children":[1,3,5,7,9,11,13,-1,-1,-1,-1,-1,-1,-1,-1],"loss_changes":[5.177041E3,2.5782861E3,1.0179719E3,9.638699E2,1.2922178E3,1.0605303E3,4.6254327E2,0E0,0E0,0E0,0E0,0E0,0E0,0E0,0E0],"parents":[2147483647,0,0,1,1,2,2,3,3,4,4,5,5,6,6],"right_children":[2,4,6,8,10,12,14,-1,-1,-1,-1,-1,-1,-1,-1],"split_conditions":[9.6E0,-6.1E0,1.43E1,4.553779E1,4.5887458E-1,2.4E1,8.142203E0,-2.116144E-1,-5.6948125E-1,8.691047E-2,-1.16745174E-1,8.919037E-1,3.1186453E-1,-1.2828656E-1,2.977963E-1],"split_indices":[42,42,42,3,2,7,9,0,0,0,0,0,0,0,0],"split_type":[0,0,0,0,0,0,0,0,0,0,0,0,0,0,0],"sum_hessian":[4.82E2,4.22E2,6E1,1.14E2,3.08E2,3.8E1,2.2E1,9E1,2.4E1,1.48E2,1.6E2,1.3E1,2.5E1,1E1,1.2E1],"tree_param":{"num_deleted":"0","num_feature":"88","num_nodes":"15","size_leaf_vector":"1"}},{"base_weights":[2.693525E-1,-1.9239197E0,2.7030735E0,-9.19349E-1,-9.10258E0,3.3854868E0,-1.0614758E1,2.8657547E-1,-1.07771255E-1,-9.7221695E-2,-6.8846333E-1,5.2891666E-1,1.0470313E-1,-2.0419149E-1,-7.0207345E-1],"categories":[],"categories_nodes":[],"categories_segments":[],"categories_sizes":[],"default_left":[0,0,0,0,0,0,0,0,0,0,0,0,0,0,0],"id":20,"left_children":[1,3,5,7,9,11,13,-1,-1,-1,-1,-1,-1,-1,-1],"loss_changes":[2.6690212E3,1.8748691E3,2.2221765E3,1.9384049E3,1.00755054E3,2.0579675E3,1.4480664E2,0E0,0E0,0E0,0E0,0E0,0E0,0E0,0E0],"parents":[2147483647,0,0,1,1,2,2,3,3,4,4,5,5,6,6],"right_children":[2,4,6,8,10,12,14,-1,-1,-1,-1,-1,-1,-1,-1],"split_conditions":[1.141E2,5.9870777E0,2.9E-2,3.9867805E1,2.4E0,1.106E2,4.261159E1,2.8657547E-1,-1.07771255E-1,-9.7221695E-2,-6.8846333E-1,5.2891666E-1,1.0470313E-1,-2.0419149E-1,-7.0207345E-1],"split_indices":[36,32,58,4,52,37,3,0,0,0,0,0,0,0,0],"split_type":[0,0,0,0,0,0,0,0,0,0,0,0,0,0,0],"sum_hessian":[4.96E2,2.61E2,2.35E2,2.31E2,3E1,2.25E2,1E1,3.5E1,1.96E2,1.3E1,1.7E1,3.2E1,1.93E2,5E0,5E0],"tree_param":{"num_deleted":"0","num_feature":"88","num_nodes":"15","size_leaf_vector":"1"}},{"base_weights":[1.3189265E-1,-4.5321407E0,2.696396E0,-1.1409959E1,-3.353506E0,1.1787597E0,7.6563787E0,-7.857612E-1,-1.0416457E-2,-2.8594796E-2,-3.5684416E-1,9.725573E-2,-3.4413657E-1,1.8721335E-1,5.1155406E-1],"categories":[],"categories_nodes":[],"categories_segments":[],"categories_sizes":[],"default_left":[0,0,0,0,0,0,0,0,0,0,0,0,0,0,0],"id":21,"left_children":[1,3,5,7,9,11,13,-1,-1,-1,-1,-1,-1,-1,-1],"loss_changes":[5.9681055E3,1.3509304E3,2.4013708E3,1.1911399E3,1.6086599E3,1.5626195E3,6.7183594E2,0E0,0E0,0E0,0E0,0E0,0E0,0E0,0E0],"parents":[2147483647,0,0,1,1,2,2,3,3,4,4,5,5,6,6],"right_children":[2,4,6,8,10,12,14,-1,-1,-1,-1,-1,-1,-1,-1],"split_conditions":[-3.5E0,1.1608569E1,9.5E0,1E0,1.3887226E1,2.9967348E1,2.6602467E1,-7.857612E-1,-1.0416457E-2,-2.8594796E-2,-3.5684416E-1,9.725573E-2,-3.4413657E-1,1.8721335E-1,5.1155406E-1],"split_indices":[42,16,42,85,16,7,31,0,0,0,0,0,0,0,0],"split_type":[0,0,0,0,0,0,0,0,0,0,0,0,0,0,0],"sum_hessian":[4.95E2,1.75E2,3.2E2,2.3E1,1.52E2,2.47E2,7.3E1,1.6E1,7E0,8.9E1,6.3E1,2.27E2,2E1,3.1E1,4.2E1],"tree_param":{"num_deleted":"0","num_feature":"88","num_nodes":"15","size_leaf_vector":"1"}},{"base_weights":[1.8963575E-1,-1.198614E0,5.9211426E0,5.8353823E-1,-1.4976355E0,7.4388094E0,-3.778213E0,-9.443259E-2,4.4933358E-1,6.967878E-1,2.5841194E-1,1.4756195E-1,-4.114092E-1],"categories":[],"categories_nodes":[],"categories_segments":[],"categories_sizes":[],"default_left":[0,0,0,0,0,0,0,0,0,0,0,0,0],"id":22,"left_children":[1,3,5,-1,7,9,11,-1,-1,-1,-1,-1,-1],"loss_changes":[3.8358018E3,1.52298E3,1.4417578E3,0E0,1.5923195E3,1.0560474E3,4.7044727E2,0E0,0E0,0E0,0E0,0E0,0E0],"parents":[2147483647,0,0,1,1,2,2,4,4,5,5,6,6],"right_children":[2,4,6,-1,8,10,12,-1,-1,-1,-1,-1,-1],"split_conditions":[7.5E0,1.094E2,1.01735E2,5.8353823E-1,8.305677E0,5.4481216E1,-2.5525546E-1,-9.443259E-2,4.4933358E-1,6.967878E-1,2.5841194E-1,1.4756195E-1,-4.114092E-1],"split_indices":[42,37,50,0,8,25,14,0,0,0,0,0,0],"split_type":[0,0,0,0,0,0,0,0,0,0,0,0,0],"sum_hessian":[4.78E2,3.86E2,9.2E1,7E0,3.79E2,8E1,1.2E1,3.67E2,1.2E1,1.8E1,6.2E1,5E0,7E0],"tree_param":{"num_deleted":"0","num_feature":"88","num_nodes":"13","size_leaf_vector":"1"}},{"base_weights":[1.6993494E-1,6.6645136E0,-5.9975755E-1,1.0651044E1,5.1677394E-1,-6.153626E0,1.1367663E-1,1.0439366E0,3.3327612E-1,2.0847581E-1,-4.4761068E-1,-7.992324E-3,-4.9970695E-1,1.499326E-1,-6.53132E-2],"categories":[],"categories_nodes":[],"categories_segments":[],"categories_sizes":[],"default_left":[0,0,0,0,0,0,0,0,0,0,0,0,0,0,0],"id":23,"left_children":[1,3,5,7,9,11,13,-1,-1,-1,-1,-1,-1,-1,-1],"loss_changes":[2.500443E3,1.2823398E3,1.7755757E3,1.0122981E3,8.677802E2,1.1657064E3,1.6390847E3,0E0,0E0,0E0,0E0,0E0,0E0,0E0,0E0],"parents":[2147483647,0,0,1,1,2,2,3,3,4,4,5,5,6,6],"right_children":[2,4,6,8,10,12,14,-1,-1,-1,-1,-1,-1,-1,-1],"split_conditions":[1.097E2,4.2305084E1,1.097E2,6.9364133E0,1.5E0,4.3972866E1,-1.4597285E0,1.0439366E0,3.3327612E-1,2.0847581E-1,-4.4761068E-1,-7.992324E-3,-4.9970695E-1,1.499326E-1,-6.53132E-2],"split_indices":[37,69,36,10,55,3,20,0,0,0,0,0,0,0,0],"split_type":[0,0,0,0,0,0,0,0,0,0,0,0,0,0,0],"sum_hessian":[4.96E2,5.1E1,4.45E2,3E1,2.1E1,4.9E1,3.96E2,6E0,2.4E1,1.6E1,5E0,2E1,2.9E1,1.3E2,2.66E2],"tree_param":{"num_deleted":"0","num_feature":"88","num_nodes":"15","size_leaf_vector":"1"}},{"base_weights":[2.4119793E-1,3.7737541E0,-1.2272263E0,-1.3893965E0,6.1780453E0,5.003444E-1,-4.154226E0,-1.9839393E-1,2.0355736E-1,6.425202E-1,2.0656383E-1,5.914845E-2,-4.4311187E-1,-6.5059187E-3,-3.44878E-1],"categories":[],"categories_nodes":[],"categories_segments":[],"categories_sizes":[],"default_left":[0,0,0,0,0,0,0,0,0,0,0,0,0,0,0],"id":24,"left_children":[1,3,5,7,9,11,13,-1,-1,-1,-1,-1,-1,-1,-1],"loss_changes":[2.5263716E3,1.794724E3,1.7454541E3,6.9401184E2,1.2236958E3,1.4103937E3,1.4077429E3,0E0,0E0,0E0,0E0,0E0,0E0,0E0,0E0],"parents":[2147483647,0,0,1,1,2,2,3,3,4,4,5,5,6,6],"right_children":[2,4,6,8,10,12,14,-1,-1,-1,-1,-1,-1,-1,-1],"split_conditions":[-2.8E0,1.6305084E1,1.162E2,4.595165E1,4.0156944E1,6.1555557E0,4.2762733E1,-1.9839393E-1,2.0355736E-1,6.425202E-1,2.0656383E-1,5.914845E-2,-4.4311187E-1,-6.5059187E-3,-3.44878E-1],"split_indices":[41,66,38,4,3,13,3,0,0,0,0,0,0,0,0],"split_type":[0,0,0,0,0,0,0,0,0,0,0,0,0,0,0],"sum_hessian":[4.83E2,1.41E2,3.42E2,4.5E1,9.6E1,2.16E2,1.26E2,3.1E1,1.4E1,2E1,7.6E1,2.03E2,1.3E1,5.2E1,7.4E1],"tree_param":{"num_deleted":"0","num_feature":"88","num_nodes":"15","size_leaf_vector":"1"}},{"base_weights":[3.480261E-1,-2.5302067E0,2.197682E0,1.2343416E0,-4.7524524E0,1.2366587E0,6.469192E0,1.2392163E-1,-4.8710147E-1,-3.7650755E-1,-4.6714235E-2,-1.2926516E-1,1.4197066E-1,-2.4473663E-2,4.770189E-1],"categories":[],"categories_nodes":[],"categories_segments":[],"categories_sizes":[],"default_left":[0,0,0,0,0,0,0,0,0,0,0,0,0,0,0],"id":25,"left_children":[1,3,5,7,9,11,13,-1,-1,-1,-1,-1,-1,-1,-1],"loss_changes":[2.6941199E3,1.6699102E3,1.244493E3,1.0688286E3,1.3074119E3,1.5707278E3,1.2106609E3,0E0,0E0,0E0,0E0,0E0,0E0,0E0,0E0],"parents":[2147483647,0,0,1,1,2,2,3,3,4,4,5,5,6,6],"right_children":[2,4,6,8,10,12,14,-1,-1,-1,-1,-1,-1,-1,-1],"split_conditions":[-2.7E0,-1.6929095E0,1.01E1,3.3855016E0,1.134E2,-1.3382684E0,8.010256E0,1.2392163E-1,-4.8710147E-1,-3.7650755E-1,-4.6714235E-2,-1.2926516E-1,1.4197066E-1,-2.4473663E-2,4.770189E-1],"split_indices":[42,20,42,23,39,17,9,0,0,0,0,0,0,0,0],"split_type":[0,0,0,0,0,0,0,0,0,0,0,0,0,0,0],"sum_hessian":[5.02E2,1.96E2,3.06E2,7.3E1,1.23E2,2.52E2,5.4E1,6.7E1,6E0,7E1,5.3E1,7.4E1,1.78E2,1.7E1,3.7E1],"tree_param":{"num_deleted":"0","num_feature":"88","num_nodes":"15","size_leaf_vector":"1"}},{"base_weights":[-2.1796197E-1,2.0834458E0,-3.323517E0,1.1134369E1,1.1917856E0,2.2981708E0,-4.8971286E0,-3.2165267E-2,7.906916E-1,2.5732E-1,-2.6756344E-2,4.9302393E-1,-7.462671E-2,-1.0079979E-1,-3.9328346E-1],"categories":[],"categories_nodes":[],"categories_segments":[],"categories_sizes":[],"default_left":[0,0,0,0,0,0,0,0,0,0,0,0,0,0,0],"id":26,"left_children":[1,3,5,7,9,11,13,-1,-1,-1,-1,-1,-1,-1,-1],"loss_changes":[3.5094243E3,2.2431355E3,1.872696E3,1.4057612E3,1.776595E3,1.3809425E3,1.3659968E3,0E0,0E0,0E0,0E0,0E0,0E0,0E0,0E0],"parents":[2147483647,0,0,1,1,2,2,3,3,4,4,5,5,6,6],"right_children":[2,4,6,8,10,12,14,-1,-1,-1,-1,-1,-1,-1,-1],"split_conditions":[1.8E0,9.8505E1,2.4157951E1,3.6618065E1,1.127E2,-2.4497586E-1,2.6128185E1,-3.2165267E-2,7.906916E-1,2.5732E-1,-2.6756344E-2,4.9302393E-1,-7.462671E-2,-1.0079979E-1,-3.9328346E-1],"split_indices":[41,50,31,4,38,11,6,0,0,0,0,0,0,0,0],"split_type":[0,0,0,0,0,0,0,0,0,0,0,0,0,0,0],"sum_hessian":[4.87E2,2.8E2,2.07E2,2.3E1,2.57E2,4.5E1,1.62E2,7E0,1.6E1,7.7E1,1.8E2,1.4E1,3.1E1,8.4E1,7.8E1],"tree_param":{"num_deleted":"0","num_feature":"88","num_nodes":"15","size_leaf_vector":"1"}},{"base_weights":[1.866603E-1,2.7937777E0,-2.5033782E0,9.687493E0,1.799539E0,-6.6482034E0,-1.0630827E0,1.9161974E-1,1.0061579E0,3.1198877E-1,3.3360116E-2,-1.0542124E-1,-6.158301E-1,-1.504578E-1,1.4904228E-1],"categories":[],"categories_nodes":[],"categories_segments":[],"categories_sizes":[],"default_left":[0,0,0,0,0,0,0,0,0,0,0,0,0,0,0],"id":27,"left_children":[1,3,5,7,9,11,13,-1,-1,-1,-1,-1,-1,-1,-1],"loss_changes":[3.5628357E3,1.7277224E3,1.4744526E3,1.7890415E3,1.1345681E3,1.5877803E3,1.4974725E3,0E0,0E0,0E0,0E0,0E0,0E0,0E0,0E0],"parents":[2147483647,0,0,1,1,2,2,3,3,4,4,5,5,6,6],"right_children":[2,4,6,8,10,12,14,-1,-1,-1,-1,-1,-1,-1,-1],"split_conditions":[7E-1,5.4481216E1,-3E0,4.5163193E1,3.9568993E1,3.252929E1,1.0081E2,1.9161974E-1,1.0061579E0,3.1198877E-1,3.3360116E-2,-1.0542124E-1,-6.158301E-1,-1.504578E-1,1.4904228E-1],"split_indices":[41,25,40,4,4,21,49,0,0,0,0,0,0,0,0],"split_type":[0,0,0,0,0,0,0,0,0,0,0,0,0,0,0],"sum_hessian":[5.04E2,2.56E2,2.48E2,3E1,2.26E2,6.2E1,1.86E2,2.1E1,9E0,4.4E1,1.82E2,3.6E1,2.6E1,1.26E2,6E1],"tree_param":{"num_deleted":"0","num_feature":"88","num_nodes":"15","size_leaf_vector":"1"}},{"base_weights":[-2.4073709E-2,-9.576202E-1,5.762761E0,2.771595E0,-2.0301437E0,7.056157E0,-1.5500838E-1,2.1906057E-1,-3.5656783E-1,-1.9633397E-1,4.721325E-3,1.819218E-1,6.303E-1],"categories":[],"categories_nodes":[],"categories_segments":[],"categories_sizes":[],"default_left":[0,0,0,0,0,0,0,0,0,0,0,0,0],"id":28,"left_children":[1,3,5,7,9,11,-1,-1,-1,-1,-1,-1,-1],"loss_changes":[2.644947E3,1.6987438E3,8.252317E2,1.5754084E3,1.3283052E3,1.0382146E3,0E0,0E0,0E0,0E0,0E0,0E0,0E0],"parents":[2147483647,0,0,1,1,2,2,3,3,4,4,5,5],"right_children":[2,4,6,8,10,12,-1,-1,-1,-1,-1,-1,-1],"split_conditions":[9.5E0,4.029457E1,1.0164E2,3.5890312E1,1.0074E2,2.6467957E1,-1.5500838E-1,2.1906057E-1,-3.5656783E-1,-1.9633397E-1,4.721325E-3,1.819218E-1,6.303E-1],"split_indices":[42,3,50,22,50,6,0,0,0,0,0,0,0],"split_type":[0,0,0,0,0,0,0,0,0,0,0,0,0],"sum_hessian":[4.86E2,4.2E2,6.6E1,9.3E1,3.27E2,5.8E1,8E0,8.1E1,1.2E1,1.72E2,1.55E2,3.8E1,2E1],"tree_param":{"num_deleted":"0","num_feature":"88","num_nodes":"13","size_leaf_vector":"1"}},{"base_weights":[2.1338461E-2,-2.2917745E0,2.2455347E0,-2.8123024E0,5.478567E0,3.8329566E0,-6.940601E-1,1.7840762E-1,-1.6613223E-1,-1.7847838E-1,5.8356804E-1,1.4561151E-2,3.813395E-1,3.6934784E-1,-1.2449851E-1],"categories":[],"categories_nodes":[],"categories_segments":[],"categories_sizes":[],"default_left":[0,0,0,0,0,0,0,0,0,0,0,0,0,0,0],"id":29,"left_children":[1,3,5,7,9,11,13,-1,-1,-1,-1,-1,-1,-1,-1],"loss_changes":[2.572388E3,1.02042773E3,1.196816E3,7.7577454E2,9.83906E2,2.2220984E3,1.355001E3,0E0,0E0,0E0,0E0,0E0,0E0,0E0,0E0],"parents":[2147483647,0,0,1,1,2,2,3,3,4,4,5,5,6,6],"right_children":[2,4,6,8,10,12,14,-1,-1,-1,-1,-1,-1,-1,-1],"split_conditions":[-2E-1,3.4850636E1,5.093399E0,-5.5E-2,1.9E-2,3.5E0,9.119219E0,1.7840762E-1,-1.6613223E-1,-1.7847838E-1,5.8356804E-1,1.4561151E-2,3.813395E-1,3.6934784E-1,-1.2449851E-1],"split_indices":[42,30,2,60,60,54,18,0,0,0,0,0,0,0,0],"split_type":[0,0,0,0,0,0,0,0,0,0,0,0,0,0,0],"sum_hessian":[4.96E2,2.43E2,2.53E2,2.29E2,1.4E1,1.64E2,8.9E1,1.6E1,2.13E2,6E0,8E0,8.6E1,7.8E1,1.5E1,7.4E1],"tree_param":{"num_deleted":"0","num_feature":"88","num_nodes":"15","size_leaf_vector":"1"}},{"base_weights":[-2.1536122E-1,5.885738E-1,-3.7057307E0,5.7125444E0,-8.4872864E-2,-9.40935E0,-1.3743044E0,-1.1176065E-1,3.7582788E-1,-3.0357873E-2,3.3771455E-1,-5.2991766E-2,-5.891611E-1,1.1534953E-1,-3.0425173E-1],"categories":[],"categories_nodes":[],"categories_segments":[],"categories_sizes":[],"default_left":[0,0,0,0,0,0,0,0,0,0,0,0,0,0,0],"id":30,"left_children":[1,3,5,7,9,11,13,-1,-1,-1,-1,-1,-1,-1,-1],"loss_changes":[1.3640396E3,1.3668184E3,1.1788242E3,6.957842E2,1.2588967E3,4.8393945E2,1.1918517E3,0E0,0E0,0E0,0E0,0E0,0E0,0E0,0E0],"parents":[2147483647,0,0,1,1,2,2,3,3,4,4,5,5,6,6],"right_children":[2,4,6,8,10,12,14,-1,-1,-1,-1,-1,-1,-1,-1],"split_conditions":[5.7E0,9.869E1,-2.2282364E0,3.6047913E1,1.0405265E1,-5.8958044E0,5.892887E1,-1.1176065E-1,3.7582788E-1,-3.0357873E-2,3.3771455E-1,-5.2991766E-2,-5.891611E-1,1.1534953E-1,-3.0425173E-1],"split_indices":[41,50,26,4,9,26,24,0,0,0,0,0,0,0,0],"split_type":[0,0,0,0,0,0,0,0,0,0,0,0,0,0,0],"sum_hessian":[4.82E2,3.93E2,8.9E1,4.4E1,3.49E2,2.4E1,6.5E1,8E0,3.6E1,3.26E2,2.3E1,6E0,1.8E1,3.7E1,2.8E1],"tree_param":{"num_deleted":"0","num_feature":"88","num_nodes":"15","size_leaf_vector":"1"}},{"base_weights":[-6.355021E-1,-1.4855917E0,4.547733E0,-4.2626295E0,-3.3826065E-1,8.01382E-1,2.3562098E0,1.6304705E-1,-3.005412E-1,1.801251E-1,-7.756686E-2,-4.3966794E-1,1.8257765E-1],"categories":[],"categories_nodes":[],"categories_segments":[],"categories_sizes":[],"default_left":[0,0,0,0,0,0,0,0,0,0,0,0,0],"id":31,"left_children":[1,3,5,7,9,-1,11,-1,-1,-1,-1,-1,-1],"loss_changes":[2.2194941E3,1.3712463E3,1.7015311E3,1.697812E3,1.4825295E3,0E0,9.570841E2,0E0,0E0,0E0,0E0,0E0,0E0],"parents":[2147483647,0,0,1,1,2,2,3,3,4,4,6,6],"right_children":[2,4,6,8,10,-1,12,-1,-1,-1,-1,-1,-1],"split_conditions":[9.5E0,-6.1E0,2.9631807E1,3.4343082E1,4.0475597E1,8.01382E-1,3.0478077E1,1.6304705E-1,-3.005412E-1,1.801251E-1,-7.756686E-2,-4.3966794E-1,1.8257765E-1],"split_indices":[42,42,22,27,3,0,22,0,0,0,0,0,0],"split_type":[0,0,0,0,0,0,0,0,0,0,0,0,0],"sum_hessian":[4.99E2,4.3E2,6.9E1,1.24E2,3.06E2,9E0,6E1,2.3E1,1.01E2,7.1E1,2.35E2,5E0,5.5E1],"tree_param":{"num_deleted":"0","num_feature":"88","num_nodes":"13","size_leaf_vector":"1"}},{"base_weights":[-5.4323763E-2,1.9007127E0,-1.8479936E0,2.4020426E0,-4.804543E-1,5.7591777E0,-2.3801703E0,-8.65437E-2,1.7641146E-1,-1.0810789E-1,4.7308803E-1,-1.4913057E-1,2.2147858E-1],"categories":[],"categories_nodes":[],"categories_segments":[],"categories_sizes":[],"default_left":[0,0,0,0,0,0,0,0,0,0,0,0,0],"id":32,"left_children":[1,3,5,7,-1,9,11,-1,-1,-1,-1,-1,-1],"loss_changes":[1.6937166E3,1.3754769E3,1.045913E3,1.0510514E3,0E0,5.431653E2,9.9798413E2,0E0,0E0,0E0,0E0,0E0,0E0],"parents":[2147483647,0,0,1,1,2,2,3,3,5,5,6,6],"right_children":[2,4,6,8,-1,10,12,-1,-1,-1,-1,-1,-1],"split_conditions":[6E-1,3.65685E1,-5.576271E0,1.5847458E1,-4.804543E-1,4.8732586E0,1.02145E2,-8.65437E-2,1.7641146E-1,-1.0810789E-1,4.7308803E-1,-1.4913057E-1,2.2147858E-1],"split_indices":[41,21,68,66,0,13,50,0,0,0,0,0,0],"split_type":[0,0,0,0,0,0,0,0,0,0,0,0,0],"sum_hessian":[4.79E2,2.29E2,2.5E2,2.21E2,8E0,1.5E1,2.35E2,4.7E1,1.74E2,5E0,1E1,2.17E2,1.8E1],"tree_param":{"num_deleted":"0","num_feature":"88","num_nodes":"13","size_leaf_vector":"1"}},{"base_weights":[-1.23099975E-1,-1.1405925E0,4.1691175E0,-3.8505197E0,3.7296247E-1,8.703175E0,6.917147E-1,-2.4576616E-1,1.8229268E-1,1.2375649E-1,-8.575176E-2,5.6466776E-1,1.3372073E-1,6.053149E-1,-8.523642E-2],"categories":[],"categories_nodes":[],"categories_segments":[],"categories_sizes":[],"default_left":[0,0,0,0,0,0,0,0,0,0,0,0,0,0,0],"id":33,"left_children":[1,3,5,7,9,11,13,-1,-1,-1,-1,-1,-1,-1,-1],"loss_changes":[2.165442E3,1.649362E3,1.4811028E3,1.1859077E3,1.1457039E3,5.728484E2,1.5783232E3,0E0,0E0,0E0,0E0,0E0,0E0,0E0,0E0],"parents":[2147483647,0,0,1,1,2,2,3,3,4,4,5,5,6,6],"right_children":[2,4,6,8,10,12,14,-1,-1,-1,-1,-1,-1,-1,-1],"split_conditions":[7.7E0,7.9557157E0,-1.0358838E0,5.327586E0,4.5789475E0,1.29E1,1.1016803E2,-2.4576616E-1,1.8229268E-1,1.2375649E-1,-8.575176E-2,5.6466776E-1,1.3372073E-1,6.053149E-1,-8.523642E-2],"split_indices":[42,10,32,71,72,42,0,0,0,0,0,0,0,0,0],"split_type":[0,0,0,0,0,0,0,0,0,0,0,0,0,0,0],"sum_hessian":[4.92E2,3.99E2,9.3E1,1.42E2,2.57E2,3.9E1,5.4E1,1.25E2,1.7E1,1.28E2,1.29E2,2.6E1,1.3E1,8E0,4.6E1],"tree_param":{"num_deleted":"0","num_feature":"88","num_nodes":"15","size_leaf_vector":"1"}},{"base_weights":[4.3359812E-2,-3.9422953E0,1.3582218E0,-2.7709281E0,-1.221232E1,1.15108214E-1,5.668914E0,-2.6637268E-1,3.2719456E-2,-1.5581612E-1,-9.096369E-1,-9.597466E-2,1.2480511E-1,7.352072E-1,1.9754528E-1],"categories":[],"categories_nodes":[],"categories_segments":[],"categories_sizes":[],"default_left":[0,0,0,0,0,0,0,0,0,0,0,0,0,0,0],"id":34,"left_children":[1,3,5,7,9,11,13,-1,-1,-1,-1,-1,-1,-1,-1],"loss_changes":[2.493455E3,1.0679235E3,1.9142103E3,9.3754144E2,6.375266E2,1.3662954E3,1.116291E3,0E0,0E0,0E0,0E0,0E0,0E0,0E0,0E0],"parents":[2147483647,0,0,1,1,2,2,3,3,4,4,5,5,6,6],"right_children":[2,4,6,8,10,12,14,-1,-1,-1,-1,-1,-1,-1,-1],"split_conditions":[-6.1E0,3.5031143E1,3.4169533E1,-1.984233E-1,1.1522896E1,1E-2,3.450686E1,-2.6637268E-1,3.2719456E-2,-1.5581612E-1,-9.096369E-1,-9.597466E-2,1.2480511E-1,7.352072E-1,1.9754528E-1],"split_indices":[42,21,21,14,19,57,21,0,0,0,0,0,0,0,0],"split_type":[0,0,0,0,0,0,0,0,0,0,0,0,0,0,0],"sum_hessian":[4.72E2,1.16E2,3.56E2,1.04E2,1.2E1,2.78E2,7.8E1,5.9E1,4.5E1,6E0,6E0,1.5E2,1.28E2,1E1,6.8E1],"tree_param":{"num_deleted":"0","num_feature":"88","num_nodes":"15","size_leaf_vector":"1"}},{"base_weights":[-3.0338335E-1,-1.8455937E0,2.8663218E0,2.008651E0,-2.8009348E0,1.6807222E0,1.03433075E1,1.8464012E-1,-4.2239934E-1,-1.6544239E-1,2.573873E-1,3.3963275E-1,-1.3765189E-2,7.16979E-1,-8.628252E-3],"categories":[],"categories_nodes":[],"categories_segments":[],"categories_sizes":[],"default_left":[0,0,0,0,0,0,0,0,0,0,0,0,0,0,0],"id":35,"left_children":[1,3,5,7,9,11,13,-1,-1,-1,-1,-1,-1,-1,-1],"loss_changes":[2.4493574E3,1.2525225E3,1.4130321E3,1.2575339E3,1.1272383E3,1.4468652E3,9.3656714E2,0E0,0E0,0E0,0E0,0E0,0E0,0E0,0E0],"parents":[2147483647,0,0,1,1,2,2,3,3,4,4,5,5,6,6],"right_children":[2,4,6,8,10,12,14,-1,-1,-1,-1,-1,-1,-1,-1],"split_conditions":[3.5E0,-1.74E0,4.786109E0,2.9754107E1,3.353525E1,-2.0889018E0,5.4661236E0,1.8464012E-1,-4.2239934E-1,-1.6544239E-1,2.573873E-1,3.3963275E-1,-1.3765189E-2,7.16979E-1,-8.628252E-3],"split_indices":[42,51,23,7,30,5,12,0,0,0,0,0,0,0,0],"split_type":[0,0,0,0,0,0,0,0,0,0,0,0,0,0,0],"sum_hessian":[4.97E2,3.35E2,1.62E2,6.6E1,2.69E2,1.42E2,2E1,5.8E1,8E0,2.54E2,1.5E1,3.8E1,1.04E2,1.4E1,6E0],"tree_param":{"num_deleted":"0","num_feature":"88","num_nodes":"15","size_leaf_vector":"1"}},{"base_weights":[-4.7269862E-2,5.198105E0,-6.8146193E-1,7.36372E0,-2.7683923E-1,1.0026044E0,-2.922318E0,-9.09322E-2,4.887118E-1,-1.4646973E-1,1.0922835E-1,-3.04681E-2,-3.2075474E-1],"categories":[],"categories_nodes":[],"categories_segments":[],"categories_sizes":[],"default_left":[0,0,0,0,0,0,0,0,0,0,0,0,0],"id":36,"left_children":[1,3,5,7,-1,9,11,-1,-1,-1,-1,-1,-1],"loss_changes":[1.6348481E3,1.3145812E3,1.663496E3,1.0355698E3,0E0,1.1835903E3,1.515532E3,0E0,0E0,0E0,0E0,0E0,0E0],"parents":[2147483647,0,0,1,1,2,2,3,3,5,5,6,6],"right_children":[2,4,6,8,-1,10,12,-1,-1,-1,-1,-1,-1],"split_conditions":[1.097E2,4.379661E1,4.8638037E-1,2.4616262E1,-2.7683923E-1,7.4085007E0,1.6E0,-9.09322E-2,4.887118E-1,-1.4646973E-1,1.0922835E-1,-3.04681E-2,-3.2075474E-1],"split_indices":[37,69,20,31,0,10,45,0,0,0,0,0,0],"split_type":[0,0,0,0,0,0,0,0,0,0,0,0,0],"sum_hessian":[4.88E2,5.1E1,4.37E2,4.3E1,8E0,2.5E2,1.87E2,9E0,3.4E1,5.7E1,1.93E2,1.14E2,7.3E1],"tree_param":{"num_deleted":"0","num_feature":"88","num_nodes":"13","size_leaf_vector":"1"}},{"base_weights":[-6.893264E-1,-2.2194743E0,1.1764672E0,2.2765093E0,-3.4709377E0,-5.6722905E-2,9.574808E0,2.3691066E-1,-2.3114924E-1,-2.0947786E-1,3.002125E-1,-6.733728E-2,3.3720648E-1,6.077184E-1,-8.631504E-3],"categories":[],"categories_nodes":[],"categories_segments":[],"categories_sizes":[],"default_left":[0,0,0,0,0,0,0,0,0,0,0,0,0,0,0],"id":37,"left_children":[1,3,5,7,9,11,13,-1,-1,-1,-1,-1,-1,-1,-1],"loss_changes":[1.4303589E3,1.563704E3,2.3464707E3,1.0799222E3,1.5201587E3,1.761344E3,7.393667E2,0E0,0E0,0E0,0E0,0E0,0E0,0E0,0E0],"parents":[2147483647,0,0,1,1,2,2,3,3,4,4,5,5,6,6],"right_children":[2,4,6,8,10,12,14,-1,-1,-1,-1,-1,-1,-1,-1],"split_conditions":[3.644068E-1,3.984943E1,2.6E-2,1.18795296E2,1.5285586E1,6.023439E1,3.6E-2,2.3691066E-1,-2.3114924E-1,-2.0947786E-1,3.002125E-1,-6.733728E-2,3.3720648E-1,6.077184E-1,-8.631504E-3],"split_indices":[68,4,57,1,19,24,57,0,0,0,0,0,0,0,0],"split_type":[0,0,0,0,0,0,0,0,0,0,0,0,0,0,0],"sum_hessian":[4.97E2,2.73E2,2.24E2,5.9E1,2.14E2,1.97E2,2.7E1,4.4E1,1.5E1,2E2,1.4E1,1.67E2,3E1,2.1E1,6E0],"tree_param":{"num_deleted":"0","num_feature":"88","num_nodes":"15","size_leaf_vector":"1"}},{"base_weights":[1.6670364E-1,-5.7359242E0,7.3828393E-1,-8.837626E0,-9.5003366E-1,6.380894E0,1.7601052E-1,-6.0233284E-2,-6.246239E-1,1.02034114E-1,-3.5793504E-1,-4.9514618E-2,6.2889934E-1,-1.3320759E-1,6.369132E-2],"categories":[],"categories_nodes":[],"categories_segments":[],"categories_sizes":[],"default_left":[0,0,0,0,0,0,0,0,0,0,0,0,0,0,0],"id":38,"left_children":[1,3,5,7,9,11,13,-1,-1,-1,-1,-1,-1,-1,-1],"loss_changes":[1.719874E3,6.463125E2,1.4697762E3,7.1628076E2,4.031435E2,1.9492625E3,1.3312316E3,0E0,0E0,0E0,0E0,0E0,0E0,0E0,0E0],"parents":[2147483647,0,0,1,1,2,2,3,3,4,4,5,5,6,6],"right_children":[2,4,6,8,10,12,14,-1,-1,-1,-1,-1,-1,-1,-1],"split_conditions":[1.1608569E1,3E-1,5.492345E1,-2.6E-2,2.6132467E1,4.085544E1,7.725305E0,-6.0233284E-2,-6.246239E-1,1.02034114E-1,-3.5793504E-1,-4.9514618E-2,6.2889934E-1,-1.3320759E-1,6.369132E-2],"split_indices":[16,40,25,57,31,27,10,0,0,0,0,0,0,0,0],"split_type":[0,0,0,0,0,0,0,0,0,0,0,0,0,0,0],"sum_hessian":[5.06E2,4.3E1,4.63E2,2.5E1,1.8E1,4E1,4.23E2,9E0,1.6E1,1.3E1,5E0,1.9E1,2.1E1,1.17E2,3.06E2],"tree_param":{"num_deleted":"0","num_feature":"88","num_nodes":"15","size_leaf_vector":"1"}},{"base_weights":[2.8306624E-1,1.043933E1,-8.14323E-2,5.0241627E-2,9.78006E-1,-8.504246E0,2.2974335E-1,-4.8134904E-2,-8.927018E-1,-2.9464144E-1,3.1000325E-2],"categories":[],"categories_nodes":[],"categories_segments":[],"categories_sizes":[],"default_left":[0,0,0,0,0,0,0,0,0,0,0],"id":39,"left_children":[1,3,5,-1,-1,7,9,-1,-1,-1,-1],"loss_changes":[1.7097731E3,1.3272094E3,1.1769995E3,0E0,0E0,1.0844056E3,1.0368976E3,0E0,0E0,0E0,0E0],"parents":[2147483647,0,0,1,1,2,2,5,5,6,6],"right_children":[2,4,6,-1,-1,8,10,-1,-1,-1,-1],"split_conditions":[1.093E2,1.4375038E1,1.093E2,5.0241627E-2,9.78006E-1,1.0321544E1,-2.698842E0,-4.8134904E-2,-8.927018E-1,-2.9464144E-1,3.1000325E-2],"split_indices":[37,15,36,0,0,18,11,0,0,0,0],"split_type":[0,0,0,0,0,0,0,0,0,0,0],"sum_hessian":[4.58E2,1.4E1,4.44E2,8E0,6E0,1.4E1,4.3E2,9E0,5E0,2.4E1,4.06E2],"tree_param":{"num_deleted":"0","num_feature":"88","num_nodes":"11","size_leaf_vector":"1"}},{"base_weights":[2.1111877E-1,-1.4490621E0,2.2141073E0,-2.0240416E-1,-6.2832437E0,-4.9678192E-1,2.6439216E0,-5.3939994E-2,1.9732195E-1,2.5389716E-1,-3.9459383E-1,2.280697E-1,-1.32452175E-2],"categories":[],"categories_nodes":[],"categories_segments":[],"categories_sizes":[],"default_left":[0,0,0,0,0,0,0,0,0,0,0,0,0],"id":40,"left_children":[1,3,5,7,9,-1,11,-1,-1,-1,-1,-1,-1],"loss_changes":[1.6362075E3,1.6153613E3,1.213429E3,7.924632E2,1.0867344E3,0E0,1.2149026E3,0E0,0E0,0E0,0E0,0E0,0E0],"parents":[2147483647,0,0,1,1,2,2,3,3,4,4,6,6],"right_children":[2,4,6,8,10,-1,12,-1,-1,-1,-1,-1,-1],"split_conditions":[3.644068E-1,6.1013455E0,-1.33E1,2.8491106E0,9.81249E1,-4.9678192E-1,1E1,-5.3939994E-2,1.9732195E-1,2.5389716E-1,-3.9459383E-1,2.280697E-1,-1.32452175E-2],"split_indices":[68,2,42,2,1,0,63,0,0,0,0,0,0],"split_type":[0,0,0,0,0,0,0,0,0,0,0,0,0],"sum_hessian":[4.88E2,2.67E2,2.21E2,2.14E2,5.3E1,6E0,2.15E2,1.78E2,3.6E1,6E0,4.7E1,1.29E2,8.6E1],"tree_param":{"num_deleted":"0","num_feature":"88","num_nodes":"13","size_leaf_vector":"1"}},{"base_weights":[1.2307877E-1,1.0973446E1,-2.2414702E-1,8.790968E-1,3.6651738E-2,1.6876401E0,-1.5216157E0,-5.024357E-1,1.12456284E-1,1.5930516E-1,-1.12218104E-1],"categories":[],"categories_nodes":[],"categories_segments":[],"categories_sizes":[],"default_left":[0,0,0,0,0,0,0,0,0,0,0],"id":41,"left_children":[1,3,5,-1,-1,7,9,-1,-1,-1,-1],"loss_changes":[1.8224747E3,9.80171E2,1.1659194E3,0E0,0E0,1.293363E3,9.6652686E2,0E0,0E0,0E0,0E0],"parents":[2147483647,0,0,1,1,2,2,5,5,6,6],"right_children":[2,4,6,-1,-1,8,10,-1,-1,-1,-1],"split_conditions":[1.093E2,1.168E2,-1.4632689E0,8.790968E-1,3.6651738E-2,3.428062E1,1.0878856E2,-5.024357E-1,1.12456284E-1,1.5930516E-1,-1.12218104E-1],"split_indices":[37,36,5,0,0,3,0,0,0,0,0],"split_type":[0,0,0,0,0,0,0,0,0,0,0],"sum_hessian":[4.79E2,1.3E1,4.66E2,7E0,6E0,1.88E2,2.78E2,7E0,1.81E2,3.6E1,2.42E2],"tree_param":{"num_deleted":"0","num_feature":"88","num_nodes":"11","size_leaf_vector":"1"}},{"base_weights":[-7.751058E-2,-2.48006E0,1.2810223E0,3.4769828E0,-3.906888E0,1.896346E0,-6.95176E0,2.8284022E-1,-3.393552E-1,5.532944E-2,-2.778374E-1,1.5769744E-1,-6.359442E-2,9.64942E-3,-6.489774E-1],"categories":[],"categories_nodes":[],"categories_segments":[],"categories_sizes":[],"default_left":[0,0,0,0,0,0,0,0,0,0,0,0,0,0,0],"id":42,"left_children":[1,3,5,7,9,11,13,-1,-1,-1,-1,-1,-1,-1,-1],"loss_changes":[1.5899658E3,1.5233262E3,1.5993098E3,8.593071E2,1.1973523E3,1.1684188E3,9.5887756E2,0E0,0E0,0E0,0E0,0E0,0E0,0E0,0E0],"parents":[2147483647,0,0,1,1,2,2,3,3,4,4,5,5,6,6],"right_children":[2,4,6,8,10,12,14,-1,-1,-1,-1,-1,-1,-1,-1],"split_conditions":[-2.7E0,-3.1856365E0,3.4983093E1,2.7E-2,-3.8E0,5.5134683E0,3.1197958E1,2.8284022E-1,-3.393552E-1,5.532944E-2,-2.778374E-1,1.5769744E-1,-6.359442E-2,9.64942E-3,-6.489774E-1],"split_indices":[42,20,31,57,44,12,21,0,0,0,0,0,0,0,0],"split_type":[0,0,0,0,0,0,0,0,0,0,0,0,0,0,0],"sum_hessian":[4.83E2,1.74E2,3.09E2,3.3E1,1.41E2,2.89E2,2E1,2.8E1,5E0,3.5E1,1.06E2,2.07E2,8.2E1,1E1,1E1],"tree_param":{"num_deleted":"0","num_feature":"88","num_nodes":"15","size_leaf_vector":"1"}},{"base_weights":[-2.0593233E-1,-6.3251333E0,2.521397E-1,-1.3579385E-1,-1.0619091E1,4.330245E0,-4.999376E-1,2.7748445E-1,-2.923328E-1,-1.6576372E-1,-7.973355E-1,-1.1267338E-1,4.634858E-1,-1.5753491E-1,3.3947222E-2],"categories":[],"categories_nodes":[],"categories_segments":[],"categories_sizes":[],"default_left":[0,0,0,0,0,0,0,0,0,0,0,0,0,0,0],"id":43,"left_children":[1,3,5,7,9,11,13,-1,-1,-1,-1,-1,-1,-1,-1],"loss_changes":[1.3685011E3,8.953485E2,1.3986857E3,5.845468E2,6.6287256E2,2.35421E3,1.2086136E3,0E0,0E0,0E0,0E0,0E0,0E0,0E0,0E0],"parents":[2147483647,0,0,1,1,2,2,3,3,4,4,5,5,6,6],"right_children":[2,4,6,8,10,12,14,-1,-1,-1,-1,-1,-1,-1,-1],"split_conditions":[1.094E2,-9.8060817E-1,1.07552414E2,4.4411007E1,5.5157304E0,1.01482376E2,-2.8E0,2.7748445E-1,-2.923328E-1,-1.6576372E-1,-7.973355E-1,-1.1267338E-1,4.634858E-1,-1.5753491E-1,3.3947222E-2],"split_indices":[36,11,0,3,13,0,42,0,0,0,0,0,0,0,0],"split_type":[0,0,0,0,0,0,0,0,0,0,0,0,0,0,0],"sum_hessian":[4.84E2,3.2E1,4.52E2,1.4E1,1.8E1,6.9E1,3.83E2,7E0,7E0,9E0,9E0,3E1,3.9E1,1.17E2,2.66E2],"tree_param":{"num_deleted":"0","num_feature":"88","num_nodes":"15","size_leaf_vector":"1"}},{"base_weights":[2.453301E-1,9.997833E-1,-3.3476365E0,-3.2317328E-1,4.1083426E0,-7.187177E-1,-1.8896129E0,-1.6832496E-1,4.3184698E-2,3.894187E-1,4.9105965E-2,-9.369878E-3,-4.8393497E-1],"categories":[],"categories_nodes":[],"categories_segments":[],"categories_sizes":[],"default_left":[0,0,0,0,0,0,0,0,0,0,0,0,0],"id":44,"left_children":[1,3,5,7,9,-1,11,-1,-1,-1,-1,-1,-1],"loss_changes":[1.2497427E3,1.5714062E3,1.2237213E3,9.787011E2,1.2918406E3,0E0,9.593246E2,0E0,0E0,0E0,0E0,0E0,0E0],"parents":[2147483647,0,0,1,1,2,2,3,3,4,4,6,6],"right_children":[2,4,6,8,10,-1,12,-1,-1,-1,-1,-1,-1],"split_conditions":[4.3633335E1,1.8E-2,6.036939E0,-7.1E0,-1.1E0,-7.187177E-1,6.4E0,-1.6832496E-1,4.3184698E-2,3.894187E-1,4.9105965E-2,-9.369878E-3,-4.8393497E-1],"split_indices":[70,59,10,61,62,0,45,0,0,0,0,0,0],"split_type":[0,0,0,0,0,0,0,0,0,0,0,0,0],"sum_hessian":[4.57E2,3.79E2,7.8E1,2.67E2,1.12E2,7E0,7.1E1,7.4E1,1.93E2,5E1,6.2E1,6E1,1.1E1],"tree_param":{"num_deleted":"0","num_feature":"88","num_nodes":"13","size_leaf_vector":"1"}},{"base_weights":[2.0865422E-1,-1.873107E0,1.5755339E0,5.618634E0,-2.5703733E0,2.078312E0,-7.3887734E0,5.248362E-1,-2.1388498E-1,2.2580216E-3,-2.5671718E-1,-2.9788682E-1,1.22653894E-1,-5.933018E-1,-6.0700346E-2],"categories":[],"categories_nodes":[],"categories_segments":[],"categories_sizes":[],"default_left":[0,0,0,0,0,0,0,0,0,0,0,0,0,0,0],"id":45,"left_children":[1,3,5,7,9,11,13,-1,-1,-1,-1,-1,-1,-1,-1],"loss_changes":[1.3858292E3,1.0355413E3,1.3531317E3,9.135915E2,1.1967029E3,8.707355E2,4.0698578E2,0E0,0E0,0E0,0E0,0E0,0E0,0E0,0E0],"parents":[2147483647,0,0,1,1,2,2,3,3,4,4,5,5,6,6],"right_children":[2,4,6,8,10,12,14,-1,-1,-1,-1,-1,-1,-1,-1],"split_conditions":[-2.7E0,8.4653225E0,2.6E-2,4.4439876E-4,5.8664486E1,-2.747305E0,4.619165E0,5.248362E-1,-2.1388498E-1,2.2580216E-3,-2.5671718E-1,-2.9788682E-1,1.22653894E-1,-5.933018E-1,-6.0700346E-2],"split_indices":[42,19,58,11,25,11,13,0,0,0,0,0,0,0,0],"split_type":[0,0,0,0,0,0,0,0,0,0,0,0,0,0,0],"sum_hessian":[4.83E2,1.91E2,2.92E2,1.5E1,1.76E2,2.78E2,1.4E1,1E1,5E0,8.8E1,8.8E1,1.1E1,2.67E2,7E0,7E0],"tree_param":{"num_deleted":"0","num_feature":"88","num_nodes":"15","size_leaf_vector":"1"}},{"base_weights":[-2.2540075E-1,1.5672206E0,-2.4465652E0,-7.0041615E-1,5.2513514E0,5.4623203E0,-3.0629535E0,1.7983207E-2,-3.5548356E-1,1.0370827E-1,4.3901882E-1,3.9107794E-1,7.8577004E-2,9.606243E-2,-2.1452849E-1],"categories":[],"categories_nodes":[],"categories_segments":[],"categories_sizes":[],"default_left":[0,0,0,0,0,0,0,0,0,0,0,0,0,0,0],"id":46,"left_children":[1,3,5,7,9,11,13,-1,-1,-1,-1,-1,-1,-1,-1],"loss_changes":[2.0148884E3,2.3488274E3,1.1339995E3,1.1974961E3,1.1578728E3,1.26767426E2,1.3087145E3,0E0,0E0,0E0,0E0,0E0,0E0,0E0,0E0],"parents":[2147483647,0,0,1,1,2,2,3,3,4,4,5,5,6,6],"right_children":[2,4,6,8,10,12,14,-1,-1,-1,-1,-1,-1,-1,-1],"split_conditions":[8.232181E-1,4.2422962E1,-4.365951E0,3.4983093E1,1.1589455E2,4.491228E0,5.7E1,1.7983207E-2,-3.5548356E-1,1.0370827E-1,4.3901882E-1,3.9107794E-1,7.8577004E-2,9.606243E-2,-2.1452849E-1],"split_indices":[32,28,33,31,1,72,84,0,0,0,0,0,0,0,0],"split_type":[0,0,0,0,0,0,0,0,0,0,0,0,0,0,0],"sum_hessian":[5.02E2,2.78E2,2.24E2,1.73E2,1.05E2,1.5E1,2.09E2,1.5E2,2.3E1,5.7E1,4.8E1,8E0,7E0,4.1E1,1.68E2],"tree_param":{"num_deleted":"0","num_feature":"88","num_nodes":"15","size_leaf_vector":"1"}},{"base_weights":[2.5942755E-1,-2.299205E0,1.1012086E0,-1.1618159E0,-1.060347E1,-8.631396E0,1.407296E0,-1.3769217E-1,4.4511667E-1,-6.8037474E-1,-1.6055068E-1,-5.9703E-1,-1.3923253E-1,1.2939152E-1,-5.9077647E-2],"categories":[],"categories_nodes":[],"categories_segments":[],"categories_sizes":[],"default_left":[0,0,0,0,0,0,0,0,0,0,0,0,0,0,0],"id":47,"left_children":[1,3,5,7,9,11,13,-1,-1,-1,-1,-1,-1,-1,-1],"loss_changes":[1.105061E3,1.1690168E3,1.1705863E3,1.8725109E3,2.373097E2,1.5831348E2,1.155959E3,0E0,0E0,0E0,0E0,0E0,0E0,0E0,0E0],"parents":[2147483647,0,0,1,1,2,2,3,3,4,4,5,5,6,6],"right_children":[2,4,6,8,10,12,14,-1,-1,-1,-1,-1,-1,-1,-1],"split_conditions":[2.48645E1,5.1E0,3.5454643E1,3.5E0,5.2E-1,-6.477745E-1,1.6234885E0,-1.3769217E-1,4.4511667E-1,-6.8037474E-1,-1.6055068E-1,-5.9703E-1,-1.3923253E-1,1.2939152E-1,-5.9077647E-2],"split_indices":[31,45,3,45,64,17,23,0,0,0,0,0,0,0,0],"split_type":[0,0,0,0,0,0,0,0,0,0,0,0,0,0,0],"sum_hessian":[5.09E2,1.25E2,3.84E2,1.12E2,1.3E1,1E1,3.74E2,9.8E1,1.4E1,8E0,5E0,5E0,5E0,2.57E2,1.17E2],"tree_param":{"num_deleted":"0","num_feature":"88","num_nodes":"15","size_leaf_vector":"1"}},{"base_weights":[-7.1805054E-1,1.5845032E0,-2.0000043E0,2.60276E0,-8.701238E0,4.8847947E-1,-4.2243676E0,-7.737343E-2,2.1362713E-1,-6.539192E-2,-5.889315E-1,-1.0444975E-1,1.9722542E-1,-6.225907E-1,-1.581634E-1],"categories":[],"categories_nodes":[],"categories_segments":[],"categories_sizes":[],"default_left":[0,0,0,0,0,0,0,0,0,0,0,0,0,0,0],"id":48,"left_children":[1,3,5,7,9,11,13,-1,-1,-1,-1,-1,-1,-1,-1],"loss_changes":[1.426346E3,1.8541653E3,1.7219355E3,1.1164526E3,3.2668616E2,1.3357662E3,1.3451589E3,0E0,0E0,0E0,0E0,0E0,0E0,0E0,0E0],"parents":[2147483647,0,0,1,1,2,2,3,3,4,4,5,5,6,6],"right_children":[2,4,6,8,10,12,14,-1,-1,-1,-1,-1,-1,-1,-1],"split_conditions":[1.131E2,3.5E0,1.13928734E2,8.028048E0,7E-1,4.7257705E0,-4.919258E0,-7.737343E-2,2.1362713E-1,-6.539192E-2,-5.889315E-1,-1.0444975E-1,1.9722542E-1,-6.225907E-1,-1.581634E-1],"split_indices":[38,55,0,9,41,12,32,0,0,0,0,0,0,0,0],"split_type":[0,0,0,0,0,0,0,0,0,0,0,0,0,0,0],"sum_hessian":[4.79E2,1.71E2,3.08E2,1.57E2,1.4E1,1.46E2,1.62E2,4.5E1,1.12E2,5E0,9E0,8.4E1,6.2E1,1.6E1,1.46E2],"tree_param":{"num_deleted":"0","num_feature":"88","num_nodes":"15","size_leaf_vector":"1"}},{"base_weights":[7.926628E-2,-1.6553209E0,1.2690046E0,-1.0662667E0,-9.671967E0,9.0326154E-1,8.706484E0,1.8399114E-3,-2.5150588E-1,-6.689402E-1,-2.2919951E-1,-5.3547374E-3,2.1609943E-1,6.6166794E-1,1.597626E-1],"categories":[],"categories_nodes":[],"categories_segments":[],"categories_sizes":[],"default_left":[0,0,0,0,0,0,0,0,0,0,0,0,0,0,0],"id":49,"left_children":[1,3,5,7,9,11,13,-1,-1,-1,-1,-1,-1,-1,-1],"loss_changes":[1.060625E3,9.6095306E2,8.0912964E2,8.6422656E2,1.3240613E2,1.015094E3,2.5649902E2,0E0,0E0,0E0,0E0,0E0,0E0,0E0,0E0],"parents":[2147483647,0,0,1,1,2,2,3,3,4,4,5,5,6,6],"right_children":[2,4,6,8,10,12,14,-1,-1,-1,-1,-1,-1,-1,-1],"split_conditions":[4.73E-1,3.631352E1,6.33E0,9.2878693E-1,-8.761112E0,1.5245438E1,-4E-1,1.8399114E-3,-2.5150588E-1,-6.689402E-1,-2.2919951E-1,-5.3547374E-3,2.1609943E-1,6.6166794E-1,1.597626E-1],"split_indices":[64,22,51,11,5,16,62,0,0,0,0,0,0,0,0],"split_type":[0,0,0,0,0,0,0,0,0,0,0,0,0,0,0],"sum_hessian":[5.1E2,2.07E2,3.03E2,1.95E2,1.2E1,2.91E2,1.2E1,1.54E2,4.1E1,5E0,7E0,2.26E2,6.5E1,5E0,7E0],"tree_param":{"num_deleted":"0","num_feature":"88","num_nodes":"15","size_leaf_vector":"1"}},{"base_weights":[-1.00550815E-1,-7.3569113E-1,3.0337865E0,-3.1300466E0,4.39302E-1,-3.3673913E0,4.88918E0,3.987376E-2,-2.4744828E-1,1.4091842E-1,-7.017445E-2,1.949569E-1,-3.1713933E-1,1.4136171E-1,5.022894E-1],"categories":[],"categories_nodes":[],"categories_segments":[],"categories_sizes":[],"default_left":[0,0,0,0,0,0,0,0,0,0,0,0,0,0,0],"id":50,"left_children":[1,3,5,7,9,11,13,-1,-1,-1,-1,-1,-1,-1,-1],"loss_changes":[9.927146E2,1.1716362E3,1.0313318E3,9.886758E2,1.2361725E3,4.8310046E2,6.385144E2,0E0,0E0,0E0,0E0,0E0,0E0,0E0,0E0],"parents":[2147483647,0,0,1,1,2,2,3,3,4,4,5,5,6,6],"right_children":[2,4,6,8,10,12,14,-1,-1,-1,-1,-1,-1,-1,-1],"split_conditions":[5.57E-1,-8.298733E-1,4.2062035E1,2.6070719E1,-7.455268E-1,-3.5E0,2E-3,3.987376E-2,-2.4744828E-1,1.4091842E-1,-7.017445E-2,1.949569E-1,-3.1713933E-1,1.4136171E-1,5.022894E-1],"split_indices":[65,26,28,30,23,45,57,0,0,0,0,0,0,0,0],"split_type":[0,0,0,0,0,0,0,0,0,0,0,0,0,0,0],"sum_hessian":[4.95E2,4.13E2,8.2E1,1.35E2,2.78E2,1.8E1,6.4E1,4.3E1,9.2E1,1.21E2,1.57E2,5E0,1.3E1,4.8E1,1.6E1],"tree_param":{"num_deleted":"0","num_feature":"88","num_nodes":"15","size_leaf_vector":"1"}},{"base_weights":[-1.7419581E-1,-2.344875E0,1.523044E0,-1.2194264E0,-8.177552E0,4.5734927E-1,5.8569827E0,-1.5071109E-1,8.82751E-2,-6.689824E-1,-2.3287275E-1,-1.927547E-2,2.913696E-1,7.7714436E-2,5.437936E-1],"categories":[],"categories_nodes":[],"categories_segments":[],"categories_sizes":[],"default_left":[0,0,0,0,0,0,0,0,0,0,0,0,0,0,0],"id":51,"left_children":[1,3,5,7,9,11,13,-1,-1,-1,-1,-1,-1,-1,-1],"loss_changes":[1.8385826E3,1.4129564E3,1.284709E3,1.00773193E3,5.072671E2,1.0346584E3,1.1476873E3,0E0,0E0,0E0,0E0,0E0,0E0,0E0,0E0],"parents":[2147483647,0,0,1,1,2,2,3,3,4,4,5,5,6,6],"right_children":[2,4,6,8,10,12,14,-1,-1,-1,-1,-1,-1,-1,-1],"split_conditions":[4.86E-1,1.2211281E2,9.5E0,1.0074E2,-1.6598951E0,4.4641347E0,1.1854815E1,-1.5071109E-1,8.82751E-2,-6.689824E-1,-2.3287275E-1,-1.927547E-2,2.913696E-1,7.7714436E-2,5.437936E-1],"split_indices":[64,0,42,50,20,8,19,0,0,0,0,0,0,0,0],"split_type":[0,0,0,0,0,0,0,0,0,0,0,0,0,0,0],"sum_hessian":[4.95E2,2.17E2,2.78E2,1.84E2,3.3E1,2.25E2,5.3E1,1.15E2,6.9E1,1.1E1,2.2E1,1.96E2,2.9E1,3E1,2.3E1],"tree_param":{"num_deleted":"0","num_feature":"88","num_nodes":"15","size_leaf_vector":"1"}},{"base_weights":[1.2543568E-1,-4.2373386E-1,4.573246E0,7.5323853E0,-7.761142E-1,-5.3811245E0,7.9225097E0,-1.742785E-2,5.6309146E-1,4.9367502E-2,-1.3714418E-1,-5.448744E-1,-1.967226E-2,6.6276394E-2,6.617594E-1],"categories":[],"categories_nodes":[],"categories_segments":[],"categories_sizes":[],"default_left":[0,0,0,0,0,0,0,0,0,0,0,0,0,0,0],"id":52,"left_children":[1,3,5,7,9,11,13,-1,-1,-1,-1,-1,-1,-1,-1],"loss_changes":[1.2223662E3,1.255907E3,1.920224E3,5.717466E2,1.4907382E3,3.9848718E2,1.4296333E3,0E0,0E0,0E0,0E0,0E0,0E0,0E0,0E0],"parents":[2147483647,0,0,1,1,2,2,3,3,4,4,5,5,6,6],"right_children":[2,4,6,8,10,12,14,-1,-1,-1,-1,-1,-1,-1,-1],"split_conditions":[4.786109E0,1.093E2,1.2761677E1,3.312733E1,4.5887458E-1,5.66402E1,1.2E-2,-1.742785E-2,5.6309146E-1,4.9367502E-2,-1.3714418E-1,-5.448744E-1,-1.967226E-2,6.6276394E-2,6.617594E-1],"split_indices":[23,37,16,22,2,25,58,0,0,0,0,0,0,0,0],"split_type":[0,0,0,0,0,0,0,0,0,0,0,0,0,0,0],"sum_hessian":[4.96E2,4.43E2,5.3E1,1.7E1,4.26E2,1.3E1,4E1,6E0,1.1E1,2.25E2,2.01E2,5E0,8E0,1.9E1,2.1E1],"tree_param":{"num_deleted":"0","num_feature":"88","num_nodes":"15","size_leaf_vector":"1"}},{"base_weights":[2.2506405E-1,-8.433858E-1,2.4078724E0,-8.090871E0,-3.3027008E-1,1.1282306E0,7.809031E0,-6.055391E-1,-1.3404079E-1,5.0637197E-2,-1.5201752E-1,3.457734E-1,-1.2158126E-2,-6.450545E-2,5.8357084E-1],"categories":[],"categories_nodes":[],"categories_segments":[],"categories_sizes":[],"default_left":[0,0,0,0,0,0,0,0,0,0,0,0,0,0,0],"id":53,"left_children":[1,3,5,7,9,11,13,-1,-1,-1,-1,-1,-1,-1,-1],"loss_changes":[1.1639578E3,1.2362427E3,1.1114045E3,4.0612524E2,1.1536699E3,1.0781373E3,1.1247812E3,0E0,0E0,0E0,0E0,0E0,0E0,0E0,0E0],"parents":[2147483647,0,0,1,1,2,2,3,3,4,4,5,5,6,6],"right_children":[2,4,6,8,10,12,14,-1,-1,-1,-1,-1,-1,-1,-1],"split_conditions":[4.3731667E1,-2.698842E0,3.3123646E1,1.2E-2,5.9038147E1,9.8535E1,5.5E0,-6.055391E-1,-1.3404079E-1,5.0637197E-2,-1.5201752E-1,3.457734E-1,-1.2158126E-2,-6.450545E-2,5.8357084E-1],"split_indices":[27,11,21,58,25,50,56,0,0,0,0,0,0,0,0],"split_type":[0,0,0,0,0,0,0,0,0,0,0,0,0,0,0],"sum_hessian":[4.95E2,3.33E2,1.62E2,2E1,3.13E2,1.33E2,2.9E1,1E1,1E1,2.1E2,1.03E2,2.4E1,1.09E2,9E0,2E1],"tree_param":{"num_deleted":"0","num_feature":"88","num_nodes":"15","size_leaf_vector":"1"}},{"base_weights":[-4.6240202E-1,-2.050029E0,9.4505715E-1,-8.536587E0,-1.5206672E0,2.5332966E0,-2.089619E0,-6.1099297E-1,7.259447E-3,-1.6095528E-1,3.6149636E-2,3.6275145E-1,4.52439E-2,5.303203E-2,-3.085866E-1],"categories":[],"categories_nodes":[],"categories_segments":[],"categories_sizes":[],"default_left":[0,0,0,0,0,0,0,0,0,0,0,0,0,0,0],"id":54,"left_children":[1,3,5,7,9,11,13,-1,-1,-1,-1,-1,-1,-1,-1],"loss_changes":[1.1038113E3,7.656357E2,1.2735946E3,5.5320056E2,8.3282874E2,1.3129799E3,1.1858817E3,0E0,0E0,0E0,0E0,0E0,0E0,0E0,0E0],"parents":[2147483647,0,0,1,1,2,2,3,3,4,4,5,5,6,6],"right_children":[2,4,6,8,10,12,14,-1,-1,-1,-1,-1,-1,-1,-1],"split_conditions":[-6E-1,6.036939E0,5.403403E0,2.7498072E1,1.1443901E1,-1E0,1.025E0,-6.1099297E-1,7.259447E-3,-1.6095528E-1,3.6149636E-2,3.6275145E-1,4.52439E-2,5.303203E-2,-3.085866E-1],"split_indices":[42,10,12,31,18,55,46,0,0,0,0,0,0,0,0],"split_type":[0,0,0,0,0,0,0,0,0,0,0,0,0,0,0],"sum_hessian":[4.9E2,2.3E2,2.6E2,1.5E1,2.15E2,1.71E2,8.9E1,1E1,5E0,1.22E2,9.3E1,4.2E1,1.29E2,5.1E1,3.8E1],"tree_param":{"num_deleted":"0","num_feature":"88","num_nodes":"15","size_leaf_vector":"1"}},{"base_weights":[2.1790825E-1,2.117816E0,-1.04001E0,3.5691721E0,-1.2506127E0,-3.679238E0,3.613086E-1,2.3026624E-1,-1.716702E-1,1.6571504E-1,-2.4226828E-1,-4.1135737E-1,-2.8594196E-2,-1.3472319E-1,1.22851424E-1],"categories":[],"categories_nodes":[],"categories_segments":[],"categories_sizes":[],"default_left":[0,0,0,0,0,0,0,0,0,0,0,0,0,0,0],"id":55,"left_children":[1,3,5,7,9,11,13,-1,-1,-1,-1,-1,-1,-1,-1],"loss_changes":[1.1879585E3,9.7806696E2,1.110139E3,1.0407573E3,1.0338774E3,1.455915E3,1.2747184E3,0E0,0E0,0E0,0E0,0E0,0E0,0E0,0E0],"parents":[2147483647,0,0,1,1,2,2,3,3,4,4,5,5,6,6],"right_children":[2,4,6,8,10,12,14,-1,-1,-1,-1,-1,-1,-1,-1],"split_conditions":[-1.4632689E0,3.4803448E1,7.925709E0,5.5E0,7.6870384E0,-6E-1,-1.5E0,2.3026624E-1,-1.716702E-1,1.6571504E-1,-2.4226828E-1,-4.1135737E-1,-2.8594196E-2,-1.3472319E-1,1.22851424E-1],"split_indices":[5,22,10,43,10,42,68,0,0,0,0,0,0,0,0],"split_type":[0,0,0,0,0,0,0,0,0,0,0,0,0,0,0],"sum_hessian":[4.93E2,1.96E2,2.97E2,1.37E2,5.9E1,1.02E2,1.95E2,1.2E2,1.7E1,2.6E1,3.3E1,4E1,6.2E1,7.9E1,1.16E2],"tree_param":{"num_deleted":"0","num_feature":"88","num_nodes":"15","size_leaf_vector":"1"}},{"base_weights":[-3.296052E-1,-5.8093905E-1,8.31688E0,-3.661581E-1,-7.474317E-1,5.39459E-1,1.3452645E-1,-5.6183722E-2,1.1801105E-1],"categories":[],"categories_nodes":[],"categories_segments":[],"categories_sizes":[],"default_left":[0,0,0,0,0,0,0,0,0],"id":56,"left_children":[1,3,5,7,-1,-1,-1,-1,-1],"loss_changes":[1.0771604E3,1.4657169E3,1.2994342E2,9.877575E2,0E0,0E0,0E0,0E0,0E0],"parents":[2147483647,0,0,1,1,2,2,3,3],"right_children":[2,4,6,8,-1,-1,-1,-1,-1],"split_conditions":[5.0401165E1,5.0271866E1,1.1597665E2,1.5185073E1,-7.474317E-1,5.39459E-1,1.3452645E-1,-5.6183722E-2,1.1801105E-1],"split_indices":[28,28,0,16,0,0,0,0,0],"split_type":[0,0,0,0,0,0,0,0,0],"sum_hessian":[4.91E2,4.79E2,1.2E1,4.74E2,5E0,7E0,5E0,3.72E2,1.02E2],"tree_param":{"num_deleted":"0","num_feature":"88","num_nodes":"9","size_leaf_vector":"1"}},{"base_weights":[-5.9890673E-3,-4.754201E0,4.511015E-1,-1.0411971E1,-1.40311E0,4.9013343E0,-1.8247825E-1,-1.7959459E-1,-7.4313617E-1,-1.769075E-1,1.7622997E-1,8.035262E-1,1.4736459E-1,-7.7135E-2,1.1315469E-1],"categories":[],"categories_nodes":[],"categories_segments":[],"categories_sizes":[],"default_left":[0,0,0,0,0,0,0,0,0,0,0,0,0,0,0],"id":57,"left_children":[1,3,5,7,9,11,13,-1,-1,-1,-1,-1,-1,-1,-1],"loss_changes":[1.0872816E3,7.99101E2,1.2898756E3,3.6967395E2,3.4057358E2,1.1397916E3,1.3405568E3,0E0,0E0,0E0,0E0,0E0,0E0,0E0,0E0],"parents":[2147483647,0,0,1,1,2,2,3,3,4,4,5,5,6,6],"right_children":[2,4,6,8,10,12,14,-1,-1,-1,-1,-1,-1,-1,-1],"split_conditions":[6.6023874E0,-9.840034E-1,7.402904E0,-2.9E0,6.0025473E0,3.9263355E1,2.8E0,-1.7959459E-1,-7.4313617E-1,-1.769075E-1,1.7622997E-1,8.035262E-1,1.4736459E-1,-7.7135E-2,1.1315469E-1],"split_indices":[9,20,9,45,9,3,42,0,0,0,0,0,0,0,0],"split_type":[0,0,0,0,0,0,0,0,0,0,0,0,0,0,0],"sum_hessian":[4.96E2,4.2E1,4.54E2,1.4E1,2.8E1,5.5E1,3.99E2,7E0,7E0,2E1,8E0,6E0,4.9E1,2.57E2,1.42E2],"tree_param":{"num_deleted":"0","num_feature":"88","num_nodes":"15","size_leaf_vector":"1"}},{"base_weights":[-5.1446654E-2,3.165824E0,-7.0416844E-1,8.037968E0,-3.052675E-1,-1.8640532E0,1.3670331E0,5.4788417E-1,-1.06371306E-1,3.3087537E-1,-1.2442491E-1,-1.655237E-1,8.0591336E-2,6.851356E-3,4.3849334E-1],"categories":[],"categories_nodes":[],"categories_segments":[],"categories_sizes":[],"default_left":[0,0,0,0,0,0,0,0,0,0,0,0,0,0,0],"id":58,"left_children":[1,3,5,7,9,11,13,-1,-1,-1,-1,-1,-1,-1,-1],"loss_changes":[9.8391956E2,1.3447948E3,9.422635E2,1.0304802E3,7.563435E2,1.2734451E3,1.2770228E3,0E0,0E0,0E0,0E0,0E0,0E0,0E0,0E0],"parents":[2147483647,0,0,1,1,2,2,3,3,4,4,5,5,6,6],"right_children":[2,4,6,8,10,12,14,-1,-1,-1,-1,-1,-1,-1,-1],"split_conditions":[-3.7E0,4.3521748E1,1.2362907E1,5.4874587E0,-1.5E0,4.6E0,6.095802E1,5.4788417E-1,-1.06371306E-1,3.3087537E-1,-1.2442491E-1,-1.655237E-1,8.0591336E-2,6.851356E-3,4.3849334E-1],"split_indices":[44,3,19,13,55,40,24,0,0,0,0,0,0,0,0],"split_type":[0,0,0,0,0,0,0,0,0,0,0,0,0,0,0],"sum_hessian":[4.65E2,7.7E1,3.88E2,3.1E1,4.6E1,2.49E2,1.39E2,2.4E1,7E0,1E1,3.6E1,1.76E2,7.3E1,1.21E2,1.8E1],"tree_param":{"num_deleted":"0","num_feature":"88","num_nodes":"15","size_leaf_vector":"1"}},{"base_weights":[-7.363555E-2,-6.780348E-1,3.4651334E0,-3.8722994E0,-7.287986E-2,4.557344E0,-2.1386312E-1,3.4682345E-2,-3.5578224E-1,3.4164518E-1,-2.2711258E-2,1.5261954E-1,5.672431E-1],"categories":[],"categories_nodes":[],"categories_segments":[],"categories_sizes":[],"default_left":[0,0,0,0,0,0,0,0,0,0,0,0,0],"id":59,"left_children":[1,3,5,7,9,11,-1,-1,-1,-1,-1,-1,-1],"loss_changes":[1.0705812E3,8.247976E2,6.564378E2,1.0200904E3,9.5634064E2,5.875117E2,0E0,0E0,0E0,0E0,0E0,0E0,0E0],"parents":[2147483647,0,0,1,1,2,2,3,3,4,4,5,5],"right_children":[2,4,6,8,10,12,-1,-1,-1,-1,-1,-1,-1],"split_conditions":[9.5E0,1.2617181E1,1.55E0,1.1883474E1,1.2840454E1,3.5333068E0,-2.1386312E-1,3.4682345E-2,-3.5578224E-1,3.4164518E-1,-2.2711258E-2,1.5261954E-1,5.672431E-1],"split_indices":[42,15,51,15,15,23,0,0,0,0,0,0,0],"split_type":[0,0,0,0,0,0,0,0,0,0,0,0,0],"sum_hessian":[4.97E2,4.26E2,7.1E1,6.6E1,3.6E2,6.3E1,8E0,2.8E1,3.8E1,1.7E1,3.43E2,5.4E1,9E0],"tree_param":{"num_deleted":"0","num_feature":"88","num_nodes":"13","size_leaf_vector":"1"}},{"base_weights":[2.798408E-2,-4.9091443E-1,3.0919464E0,-4.001558E0,2.7402079E-2,-3.961468E-1,6.3448606E0,1.1390702E-1,-4.7157535E-1,5.1876124E-2,-1.2179275E-1,-4.4128034E-1,1.2117081E-1,-4.1861045E-3,5.67137E-1],"categories":[],"categories_nodes":[],"categories_segments":[],"categories_sizes":[],"default_left":[0,0,0,0,0,0,0,0,0,0,0,0,0,0,0],"id":60,"left_children":[1,3,5,7,9,11,13,-1,-1,-1,-1,-1,-1,-1,-1],"loss_changes":[8.231273E2,8.0648035E2,8.589864E2,1.9901604E3,9.6728326E2,9.4913824E2,1.2605706E3,0E0,0E0,0E0,0E0,0E0,0E0,0E0,0E0],"parents":[2147483647,0,0,1,1,2,2,3,3,4,4,5,5,6,6],"right_children":[2,4,6,8,10,12,14,-1,-1,-1,-1,-1,-1,-1,-1],"split_conditions":[9.1E0,1.2549908E1,-5E-1,1.1883474E1,6.9E0,1.197E1,7.8890185E0,1.1390702E-1,-4.7157535E-1,5.1876124E-2,-1.2179275E-1,-4.4128034E-1,1.2117081E-1,-4.1861045E-3,5.67137E-1],"split_indices":[42,15,43,15,63,15,10,0,0,0,0,0,0,0,0],"split_type":[0,0,0,0,0,0,0,0,0,0,0,0,0,0,0],"sum_hessian":[5.13E2,4.4E2,7.3E1,5.5E1,3.85E2,3.6E1,3.7E1,2.6E1,2.9E1,2.74E2,1.11E2,8E0,2.8E1,1.7E1,2E1],"tree_param":{"num_deleted":"0","num_feature":"88","num_nodes":"15","size_leaf_vector":"1"}},{"base_weights":[-3.2525037E-3,8.301014E0,-3.0466956E-1,5.0647598E-2,8.092173E-1,3.1214151E0,-1.0035917E0,-9.538635E-2,3.774588E-1,2.2375932E-1,-7.1738124E-2],"categories":[],"categories_nodes":[],"categories_segments":[],"categories_sizes":[],"default_left":[0,0,0,0,0,0,0,0,0,0,0],"id":61,"left_children":[1,3,5,-1,-1,7,9,-1,-1,-1,-1],"loss_changes":[1.2150381E3,9.3533484E2,1.1306525E3,0E0,0E0,1.8130514E3,9.37339E2,0E0,0E0,0E0,0E0],"parents":[2147483647,0,0,1,1,2,2,5,5,6,6],"right_children":[2,4,6,-1,-1,8,10,-1,-1,-1,-1],"split_conditions":[1.093E2,1.3926813E1,1.0824396E2,5.0647598E-2,8.092173E-1,1.0205549E2,3.3462933E1,-9.538635E-2,3.774588E-1,2.2375932E-1,-7.1738124E-2],"split_indices":[37,15,0,0,0,0,28,0,0,0,0],"split_type":[0,0,0,0,0,0,0,0,0,0,0],"sum_hessian":[4.83E2,1.5E1,4.68E2,9E0,6E0,7.8E1,3.9E2,3.7E1,4.1E1,2.7E1,3.63E2],"tree_param":{"num_deleted":"0","num_feature":"88","num_nodes":"11","size_leaf_vector":"1"}},{"base_weights":[2.0620525E-1,-3.1761365E0,9.219112E-1,-4.556497E0,3.6346942E-1,5.217861E0,3.582641E-1,-5.407716E-2,-4.026134E-1,-1.6813994E-3,3.8110456E-1,-1.3974607E-1,5.8356714E-2],"categories":[],"categories_nodes":[],"categories_segments":[],"categories_sizes":[],"default_left":[0,0,0,0,0,0,0,0,0,0,0,0,0],"id":62,"left_children":[1,3,5,7,-1,9,11,-1,-1,-1,-1,-1,-1],"loss_changes":[1.2199515E3,1.3337255E3,1.0007754E3,9.376792E2,0E0,6.103447E2,9.494017E2,0E0,0E0,0E0,0E0,0E0,0E0],"parents":[2147483647,0,0,1,1,2,2,3,3,5,5,6,6],"right_children":[2,4,6,8,-1,10,12,-1,-1,-1,-1,-1,-1],"split_conditions":[1.2489471E1,3.8048325E0,9.8505E1,1.1883474E1,3.6346942E-1,1.136E2,4.56E-1,-5.407716E-2,-4.026134E-1,-1.6813994E-3,3.8110456E-1,-1.3974607E-1,5.8356714E-2],"split_indices":[15,20,50,15,0,36,65,0,0,0,0,0,0],"split_type":[0,0,0,0,0,0,0,0,0,0,0,0,0],"sum_hessian":[5E2,8.6E1,4.14E2,7.7E1,9E0,4.6E1,3.68E2,4E1,3.7E1,1.5E1,3.1E1,7.4E1,2.94E2],"tree_param":{"num_deleted":"0","num_feature":"88","num_nodes":"13","size_leaf_vector":"1"}},{"base_weights":[1.3773943E-1,-3.2617903E-1,4.026322E0,-7.62477E-1,5.927672E0,-1.6298431E0,7.2254324E0,-1.1203456E-1,3.4947034E-2,5.660059E-1,1.306841E-1,2.492566E-1,-2.606354E-1,5.4738885E-1,6.327912E-2],"categories":[],"categories_nodes":[],"categories_segments":[],"categories_sizes":[],"default_left":[0,0,0,0,0,0,0,0,0,0,0,0,0,0,0],"id":63,"left_children":[1,3,5,7,9,11,13,-1,-1,-1,-1,-1,-1,-1,-1],"loss_changes":[8.631736E2,1.1715444E3,9.4917993E2,8.7017865E2,4.342331E2,5.260971E2,6.98275E2,0E0,0E0,0E0,0E0,0E0,0E0,0E0,0E0],"parents":[2147483647,0,0,1,1,2,2,3,3,4,4,5,5,6,6],"right_children":[2,4,6,8,10,12,14,-1,-1,-1,-1,-1,-1,-1,-1],"split_conditions":[4.8206707E1,1.6824871E1,7.8821917E0,2E-3,7.6055193E0,4.2881355E0,1.1575326E0,-1.1203456E-1,3.4947034E-2,5.660059E-1,1.306841E-1,2.492566E-1,-2.606354E-1,5.4738885E-1,6.327912E-2],"split_indices":[28,16,9,59,9,71,32,0,0,0,0,0,0,0,0],"split_type":[0,0,0,0,0,0,0,0,0,0,0,0,0,0,0],"sum_hessian":[4.74E2,4.25E2,4.9E1,3.99E2,2.6E1,1.8E1,3.1E1,1.98E2,2.01E2,8E0,1.8E1,6E0,1.2E1,1.8E1,1.3E1],"tree_param":{"num_deleted":"0","num_feature":"88","num_nodes":"15","size_leaf_vector":"1"}},{"base_weights":[-5.715505E-2,-2.8027457E-1,8.168598E0,1.0030106E0,-2.020239E0,6.274613E-1,3.7842687E-2,6.7284636E-2,-6.2883663E-1,-1.306774E-1,2.905073E-1],"categories":[],"categories_nodes":[],"categories_segments":[],"categories_sizes":[],"default_left":[0,0,0,0,0,0,0,0,0,0,0],"id":64,"left_children":[1,3,5,7,9,-1,-1,-1,-1,-1,-1],"loss_changes":[9.036152E2,1.0785721E3,3.9643622E2,1.3219156E3,9.811683E2,0E0,0E0,0E0,0E0,0E0,0E0],"parents":[2147483647,0,0,1,1,2,2,3,3,4,4],"right_children":[2,4,6,8,10,-1,-1,-1,-1,-1,-1],"split_conditions":[1.1110388E1,8.62565E-1,1.1394581E2,7.294002E0,6.8E0,6.274613E-1,3.7842687E-2,6.7284636E-2,-6.2883663E-1,-1.306774E-1,2.905073E-1],"split_indices":[32,32,0,12,44,0,0,0,0,0,0],"split_type":[0,0,0,0,0,0,0,0,0,0,0],"sum_hessian":[4.9E2,4.79E2,1.1E1,2.76E2,2.03E2,6E0,5E0,2.71E2,5E0,1.9E2,1.3E1],"tree_param":{"num_deleted":"0","num_feature":"88","num_nodes":"11","size_leaf_vector":"1"}},{"base_weights":[5.642462E-1,9.472989E-1,-5.093452E0,2.0699131E0,-4.6528262E-1,6.648637E-1,-8.196842E0,3.698982E-2,2.281113E-1,4.1296102E-2,-2.2149698E-1,-1.0090009E-1,1.8062316E-1,-9.040832E-2,-5.5485785E-1],"categories":[],"categories_nodes":[],"categories_segments":[],"categories_sizes":[],"default_left":[0,0,0,0,0,0,0,0,0,0,0,0,0,0,0],"id":65,"left_children":[1,3,5,7,9,11,13,-1,-1,-1,-1,-1,-1,-1,-1],"loss_changes":[1.0933425E3,7.496327E2,5.8651526E2,8.624614E2,1.0841482E3,1.1818132E2,3.425288E2,0E0,0E0,0E0,0E0,0E0,0E0,0E0,0E0],"parents":[2147483647,0,0,1,1,2,2,3,3,4,4,5,5,6,6],"right_children":[2,4,6,8,10,12,14,-1,-1,-1,-1,-1,-1,-1,-1],"split_conditions":[6.648628E0,7.7771574E-1,3.9357166E0,2.7367222E-1,6.1013455E0,1.8E0,3.6005447E1,3.698982E-2,2.281113E-1,4.1296102E-2,-2.2149698E-1,-1.0090009E-1,1.8062316E-1,-9.040832E-2,-5.5485785E-1],"split_indices":[12,32,13,17,2,44,28,0,0,0,0,0,0,0,0],"split_type":[0,0,0,0,0,0,0,0,0,0,0,0,0,0,0],"sum_hessian":[4.99E2,4.69E2,3E1,2.61E2,2.08E2,1.1E1,1.9E1,1.72E2,8.9E1,1.58E2,5E1,6E0,5E0,7E0,1.2E1],"tree_param":{"num_deleted":"0","num_feature":"88","num_nodes":"15","size_leaf_vector":"1"}},{"base_weights":[5.1778845E-2,-2.5603776E0,6.6737556E-1,4.5623526E-1,-6.0105934E0,2.980699E0,-3.1547245E-1,-2.5444102E-1,1.2626597E-1,-3.8489866E-1,2.7956067E-2,3.4103796E-1,5.879026E-3,2.329931E-2,-2.4006355E-1],"categories":[],"categories_nodes":[],"categories_segments":[],"categories_sizes":[],"default_left":[0,0,0,0,0,0,0,0,0,0,0,0,0,0,0],"id":66,"left_children":[1,3,5,7,9,11,13,-1,-1,-1,-1,-1,-1,-1,-1],"loss_changes":[8.0970447E2,1.0074263E3,9.3086053E2,6.3249896E2,5.110299E2,1.3362616E3,1.01621655E3,0E0,0E0,0E0,0E0,0E0,0E0,0E0,0E0],"parents":[2147483647,0,0,1,1,2,2,3,3,4,4,5,5,6,6],"right_children":[2,4,6,8,10,12,14,-1,-1,-1,-1,-1,-1,-1,-1],"split_conditions":[1.2440221E1,1.1883474E1,1.0612271E1,-5E-1,4.6587242E1,2.6437494E1,1.2211281E2,-2.5444102E-1,1.2626597E-1,-3.8489866E-1,2.7956067E-2,3.4103796E-1,5.879026E-3,2.329931E-2,-2.4006355E-1],"split_indices":[15,15,18,43,3,30,0,0,0,0,0,0,0,0,0],"split_type":[0,0,0,0,0,0,0,0,0,0,0,0,0,0,0],"sum_hessian":[5E2,9.4E1,4.06E2,5.1E1,4.3E1,1.2E2,2.86E2,1.3E1,3.8E1,3.4E1,9E0,5E1,7E1,2.45E2,4.1E1],"tree_param":{"num_deleted":"0","num_feature":"88","num_nodes":"15","size_leaf_vector":"1"}},{"base_weights":[4.384764E-1,6.665041E0,1.6088228E-1,9.031135E0,2.4992712E-2,6.219387E-1,-3.110379E0,5.745508E-1,2.3910497E-1,4.998466E-2,-2.4590147E-1,4.2771764E-2,-3.9462438E-1],"categories":[],"categories_nodes":[],"categories_segments":[],"categories_sizes":[],"default_left":[0,0,0,0,0,0,0,0,0,0,0,0,0],"id":67,"left_children":[1,3,5,7,-1,9,11,-1,-1,-1,-1,-1,-1],"loss_changes":[8.5002905E2,2.9254163E2,7.2054504E2,3.874292E1,0E0,8.8473517E2,1.1359537E3,0E0,0E0,0E0,0E0,0E0,0E0],"parents":[2147483647,0,0,1,1,2,2,3,3,5,5,6,6],"right_children":[2,4,6,8,-1,10,12,-1,-1,-1,-1,-1,-1],"split_conditions":[-7.1E0,1.11260704E2,4.379661E1,8.11311E0,2.4992712E-2,1.2553613E2,1.7E0,5.745508E-1,2.3910497E-1,4.998466E-2,-2.4590147E-1,4.2771764E-2,-3.9462438E-1],"split_indices":[44,1,70,9,0,1,61,0,0,0,0,0,0],"split_type":[0,0,0,0,0,0,0,0,0,0,0,0,0],"sum_hessian":[4.93E2,1.9E1,4.74E2,1.3E1,6E0,4.17E2,5.7E1,6E0,7E0,3.92E2,2.5E1,3.2E1,2.5E1],"tree_param":{"num_deleted":"0","num_feature":"88","num_nodes":"13","size_leaf_vector":"1"}},{"base_weights":[3.9937672E-1,-4.414415E0,7.901713E-1,-2.1274204E0,-5.5005974E-1,-2.9791602E-1,2.537373E0,-1.8094233E-1,1.4081065E-1,-1.5638603E-1,6.2027104E-2,-7.159539E-2,2.0320301E-1],"categories":[],"categories_nodes":[],"categories_segments":[],"categories_sizes":[],"default_left":[0,0,0,0,0,0,0,0,0,0,0,0,0],"id":68,"left_children":[1,3,5,7,-1,9,11,-1,-1,-1,-1,-1,-1],"loss_changes":[9.26954E2,5.0399268E2,8.6763574E2,2.4197612E2,0E0,1.2364009E3,1.0734287E3,0E0,0E0,0E0,0E0,0E0,0E0],"parents":[2147483647,0,0,1,1,2,2,3,3,5,5,6,6],"right_children":[2,4,6,8,-1,10,12,-1,-1,-1,-1,-1,-1],"split_conditions":[-2.1E-2,2.7976757E1,7E-3,2.67E0,-5.5005974E-1,4.4714518E0,2.4730558E1,-1.8094233E-1,1.4081065E-1,-1.5638603E-1,6.2027104E-2,-7.159539E-2,2.0320301E-1],"split_indices":[58,6,59,51,0,13,6,0,0,0,0,0,0],"split_type":[0,0,0,0,0,0,0,0,0,0,0,0,0],"sum_hessian":[4.88E2,3.5E1,4.53E2,2.8E1,7E0,2.8E2,1.73E2,2.2E1,6E0,9.8E1,1.82E2,4.8E1,1.25E2],"tree_param":{"num_deleted":"0","num_feature":"88","num_nodes":"13","size_leaf_vector":"1"}},{"base_weights":[2.8695223E-1,-4.159379E0,7.145101E-1,1.4717375E0,-7.623873E0,8.044612E0,2.7776107E-1,-1.4576991E-1,2.8072628E-1,-2.3326837E-1,-6.710742E-1,-0E0,6.276378E-1,-3.3576775E-1,3.020423E-2],"categories":[],"categories_nodes":[],"categories_segments":[],"categories_sizes":[],"default_left":[0,0,0,0,0,0,0,0,0,0,0,0,0,0,0],"id":69,"left_children":[1,3,5,7,9,11,13,-1,-1,-1,-1,-1,-1,-1,-1],"loss_changes":[9.319406E2,8.644024E2,1.4224022E3,3.612362E2,3.2883545E2,9.0325244E2,9.726334E2,0E0,0E0,0E0,0E0,0E0,0E0,0E0,0E0],"parents":[2147483647,0,0,1,1,2,2,3,3,4,4,5,5,6,6],"right_children":[2,4,6,8,10,12,14,-1,-1,-1,-1,-1,-1,-1,-1],"split_conditions":[3.8293007E1,-4.07591E0,3.9333973E1,-7.2829094E0,2.9699132E-1,2.393387E1,2.8759644E1,-1.4576991E-1,2.8072628E-1,-2.3326837E-1,-6.710742E-1,-0E0,6.276378E-1,-3.3576775E-1,3.020423E-2],"split_indices":[3,2,3,23,14,7,21,0,0,0,0,0,0,0,0],"split_type":[0,0,0,0,0,0,0,0,0,0,0,0,0,0,0],"sum_hessian":[4.86E2,4.1E1,4.45E2,1.6E1,2.5E1,2.3E1,4.22E2,8E0,8E0,1.9E1,6E0,9E0,1.4E1,1.7E1,4.05E2],"tree_param":{"num_deleted":"0","num_feature":"88","num_nodes":"15","size_leaf_vector":"1"}},{"base_weights":[1.729373E-1,-5.3850236E0,5.602091E-1,-3.3038561E0,-6.049843E-1,2.7086186E-1,8.777666E0,-3.861799E-1,2.1761177E-2,-1.0459312E-2,2.2543482E-1,5.7527995E-1,9.557903E-2],"categories":[],"categories_nodes":[],"categories_segments":[],"categories_sizes":[],"default_left":[0,0,0,0,0,0,0,0,0,0,0,0,0],"id":70,"left_children":[1,3,5,7,-1,9,11,-1,-1,-1,-1,-1,-1],"loss_changes":[1.090604E3,3.7350006E2,1.1177496E3,4.7308868E2,0E0,9.3984375E2,2.489873E2,0E0,0E0,0E0,0E0,0E0,0E0],"parents":[2147483647,0,0,1,1,2,2,3,3,5,5,6,6],"right_children":[2,4,6,8,-1,10,12,-1,-1,-1,-1,-1,-1],"split_conditions":[-1.29E1,2.7356744E0,5.75E0,1.33E0,-6.049843E-1,4.786109E0,2.8627502E1,-3.861799E-1,2.1761177E-2,-1.0459312E-2,2.2543482E-1,5.7527995E-1,9.557903E-2],"split_indices":[42,8,51,51,0,23,30,0,0,0,0,0,0],"split_type":[0,0,0,0,0,0,0,0,0,0,0,0,0],"sum_hessian":[5.03E2,3.1E1,4.72E2,2.6E1,5E0,4.58E2,1.4E1,1.1E1,1.5E1,4.13E2,4.5E1,9E0,5E0],"tree_param":{"num_deleted":"0","num_feature":"88","num_nodes":"13","size_leaf_vector":"1"}},{"base_weights":[6.797158E-2,5.444464E-1,-1.3290742E-1,-6.3485366E-1,3.0501425E0,2.8797105E-2,-1.24508716E-1,2.6632532E-1,-1.792109E-1],"categories":[],"categories_nodes":[],"categories_segments":[],"categories_sizes":[],"default_left":[0,0,0,0,0,0,0,0,0],"id":71,"left_children":[1,-1,3,5,7,-1,-1,-1,-1],"loss_changes":[1.0733868E3,0E0,7.743639E2,9.450731E2,1.0358003E3,0E0,0E0,0E0,0E0],"parents":[2147483647,0,0,2,2,3,3,4,4],"right_children":[2,-1,4,6,8,-1,-1,-1,-1],"split_conditions":[-8.7E0,5.444464E-1,2.9377087E1,3.1061597E-2,2.8000017E1,2.8797105E-2,-1.24508716E-1,2.6632532E-1,-1.792109E-1],"split_indices":[44,0,6,8,7,0,0,0,0],"split_type":[0,0,0,0,0,0,0,0,0],"sum_hessian":[4.88E2,7E0,4.81E2,4.17E2,6.4E1,2.53E2,1.64E2,4.8E1,1.6E1],"tree_param":{"num_deleted":"0","num_feature":"88","num_nodes":"9","size_leaf_vector":"1"}},{"base_weights":[-3.2092193E-1,-1.1307213E0,1.823373E0,2.1409109E0,-1.8743542E0,3.5514197E0,-1.374269E0,2.8415066E-1,-1.23590626E-1,5.2453506E-1,-1.1068078E-1,-2.9586226E-1,2.2025399E-1,-1.7069122E-1,1.7672981E-1],"categories":[],"categories_nodes":[],"categories_segments":[],"categories_sizes":[],"default_left":[0,0,0,0,0,0,0,0,0,0,0,0,0,0,0],"id":72,"left_children":[1,3,5,7,9,11,13,-1,-1,-1,-1,-1,-1,-1,-1],"loss_changes":[8.424818E2,8.6427094E2,7.457646E2,1.1080571E3,1.2504624E3,7.5459863E2,5.046439E2,0E0,0E0,0E0,0E0,0E0,0E0,0E0,0E0],"parents":[2147483647,0,0,1,1,2,2,3,3,4,4,5,5,6,6],"right_children":[2,4,6,8,10,12,14,-1,-1,-1,-1,-1,-1,-1,-1],"split_conditions":[8.877181E0,2.3557728E1,9.435759E-1,4.2175438E1,-8.7E0,1.5440678E1,2.3540561E0,2.8415066E-1,-1.23590626E-1,5.2453506E-1,-1.1068078E-1,-2.9586226E-1,2.2025399E-1,-1.7069122E-1,1.7672981E-1],"split_indices":[9,7,20,69,44,67,2,0,0,0,0,0,0,0,0],"split_type":[0,0,0,0,0,0,0,0,0,0,0,0,0,0,0],"sum_hessian":[4.81E2,3.5E2,1.31E2,6.4E1,2.86E2,8.5E1,4.6E1,3.6E1,2.8E1,6E0,2.8E2,6E0,7.9E1,3.3E1,1.3E1],"tree_param":{"num_deleted":"0","num_feature":"88","num_nodes":"15","size_leaf_vector":"1"}},{"base_weights":[6.152746E-1,1.2651249E0,-1.5960972E0,6.0359955E-1,4.8353357E0,5.488036E0,-3.0747194E0,-1.828907E-1,6.254409E-2,5.171085E-2,3.5962412E-1,4.280418E-1,-1.2965576E-1,2.3887622E-1,-2.1182619E-1],"categories":[],"categories_nodes":[],"categories_segments":[],"categories_sizes":[],"default_left":[0,0,0,0,0,0,0,0,0,0,0,0,0,0,0],"id":73,"left_children":[1,3,5,7,9,11,13,-1,-1,-1,-1,-1,-1,-1,-1],"loss_changes":[7.080328E2,8.8892163E2,1.2057144E3,8.9889044E2,5.0963733E2,5.4401746E2,8.9774994E2,0E0,0E0,0E0,0E0,0E0,0E0,0E0,0E0],"parents":[2147483647,0,0,1,1,2,2,3,3,4,4,5,5,6,6],"right_children":[2,4,6,8,10,12,14,-1,-1,-1,-1,-1,-1,-1,-1],"split_conditions":[1.975E1,5.57E-1,4.5E0,1E0,2.6160833E1,4.933883E0,-4E0,-1.828907E-1,6.254409E-2,5.171085E-2,3.5962412E-1,4.280418E-1,-1.2965576E-1,2.3887622E-1,-2.1182619E-1],"split_indices":[67,64,56,54,6,29,44,0,0,0,0,0,0,0,0],"split_type":[0,0,0,0,0,0,0,0,0,0,0,0,0,0,0],"sum_hessian":[4.88E2,3.78E2,1.1E2,3.21E2,5.7E1,1.8E1,9.2E1,4.1E1,2.8E2,2.3E1,3.4E1,1.3E1,5E0,1.1E1,8.1E1],"tree_param":{"num_deleted":"0","num_feature":"88","num_nodes":"15","size_leaf_vector":"1"}},{"base_weights":[-3.1494707E-1,-1.2871361E-2,-5.7204704E0,-6.6328783E0,2.3396975E-1,8.484331E-2,-9.876339E0,4.6103317E-2,-4.9880582E-1,-4.2242098E-1,2.1435702E-2,-1.22908406E-1,-6.257941E-1],"categories":[],"categories_nodes":[],"categories_segments":[],"categories_sizes":[],"default_left":[0,0,0,0,0,0,0,0,0,0,0,0,0],"id":74,"left_children":[1,3,5,7,9,-1,11,-1,-1,-1,-1,-1,-1],"loss_changes":[8.019945E2,7.726914E2,8.3906964E2,4.5230988E2,7.7087805E2,0E0,2.638506E2,0E0,0E0,0E0,0E0,0E0,0E0],"parents":[2147483647,0,0,1,1,2,2,3,3,4,4,6,6],"right_children":[2,4,6,8,10,-1,12,-1,-1,-1,-1,-1,-1],"split_conditions":[3.0547787E1,-9.781629E0,4.3631104E1,-4.66E0,-1.64E1,8.484331E-2,-1.4495376E0,4.6103317E-2,-4.9880582E-1,-4.2242098E-1,2.1435702E-2,-1.22908406E-1,-6.257941E-1],"split_indices":[6,32,4,51,42,0,17,0,0,0,0,0,0],"split_type":[0,0,0,0,0,0,0,0,0,0,0,0,0],"sum_hessian":[4.91E2,4.67E2,2.4E1,1.5E1,4.52E2,9E0,1.5E1,5E0,1E1,8E0,4.44E2,5E0,1E1],"tree_param":{"num_deleted":"0","num_feature":"88","num_nodes":"13","size_leaf_vector":"1"}},{"base_weights":[2.9497987E-1,-1.5397543E0,1.3625962E0,-2.1253705E0,6.0065303E0,-9.6435E-2,4.0075645E0,-1.7827119E-1,-0E0,3.7435898E-1,1.4808743E-1,8.1426516E-2,-1.4732334E-1,-1.4426424E-1,2.8070822E-1],"categories":[],"categories_nodes":[],"categories_segments":[],"categories_sizes":[],"default_left":[0,0,0,0,0,0,0,0,0,0,0,0,0,0,0],"id":75,"left_children":[1,3,5,7,9,11,13,-1,-1,-1,-1,-1,-1,-1,-1],"loss_changes":[1.0011327E3,8.5440625E2,1.2492148E3,5.397587E2,1.35408325E1,1.042659E3,1.3072771E3,0E0,0E0,0E0,0E0,0E0,0E0,0E0,0E0],"parents":[2147483647,0,0,1,1,2,2,3,3,4,4,5,5,6,6],"right_children":[2,4,6,8,10,12,14,-1,-1,-1,-1,-1,-1,-1,-1],"split_conditions":[-9.8245615E-1,4.8485447E1,1.4410278E1,1.7E-2,-3.2456486E0,5.2507524E0,3.6069336E1,-1.7827119E-1,-0E0,3.7435898E-1,1.4808743E-1,8.1426516E-2,-1.4732334E-1,-1.4426424E-1,2.8070822E-1],"split_indices":[68,4,15,60,20,12,27,0,0,0,0,0,0,0,0],"split_type":[0,0,0,0,0,0,0,0,0,0,0,0,0,0,0],"sum_hessian":[5.07E2,1.86E2,3.21E2,1.74E2,1.2E1,2.08E2,1.13E2,1.03E2,7.1E1,6E0,6E0,1.3E2,7.8E1,2.1E1,9.2E1],"tree_param":{"num_deleted":"0","num_feature":"88","num_nodes":"15","size_leaf_vector":"1"}},{"base_weights":[-6.264752E-1,2.526474E0,-1.2388004E0,3.6332479E0,-4.2784977E-1,-5.1675696E0,-3.419261E-1,6.1086338E-2,3.7200385E-1,-7.105223E-1,-1.8604714E-1,1.937988E-1,-5.3401906E-2],"categories":[],"categories_nodes":[],"categories_segments":[],"categories_sizes":[],"default_left":[0,0,0,0,0,0,0,0,0,0,0,0,0],"id":76,"left_children":[1,3,5,7,-1,9,11,-1,-1,-1,-1,-1,-1],"loss_changes":[9.7286145E2,1.0656028E3,1.4771521E3,6.751884E2,0E0,9.056521E2,1.0634963E3,0E0,0E0,0E0,0E0,0E0,0E0],"parents":[2147483647,0,0,1,1,2,2,3,3,5,5,6,6],"right_children":[2,4,6,8,-1,10,12,-1,-1,-1,-1,-1,-1],"split_conditions":[3.9867805E1,1.651033E1,4.224277E1,2.6553984E1,-4.2784977E-1,1.13E2,3.994595E0,6.1086338E-2,3.7200385E-1,-7.105223E-1,-1.8604714E-1,1.937988E-1,-5.3401906E-2],"split_indices":[4,15,4,6,0,37,13,0,0,0,0,0,0],"split_type":[0,0,0,0,0,0,0,0,0,0,0,0,0],"sum_hessian":[4.99E2,8E1,4.19E2,7.4E1,6E0,7.6E1,3.43E2,4.7E1,2.7E1,8E0,6.8E1,4.9E1,2.94E2],"tree_param":{"num_deleted":"0","num_feature":"88","num_nodes":"13","size_leaf_vector":"1"}},{"base_weights":[-1.9961339E-1,5.593036E-2,-7.8722243E0,6.9927996E-1,-2.195172E0,-7.3236567E-1,-1.0420181E-1,6.62257E-2,-1.4132848E-1,-1.6324376E-1,2.3838289E-1],"categories":[],"categories_nodes":[],"categories_segments":[],"categories_sizes":[],"default_left":[0,0,0,0,0,0,0,0,0,0,0],"id":77,"left_children":[1,3,5,7,9,-1,-1,-1,-1,-1,-1],"loss_changes":[9.733685E2,6.9748016E2,5.580311E2,8.334169E2,8.273335E2,0E0,0E0,0E0,0E0,0E0,0E0],"parents":[2147483647,0,0,1,1,2,2,3,3,4,4],"right_children":[2,4,6,8,10,-1,-1,-1,-1,-1,-1],"split_conditions":[7.294002E0,1.6350846E0,2.50315E0,4.5089536E0,8.079662E0,-7.3236567E-1,-1.0420181E-1,6.62257E-2,-1.4132848E-1,-1.6324376E-1,2.3838289E-1],"split_indices":[12,34,14,32,32,0,0,0,0,0,0],"split_type":[0,0,0,0,0,0,0,0,0,0,0],"sum_hessian":[4.92E2,4.78E2,1.4E1,3.73E2,1.05E2,5E0,9E0,3.18E2,5.5E1,9.2E1,1.3E1],"tree_param":{"num_deleted":"0","num_feature":"88","num_nodes":"11","size_leaf_vector":"1"}}]},"name":"gbtree"},"learner_model_param":{"base_score":"[1.7657143E0]","boost_from_average":"1","num_class":"0","num_feature":"88","num_target":"1"},"objective":{"name":"reg:squarederror","reg_loss_param":{"scale_pos_weight":"1"}}},"version":[3,2,0]}