{"learner":{"attributes":{"best_iteration":"51","best_score":"13.971182635381773","scikit_learn":"{\"_estimator_type\": \"regressor\"}"},"feature_names":["home_points","away_points","diff_points","home_rebounds","away_rebounds","diff_rebounds","home_assists","away_assists","diff_assists","home_steals","away_steals","diff_steals","home_blocks","away_blocks","diff_blocks","home_turnovers","away_turnovers","diff_turnovers","home_oreb","away_oreb","diff_oreb","home_dreb","away_dreb","diff_dreb","home_ts_pct","away_ts_pct","diff_ts_pct","home_fg3_rate","away_fg3_rate","diff_fg3_rate","home_ft_rate","away_ft_rate","diff_ft_rate","home_to_margin","away_to_margin","diff_to_margin","home_off_rating","away_off_rating","home_def_rating","away_def_rating","home_net_rating","away_net_rating","diff_net_rating","home_matchup_edge","away_matchup_edge","diff_matchup_edge","home_def_factor_raw","away_def_factor_raw","home_pace","away_pace","avg_pace","diff_pace","home_court","home_fatigue","away_fatigue","diff_fatigue","combined_fatigue","ff_efg_edge","ff_tov_edge","ff_oreb_edge","ff_fta_edge","home_clutch_net","away_clutch_net","diff_clutch_net","home_clutch_efg","away_clutch_efg","home_deflections","away_deflections","diff_deflections","home_contested","away_contested","home_loose_balls","away_loose_balls","home_injured_count","away_injured_count","diff_injured_count","home_injury_ppg_lost","away_injury_ppg_lost","diff_injury_ppg_lost","home_injury_minutes_lost","away_injury_minutes_lost","diff_injury_minutes_lost","home_games_played","away_games_played","min_games_played","games_played_diff","home_roster_changed","away_roster_changed"],"feature_types":["float","float","float","float","float","float","float","float","float","float","float","float","float","float","float","float","float","float","float","float","float","float","float","float","float","float","float","float","float","float","float","float","float","float","float","float","float","float","float","float","float","float","float","float","float","float","float","float","float","float","float","float","float","float","float","float","float","float","float","float","float","float","float","float","float","float","float","float","float","float","float","float","float","int","int","int","float","float","float","float","float","float","float","float","float","float","int","int"],"gradient_booster":{"model":{"cats":{"enc":[],"feature_segments":[],"sorted_idx":[]},"gbtree_model_param":{"num_parallel_tree":"1","num_trees":"72"},"iteration_indptr":[0,1,2,3,4,5,6,7,8,9,10,11,12,13,14,15,16,17,18,19,20,21,22,23,24,25,26,27,28,29,30,31,32,33,34,35,36,37,38,39,40,41,42,43,44,45,46,47,48,49,50,51,52,53,54,55,56,57,58,59,60,61,62,63,64,65,66,67,68,69,70,71,72],"tree_info":[0,0,0,0,0,0,0,0,0,0,0,0,0,0,0,0,0,0,0,0,0,0,0,0,0,0,0,0,0,0,0,0,0,0,0,0,0,0,0,0,0,0,0,0,0,0,0,0,0,0,0,0,0,0,0,0,0,0,0,0,0,0,0,0,0,0,0,0,0,0,0,0],"trees":[{"base_weights":[3.9488703E-2,-5.2681594E0,5.1605678E0,-1.0756288E1,-2.058898E0,9.110258E0,9.435815E-1,-8.838327E-2,-5.931476E-1,6.789809E-2,-2.8634104E-1,8.368536E-1,3.352662E-1,-1.0219381E-1,3.161709E-1],"categories":[],"categories_nodes":[],"categories_segments":[],"categories_sizes":[],"default_left":[0,0,0,0,0,0,0,0,0,0,0,0,0,0,0],"id":0,"left_children":[1,3,5,7,9,11,13,-1,-1,-1,-1,-1,-1,-1,-1],"loss_changes":[5.153492E4,1.6346854E4,1.6050619E4,3.3631953E3,7.412076E3,8.898133E3,7.5657725E3,0E0,0E0,0E0,0E0,0E0,0E0,0E0,0E0],"parents":[2147483647,0,0,1,1,2,2,3,3,4,4,5,5,6,6],"right_children":[2,4,6,8,10,12,14,-1,-1,-1,-1,-1,-1,-1,-1],"split_conditions":[0E0,-5.1E0,-1.7E0,-9.2E0,3.1E0,2E0,4.3E0,-8.838327E-2,-5.931476E-1,6.789809E-2,-2.8634104E-1,8.368536E-1,3.352662E-1,-1.0219381E-1,3.161709E-1],"split_indices":[57,40,41,43,41,73,40,0,0,0,0,0,0,0,0],"split_type":[0,0,0,0,0,0,0,0,0,0,0,0,0,0,0],"sum_hessian":[1.892E3,9.29E2,9.63E2,3.41E2,5.88E2,4.96E2,4.67E2,3.8E1,3.03E2,3.05E2,2.83E2,1.16E2,3.8E2,3.01E2,1.66E2],"tree_param":{"num_deleted":"0","num_feature":"88","num_nodes":"15","size_leaf_vector":"1"}},{"base_weights":[-1.4628705E-1,-6.215076E0,4.3223057E0,-2.5087156E0,-9.963767E0,8.89684E0,-5.1941395E-1,-3.353282E-1,7.842081E-2,-6.333293E-1,-3.2269117E-1,6.442348E-1,3.5362384E-1,-1.14622235E-1,3.4094676E-1],"categories":[],"categories_nodes":[],"categories_segments":[],"categories_sizes":[],"default_left":[0,0,0,0,0,0,0,0,0,0,0,0,0,0,0],"id":1,"left_children":[1,3,5,7,9,11,13,-1,-1,-1,-1,-1,-1,-1,-1],"loss_changes":[5.0902695E4,1.1003398E4,2.3956082E4,6.9210225E3,3.574207E3,3.852836E3,6.8858613E3,0E0,0E0,0E0,0E0,0E0,0E0,0E0,0E0],"parents":[2147483647,0,0,1,1,2,2,3,3,4,4,5,5,6,6],"right_children":[2,4,6,8,10,12,14,-1,-1,-1,-1,-1,-1,-1,-1],"split_conditions":[2E-1,1.8E0,1.2E0,-5.1E0,-2.416529E-1,1.2637255E1,5.5E0,-3.353282E-1,7.842081E-2,-6.333293E-1,-3.2269117E-1,6.442348E-1,3.5362384E-1,-1.14622235E-1,3.4094676E-1],"split_indices":[40,41,41,40,5,76,40,0,0,0,0,0,0,0,0],"split_type":[0,0,0,0,0,0,0,0,0,0,0,0,0,0,0],"sum_hessian":[1.873E3,7.94E2,1.079E3,4.01E2,3.93E2,5.54E2,5.25E2,1.97E2,2.04E2,2.19E2,1.74E2,1.7E2,3.84E2,4.24E2,1.01E2],"tree_param":{"num_deleted":"0","num_feature":"88","num_nodes":"15","size_leaf_vector":"1"}},{"base_weights":[2.585886E-1,-5.735857E0,6.424474E0,-1.161035E1,-4.2256494E0,3.8851058E0,1.2279323E1,-7.111942E-1,-4.159587E-1,-2.717845E-1,-5.3862542E-2,2.7272E-1,3.8680833E-2,7.230262E-1,2.6862746E-1],"categories":[],"categories_nodes":[],"categories_segments":[],"categories_sizes":[],"default_left":[0,0,0,0,0,0,0,0,0,0,0,0,0,0,0],"id":2,"left_children":[1,3,5,7,9,11,13,-1,-1,-1,-1,-1,-1,-1,-1],"loss_changes":[6.815632E4,8.189006E3,1.3411164E4,1.3863711E3,2.830871E3,3.0988184E3,3.9625352E3,0E0,0E0,0E0,0E0,0E0,0E0,0E0,0E0],"parents":[2147483647,0,0,1,1,2,2,3,3,4,4,5,5,6,6],"right_children":[2,4,6,8,10,12,14,-1,-1,-1,-1,-1,-1,-1,-1],"split_conditions":[1.4210855E-14,-1.06E1,9.2E0,3E0,5.22E-1,6.47493E1,5E0,-7.111942E-1,-4.159587E-1,-2.717845E-1,-5.3862542E-2,2.7272E-1,3.8680833E-2,7.230262E-1,2.6862746E-1],"split_indices":[42,42,42,74,64,79,74,0,0,0,0,0,0,0,0],"split_type":[0,0,0,0,0,0,0,0,0,0,0,0,0,0,0],"sum_hessian":[1.84E3,9.33E2,9.07E2,1.88E2,7.45E2,6.35E2,2.72E2,1.01E2,8.7E1,5.37E2,2.08E2,4.21E2,2.14E2,2.05E2,6.7E1],"tree_param":{"num_deleted":"0","num_feature":"88","num_nodes":"15","size_leaf_vector":"1"}},{"base_weights":[-2.7877477E-3,-6.83852E0,2.983675E0,5.166978E-1,-8.203135E0,9.229206E0,2.0467746E-1,-4.810191E-1,1.3456716E-1,-5.6312484E-1,-2.783411E-1,3.5741E-1,6.8138754E-1,-8.286559E-2,2.022283E-1],"categories":[],"categories_nodes":[],"categories_segments":[],"categories_sizes":[],"default_left":[0,0,0,0,0,0,0,0,0,0,0,0,0,0,0],"id":3,"left_children":[1,3,5,7,9,11,13,-1,-1,-1,-1,-1,-1,-1,-1],"loss_changes":[3.95451E4,5.9241367E3,2.3387818E4,2.1205068E3,3.8747148E3,3.5934414E3,6.699691E3,0E0,0E0,0E0,0E0,0E0,0E0,0E0,0E0],"parents":[2147483647,0,0,1,1,2,2,3,3,4,4,5,5,6,6],"right_children":[2,4,6,8,10,12,14,-1,-1,-1,-1,-1,-1,-1,-1],"split_conditions":[1.129E2,1.098E2,1.129E2,1.4175532E1,3E0,1.172E2,1.0294642E0,-4.810191E-1,1.3456716E-1,-5.6312484E-1,-2.783411E-1,3.5741E-1,6.8138754E-1,-8.286559E-2,2.022283E-1],"split_indices":[36,37,37,77,74,36,47,0,0,0,0,0,0,0,0],"split_type":[0,0,0,0,0,0,0,0,0,0,0,0,0,0,0],"sum_hessian":[1.933E3,5.87E2,1.346E3,9.2E1,4.95E2,4.13E2,9.33E2,1.5E1,7.7E1,2.26E2,2.69E2,2.84E2,1.29E2,6.29E2,3.04E2],"tree_param":{"num_deleted":"0","num_feature":"88","num_nodes":"15","size_leaf_vector":"1"}},{"base_weights":[-3.6657742E-1,-7.0828743E0,4.8791704E0,-1.2384287E1,-5.3401814E0,1.7638643E0,1.0103054E1,-7.9986376E-1,-4.1509175E-1,-3.8598546E-1,-1.6418746E-1,1.7157497E-1,-5.6476016E-2,7.9963934E-1,4.0319964E-1],"categories":[],"categories_nodes":[],"categories_segments":[],"categories_sizes":[],"default_left":[0,0,0,0,0,0,0,0,0,0,0,0,0,0,0],"id":4,"left_children":[1,3,5,7,9,11,13,-1,-1,-1,-1,-1,-1,-1,-1],"loss_changes":[6.67644E4,7.536258E3,1.7273957E4,2.731209E3,3.021709E3,3.236901E3,4.497824E3,0E0,0E0,0E0,0E0,0E0,0E0,0E0,0E0],"parents":[2147483647,0,0,1,1,2,2,3,3,4,4,5,5,6,6],"right_children":[2,4,6,8,10,12,14,-1,-1,-1,-1,-1,-1,-1,-1],"split_conditions":[-1E0,-1.05E1,7.2E0,3E0,-7.5987583E-1,2.805582E1,2.7942965E1,-7.9986376E-1,-4.1509175E-1,-3.8598546E-1,-1.6418746E-1,1.7157497E-1,-5.6476016E-2,7.9963934E-1,4.0319964E-1],"split_indices":[42,42,42,74,5,76,79,0,0,0,0,0,0,0,0],"split_type":[0,0,0,0,0,0,0,0,0,0,0,0,0,0,0],"sum_hessian":[1.891E3,8.29E2,1.062E3,2.02E2,6.27E2,6.67E2,3.95E2,1.04E2,9.8E1,2.88E2,3.39E2,4.23E2,2.44E2,9.8E1,2.97E2],"tree_param":{"num_deleted":"0","num_feature":"88","num_nodes":"15","size_leaf_vector":"1"}},{"base_weights":[4.8870806E-2,-6.081772E0,2.5185149E0,-8.681889E0,-8.2684517E-1,8.86958E-2,7.1942024E0,-3.195866E-1,-5.71783E-1,-2.3431781E-1,1.21634044E-1,-1.660416E-1,1.1074283E-1,6.0486954E-1,2.580857E-1],"categories":[],"categories_nodes":[],"categories_segments":[],"categories_sizes":[],"default_left":[0,0,0,0,0,0,0,0,0,0,0,0,0,0,0],"id":5,"left_children":[1,3,5,7,9,11,13,-1,-1,-1,-1,-1,-1,-1,-1],"loss_changes":[2.8947217E4,7.4821074E3,1.5480229E4,2.1594102E3,2.33868E3,6.5311924E3,4.51049E3,0E0,0E0,0E0,0E0,0E0,0E0,0E0,0E0],"parents":[2147483647,0,0,1,1,2,2,3,3,4,4,5,5,6,6],"right_children":[2,4,6,8,10,12,14,-1,-1,-1,-1,-1,-1,-1,-1],"split_conditions":[-2.8E0,1.151E2,1.154E2,1.06787405E1,4.78E-1,-2.186017E0,1.2834015E1,-3.195866E-1,-5.71783E-1,-2.3431781E-1,1.21634044E-1,-1.660416E-1,1.1074283E-1,6.0486954E-1,2.580857E-1],"split_indices":[40,39,39,19,64,2,76,0,0,0,0,0,0,0,0],"split_type":[0,0,0,0,0,0,0,0,0,0,0,0,0,0,0],"sum_hessian":[1.908E3,5.47E2,1.361E3,3.65E2,1.82E2,8.97E2,4.64E2,2.03E2,1.62E2,8.3E1,9.9E1,3.44E2,5.53E2,1.33E2,3.31E2],"tree_param":{"num_deleted":"0","num_feature":"88","num_nodes":"15","size_leaf_vector":"1"}},{"base_weights":[-8.761059E-3,-5.10079E0,6.3211374E0,-1.0389446E1,-3.401654E0,4.8336773E0,1.231698E1,-6.809103E-1,-3.4318408E-1,-2.5543517E-1,-8.4246516E-2,4.1838095E-1,1.3743381E-1,6.64333E-1,3.4300447E-2],"categories":[],"categories_nodes":[],"categories_segments":[],"categories_sizes":[],"default_left":[0,0,0,0,0,0,0,0,0,0,0,0,0,0,0],"id":6,"left_children":[1,3,5,7,9,11,13,-1,-1,-1,-1,-1,-1,-1,-1],"loss_changes":[6.124027E4,9.384834E3,7.4263867E3,2.7056992E3,2.3238135E3,4.9736025E3,1.8582598E3,0E0,0E0,0E0,0E0,0E0,0E0,0E0,0E0],"parents":[2147483647,0,0,1,1,2,2,3,3,4,4,5,5,6,6],"right_children":[2,4,6,8,10,12,14,-1,-1,-1,-1,-1,-1,-1,-1],"split_conditions":[9E-1,-9.5E0,1.19E1,3E0,0E0,5.097725E1,3.0751484E1,-6.809103E-1,-3.4318408E-1,-2.5543517E-1,-8.4246516E-2,4.1838095E-1,1.3743381E-1,6.64333E-1,3.4300447E-2],"split_indices":[42,42,42,74,5,80,6,0,0,0,0,0,0,0,0],"split_type":[0,0,0,0,0,0,0,0,0,0,0,0,0,0,0],"sum_hessian":[1.896E3,1.051E3,8.45E2,2.53E2,7.98E2,6.8E2,1.65E2,1.29E2,1.24E2,3.98E2,4E2,2.5E2,4.3E2,1.52E2,1.3E1],"tree_param":{"num_deleted":"0","num_feature":"88","num_nodes":"15","size_leaf_vector":"1"}},{"base_weights":[1.758121E-1,-3.144435E0,4.2648067E0,-7.335264E0,-1.077624E0,2.2844543E0,8.2079115E0,-5.4666024E-1,-2.2210379E-1,6.813375E-2,-1.9672066E-1,-6.795887E-3,2.709317E-1,1.1499804E-1,4.953545E-1],"categories":[],"categories_nodes":[],"categories_segments":[],"categories_sizes":[],"default_left":[0,0,0,0,0,0,0,0,0,0,0,0,0,0,0],"id":7,"left_children":[1,3,5,7,9,11,13,-1,-1,-1,-1,-1,-1,-1,-1],"loss_changes":[2.6175666E4,9.195982E3,6.704E3,3.54892E3,4.9965737E3,4.388753E3,2.839459E3,0E0,0E0,0E0,0E0,0E0,0E0,0E0,0E0],"parents":[2147483647,0,0,1,1,2,2,3,3,4,4,5,5,6,6],"right_children":[2,4,6,8,10,12,14,-1,-1,-1,-1,-1,-1,-1,-1],"split_conditions":[4E-3,-5.1E0,4.3E0,4.6784798E1,1.165E2,1.156E2,9.919643E-1,-5.4666024E-1,-2.2210379E-1,6.813375E-2,-1.9672066E-1,-6.795887E-3,2.709317E-1,1.1499804E-1,4.953545E-1],"split_indices":[57,40,40,80,37,39,47,0,0,0,0,0,0,0,0],"split_type":[0,0,0,0,0,0,0,0,0,0,0,0,0,0,0],"sum_hessian":[1.924E3,1.062E3,8.62E2,3.49E2,7.13E2,5.76E2,2.86E2,1.53E2,1.96E2,3.85E2,3.28E2,3.26E2,2.5E2,6.5E1,2.21E2],"tree_param":{"num_deleted":"0","num_feature":"88","num_nodes":"15","size_leaf_vector":"1"}},{"base_weights":[2.2633879E-2,-3.4151998E0,6.1736093E0,-7.9438124E0,-1.8401996E0,3.9986558E0,1.0012071E1,-7.284681E-1,-3.482566E-1,-1.5187207E-1,1.1507253E-2,3.608012E-1,6.745696E-2,6.604142E-1,2.8985855E-1],"categories":[],"categories_nodes":[],"categories_segments":[],"categories_sizes":[],"default_left":[0,0,0,0,0,0,0,0,0,0,0,0,0,0,0],"id":8,"left_children":[1,3,5,7,9,11,13,-1,-1,-1,-1,-1,-1,-1,-1],"loss_changes":[3.9692355E4,8.553481E3,5.531451E3,1.7964082E3,2.2237197E3,3.6673418E3,3.0975098E3,0E0,0E0,0E0,0E0,0E0,0E0,0E0,0E0],"parents":[2147483647,0,0,1,1,2,2,3,3,4,4,5,5,6,6],"right_children":[2,4,6,8,10,12,14,-1,-1,-1,-1,-1,-1,-1,-1],"split_conditions":[3.3E0,-8.2E0,1.05E1,2E0,3.0256615E0,3E0,4E0,-7.284681E-1,-3.482566E-1,-1.5187207E-1,1.1507253E-2,3.608012E-1,6.745696E-2,6.604142E-1,2.8985855E-1],"split_indices":[42,42,42,73,2,73,74,0,0,0,0,0,0,0,0],"split_type":[0,0,0,0,0,0,0,0,0,0,0,0,0,0,0],"sum_hessian":[1.873E3,1.202E3,6.71E2,3.08E2,8.94E2,4.31E2,2.4E2,3.6E1,2.72E2,5.66E2,3.28E2,1.93E2,2.38E2,1.34E2,1.06E2],"tree_param":{"num_deleted":"0","num_feature":"88","num_nodes":"15","size_leaf_vector":"1"}},{"base_weights":[-4.73518E-2,-3.5485737E0,3.8039303E0,-6.5401673E0,-1.2724991E0,-2.0193949E0,4.843486E0,-4.8210308E-1,-2.4138144E-1,-4.8200807E-1,-1.9588355E-2,-2.3883967E-1,1.0407086E-1,4.9212328E-1,1.7056271E-1],"categories":[],"categories_nodes":[],"categories_segments":[],"categories_sizes":[],"default_left":[0,0,0,0,0,0,0,0,0,0,0,0,0,0,0],"id":9,"left_children":[1,3,5,7,9,11,13,-1,-1,-1,-1,-1,-1,-1,-1],"loss_changes":[2.5174889E4,6.6387373E3,5.4026865E3,2.1413809E3,4.099705E3,1.5590625E3,5.331793E3,0E0,0E0,0E0,0E0,0E0,0E0,0E0,0E0],"parents":[2147483647,0,0,1,1,2,2,3,3,4,4,5,5,6,6],"right_children":[2,4,6,8,10,12,14,-1,-1,-1,-1,-1,-1,-1,-1],"split_conditions":[2E-3,1.124E2,-1.685446E0,-9.033488E-1,9.660714E-1,9E-3,2.8278948E1,-4.8210308E-1,-2.4138144E-1,-4.8200807E-1,-1.9588355E-2,-2.3883967E-1,1.0407086E-1,4.9212328E-1,1.7056271E-1],"split_indices":[57,36,11,11,47,58,79,0,0,0,0,0,0,0,0],"split_type":[0,0,0,0,0,0,0,0,0,0,0,0,0,0,0],"sum_hessian":[1.863E3,9.76E2,8.87E2,4.2E2,5.56E2,1.34E2,7.53E2,1.46E2,2.74E2,5.1E1,5.05E2,8E1,5.4E1,1.65E2,5.88E2],"tree_param":{"num_deleted":"0","num_feature":"88","num_nodes":"15","size_leaf_vector":"1"}},{"base_weights":[-4.484392E-2,-3.2699635E0,3.555418E0,-1.6479161E-1,-4.8471317E0,8.459737E0,2.2493184E0,6.878194E-1,-4.490065E-2,-1.1509062E-1,-3.2371655E-1,5.963155E-1,1.7593949E-1,2.6347944E-1,1.996402E-3],"categories":[],"categories_nodes":[],"categories_segments":[],"categories_sizes":[],"default_left":[0,0,0,0,0,0,0,0,0,0,0,0,0,0,0],"id":10,"left_children":[1,3,5,7,9,11,13,-1,-1,-1,-1,-1,-1,-1,-1],"loss_changes":[2.1945195E4,4.878582E3,5.6767266E3,3.4683474E3,2.703498E3,3.1113096E3,4.721377E3,0E0,0E0,0E0,0E0,0E0,0E0,0E0,0E0],"parents":[2147483647,0,0,1,1,2,2,3,3,4,4,5,5,6,6],"right_children":[2,4,6,8,10,12,14,-1,-1,-1,-1,-1,-1,-1,-1],"split_conditions":[2E-3,1.136E2,2E0,3.6454556E1,4.2184525E1,-1.3E0,1.128E2,6.878194E-1,-4.490065E-2,-1.1509062E-1,-3.2371655E-1,5.963155E-1,1.7593949E-1,2.6347944E-1,1.996402E-3],"split_indices":[57,38,73,4,4,41,38,0,0,0,0,0,0,0,0],"split_type":[0,0,0,0,0,0,0,0,0,0,0,0,0,0,0],"sum_hessian":[1.886E3,9.95E2,8.91E2,3.36E2,6.59E2,1.85E2,7.06E2,1.5E1,3.21E2,2.59E2,4E2,1.07E2,7.8E1,2.97E2,4.09E2],"tree_param":{"num_deleted":"0","num_feature":"88","num_nodes":"15","size_leaf_vector":"1"}},{"base_weights":[3.407794E-2,-3.5493412E0,5.990296E0,-7.582008E0,-1.9679867E0,4.0096726E0,1.0086145E1,-4.9511525E-1,-1.6744441E-1,-4.5813885E-1,-7.100465E-2,4.7167093E-1,1.5074134E-1,8.075986E-2,5.457738E-1],"categories":[],"categories_nodes":[],"categories_segments":[],"categories_sizes":[],"default_left":[0,0,0,0,0,0,0,0,0,0,0,0,0,0,0],"id":11,"left_children":[1,3,5,7,9,11,13,-1,-1,-1,-1,-1,-1,-1,-1],"loss_changes":[4.0511258E4,7.5222188E3,5.696162E3,3.1978066E3,3.3351355E3,2.548459E3,1.5812988E3,0E0,0E0,0E0,0E0,0E0,0E0,0E0,0E0],"parents":[2147483647,0,0,1,1,2,2,3,3,4,4,5,5,6,6],"right_children":[2,4,6,8,10,12,14,-1,-1,-1,-1,-1,-1,-1,-1],"split_conditions":[2.6E0,-8.2E0,1.06E1,1.4756235E-1,9.632946E1,5.4374012E1,9.9803795E1,-4.9511525E-1,-1.6744441E-1,-4.5813885E-1,-7.100465E-2,4.7167093E-1,1.5074134E-1,8.075986E-2,5.457738E-1],"split_indices":[42,42,42,14,0,25,0,0,0,0,0,0,0,0,0],"split_type":[0,0,0,0,0,0,0,0,0,0,0,0,0,0,0],"sum_hessian":[1.894E3,1.183E3,7.11E2,3.31E2,8.52E2,4.82E2,2.29E2,2.12E2,1.19E2,5.8E1,7.94E2,7.2E1,4.1E2,2.1E1,2.08E2],"tree_param":{"num_deleted":"0","num_feature":"88","num_nodes":"15","size_leaf_vector":"1"}},{"base_weights":[6.98374E-3,-3.1560822E0,3.0947742E0,-5.2590494E0,-3.1765673E-1,5.500314E0,7.4453753E-1,-3.437018E-1,-8.3963305E-2,-2.5785068E-1,8.919489E-2,5.340422E-1,1.9185536E-1,1.4951591E-1,-8.48291E-2],"categories":[],"categories_nodes":[],"categories_segments":[],"categories_sizes":[],"default_left":[0,0,0,0,0,0,0,0,0,0,0,0,0,0,0],"id":12,"left_children":[1,3,5,7,9,11,13,-1,-1,-1,-1,-1,-1,-1,-1],"loss_changes":[1.8527752E4,5.5869316E3,5.416131E3,3.0829775E3,4.0983247E3,3.9948984E3,2.6861162E3,0E0,0E0,0E0,0E0,0E0,0E0,0E0,0E0],"parents":[2147483647,0,0,1,1,2,2,3,3,4,4,5,5,6,6],"right_children":[2,4,6,8,10,12,14,-1,-1,-1,-1,-1,-1,-1,-1],"split_conditions":[0E0,-2E-1,-2E0,1.15E2,1.121E2,1.0930881E1,1.134E2,-3.437018E-1,-8.3963305E-2,-2.5785068E-1,8.919489E-2,5.340422E-1,1.9185536E-1,1.4951591E-1,-8.48291E-2],"split_indices":[57,40,41,39,39,76,38,0,0,0,0,0,0,0,0],"split_type":[0,0,0,0,0,0,0,0,0,0,0,0,0,0,0],"sum_hessian":[1.893E3,9.35E2,9.58E2,5.36E2,3.99E2,4.72E2,4.86E2,3.68E2,1.68E2,1.2E2,2.79E2,1.12E2,3.6E2,2.53E2,2.33E2],"tree_param":{"num_deleted":"0","num_feature":"88","num_nodes":"15","size_leaf_vector":"1"}},{"base_weights":[4.1972507E-2,-2.8739376E0,3.2618823E0,-6.4344583E0,-1.1082879E0,1.3094038E0,5.953122E0,-5.602292E-1,-2.0053314E-1,-7.4931934E-2,5.5278695E-1,4.052526E-1,3.6544073E-2,4.6130964E-1,1.4956556E-1],"categories":[],"categories_nodes":[],"categories_segments":[],"categories_sizes":[],"default_left":[0,0,0,0,0,0,0,0,0,0,0,0,0,0,0],"id":13,"left_children":[1,3,5,7,9,11,13,-1,-1,-1,-1,-1,-1,-1,-1],"loss_changes":[1.7839203E4,6.2497393E3,4.72567E3,3.717912E3,3.2049285E3,2.051669E3,3.6128018E3,0E0,0E0,0E0,0E0,0E0,0E0,0E0,0E0],"parents":[2147483647,0,0,1,1,2,2,3,3,4,4,5,5,6,6],"right_children":[2,4,6,8,10,12,14,-1,-1,-1,-1,-1,-1,-1,-1],"split_conditions":[2E-3,-5.1E0,1.156E2,3.537069E1,8.1E0,-3.4388103E1,3E0,-5.602292E-1,-2.0053314E-1,-7.4931934E-2,5.5278695E-1,4.052526E-1,3.6544073E-2,4.6130964E-1,1.4956556E-1],"split_indices":[57,40,39,80,40,78,73,0,0,0,0,0,0,0,0],"split_type":[0,0,0,0,0,0,0,0,0,0,0,0,0,0,0],"sum_hessian":[1.896E3,9.95E2,9.01E2,3.28E2,6.67E2,5.24E2,3.77E2,1.08E2,2.2E2,6.48E2,1.9E1,3.9E1,4.85E2,1.77E2,2E2],"tree_param":{"num_deleted":"0","num_feature":"88","num_nodes":"15","size_leaf_vector":"1"}},{"base_weights":[-1.683673E-1,-3.8596919E0,4.510955E0,-7.2531404E0,-2.7210398E0,6.8437977E0,1.7595235E0,-9.665778E-1,-2.968963E-1,-2.0180355E-1,-1.3820154E-2,4.5917422E-1,1.5470664E-1,5.318061E-1,5.5453934E-2],"categories":[],"categories_nodes":[],"categories_segments":[],"categories_sizes":[],"default_left":[0,0,0,0,0,0,0,0,0,0,0,0,0,0,0],"id":14,"left_children":[1,3,5,7,9,11,13,-1,-1,-1,-1,-1,-1,-1,-1],"loss_changes":[3.2628453E4,4.03588E3,5.3183555E3,3.9516123E3,2.5481426E3,3.8848984E3,2.1934238E3,0E0,0E0,0E0,0E0,0E0,0E0,0E0,0E0],"parents":[2147483647,0,0,1,1,2,2,3,3,4,4,5,5,6,6],"right_children":[2,4,6,8,10,12,14,-1,-1,-1,-1,-1,-1,-1,-1],"split_conditions":[1E0,-9.3E0,2.2665024E1,1E0,2.6510785E0,4E0,5.7296295E0,-9.665778E-1,-2.968963E-1,-2.0180355E-1,-1.3820154E-2,4.5917422E-1,1.5470664E-1,5.318061E-1,5.5453934E-2],"split_indices":[42,42,76,74,2,74,77,0,0,0,0,0,0,0,0],"split_type":[0,0,0,0,0,0,0,0,0,0,0,0,0,0,0],"sum_hessian":[1.885E3,1.054E3,8.31E2,2.62E2,7.92E2,4.48E2,3.83E2,2.3E1,2.39E2,5.14E2,2.78E2,2.74E2,1.74E2,2.4E1,3.59E2],"tree_param":{"num_deleted":"0","num_feature":"88","num_nodes":"15","size_leaf_vector":"1"}},{"base_weights":[1.6632786E-1,-4.681016E0,1.4466864E0,1.7983025E0,-5.659209E0,4.3593054E0,-7.3716855E-1,2.0095582E-1,-3.683231E-1,-4.5278668E-1,-2.069069E-1,4.818256E-1,1.4043139E-1,-8.738145E-2,2.3985627E-1],"categories":[],"categories_nodes":[],"categories_segments":[],"categories_sizes":[],"default_left":[0,0,0,0,0,0,0,0,0,0,0,0,0,0,0],"id":15,"left_children":[1,3,5,7,9,11,13,-1,-1,-1,-1,-1,-1,-1,-1],"loss_changes":[1.1673636E4,2.513127E3,9.473016E3,1.1362611E3,1.6853486E3,5.1605586E3,4.7797837E3,0E0,0E0,0E0,0E0,0E0,0E0,0E0,0E0],"parents":[2147483647,0,0,1,1,2,2,3,3,4,4,5,5,6,6],"right_children":[2,4,6,8,10,12,14,-1,-1,-1,-1,-1,-1,-1,-1],"split_conditions":[-5.1E0,3.9294994E1,1.139E2,5.5731707E0,3.302736E1,2E0,5.5E0,2.0095582E-1,-3.683231E-1,-4.5278668E-1,-2.069069E-1,4.818256E-1,1.4043139E-1,-8.738145E-2,2.3985627E-1],"split_indices":[40,4,37,72,80,73,40,0,0,0,0,0,0,0,0],"split_type":[0,0,0,0,0,0,0,0,0,0,0,0,0,0,0],"sum_hessian":[1.877E3,3.91E2,1.486E3,5.1E1,3.4E2,6.36E2,8.5E2,4.2E1,9E0,1.02E2,2.38E2,1.42E2,4.94E2,7.2E2,1.3E2],"tree_param":{"num_deleted":"0","num_feature":"88","num_nodes":"15","size_leaf_vector":"1"}},{"base_weights":[3.5552554E-2,-3.699116E0,2.97189E0,-1.1034545E1,-3.1184986E0,6.623825E0,1.7650049E0,-3.6182383E-1,-8.370809E-1,-1.8880747E-1,9.241988E-2,-5.944422E-1,3.735808E-1,3.2121293E-2,2.390068E-1],"categories":[],"categories_nodes":[],"categories_segments":[],"categories_sizes":[],"default_left":[0,0,0,0,0,0,0,0,0,0,0,0,0,0,0],"id":16,"left_children":[1,3,5,7,9,11,13,-1,-1,-1,-1,-1,-1,-1,-1],"loss_changes":[2.0331111E4,3.3995088E3,4.547374E3,1.024585E3,2.494183E3,4.209032E3,2.6413853E3,0E0,0E0,0E0,0E0,0E0,0E0,0E0,0E0],"parents":[2147483647,0,0,1,1,2,2,3,3,4,4,5,5,6,6],"right_children":[2,4,6,8,10,12,14,-1,-1,-1,-1,-1,-1,-1,-1],"split_conditions":[-1E0,-1.5E1,2E0,1.4144037E1,1.0550781E1,-2.2355616E0,9E0,-3.6182383E-1,-8.370809E-1,-1.8880747E-1,9.241988E-2,-5.944422E-1,3.735808E-1,3.2121293E-2,2.390068E-1],"split_indices":[42,42,73,15,2,11,42,0,0,0,0,0,0,0,0],"split_type":[0,0,0,0,0,0,0,0,0,0,0,0,0,0,0],"sum_hessian":[1.85E3,8.14E2,1.036E3,5.7E1,7.57E2,2.55E2,7.81E2,3.7E1,2E1,6.69E2,8.8E1,1E1,2.45E2,5.71E2,2.1E2],"tree_param":{"num_deleted":"0","num_feature":"88","num_nodes":"15","size_leaf_vector":"1"}},{"base_weights":[1.2033052E-1,-2.9599125E0,3.7612507E0,-6.4619474E0,-2.0753636E0,2.3238244E0,6.602911E0,-6.957597E-1,-2.7436242E-1,-2.2260335E-1,-2.7522013E-2,1.873581E-1,1.032924E-2,2.7072588E-1,5.8549815E-1],"categories":[],"categories_nodes":[],"categories_segments":[],"categories_sizes":[],"default_left":[0,0,0,0,0,0,0,0,0,0,0,0,0,0,0],"id":17,"left_children":[1,3,5,7,9,11,13,-1,-1,-1,-1,-1,-1,-1,-1],"loss_changes":[2.0848771E4,3.0883145E3,3.4449932E3,1.3050518E3,2.9174E3,1.7111829E3,1.5943486E3,0E0,0E0,0E0,0E0,0E0,0E0,0E0,0E0],"parents":[2147483647,0,0,1,1,2,2,3,3,4,4,5,5,6,6],"right_children":[2,4,6,8,10,12,14,-1,-1,-1,-1,-1,-1,-1,-1],"split_conditions":[1E0,-1.06E1,9.2E0,1E0,3.1675077E1,2.7300867E1,4.659765E1,-6.957597E-1,-2.7436242E-1,-2.2260335E-1,-2.7522013E-2,1.873581E-1,1.032924E-2,2.7072588E-1,5.8549815E-1],"split_indices":[42,42,42,74,21,76,3,0,0,0,0,0,0,0,0],"split_type":[0,0,0,0,0,0,0,0,0,0,0,0,0,0,0],"sum_hessian":[1.855E3,1.005E3,8.5E2,2E2,8.05E2,5.67E2,2.83E2,2E1,1.8E2,3.13E2,4.92E2,3.38E2,2.29E2,2.33E2,5E1],"tree_param":{"num_deleted":"0","num_feature":"88","num_nodes":"15","size_leaf_vector":"1"}},{"base_weights":[-7.887995E-2,-3.8310437E0,3.0133526E0,-9.356483E0,-3.1585143E0,2.07484E0,8.307802E0,-3.357264E-1,-7.1761113E-1,-1.661827E-1,6.6490847E-1,5.1118666E-1,7.815107E-2,2.8162518E-1,6.0870713E-1],"categories":[],"categories_nodes":[],"categories_segments":[],"categories_sizes":[],"default_left":[0,0,0,0,0,0,0,0,0,0,0,0,0,0,0],"id":18,"left_children":[1,3,5,7,9,11,13,-1,-1,-1,-1,-1,-1,-1,-1],"loss_changes":[2.203356E4,3.1229824E3,5.132967E3,1.01099365E3,2.170567E3,3.6616062E3,1.4675586E3,0E0,0E0,0E0,0E0,0E0,0E0,0E0,0E0],"parents":[2147483647,0,0,1,1,2,2,3,3,4,4,5,5,6,6],"right_children":[2,4,6,8,10,12,14,-1,-1,-1,-1,-1,-1,-1,-1],"split_conditions":[-1E0,-1.36E1,1.19E1,6.009287E0,1.8862833E2,1.026087E1,3.2522383E0,-3.357264E-1,-7.1761113E-1,-1.661827E-1,6.6490847E-1,5.1118666E-1,7.815107E-2,2.8162518E-1,6.0870713E-1],"split_indices":[42,42,42,13,80,80,5,0,0,0,0,0,0,0,0],"split_type":[0,0,0,0,0,0,0,0,0,0,0,0,0,0,0],"sum_hessian":[1.895E3,8.56E2,1.039E3,9E1,7.66E2,8.85E2,1.54E2,6.2E1,2.8E1,7.6E2,6E0,5E1,8.35E2,9.4E1,6E1],"tree_param":{"num_deleted":"0","num_feature":"88","num_nodes":"15","size_leaf_vector":"1"}},{"base_weights":[6.8739474E-2,-2.2296278E0,4.3467126E0,-6.817401E0,-1.3207047E0,8.681626E0,2.8386164E0,-7.412531E-1,-2.907888E-1,-4.0025112E-1,-4.6497803E-2,-1.4040073E-3,5.21377E-1,8.310021E-2,3.315956E-1],"categories":[],"categories_nodes":[],"categories_segments":[],"categories_sizes":[],"default_left":[0,0,0,0,0,0,0,0,0,0,0,0,0,0,0],"id":19,"left_children":[1,3,5,7,9,11,13,-1,-1,-1,-1,-1,-1,-1,-1],"loss_changes":[1.8426607E4,5.0610713E3,4.226993E3,1.4293965E3,2.6447698E3,2.560459E3,2.1563323E3,0E0,0E0,0E0,0E0,0E0,0E0,0E0,0E0],"parents":[2147483647,0,0,1,1,2,2,3,3,4,4,5,5,6,6],"right_children":[2,4,6,8,10,12,14,-1,-1,-1,-1,-1,-1,-1,-1],"split_conditions":[3.2E0,-1.06E1,2E0,2E0,-2.2221369E1,-3.7464957E0,1.21E1,-7.412531E-1,-2.907888E-1,-4.0025112E-1,-4.6497803E-2,-1.4040073E-3,5.21377E-1,8.310021E-2,3.315956E-1],"split_indices":[42,42,73,73,2,2,42,0,0,0,0,0,0,0,0],"split_type":[0,0,0,0,0,0,0,0,0,0,0,0,0,0,0],"sum_hessian":[1.87E3,1.217E3,6.53E2,1.99E2,1.018E3,1.66E2,4.87E2,1.9E1,1.8E2,5.4E1,9.64E2,2.8E1,1.38E2,3.74E2,1.13E2],"tree_param":{"num_deleted":"0","num_feature":"88","num_nodes":"15","size_leaf_vector":"1"}},{"base_weights":[4.0054344E-2,2.2239566E0,-2.247839E0,-1.5123711E0,3.3465838E0,-3.3277504E0,2.2570207E0,-1.8548879E-1,8.876296E-2,2.4845074E-1,5.752596E-2,-1.8598577E-1,2.3997049E-1,1.9059412E-1,-3.8029382E-1],"categories":[],"categories_nodes":[],"categories_segments":[],"categories_sizes":[],"default_left":[0,0,0,0,0,0,0,0,0,0,0,0,0,0,0],"id":20,"left_children":[1,3,5,7,9,11,13,-1,-1,-1,-1,-1,-1,-1,-1],"loss_changes":[9.413465E3,4.0545415E3,4.4912188E3,1.6323718E3,2.6292246E3,2.402038E3,2.8011318E3,0E0,0E0,0E0,0E0,0E0,0E0,0E0,0E0],"parents":[2147483647,0,0,1,1,2,2,3,3,4,4,5,5,6,6],"right_children":[2,4,6,8,10,12,14,-1,-1,-1,-1,-1,-1,-1,-1],"split_conditions":[1.8E0,1.124E2,1.173E2,9.069308E-1,4E0,5.7001305E0,1E0,-1.8548879E-1,8.876296E-2,2.4845074E-1,5.752596E-2,-1.8598577E-1,2.3997049E-1,1.9059412E-1,-3.8029382E-1],"split_indices":[41,36,36,32,74,23,55,0,0,0,0,0,0,0,0],"split_type":[0,0,0,0,0,0,0,0,0,0,0,0,0,0,0],"sum_hessian":[1.88E3,9.62E2,9.18E2,2.22E2,7.4E2,7.41E2,1.77E2,1.33E2,8.9E1,4.24E2,3.16E2,7.08E2,3.3E1,1.54E2,2.3E1],"tree_param":{"num_deleted":"0","num_feature":"88","num_nodes":"15","size_leaf_vector":"1"}},{"base_weights":[1.891268E-1,-3.1256728E0,2.741481E0,-5.750972E0,-2.14306E0,9.301603E0,2.138379E0,-4.187617E-1,-1.5334724E-1,-4.2300874E-1,-8.303648E-2,3.5631275E-1,9.950752E-1,2.8355664E-2,2.2566462E-1],"categories":[],"categories_nodes":[],"categories_segments":[],"categories_sizes":[],"default_left":[0,0,0,0,0,0,0,0,0,0,0,0,0,0,0],"id":21,"left_children":[1,3,5,7,9,11,13,-1,-1,-1,-1,-1,-1,-1,-1],"loss_changes":[1.5948147E4,2.0867192E3,4.168091E3,1.5065835E3,1.7950002E3,1.755044E3,3.6418647E3,0E0,0E0,0E0,0E0,0E0,0E0,0E0,0E0],"parents":[2147483647,0,0,1,1,2,2,3,3,4,4,5,5,6,6],"right_children":[2,4,6,8,10,12,14,-1,-1,-1,-1,-1,-1,-1,-1],"split_conditions":[-1.1E0,-1.06E1,3.5E0,-4.4266593E-1,3.2803738E0,5.4E-1,6.6E0,-4.187617E-1,-1.5334724E-1,-4.2300874E-1,-8.303648E-2,3.5631275E-1,9.950752E-1,2.8355664E-2,2.2566462E-1],"split_indices":[42,42,76,11,76,65,42,0,0,0,0,0,0,0,0],"split_type":[0,0,0,0,0,0,0,0,0,0,0,0,0,0,0],"sum_hessian":[1.881E3,8.18E2,1.063E3,2.2E2,5.98E2,8.7E1,9.76E2,1.09E2,1.11E2,4E1,5.58E2,7.5E1,1.2E1,5.89E2,3.87E2],"tree_param":{"num_deleted":"0","num_feature":"88","num_nodes":"15","size_leaf_vector":"1"}},{"base_weights":[-5.1244117E-2,-3.1188416E0,2.4118817E0,-4.480604E0,-1.0021348E0,6.624092E0,1.0632081E0,-5.2979964E-1,-1.7268671E-1,1.5555266E-1,-1.2512104E-1,4.7992763E-1,1.7222317E-1,1.7465403E-2,2.8837714E-1],"categories":[],"categories_nodes":[],"categories_segments":[],"categories_sizes":[],"default_left":[0,0,0,0,0,0,0,0,0,0,0,0,0,0,0],"id":22,"left_children":[1,3,5,7,9,11,13,-1,-1,-1,-1,-1,-1,-1,-1],"loss_changes":[1.418267E4,2.3980083E3,5.8958833E3,3.109876E3,2.051682E3,2.3106904E3,2.6494258E3,0E0,0E0,0E0,0E0,0E0,0E0,0E0,0E0],"parents":[2147483647,0,0,1,1,2,2,3,3,4,4,5,5,6,6],"right_children":[2,4,6,8,10,12,14,-1,-1,-1,-1,-1,-1,-1,-1],"split_conditions":[-1E0,4.2687842E-1,2E0,2E0,-2.5648699E1,-2E0,1.21E1,-5.2979964E-1,-1.7268671E-1,1.5555266E-1,-1.2512104E-1,4.7992763E-1,1.7222317E-1,1.7465403E-2,2.8837714E-1],"split_indices":[42,8,73,73,81,41,42,0,0,0,0,0,0,0,0],"split_type":[0,0,0,0,0,0,0,0,0,0,0,0,0,0,0],"sum_hessian":[1.873E3,8.34E2,1.039E3,5.06E2,3.28E2,2.5E2,7.89E2,7E1,4.36E2,8.7E1,2.41E2,1.27E2,1.23E2,6.87E2,1.02E2],"tree_param":{"num_deleted":"0","num_feature":"88","num_nodes":"15","size_leaf_vector":"1"}},{"base_weights":[-2.777103E-2,2.4646673E0,-1.8523495E0,7.7404904E0,1.0652236E0,2.0298806E-1,-3.1205826E0,7.65866E-3,4.8940688E-1,-4.1854497E-2,1.4492795E-1,4.1924024E-1,-3.0007575E-2,-9.220627E-2,-2.8331465E-1],"categories":[],"categories_nodes":[],"categories_segments":[],"categories_sizes":[],"default_left":[0,0,0,0,0,0,0,0,0,0,0,0,0,0,0],"id":23,"left_children":[1,3,5,7,9,11,13,-1,-1,-1,-1,-1,-1,-1,-1],"loss_changes":[8.694836E3,5.944747E3,2.8804634E3,2.6176396E3,2.2414211E3,2.7935488E3,2.1947476E3,0E0,0E0,0E0,0E0,0E0,0E0,0E0,0E0],"parents":[2147483647,0,0,1,1,2,2,3,3,4,4,5,5,6,6],"right_children":[2,4,6,8,10,12,14,-1,-1,-1,-1,-1,-1,-1,-1],"split_conditions":[0E0,2E0,1.136E2,4.244891E0,5.7E0,6.166278E0,1.1132372E1,7.65866E-3,4.8940688E-1,-4.1854497E-2,1.4492795E-1,4.1924024E-1,-3.0007575E-2,-9.220627E-2,-2.8331465E-1],"split_indices":[41,73,38,12,63,10,19,0,0,0,0,0,0,0,0],"split_type":[0,0,0,0,0,0,0,0,0,0,0,0,0,0,0],"sum_hessian":[1.908E3,8.06E2,1.102E3,1.67E2,6.39E2,4.21E2,6.81E2,3.6E1,1.31E2,3.14E2,3.25E2,3.6E1,3.85E2,4.56E2,2.25E2],"tree_param":{"num_deleted":"0","num_feature":"88","num_nodes":"15","size_leaf_vector":"1"}},{"base_weights":[2.4266198E-1,-2.5530877E0,1.7329705E0,3.9039896E0,-3.0744767E0,-2.6275697E0,2.5508702E0,5.0388646E-1,2.8638372E-2,8.323457E-2,-1.8550141E-1,-4.0164825E-1,-6.585149E-2,1.8214315E-1,4.158947E-2],"categories":[],"categories_nodes":[],"categories_segments":[],"categories_sizes":[],"default_left":[0,0,0,0,0,0,0,0,0,0,0,0,0,0,0],"id":24,"left_children":[1,3,5,7,9,11,13,-1,-1,-1,-1,-1,-1,-1,-1],"loss_changes":[7.729018E3,2.1950786E3,4.3288135E3,9.908691E2,1.814542E3,1.3342911E3,1.9064712E3,0E0,0E0,0E0,0E0,0E0,0E0,0E0,0E0],"parents":[2147483647,0,0,1,1,2,2,3,3,4,4,5,5,6,6],"right_children":[2,4,6,8,10,12,14,-1,-1,-1,-1,-1,-1,-1,-1],"split_conditions":[-6E-3,5.499396E1,1.124E2,-3.9E0,2.9625326E1,-2.17E1,4E0,5.0388646E-1,2.8638372E-2,8.323457E-2,-1.8550141E-1,-4.0164825E-1,-6.585149E-2,1.8214315E-1,4.158947E-2],"split_indices":[58,25,36,44,22,63,74,0,0,0,0,0,0,0,0],"split_type":[0,0,0,0,0,0,0,0,0,0,0,0,0,0,0],"sum_hessian":[1.851E3,6.43E2,1.208E3,4.7E1,5.96E2,1.9E2,1.018E3,1.5E1,3.2E1,7E1,5.26E2,3.5E1,1.55E2,6.21E2,3.97E2],"tree_param":{"num_deleted":"0","num_feature":"88","num_nodes":"15","size_leaf_vector":"1"}},{"base_weights":[2.2703873E-1,-1.7045906E0,3.5223978E0,-6.8383594E0,-1.2356097E0,2.5959044E0,8.218161E0,-1.7547736E-1,-5.628132E-1,-3.0667838E-1,-4.044363E-2,1.7849552E-2,2.389171E-1,1.9635901E-1,6.0746783E-1],"categories":[],"categories_nodes":[],"categories_segments":[],"categories_sizes":[],"default_left":[0,0,0,0,0,0,0,0,0,0,0,0,0,0,0],"id":25,"left_children":[1,3,5,7,9,11,13,-1,-1,-1,-1,-1,-1,-1,-1],"loss_changes":[1.2126296E4,2.8706394E3,3.0147441E3,1.3842456E3,2.2920308E3,2.8818167E3,1.836435E3,0E0,0E0,0E0,0E0,0E0,0E0,0E0,0E0],"parents":[2147483647,0,0,1,1,2,2,3,3,4,4,5,5,6,6],"right_children":[2,4,6,8,10,12,14,-1,-1,-1,-1,-1,-1,-1,-1],"split_conditions":[2.6E0,-1.3E1,4.6478817E1,3.1844378E1,9.691267E1,1.0994811E0,8.4E0,-1.7547736E-1,-5.628132E-1,-3.0667838E-1,-4.044363E-2,1.7849552E-2,2.389171E-1,1.9635901E-1,6.0746783E-1],"split_indices":[42,42,3,21,0,8,42,0,0,0,0,0,0,0,0],"split_type":[0,0,0,0,0,0,0,0,0,0,0,0,0,0,0],"sum_hessian":[1.901E3,1.199E3,7.02E2,9.8E1,1.101E3,5.89E2,1.13E2,5.8E1,4E1,8.6E1,1.015E3,2.92E2,2.97E2,5.6E1,5.7E1],"tree_param":{"num_deleted":"0","num_feature":"88","num_nodes":"15","size_leaf_vector":"1"}},{"base_weights":[-5.635223E-2,-1.619496E0,3.8076937E0,-5.266468E0,-7.520416E-1,8.677957E0,2.2507784E0,-1.984471E-1,-5.122201E-1,-1.4515208E-1,2.4728173E-2,2.0080896E-1,6.1324763E-1,1.5648554E-1,-1.4231801E-1],"categories":[],"categories_nodes":[],"categories_segments":[],"categories_sizes":[],"default_left":[0,0,0,0,0,0,0,0,0,0,0,0,0,0,0],"id":26,"left_children":[1,3,5,7,9,11,13,-1,-1,-1,-1,-1,-1,-1,-1],"loss_changes":[1.140883E4,4.244087E3,4.0803984E3,1.5779961E3,2.9241719E3,2.0838965E3,1.877175E3,0E0,0E0,0E0,0E0,0E0,0E0,0E0,0E0],"parents":[2147483647,0,0,1,1,2,2,3,3,4,4,5,5,6,6],"right_children":[2,4,6,8,10,12,14,-1,-1,-1,-1,-1,-1,-1,-1],"split_conditions":[4.8E0,-9.3E0,2E0,1.00625E2,-1.3084215E0,3.9833683E1,5.8817886E1,-1.984471E-1,-5.122201E-1,-1.4515208E-1,2.4728173E-2,2.0080896E-1,6.1324763E-1,1.5648554E-1,-1.4231801E-1],"split_indices":[42,42,73,50,23,28,25,0,0,0,0,0,0,0,0],"split_type":[0,0,0,0,0,0,0,0,0,0,0,0,0,0,0],"sum_hessian":[1.885E3,1.343E3,5.42E2,2.56E2,1.087E3,1.29E2,4.13E2,2.06E2,5E1,3.98E2,6.89E2,5.8E1,7.1E1,3.53E2,6E1],"tree_param":{"num_deleted":"0","num_feature":"88","num_nodes":"15","size_leaf_vector":"1"}},{"base_weights":[1.7141023E-1,-2.5426593E0,2.241566E0,-7.2366486E0,-1.9626533E0,5.517721E0,1.0848299E0,-6.302685E-1,-2.3881029E-1,-1.4094357E-1,8.6565934E-2,1.02250926E-1,4.207843E-1,1.0161984E-1,-1.1191674E-1],"categories":[],"categories_nodes":[],"categories_segments":[],"categories_sizes":[],"default_left":[0,0,0,0,0,0,0,0,0,0,0,0,0,0,0],"id":27,"left_children":[1,3,5,7,9,11,13,-1,-1,-1,-1,-1,-1,-1,-1],"loss_changes":[1.0725815E4,2.2158135E3,4.0889146E3,1.0597466E3,2.344484E3,2.798333E3,2.5375784E3,0E0,0E0,0E0,0E0,0E0,0E0,0E0,0E0],"parents":[2147483647,0,0,1,1,2,2,3,3,4,4,5,5,6,6],"right_children":[2,4,6,8,10,12,14,-1,-1,-1,-1,-1,-1,-1,-1],"split_conditions":[-1.1E0,-1.36E1,2E0,3.3983788E1,1.2107744E2,1.0198832E1,5.8985073E1,-6.302685E-1,-2.3881029E-1,-1.4094357E-1,8.6565934E-2,1.02250926E-1,4.207843E-1,1.0161984E-1,-1.1191674E-1],"split_indices":[42,42,73,80,1,18,25,0,0,0,0,0,0,0,0],"split_type":[0,0,0,0,0,0,0,0,0,0,0,0,0,0,0],"sum_hessian":[1.905E3,8.24E2,1.081E3,8.8E1,7.36E2,2.8E2,8.01E2,2.5E1,6.3E1,5.98E2,1.38E2,1.29E2,1.51E2,6.24E2,1.77E2],"tree_param":{"num_deleted":"0","num_feature":"88","num_nodes":"15","size_leaf_vector":"1"}},{"base_weights":[1.3032582E-1,-2.118198E0,1.9480962E0,-1.4118721E0,-5.993578E0,3.7705457E0,2.9512024E-1,-4.86477E-1,-5.1389825E-2,-5.1996654E-1,-1.4956465E-1,2.2515367E-1,-1.6652425E-1,1.370037E-1,-3.773911E-2],"categories":[],"categories_nodes":[],"categories_segments":[],"categories_sizes":[],"default_left":[0,0,0,0,0,0,0,0,0,0,0,0,0,0,0],"id":28,"left_children":[1,3,5,7,9,11,13,-1,-1,-1,-1,-1,-1,-1,-1],"loss_changes":[7.6350693E3,2.2650027E3,3.1076184E3,2.2396025E3,1.6241875E3,2.5846157E3,1.4015568E3,0E0,0E0,0E0,0E0,0E0,0E0,0E0,0E0],"parents":[2147483647,0,0,1,1,2,2,3,3,4,4,5,5,6,6],"right_children":[2,4,6,8,10,12,14,-1,-1,-1,-1,-1,-1,-1,-1],"split_conditions":[-1E0,8.7E0,3E0,1E0,3E0,6.143549E1,3.3E0,-4.86477E-1,-5.1389825E-2,-5.1996654E-1,-1.4956465E-1,2.2515367E-1,-1.6652425E-1,1.370037E-1,-3.773911E-2],"split_indices":[42,41,73,73,73,24,53,0,0,0,0,0,0,0,0],"split_type":[0,0,0,0,0,0,0,0,0,0,0,0,0,0,0],"sum_hessian":[1.864E3,8.33E2,1.031E3,7.07E2,1.26E2,4.89E2,5.42E2,2.9E1,6.78E2,4.9E1,7.7E1,4.44E2,4.5E1,1.62E2,3.8E2],"tree_param":{"num_deleted":"0","num_feature":"88","num_nodes":"15","size_leaf_vector":"1"}},{"base_weights":[-1.5118039E-1,-2.4017658E0,1.6900204E0,-4.830503E0,-1.4240571E0,9.951528E-1,5.838133E0,-2.999336E-1,-1.5938258E-2,-8.7698904E-4,-1.6442947E-1,3.477398E-1,2.9676069E-2,6.0192364E-1,1.5293849E-1],"categories":[],"categories_nodes":[],"categories_segments":[],"categories_sizes":[],"default_left":[0,0,0,0,0,0,0,0,0,0,0,0,0,0,0],"id":29,"left_children":[1,3,5,7,9,11,13,-1,-1,-1,-1,-1,-1,-1,-1],"loss_changes":[7.956243E3,2.0347671E3,3.0287673E3,1.2948232E3,1.6215568E3,2.1589475E3,2.5209878E3,0E0,0E0,0E0,0E0,0E0,0E0,0E0,0E0],"parents":[2147483647,0,0,1,1,2,2,3,3,4,4,5,5,6,6],"right_children":[2,4,6,8,10,12,14,-1,-1,-1,-1,-1,-1,-1,-1],"split_conditions":[-1E0,1.05379005E2,1.19E1,5.562889E0,1.0778944E1,2.5486112E0,1.0182103E2,-2.999336E-1,-1.5938258E-2,-8.7698904E-4,-1.6442947E-1,3.477398E-1,2.9676069E-2,6.0192364E-1,1.5293849E-1],"split_indices":[42,0,42,29,19,76,1,0,0,0,0,0,0,0,0],"split_type":[0,0,0,0,0,0,0,0,0,0,0,0,0,0,0],"sum_hessian":[1.916E3,8.62E2,1.054E3,2.45E2,6.17E2,9.05E2,1.49E2,1.94E2,5.1E1,3.53E2,2.64E2,5.5E1,8.5E2,4.4E1,1.05E2],"tree_param":{"num_deleted":"0","num_feature":"88","num_nodes":"15","size_leaf_vector":"1"}},{"base_weights":[-1.4872827E-1,-1.4700062E0,1.6003444E0,-2.6914268E0,1.1347444E0,9.5472735E-1,5.228754E0,-1.6875647E-1,7.9215646E-2,-1.2316358E-1,1.3274215E-1,-1.5353756E-1,7.5858854E-2,3.931402E-1,6.53369E-3],"categories":[],"categories_nodes":[],"categories_segments":[],"categories_sizes":[],"default_left":[0,0,0,0,0,0,0,0,0,0,0,0,0,0,0],"id":30,"left_children":[1,3,5,7,9,11,13,-1,-1,-1,-1,-1,-1,-1,-1],"loss_changes":[4.39325E3,3.4524468E3,1.9031409E3,2.1690088E3,1.9110356E3,1.586639E3,1.645666E3,0E0,0E0,0E0,0E0,0E0,0E0,0E0,0E0],"parents":[2147483647,0,0,1,1,2,2,3,3,4,4,5,5,6,6],"right_children":[2,4,6,8,10,12,14,-1,-1,-1,-1,-1,-1,-1,-1],"split_conditions":[3E-3,6.1700857E-1,4.659765E1,1.167E2,-5.6432366E-1,2.2333944E1,2.7074888E1,-1.6875647E-1,7.9215646E-2,-1.2316358E-1,1.3274215E-1,-1.5353756E-1,7.5858854E-2,3.931402E-1,6.53369E-3],"split_indices":[58,11,3,39,14,6,6,0,0,0,0,0,0,0,0],"split_type":[0,0,0,0,0,0,0,0,0,0,0,0,0,0,0],"sum_hessian":[1.897E3,1.081E3,8.16E2,7.36E2,3.45E2,6.95E2,1.21E2,6.35E2,1.01E2,1.02E2,2.43E2,8.4E1,6.11E2,7.9E1,4.2E1],"tree_param":{"num_deleted":"0","num_feature":"88","num_nodes":"15","size_leaf_vector":"1"}},{"base_weights":[3.0409288E-2,-1.1860745E0,4.3965154E0,-3.4424863E0,-5.760171E-1,7.022427E0,9.5585316E-1,-6.258064E-2,-2.6447305E-1,-4.690025E-1,-1.7009683E-2,4.2027602E-1,9.642453E-2,-5.542075E-3,6.333247E-1],"categories":[],"categories_nodes":[],"categories_segments":[],"categories_sizes":[],"default_left":[0,0,0,0,0,0,0,0,0,0,0,0,0,0,0],"id":31,"left_children":[1,3,5,7,9,11,13,-1,-1,-1,-1,-1,-1,-1,-1],"loss_changes":[9.94416E3,2.0092803E3,3.668815E3,1.2419465E3,2.3867651E3,1.5898965E3,2.2450964E3,0E0,0E0,0E0,0E0,0E0,0E0,0E0,0E0],"parents":[2147483647,0,0,1,1,2,2,3,3,4,4,5,5,6,6],"right_children":[2,4,6,8,10,12,14,-1,-1,-1,-1,-1,-1,-1,-1],"split_conditions":[6.8E0,1.0455529E2,4E0,-5E-3,-1.06E1,4E0,2.5877182E1,-6.258064E-2,-2.6447305E-1,-4.690025E-1,-1.7009683E-2,4.2027602E-1,9.642453E-2,-5.542075E-3,6.333247E-1],"split_indices":[42,0,74,60,40,73,2,0,0,0,0,0,0,0,0],"split_type":[0,0,0,0,0,0,0,0,0,0,0,0,0,0,0],"sum_hessian":[1.868E3,1.462E3,4.06E2,3.09E2,1.153E3,2.29E2,1.77E2,1.43E2,1.66E2,2.8E1,1.125E3,1.79E2,5E1,1.64E2,1.3E1],"tree_param":{"num_deleted":"0","num_feature":"88","num_nodes":"15","size_leaf_vector":"1"}},{"base_weights":[2.3245211E-1,2.9312992E0,-5.425868E-1,2.1140993E0,1.0350161E1,-4.79555E0,-1.4348087E-1,1.6666779E-1,-6.1237115E-2,1.6189344E-1,7.3114985E-1,7.163559E-2,-3.6763301E-1,-7.2454646E-2,5.828606E-2],"categories":[],"categories_nodes":[],"categories_segments":[],"categories_sizes":[],"default_left":[0,0,0,0,0,0,0,0,0,0,0,0,0,0,0],"id":32,"left_children":[1,3,5,7,9,11,13,-1,-1,-1,-1,-1,-1,-1,-1],"loss_changes":[3.928426E3,2.4902737E3,2.472636E3,1.5561624E3,1.1423511E3,2.014822E3,2.2871582E3,0E0,0E0,0E0,0E0,0E0,0E0,0E0,0E0],"parents":[2147483647,0,0,1,1,2,2,3,3,4,4,5,5,6,6],"right_children":[2,4,6,8,10,12,14,-1,-1,-1,-1,-1,-1,-1,-1],"split_conditions":[1.119E2,1.9361965E1,-3.121951E0,5.9061844E1,4.768293E0,1.2698283E1,4.3263527E1,1.6666779E-1,-6.1237115E-2,1.6189344E-1,7.3114985E-1,7.163559E-2,-3.6763301E-1,-7.2454646E-2,5.828606E-2],"split_indices":[38,2,68,25,72,15,3,0,0,0,0,0,0,0,0],"split_type":[0,0,0,0,0,0,0,0,0,0,0,0,0,0,0],"sum_hessian":[1.874E3,4.17E2,1.457E3,3.78E2,3.9E1,1.23E2,1.334E3,2.77E2,1.01E2,1.6E1,2.3E1,3.6E1,8.7E1,6.68E2,6.66E2],"tree_param":{"num_deleted":"0","num_feature":"88","num_nodes":"15","size_leaf_vector":"1"}},{"base_weights":[4.5384265E-2,-9.696338E-1,2.8359869E0,-6.3704395E0,-5.173146E-1,-4.2712007E0,3.2406409E0,-5.2781284E-1,-2.0177472E-1,-2.0145622E-1,-1.08755834E-4,-3.653239E-1,3.425384E-1,-4.862127E-2,1.9838406E-1],"categories":[],"categories_nodes":[],"categories_segments":[],"categories_sizes":[],"default_left":[0,0,0,0,0,0,0,0,0,0,0,0,0,0,0],"id":33,"left_children":[1,3,5,7,9,11,13,-1,-1,-1,-1,-1,-1,-1,-1],"loss_changes":[5.3627134E3,3.3806934E3,1.4795232E3,9.5328564E2,2.319006E3,1.045569E3,1.4764243E3,0E0,0E0,0E0,0E0,0E0,0E0,0E0,0E0],"parents":[2147483647,0,0,1,1,2,2,3,3,4,4,5,5,6,6],"right_children":[2,4,6,8,10,12,14,-1,-1,-1,-1,-1,-1,-1,-1],"split_conditions":[5.2E0,-1.32E1,9.539628E1,5.215211E1,2.0447643E1,4.3353657E1,-4.7091103E0,-5.2781284E-1,-2.0177472E-1,-2.0145622E-1,-1.08755834E-4,-3.653239E-1,3.425384E-1,-4.862127E-2,1.9838406E-1],"split_indices":[42,42,0,79,30,69,32,0,0,0,0,0,0,0,0],"split_type":[0,0,0,0,0,0,0,0,0,0,0,0,0,0,0],"sum_hessian":[1.889E3,1.386E3,5.03E2,1.05E2,1.281E3,2.6E1,4.77E2,3.5E1,7E1,1.62E2,1.119E3,2.1E1,5E0,7E1,4.07E2],"tree_param":{"num_deleted":"0","num_feature":"88","num_nodes":"15","size_leaf_vector":"1"}},{"base_weights":[-3.173975E-1,-9.573288E-1,3.677095E0,-2.8205812E0,-7.5578414E-2,6.607563E0,7.0875186E-1,4.1865423E-2,-1.9566453E-1,2.4166982E-1,-1.7050445E-2,3.698016E-1,-4.5880255E-1,-2.8651679E-2,6.185721E-1],"categories":[],"categories_nodes":[],"categories_segments":[],"categories_sizes":[],"default_left":[0,0,0,0,0,0,0,0,0,0,0,0,0,0,0],"id":34,"left_children":[1,3,5,7,9,11,13,-1,-1,-1,-1,-1,-1,-1,-1],"loss_changes":[4.7576577E3,2.633375E3,2.2225247E3,2.0665518E3,1.422614E3,1.7402334E3,1.9634562E3,0E0,0E0,0E0,0E0,0E0,0E0,0E0,0E0],"parents":[2147483647,0,0,1,1,2,2,3,3,4,4,5,5,6,6],"right_children":[2,4,6,8,10,12,14,-1,-1,-1,-1,-1,-1,-1,-1],"split_conditions":[9.2E0,-4.5E0,4E0,-4.9E0,3.6666664E1,6.000872E1,8.547197E0,4.1865423E-2,-1.9566453E-1,2.4166982E-1,-1.7050445E-2,3.698016E-1,-4.5880255E-1,-2.8651679E-2,6.185721E-1],"split_indices":[42,42,74,45,4,25,23,0,0,0,0,0,0,0,0],"split_type":[0,0,0,0,0,0,0,0,0,0,0,0,0,0,0],"sum_hessian":[1.857E3,1.602E3,2.55E2,5.13E2,1.089E3,1.27E2,1.28E2,1.18E2,3.95E2,5.4E1,1.035E3,1.22E2,5E0,1.17E2,1.1E1],"tree_param":{"num_deleted":"0","num_feature":"88","num_nodes":"15","size_leaf_vector":"1"}},{"base_weights":[-3.99729E-2,-1.1063303E0,2.6290803E0,-1.9901342E0,9.8709935E-1,1.5480008E0,5.8938894E0,-1.9548701E-1,-4.6011113E-2,1.8071537E-1,-4.5581374E-2,-5.539554E-2,1.6469309E-1,6.8137735E-1,1.9771136E-1],"categories":[],"categories_nodes":[],"categories_segments":[],"categories_sizes":[],"default_left":[0,0,0,0,0,0,0,0,0,0,0,0,0,0,0],"id":35,"left_children":[1,3,5,7,9,11,13,-1,-1,-1,-1,-1,-1,-1,-1],"loss_changes":[5.4042295E3,2.5151267E3,1.8910298E3,1.9517776E3,2.0232344E3,1.9095007E3,1.8935283E3,0E0,0E0,0E0,0E0,0E0,0E0,0E0,0E0],"parents":[2147483647,0,0,1,1,2,2,3,3,4,4,5,5,6,6],"right_children":[2,4,6,8,10,12,14,-1,-1,-1,-1,-1,-1,-1,-1],"split_conditions":[4.9E0,2.0655723E0,7.3E0,-7.8E0,-8.2290945E0,7.489308E0,2.1516838E1,-1.9548701E-1,-4.6011113E-2,1.8071537E-1,-4.5581374E-2,-5.539554E-2,1.6469309E-1,6.8137735E-1,1.9771136E-1],"split_indices":[42,8,40,61,78,9,31,0,0,0,0,0,0,0,0],"split_type":[0,0,0,0,0,0,0,0,0,0,0,0,0,0,0],"sum_hessian":[1.895E3,1.355E3,5.4E2,9.53E2,4.02E2,4.08E2,1.32E2,3.39E2,6.14E2,1.68E2,2.34E2,1.62E2,2.46E2,2.4E1,1.08E2],"tree_param":{"num_deleted":"0","num_feature":"88","num_nodes":"15","size_leaf_vector":"1"}},{"base_weights":[-7.711226E-2,-1.9319136E0,9.5046866E-1,-3.1070604E0,9.7162765E-1,2.647793E-2,3.648164E0,-6.3152656E-2,-2.638516E-1,3.4842792E-1,1.7282903E-3,-1.77523E-2,2.2048068E-1,3.4590814E-1,7.307053E-2],"categories":[],"categories_nodes":[],"categories_segments":[],"categories_sizes":[],"default_left":[0,0,0,0,0,0,0,0,0,0,0,0,0,0,0],"id":36,"left_children":[1,3,5,7,9,11,13,-1,-1,-1,-1,-1,-1,-1,-1],"loss_changes":[3.5549639E3,2.2761438E3,2.9891443E3,1.880084E3,1.0805792E3,1.5035135E3,2.1636978E3,0E0,0E0,0E0,0E0,0E0,0E0,0E0,0E0],"parents":[2147483647,0,0,1,1,2,2,3,3,4,4,5,5,6,6],"right_children":[2,4,6,8,10,12,14,-1,-1,-1,-1,-1,-1,-1,-1],"split_conditions":[-1.3084215E0,1.2399666E0,4.4E0,2.6E0,-3.7E0,2.0309935E0,2.4431612E1,-6.3152656E-2,-2.638516E-1,3.4842792E-1,1.7282903E-3,-1.77523E-2,2.2048068E-1,3.4590814E-1,7.307053E-2],"split_indices":[23,8,40,41,45,11,7,0,0,0,0,0,0,0,0],"split_type":[0,0,0,0,0,0,0,0,0,0,0,0,0,0,0],"sum_hessian":[1.861E3,6.63E2,1.198E3,4.72E2,1.91E2,8.94E2,3.04E2,2.57E2,2.15E2,2.4E1,1.67E2,8.24E2,7E1,1.2E2,1.84E2],"tree_param":{"num_deleted":"0","num_feature":"88","num_nodes":"15","size_leaf_vector":"1"}},{"base_weights":[9.5761575E-2,2.3285792E0,-6.936721E-1,4.8966117E0,2.0420994E-1,-3.008184E0,9.505868E-3,-5.809581E-1,2.692153E-1,-1.0215069E-1,1.3289927E-1,-3.8347307E-1,-9.3557514E-2,2.869E-1,-2.35138E-2],"categories":[],"categories_nodes":[],"categories_segments":[],"categories_sizes":[],"default_left":[0,0,0,0,0,0,0,0,0,0,0,0,0,0,0],"id":37,"left_children":[1,3,5,7,9,11,13,-1,-1,-1,-1,-1,-1,-1,-1],"loss_changes":[3.326665E3,2.6849863E3,2.2703105E3,1.918189E3,1.5110258E3,1.6890378E3,2.9515967E3,0E0,0E0,0E0,0E0,0E0,0E0,0E0,0E0],"parents":[2147483647,0,0,1,1,2,2,3,3,4,4,5,5,6,6],"right_children":[2,4,6,8,10,12,14,-1,-1,-1,-1,-1,-1,-1,-1],"split_conditions":[1.0647232E2,3E0,-1.2545582E0,2.0732498E1,1.1060624E1,2.2619486E1,-3.4371662E0,-5.809581E-1,2.692153E-1,-1.0215069E-1,1.3289927E-1,-3.8347307E-1,-9.3557514E-2,2.869E-1,-2.35138E-2],"split_indices":[1,73,11,6,18,6,20,0,0,0,0,0,0,0,0],"split_type":[0,0,0,0,0,0,0,0,0,0,0,0,0,0,0],"sum_hessian":[1.883E3,4.91E2,1.392E3,2.21E2,2.7E2,3.23E2,1.069E3,5E0,2.16E2,1.41E2,1.29E2,6.1E1,2.62E2,8.1E1,9.88E2],"tree_param":{"num_deleted":"0","num_feature":"88","num_nodes":"15","size_leaf_vector":"1"}},{"base_weights":[-4.1748837E-1,-2.033055E0,8.954769E-1,4.806716E0,-2.371107E0,-4.518666E0,1.349031E0,-7.896622E-2,3.6351097E-1,-1.5414864E-1,3.2143738E-2,2.6610775E-2,-3.7313607E-1,1.1691051E-1,-2.8677372E-2],"categories":[],"categories_nodes":[],"categories_segments":[],"categories_sizes":[],"default_left":[0,0,0,0,0,0,0,0,0,0,0,0,0,0,0],"id":38,"left_children":[1,3,5,7,9,11,13,-1,-1,-1,-1,-1,-1,-1,-1],"loss_changes":[4.059912E3,2.0054419E3,2.603727E3,6.708228E2,1.7623896E3,1.2307551E3,1.859696E3,0E0,0E0,0E0,0E0,0E0,0E0,0E0,0E0],"parents":[2147483647,0,0,1,1,2,2,3,3,4,4,5,5,6,6],"right_children":[2,4,6,8,10,12,14,-1,-1,-1,-1,-1,-1,-1,-1],"split_conditions":[-1E0,3.116492E0,2.1863605E1,3.442623E1,1.2107744E2,2.5E0,6.2662956E1,-7.896622E-2,3.6351097E-1,-1.5414864E-1,3.2143738E-2,2.6610775E-2,-3.7313607E-1,1.1691051E-1,-2.8677372E-2],"split_indices":[42,13,6,27,1,53,79,0,0,0,0,0,0,0,0],"split_type":[0,0,0,0,0,0,0,0,0,0,0,0,0,0,0],"sum_hessian":[1.91E3,8.56E2,1.054E3,3.9E1,8.17E2,8E1,9.74E2,1.1E1,2.8E1,6.61E2,1.56E2,3E1,5E1,6.43E2,3.31E2],"tree_param":{"num_deleted":"0","num_feature":"88","num_nodes":"15","size_leaf_vector":"1"}},{"base_weights":[-1.641455E-1,-1.3664855E0,1.6052881E0,-2.464823E0,9.738258E-1,2.0392156E0,-3.603685E0,-4.23694E-2,-2.0425235E-1,-9.919696E-3,2.3049784E-1,-2.5295416E-1,1.1833512E-1,-2.6880366E-1,3.592555E-1],"categories":[],"categories_nodes":[],"categories_segments":[],"categories_sizes":[],"default_left":[0,0,0,0,0,0,0,0,0,0,0,0,0,0,0],"id":39,"left_children":[1,3,5,7,9,11,13,-1,-1,-1,-1,-1,-1,-1,-1],"loss_changes":[3.9230505E3,2.827902E3,1.7001108E3,1.9508242E3,1.50438E3,1.6265742E3,1.1854227E3,0E0,0E0,0E0,0E0,0E0,0E0,0E0,0E0],"parents":[2147483647,0,0,1,1,2,2,3,3,4,4,5,5,6,6],"right_children":[2,4,6,8,10,12,14,-1,-1,-1,-1,-1,-1,-1,-1],"split_conditions":[3.1516886E0,8.0449705E0,1.158994E2,7.6000056E0,4.369972E1,4.3E-1,4.713601E1,-4.23694E-2,-2.0425235E-1,-9.919696E-3,2.3049784E-1,-2.5295416E-1,1.1833512E-1,-2.6880366E-1,3.592555E-1],"split_indices":[2,9,1,10,27,64,3,0,0,0,0,0,0,0,0],"split_type":[0,0,0,0,0,0,0,0,0,0,0,0,0,0,0],"sum_hessian":[1.84E3,1.096E3,7.44E2,7.46E2,3.5E2,6.88E2,5.6E1,3.75E2,3.71E2,2.66E2,8.4E1,2.9E1,6.59E2,4.9E1,7E0],"tree_param":{"num_deleted":"0","num_feature":"88","num_nodes":"15","size_leaf_vector":"1"}},{"base_weights":[-1.6481481E-1,-1.6264808E0,1.6319402E0,-3.1239724E0,-1.9832627E-1,4.538017E0,6.9240713E-1,-4.287129E-2,-3.1984487E-1,2.4968844E-2,-2.06646E-1,1.0106032E-1,4.1135722E-1,2.65758E-1,4.9988483E-3],"categories":[],"categories_nodes":[],"categories_segments":[],"categories_sizes":[],"default_left":[0,0,0,0,0,0,0,0,0,0,0,0,0,0,0],"id":40,"left_children":[1,3,5,7,9,11,13,-1,-1,-1,-1,-1,-1,-1,-1],"loss_changes":[4.9006465E3,2.19777E3,2.2764077E3,3.709358E3,1.4581437E3,1.8557251E3,1.7352778E3,0E0,0E0,0E0,0E0,0E0,0E0,0E0,0E0],"parents":[2147483647,0,0,1,1,2,2,3,3,4,4,5,5,6,6],"right_children":[2,4,6,8,10,12,14,-1,-1,-1,-1,-1,-1,-1,-1],"split_conditions":[9E-1,3E0,2E0,1.06787405E1,1.7483334E1,2.305536E0,8.65E0,-4.287129E-2,-3.1984487E-1,2.4968844E-2,-2.06646E-1,1.0106032E-1,4.1135722E-1,2.65758E-1,4.9988483E-3],"split_indices":[42,74,73,19,67,5,77,0,0,0,0,0,0,0,0],"split_type":[0,0,0,0,0,0,0,0,0,0,0,0,0,0,0],"sum_hessian":[1.862E3,1.027E3,8.35E2,5E2,5.27E2,2.02E2,6.33E2,2.97E2,2.03E2,4.49E2,7.8E1,1.22E2,8E1,7E1,5.63E2],"tree_param":{"num_deleted":"0","num_feature":"88","num_nodes":"15","size_leaf_vector":"1"}},{"base_weights":[-8.7414235E-2,-1.2726945E0,1.5340576E0,2.3434748E-1,-3.0521061E0,8.532005E-1,4.573136E0,-1.03535295E-1,7.944419E-2,-4.512797E-1,-1.24371685E-1,-4.1887894E-1,6.1025072E-2,1.1961269E-1,4.961524E-1],"categories":[],"categories_nodes":[],"categories_segments":[],"categories_sizes":[],"default_left":[0,0,0,0,0,0,0,0,0,0,0,0,0,0,0],"id":41,"left_children":[1,3,5,7,9,11,13,-1,-1,-1,-1,-1,-1,-1,-1],"loss_changes":[3.5958025E3,2.9017012E3,1.6241339E3,1.8391168E3,1.6223818E3,2.213898E3,1.6264895E3,0E0,0E0,0E0,0E0,0E0,0E0,0E0,0E0],"parents":[2147483647,0,0,1,1,2,2,3,3,4,4,5,5,6,6],"right_children":[2,4,6,8,10,12,14,-1,-1,-1,-1,-1,-1,-1,-1],"split_conditions":[3.1516886E0,5.0407267E0,4.654745E1,-4.9936312E-1,3.7272727E0,2.2094706E1,1.71E1,-1.03535295E-1,7.944419E-2,-4.512797E-1,-1.24371685E-1,-4.1887894E-1,6.1025072E-2,1.1961269E-1,4.961524E-1],"split_indices":[2,13,3,11,77,6,63,0,0,0,0,0,0,0,0],"split_type":[0,0,0,0,0,0,0,0,0,0,0,0,0,0,0],"sum_hessian":[1.867E3,1.079E3,7.88E2,5.85E2,4.94E2,6.46E2,1.42E2,2.16E2,3.69E2,4E1,4.54E2,2.3E1,6.23E2,1.03E2,3.9E1],"tree_param":{"num_deleted":"0","num_feature":"88","num_nodes":"15","size_leaf_vector":"1"}},{"base_weights":[1.6774079E-2,-2.5191028E0,1.028433E0,-4.8121877E0,-2.8996137E-1,-7.4976487E0,1.2031063E0,-1.719883E-1,-5.3885806E-1,1.0046884E-1,-9.27639E-2,-5.931025E-1,4.809268E-2,3.2348476E-2,1.6682795E-1],"categories":[],"categories_nodes":[],"categories_segments":[],"categories_sizes":[],"default_left":[0,0,0,0,0,0,0,0,0,0,0,0,0,0,0],"id":42,"left_children":[1,3,5,7,9,11,13,-1,-1,-1,-1,-1,-1,-1,-1],"loss_changes":[4.786421E3,2.7140354E3,2.0015917E3,2.0636016E3,9.863592E2,1.0251272E3,1.5468082E3,0E0,0E0,0E0,0E0,0E0,0E0,0E0,0E0],"parents":[2147483647,0,0,1,1,2,2,3,3,4,4,5,5,6,6],"right_children":[2,4,6,8,10,12,14,-1,-1,-1,-1,-1,-1,-1,-1],"split_conditions":[-4.6E0,3E0,-8.353908E0,1.2207509E1,-2.9E-2,9.891E1,9.5E0,-1.719883E-1,-5.3885806E-1,1.0046884E-1,-9.27639E-2,-5.931025E-1,4.809268E-2,3.2348476E-2,1.6682795E-1],"split_indices":[42,74,8,19,57,48,42,0,0,0,0,0,0,0,0],"split_type":[0,0,0,0,0,0,0,0,0,0,0,0,0,0,0],"sum_hessian":[1.862E3,5.3E2,1.332E3,2.6E2,2.7E2,2.5E1,1.307E3,2.14E2,4.6E1,1.09E2,1.61E2,1.6E1,9E0,1.039E3,2.68E2],"tree_param":{"num_deleted":"0","num_feature":"88","num_nodes":"15","size_leaf_vector":"1"}},{"base_weights":[-2.0206928E-1,-1.5370334E0,1.1541181E0,-3.3926282E0,1.5332521E-1,2.746071E0,-9.2100966E-1,-1.0373687E-1,-4.0730363E-1,5.26264E-2,-1.4394128E-1,1.4820693E-1,-6.10794E-1,2.9890472E-1,-7.898724E-2],"categories":[],"categories_nodes":[],"categories_segments":[],"categories_sizes":[],"default_left":[0,0,0,0,0,0,0,0,0,0,0,0,0,0,0],"id":43,"left_children":[1,3,5,7,9,11,13,-1,-1,-1,-1,-1,-1,-1,-1],"loss_changes":[3.4273223E3,2.994996E3,3.107963E3,2.8114443E3,1.3711328E3,1.8035571E3,1.8754637E3,0E0,0E0,0E0,0E0,0E0,0E0,0E0,0E0],"parents":[2147483647,0,0,1,1,2,2,3,3,4,4,5,5,6,6],"right_children":[2,4,6,8,10,12,14,-1,-1,-1,-1,-1,-1,-1,-1],"split_conditions":[0E0,3E0,4E0,4.593612E1,4E0,1.77425E1,1.10436E1,-1.0373687E-1,-4.0730363E-1,5.26264E-2,-1.4394128E-1,1.4820693E-1,-6.10794E-1,2.9890472E-1,-7.898724E-2],"split_indices":[42,74,74,4,44,16,16,0,0,0,0,0,0,0,0],"split_type":[0,0,0,0,0,0,0,0,0,0,0,0,0,0,0],"sum_hessian":[1.889E3,9.52E2,9.37E2,4.53E2,4.99E2,5.3E2,4.07E2,3.57E2,9.6E1,3.86E2,1.13E2,5.24E2,6E0,3.4E1,3.73E2],"tree_param":{"num_deleted":"0","num_feature":"88","num_nodes":"15","size_leaf_vector":"1"}},{"base_weights":[1.3763002E-1,-2.1547686E-1,4.413795E0,-2.0263488E0,5.2184546E-1,1.6016277E1,2.4672046E0,5.8974173E-2,-1.4195089E-1,3.0455163E-2,-5.6640315E-1,4.8833725E-1,1.0714325E0,3.1771687E-1,-1.6210916E-2],"categories":[],"categories_nodes":[],"categories_segments":[],"categories_sizes":[],"default_left":[0,0,0,0,0,0,0,0,0,0,0,0,0,0,0],"id":44,"left_children":[1,3,5,7,9,11,13,-1,-1,-1,-1,-1,-1,-1,-1],"loss_changes":[2.8109858E3,2.2980693E3,3.1188374E3,1.3049562E3,1.2730187E3,2.4232178E2,1.3526138E3,0E0,0E0,0E0,0E0,0E0,0E0,0E0,0E0],"parents":[2147483647,0,0,1,1,2,2,3,3,4,4,5,5,6,6],"right_children":[2,4,6,8,10,12,14,-1,-1,-1,-1,-1,-1,-1,-1],"split_conditions":[1.9361965E1,-7.8E0,5.916922E0,2.3456892E1,1.0230322E1,2E-1,3.8951218E1,5.8974173E-2,-1.4195089E-1,3.0455163E-2,-5.6640315E-1,4.8833725E-1,1.0714325E0,3.1771687E-1,-1.6210916E-2],"split_indices":[2,61,10,7,23,62,70,0,0,0,0,0,0,0,0],"split_type":[0,0,0,0,0,0,0,0,0,0,0,0,0,0,0],"sum_hessian":[1.857E3,1.717E3,1.4E2,4.96E2,1.221E3,1.8E1,1.22E2,1E2,3.96E2,1.214E3,7E0,1.1E1,7E0,5E1,7.2E1],"tree_param":{"num_deleted":"0","num_feature":"88","num_nodes":"15","size_leaf_vector":"1"}},{"base_weights":[-1.19341435E-2,-4.0870934E0,3.3302718E-1,-7.471848E0,-7.655189E-1,2.3080952E0,-3.698583E-1,5.9619676E-2,-4.367666E-1,1.23119414E-1,-4.0599233E-1,1.4628705E-1,-2.2403453E-1,-1.23294584E-1,1.2392532E-2],"categories":[],"categories_nodes":[],"categories_segments":[],"categories_sizes":[],"default_left":[0,0,0,0,0,0,0,0,0,0,0,0,0,0,0],"id":45,"left_children":[1,3,5,7,9,11,13,-1,-1,-1,-1,-1,-1,-1,-1],"loss_changes":[2.6657266E3,1.648363E3,2.4279434E3,8.237434E2,1.8707268E3,1.9500579E3,1.6725442E3,0E0,0E0,0E0,0E0,0E0,0E0,0E0,0E0],"parents":[2147483647,0,0,1,1,2,2,3,3,4,4,5,5,6,6],"right_children":[2,4,6,8,10,12,14,-1,-1,-1,-1,-1,-1,-1,-1],"split_conditions":[-5.271799E0,6.892725E-2,2.3733746E1,-3.3E0,7E-3,1.0182E2,-1.2545582E0,5.9619676E-2,-4.367666E-1,1.23119414E-1,-4.0599233E-1,1.4628705E-1,-2.2403453E-1,-1.23294584E-1,1.2392532E-2],"split_indices":[23,11,7,44,58,48,11,0,0,0,0,0,0,0,0],"split_type":[0,0,0,0,0,0,0,0,0,0,0,0,0,0,0],"sum_hessian":[1.891E3,1.46E2,1.745E3,7.1E1,7.5E1,4.57E2,1.288E3,9E0,6.2E1,5.3E1,2.2E1,4.2E2,3.7E1,2.92E2,9.96E2],"tree_param":{"num_deleted":"0","num_feature":"88","num_nodes":"15","size_leaf_vector":"1"}},{"base_weights":[9.180966E-2,-1.7438099E0,8.439021E-1,-2.0016408E0,5.662791E-1,3.406786E-2,2.7354403E0,-3.642392E-1,-7.427263E-2,-3.6764514E-2,9.9597976E-2,-1.1868799E-1,1.8445818E-1],"categories":[],"categories_nodes":[],"categories_segments":[],"categories_sizes":[],"default_left":[0,0,0,0,0,0,0,0,0,0,0,0,0],"id":46,"left_children":[1,3,5,7,-1,9,11,-1,-1,-1,-1,-1,-1],"loss_changes":[2.6365933E3,1.9108577E3,2.074062E3,1.462967E3,0E0,1.4360677E3,1.9965144E3,0E0,0E0,0E0,0E0,0E0,0E0],"parents":[2147483647,0,0,1,1,2,2,3,3,5,5,6,6],"right_children":[2,4,6,8,-1,10,12,-1,-1,-1,-1,-1,-1],"split_conditions":[-7.8E0,5.5968237E0,2.400527E0,2.011485E1,5.662791E-1,2.791718E1,-7.409532E-1,-3.642392E-1,-7.427263E-2,-3.6764514E-2,9.9597976E-2,-1.1868799E-1,1.8445818E-1],"split_indices":[61,20,23,30,0,6,14,0,0,0,0,0,0],"split_type":[0,0,0,0,0,0,0,0,0,0,0,0,0],"sum_hessian":[1.906E3,5.53E2,1.353E3,5.44E2,9E0,9.49E2,4.04E2,4.6E1,4.98E2,6.82E2,2.67E2,6.3E1,3.41E2],"tree_param":{"num_deleted":"0","num_feature":"88","num_nodes":"13","size_leaf_vector":"1"}},{"base_weights":[6.3133106E-2,-3.288558E-1,4.163464E0,-2.8944035E0,1.3213922E-1,-1.19778454E-1,5.540018E0,-4.7051555E-1,-9.702324E-2,9.20277E-2,-2.7111232E-2,-2.693245E-1,1.1646694E-1,-2.6694724E-1,3.1400543E-1],"categories":[],"categories_nodes":[],"categories_segments":[],"categories_sizes":[],"default_left":[0,0,0,0,0,0,0,0,0,0,0,0,0,0,0],"id":47,"left_children":[1,3,5,7,9,11,13,-1,-1,-1,-1,-1,-1,-1,-1],"loss_changes":[3.0392085E3,2.0423114E3,9.7689624E2,1.592553E3,1.6893096E3,5.683718E2,1.0739553E3,0E0,0E0,0E0,0E0,0E0,0E0,0E0,0E0],"parents":[2147483647,0,0,1,1,2,2,3,3,4,4,5,5,6,6],"right_children":[2,4,6,8,10,12,14,-1,-1,-1,-1,-1,-1,-1,-1],"split_conditions":[1.19E1,-9.5E0,3.7310314E1,2E0,3.3E0,-1E0,-3.9E-2,-4.7051555E-1,-9.702324E-2,9.20277E-2,-2.7111232E-2,-2.693245E-1,1.1646694E-1,-2.6694724E-1,3.1400543E-1],"split_indices":[42,42,28,73,53,75,60,0,0,0,0,0,0,0,0],"split_type":[0,0,0,0,0,0,0,0,0,0,0,0,0,0,0],"sum_hessian":[1.886E3,1.723E3,1.63E2,2.61E2,1.462E3,4E1,1.23E2,3.1E1,2.3E2,4.13E2,1.049E3,1.2E1,2.8E1,7E0,1.16E2],"tree_param":{"num_deleted":"0","num_feature":"88","num_nodes":"15","size_leaf_vector":"1"}},{"base_weights":[-1.3961469E-1,-8.7878364E-1,1.4117991E0,-2.4600484E0,2.3476735E-1,4.602922E0,5.17745E-1,-2.7877268E-1,-7.534666E-2,-5.047788E-4,6.199162E-1,6.1445404E-2,4.851813E-1,1.3091025E-1,-5.9568793E-2],"categories":[],"categories_nodes":[],"categories_segments":[],"categories_sizes":[],"default_left":[0,0,0,0,0,0,0,0,0,0,0,0,0,0,0],"id":48,"left_children":[1,3,5,7,9,11,13,-1,-1,-1,-1,-1,-1,-1,-1],"loss_changes":[2.1821997E3,2.2719631E3,1.7444376E3,1.5623137E3,2.264075E3,2.2768035E3,1.737303E3,0E0,0E0,0E0,0E0,0E0,0E0,0E0,0E0],"parents":[2147483647,0,0,1,1,2,2,3,3,4,4,5,5,6,6],"right_children":[2,4,6,8,10,12,14,-1,-1,-1,-1,-1,-1,-1,-1],"split_conditions":[1.9450116E0,-1.1496223E0,2E0,2E0,1.11E1,4.247561E1,4.4398913E0,-2.7877268E-1,-7.534666E-2,-5.047788E-4,6.199162E-1,6.1445404E-2,4.851813E-1,1.3091025E-1,-5.9568793E-2],"split_indices":[23,32,73,74,40,69,13,0,0,0,0,0,0,0,0],"split_type":[0,0,0,0,0,0,0,0,0,0,0,0,0,0,0],"sum_hessian":[1.899E3,1.287E3,6.12E2,5.31E2,7.56E2,1.32E2,4.8E2,1.22E2,4.09E2,7.43E2,1.3E1,8.1E1,5.1E1,2.15E2,2.65E2],"tree_param":{"num_deleted":"0","num_feature":"88","num_nodes":"15","size_leaf_vector":"1"}},{"base_weights":[1.8394174E-1,-2.9194236E0,5.4120135E-1,-4.1995106E0,2.3663976E0,9.645767E0,4.176724E-1,-4.561108E-1,-1.511108E-1,2.2635432E-1,-3.013219E-1,4.3916676E-2,7.085644E-1,3.836988E-2,-1.0546797E-1],"categories":[],"categories_nodes":[],"categories_segments":[],"categories_sizes":[],"default_left":[0,0,0,0,0,0,0,0,0,0,0,0,0,0,0],"id":49,"left_children":[1,3,5,7,9,11,13,-1,-1,-1,-1,-1,-1,-1,-1],"loss_changes":[2.1373408E3,1.367288E3,1.931478E3,8.718606E2,7.791869E2,8.801565E2,1.5120398E3,0E0,0E0,0E0,0E0,0E0,0E0,0E0,0E0],"parents":[2147483647,0,0,1,1,2,2,3,3,4,4,5,5,6,6],"right_children":[2,4,6,8,10,12,14,-1,-1,-1,-1,-1,-1,-1,-1],"split_conditions":[2.1863605E1,3.6261885E0,8.538824E1,1.03191986E2,5.512195E0,9.779E1,1.0182E2,-4.561108E-1,-1.511108E-1,2.2635432E-1,-3.013219E-1,4.3916676E-2,7.085644E-1,3.836988E-2,-1.0546797E-1],"split_indices":[6,20,1,1,72,48,48,0,0,0,0,0,0,0,0],"split_type":[0,0,0,0,0,0,0,0,0,0,0,0,0,0,0],"sum_hessian":[1.924E3,1.97E2,1.727E3,1.59E2,3.8E1,2.1E1,1.706E3,2.8E1,1.31E2,3.1E1,7E0,8E0,1.3E1,1.5E3,2.06E2],"tree_param":{"num_deleted":"0","num_feature":"88","num_nodes":"15","size_leaf_vector":"1"}},{"base_weights":[-6.675253E-2,-1.0272514E0,1.2353853E0,-1.4849383E0,2.092854E0,4.2761308E-1,3.600583E0,-2.0404637E-1,-4.7444124E-2,5.213894E-1,4.6090867E-2,-2.8134365E-2,2.1250916E-1,3.889309E-1,7.43018E-2],"categories":[],"categories_nodes":[],"categories_segments":[],"categories_sizes":[],"default_left":[0,0,0,0,0,0,0,0,0,0,0,0,0,0,0],"id":50,"left_children":[1,3,5,7,9,11,13,-1,-1,-1,-1,-1,-1,-1,-1],"loss_changes":[2.3662605E3,1.5610376E3,1.5290708E3,1.3131472E3,1.3415723E3,2.281708E3,1.7745176E3,0E0,0E0,0E0,0E0,0E0,0E0,0E0,0E0],"parents":[2147483647,0,0,1,1,2,2,3,3,4,4,5,5,6,6],"right_children":[2,4,6,8,10,12,14,-1,-1,-1,-1,-1,-1,-1,-1],"split_conditions":[1.1E0,1.4876585E0,1.0062E2,2E0,9.75E-1,1.2959774E0,1.1611623E1,-2.0404637E-1,-4.7444124E-2,5.213894E-1,4.6090867E-2,-2.8134365E-2,2.1250916E-1,3.889309E-1,7.43018E-2],"split_indices":[42,11,48,73,46,17,15,0,0,0,0,0,0,0,0],"split_type":[0,0,0,0,0,0,0,0,0,0,0,0,0,0,0],"sum_hessian":[1.888E3,1.087E3,8.01E2,9.49E2,1.38E2,5.99E2,2.02E2,1.6E2,7.89E2,1.5E1,1.23E2,4.77E2,1.22E2,6.6E1,1.36E2],"tree_param":{"num_deleted":"0","num_feature":"88","num_nodes":"15","size_leaf_vector":"1"}},{"base_weights":[-3.8692202E-2,-7.23122E-1,1.5049398E0,2.114047E-1,-1.8358557E0,3.2780492E0,-5.5770487E-1,-1.3313304E-2,2.327423E-1,-4.648183E-1,-6.359447E-2,1.2354698E-1,3.8822532E-1,1.3725536E-1,-1.4015417E-1],"categories":[],"categories_nodes":[],"categories_segments":[],"categories_sizes":[],"default_left":[0,0,0,0,0,0,0,0,0,0,0,0,0,0,0],"id":51,"left_children":[1,3,5,7,9,11,13,-1,-1,-1,-1,-1,-1,-1,-1],"loss_changes":[2.0123197E3,1.3742292E3,2.1445337E3,1.5307518E3,2.5081765E3,1.0971458E3,2.0325875E3,0E0,0E0,0E0,0E0,0E0,0E0,0E0,0E0],"parents":[2147483647,0,0,1,1,2,2,3,3,4,4,5,5,6,6],"right_children":[2,4,6,8,10,12,14,-1,-1,-1,-1,-1,-1,-1,-1],"split_conditions":[4.2E0,1.0610763E1,4E0,1.0356213E1,1.948591E1,3.1830776E0,2.3686079E1,-1.3313304E-2,2.327423E-1,-4.648183E-1,-6.359447E-2,1.2354698E-1,3.8822532E-1,1.3725536E-1,-1.4015417E-1],"split_indices":[42,19,74,19,30,20,7,0,0,0,0,0,0,0,0],"split_type":[0,0,0,0,0,0,0,0,0,0,0,0,0,0,0],"sum_hessian":[1.901E3,1.318E3,5.83E2,7.17E2,6.01E2,3.13E2,2.7E2,6.49E2,6.8E1,4E1,5.61E2,2.68E2,4.5E1,1.09E2,1.61E2],"tree_param":{"num_deleted":"0","num_feature":"88","num_nodes":"15","size_leaf_vector":"1"}},{"base_weights":[-1.7504087E-2,-3.4826338E-1,4.649097E0,-1.5344423E0,6.6280586E-1,1.5758372E1,2.4810252E0,-2.909627E-1,-3.8748387E-2,1.2318964E-1,-3.1996768E-2,9.3081E-1,2.5303176E-1,-8.830174E-2,2.5383818E-1],"categories":[],"categories_nodes":[],"categories_segments":[],"categories_sizes":[],"default_left":[0,0,0,0,0,0,0,0,0,0,0,0,0,0,0],"id":52,"left_children":[1,3,5,7,9,11,13,-1,-1,-1,-1,-1,-1,-1,-1],"loss_changes":[2.9152568E3,2.1192502E3,2.9234001E3,2.6333525E3,2.2423586E3,4.111875E2,1.1991824E3,0E0,0E0,0E0,0E0,0E0,0E0,0E0,0E0],"parents":[2147483647,0,0,1,1,2,2,3,3,4,4,5,5,6,6],"right_children":[2,4,6,8,10,12,14,-1,-1,-1,-1,-1,-1,-1,-1],"split_conditions":[1.9361965E1,-1E0,5.9593587E0,2E0,5.0646233E1,2.8055002E1,-3.5E0,-2.909627E-1,-3.8748387E-2,1.2318964E-1,-3.1996768E-2,9.3081E-1,2.5303176E-1,-8.830174E-2,2.5383818E-1],"split_indices":[2,42,10,73,80,30,44,0,0,0,0,0,0,0,0],"split_type":[0,0,0,0,0,0,0,0,0,0,0,0,0,0,0],"sum_hessian":[1.886E3,1.763E3,1.23E2,8.11E2,9.52E2,1.8E1,1.05E2,1.2E2,6.91E2,3.99E2,5.53E2,1.3E1,5E0,4E1,6.5E1],"tree_param":{"num_deleted":"0","num_feature":"88","num_nodes":"15","size_leaf_vector":"1"}},{"base_weights":[6.6688396E-2,-1.5573568E0,5.665595E-1,-2.060377E0,4.00496E0,-1.3648386E0,1.1935182E0,-6.580612E-2,-3.842784E-1,5.5076516E-1,-2.934164E-3,-3.7985876E-2,-4.6963415E-1,1.3286056E-1,1.2119736E-2],"categories":[],"categories_nodes":[],"categories_segments":[],"categories_sizes":[],"default_left":[0,0,0,0,0,0,0,0,0,0,0,0,0,0,0],"id":53,"left_children":[1,3,5,7,9,11,13,-1,-1,-1,-1,-1,-1,-1,-1],"loss_changes":[1.5558917E3,1.2774095E3,1.7783616E3,1.7126971E3,1.0892974E3,1.7294668E3,1.5397675E3,0E0,0E0,0E0,0E0,0E0,0E0,0E0,0E0],"parents":[2147483647,0,0,1,1,2,2,3,3,4,4,5,5,6,6],"right_children":[2,4,6,8,10,12,14,-1,-1,-1,-1,-1,-1,-1,-1],"split_conditions":[-1.2545582E0,6.111088E1,5.5905197E1,1.01325E2,4.7E0,1.9341463E1,3E0,-6.580612E-2,-3.842784E-1,5.5076516E-1,-2.934164E-3,-3.7985876E-2,-4.6963415E-1,1.3286056E-1,1.2119736E-2],"split_indices":[11,25,24,50,62,66,74,0,0,0,0,0,0,0,0],"split_type":[0,0,0,0,0,0,0,0,0,0,0,0,0,0,0],"sum_hessian":[1.913E3,4.49E2,1.464E3,4.13E2,3.6E1,3.58E2,1.106E3,3.67E2,4.6E1,1.2E1,2.4E1,3.35E2,2.3E1,4.34E2,6.72E2],"tree_param":{"num_deleted":"0","num_feature":"88","num_nodes":"15","size_leaf_vector":"1"}},{"base_weights":[-2.5565118E-1,4.4750556E-2,-3.7042677E0,-1.793802E0,5.4927737E-1,-4.271856E0,4.6010056E-1,2.3880428E-2,-1.9775315E-1,6.414955E-2,-4.834905E-2,-3.8916394E-1,-1.4045097E-1],"categories":[],"categories_nodes":[],"categories_segments":[],"categories_sizes":[],"default_left":[0,0,0,0,0,0,0,0,0,0,0,0,0],"id":54,"left_children":[1,3,5,7,9,11,-1,-1,-1,-1,-1,-1,-1],"loss_changes":[1.9653252E3,1.6200089E3,1.1896223E3,1.8513425E3,1.5278761E3,7.060625E2,0E0,0E0,0E0,0E0,0E0,0E0,0E0],"parents":[2147483647,0,0,1,1,2,2,3,3,4,4,5,5],"right_children":[2,4,6,8,10,12,-1,-1,-1,-1,-1,-1,-1],"split_conditions":[1.075E0,-1.2545582E0,4.97953E1,1.054595E1,5.895301E1,-1.23E1,4.6010056E-1,2.3880428E-2,-1.9775315E-1,6.414955E-2,-4.834905E-2,-3.8916394E-1,-1.4045097E-1],"split_indices":[46,11,3,19,25,42,0,0,0,0,0,0,0],"split_type":[0,0,0,0,0,0,0,0,0,0,0,0,0],"sum_hessian":[1.893E3,1.743E3,1.5E2,3.74E2,1.369E3,1.45E2,5E0,1.83E2,1.91E2,9.23E2,4.46E2,4E1,1.05E2],"tree_param":{"num_deleted":"0","num_feature":"88","num_nodes":"13","size_leaf_vector":"1"}},{"base_weights":[1.8375827E-1,1.122085E-2,7.745829E0,-1.2942543E0,9.0104365E-1,1.0104917E0,1.2907355E1,-1.6274184E-1,-4.825664E-3,1.3343814E-2,1.5790294E-1,1.9384035E-1,-2.6744482E-1,8.414876E-1,1.5051739E-1],"categories":[],"categories_nodes":[],"categories_segments":[],"categories_sizes":[],"default_left":[0,0,0,0,0,0,0,0,0,0,0,0,0,0,0],"id":55,"left_children":[1,3,5,7,9,11,13,-1,-1,-1,-1,-1,-1,-1,-1],"loss_changes":[2.3979744E3,2.0954138E3,1.3923049E3,1.7142816E3,1.5324138E3,4.0529745E2,7.816128E2,0E0,0E0,0E0,0E0,0E0,0E0,0E0,0E0],"parents":[2147483647,0,0,1,1,2,2,3,3,4,4,5,5,6,6],"right_children":[2,4,6,8,10,12,14,-1,-1,-1,-1,-1,-1,-1,-1],"split_conditions":[5.0240517E1,-2E0,3.5978104E1,4.98E-1,9.2E0,3.2E0,1.02E1,-1.6274184E-1,-4.825664E-3,1.3343814E-2,1.5790294E-1,1.9384035E-1,-2.6744482E-1,8.414876E-1,1.5051739E-1],"split_indices":[3,61,27,65,42,43,63,0,0,0,0,0,0,0,0],"split_type":[0,0,0,0,0,0,0,0,0,0,0,0,0,0,0],"sum_hessian":[1.839E3,1.8E3,3.9E1,7.29E2,1.071E3,1.8E1,2.1E1,2.75E2,4.54E2,8.38E2,2.33E2,1.3E1,5E0,1.4E1,7E0],"tree_param":{"num_deleted":"0","num_feature":"88","num_nodes":"15","size_leaf_vector":"1"}},{"base_weights":[1.9356433E-1,9.366494E0,7.058869E-2,1.2026287E1,3.226821E-2,-2.2384666E-1,3.4817283E0,7.350673E-1,1.5843298E-1,-1.6781846E-1,1.8745793E-3,4.1694832E-1,6.746418E-2],"categories":[],"categories_nodes":[],"categories_segments":[],"categories_sizes":[],"default_left":[0,0,0,0,0,0,0,0,0,0,0,0,0],"id":56,"left_children":[1,3,5,7,-1,9,11,-1,-1,-1,-1,-1,-1],"loss_changes":[2.131608E3,5.580513E2,1.8833499E3,3.4809668E2,0E0,1.4140789E3,1.5159636E3,0E0,0E0,0E0,0E0,0E0,0E0],"parents":[2147483647,0,0,1,1,2,2,3,3,5,5,6,6],"right_children":[2,4,6,8,-1,10,12,-1,-1,-1,-1,-1,-1],"split_conditions":[8.538824E1,7.027204E0,1.21E1,1.145E2,3.226821E-2,9.691267E1,1.0182103E2,7.350673E-1,1.5843298E-1,-1.6781846E-1,1.8745793E-3,4.1694832E-1,6.746418E-2],"split_indices":[1,26,42,38,0,0,1,0,0,0,0,0,0],"split_type":[0,0,0,0,0,0,0,0,0,0,0,0,0],"sum_hessian":[1.893E3,2.3E1,1.87E3,1.7E1,6E0,1.723E3,1.47E2,1.2E1,5E0,1.31E2,1.592E3,4.3E1,1.04E2],"tree_param":{"num_deleted":"0","num_feature":"88","num_nodes":"13","size_leaf_vector":"1"}},{"base_weights":[-4.6021935E-2,2.4358067E-1,-3.5562642E0,-5.162001E0,3.8333297E-1,-6.112985E0,1.4333871E-2,1.9470657E-1,-3.7023523E-1,1.5156898E-2,6.3054615E-1,-3.846766E-1,3.8839076E-3,-2.4015336E-1,2.423232E-1],"categories":[],"categories_nodes":[],"categories_segments":[],"categories_sizes":[],"default_left":[0,0,0,0,0,0,0,0,0,0,0,0,0,0,0],"id":57,"left_children":[1,3,5,7,9,11,13,-1,-1,-1,-1,-1,-1,-1,-1],"loss_changes":[1.9206498E3,1.31906E3,1.317804E3,9.530747E2,1.6548643E3,8.269121E2,1.4898328E3,0E0,0E0,0E0,0E0,0E0,0E0,0E0,0E0],"parents":[2147483647,0,0,1,1,2,2,3,3,4,4,5,5,6,6],"right_children":[2,4,6,8,10,12,14,-1,-1,-1,-1,-1,-1,-1,-1],"split_conditions":[6.468328E1,-4.597561E0,1.0654779E2,-2.756052E0,9.2909355E1,5.5001626E0,1.5E0,1.9470657E-1,-3.7023523E-1,1.5156898E-2,6.3054615E-1,-3.846766E-1,3.8839076E-3,-2.4015336E-1,2.423232E-1],"split_indices":[81,68,0,20,77,29,45,0,0,0,0,0,0,0,0],"split_type":[0,0,0,0,0,0,0,0,0,0,0,0,0,0,0],"sum_hessian":[1.884E3,1.742E3,1.42E2,4.2E1,1.7E3,8.2E1,6E1,8E0,3.4E1,1.691E3,9E0,6.5E1,1.7E1,3E1,3E1],"tree_param":{"num_deleted":"0","num_feature":"88","num_nodes":"15","size_leaf_vector":"1"}},{"base_weights":[-0E0,-1.7062348E0,5.189435E-1,-2.4184115E0,2.5908267E0,2.432185E0,-8.6112276E-2,-3.882682E-2,-2.1082702E-1,-1.1258661E-1,2.8904778E-1,2.1767397E-1,-3.2874163E-2,3.094165E-2,-8.530587E-2],"categories":[],"categories_nodes":[],"categories_segments":[],"categories_sizes":[],"default_left":[0,0,0,0,0,0,0,0,0,0,0,0,0,0,0],"id":58,"left_children":[1,3,5,7,9,11,13,-1,-1,-1,-1,-1,-1,-1,-1],"loss_changes":[1.6326256E3,1.32836E3,1.6384635E3,1.0833069E3,9.855988E2,2.0258677E3,1.2314635E3,0E0,0E0,0E0,0E0,0E0,0E0,0E0,0E0],"parents":[2147483647,0,0,1,1,2,2,3,3,4,4,5,5,6,6],"right_children":[2,4,6,8,10,12,14,-1,-1,-1,-1,-1,-1,-1,-1],"split_conditions":[-9.1E0,5.53E-1,-3.1E0,4.996647E0,-1.7992111E0,3.3396217E1,2.6313124E1,-3.882682E-2,-2.1082702E-1,-1.1258661E-1,2.8904778E-1,2.1767397E-1,-3.2874163E-2,3.094165E-2,-8.530587E-2],"split_indices":[61,65,45,13,29,22,31,0,0,0,0,0,0,0,0],"split_type":[0,0,0,0,0,0,0,0,0,0,0,0,0,0,0],"sum_hessian":[1.84E3,4.28E2,1.412E3,3.68E2,6E1,3.38E2,1.074E3,1.94E2,1.74E2,2.4E1,3.6E1,2.08E2,1.3E2,7.49E2,3.25E2],"tree_param":{"num_deleted":"0","num_feature":"88","num_nodes":"15","size_leaf_vector":"1"}},{"base_weights":[-1.4607449E-1,-3.2589417E0,2.5365284E-1,-6.1592543E-1,-6.614581E0,1.7462509E0,-3.1985772E-1,-1.627147E-1,2.2763E-1,-1.7427474E-1,-5.6165737E-1,2.0947504E-1,1.2225262E-2,2.3847483E-2,-7.737429E-2],"categories":[],"categories_nodes":[],"categories_segments":[],"categories_sizes":[],"default_left":[0,0,0,0,0,0,0,0,0,0,0,0,0,0,0],"id":59,"left_children":[1,3,5,7,9,11,13,-1,-1,-1,-1,-1,-1,-1,-1],"loss_changes":[2.3399475E3,1.8862043E3,1.4279609E3,1.6926318E3,1.272812E3,1.6945461E3,1.1807219E3,0E0,0E0,0E0,0E0,0E0,0E0,0E0,0E0],"parents":[2147483647,0,0,1,1,2,2,3,3,4,4,5,5,6,6],"right_children":[2,4,6,8,10,12,14,-1,-1,-1,-1,-1,-1,-1,-1],"split_conditions":[-1.06E1,3.1844378E1,2.376816E1,3.0557703E1,1.0723214E0,4.0493572E1,5.884968E1,-1.627147E-1,2.2763E-1,-1.7427474E-1,-5.6165737E-1,2.0947504E-1,1.2225262E-2,2.3847483E-2,-7.737429E-2],"split_indices":[42,21,7,21,46,79,24,0,0,0,0,0,0,0,0],"split_type":[0,0,0,0,0,0,0,0,0,0,0,0,0,0,0],"sum_hessian":[1.876E3,2.12E2,1.664E3,1.2E2,9.2E1,4.61E2,1.203E3,8E1,4E1,5.7E1,3.5E1,1.74E2,2.87E2,7.3E2,4.73E2],"tree_param":{"num_deleted":"0","num_feature":"88","num_nodes":"15","size_leaf_vector":"1"}},{"base_weights":[-6.279923E-2,-5.2550304E-1,1.966327E0,-2.1240046E-2,-2.3499866E0,1.4878001E0,9.073254E0,8.68813E-2,-3.6566988E-2,-3.3086404E-1,-6.9917805E-2,6.3127875E-1,5.6881875E-2,7.926209E-1,3.701066E-2],"categories":[],"categories_nodes":[],"categories_segments":[],"categories_sizes":[],"default_left":[0,0,0,0,0,0,0,0,0,0,0,0,0,0,0],"id":60,"left_children":[1,3,5,7,9,11,13,-1,-1,-1,-1,-1,-1,-1,-1],"loss_changes":[1.8002488E3,1.435785E3,1.1784254E3,1.533276E3,1.3500653E3,1.274803E3,1.2110386E3,0E0,0E0,0E0,0E0,0E0,0E0,0E0,0E0],"parents":[2147483647,0,0,1,1,2,2,3,3,4,4,5,5,6,6],"right_children":[2,4,6,8,10,12,14,-1,-1,-1,-1,-1,-1,-1,-1],"split_conditions":[1.4653232E0,3.6E0,4.67981E1,2.3733746E1,-3.6015022E0,8.538824E1,1.2474174E1,8.68813E-2,-3.6566988E-2,-3.3086404E-1,-6.9917805E-2,6.3127875E-1,5.6881875E-2,7.926209E-1,3.701066E-2],"split_indices":[11,44,27,7,32,1,16,0,0,0,0,0,0,0,0],"split_type":[0,0,0,0,0,0,0,0,0,0,0,0,0,0,0],"sum_hessian":[1.914E3,1.56E3,3.54E2,1.224E3,3.36E2,3.34E2,2E1,3.51E2,8.73E2,5.9E1,2.77E2,8E0,3.26E2,1E1,1E1],"tree_param":{"num_deleted":"0","num_feature":"88","num_nodes":"15","size_leaf_vector":"1"}},{"base_weights":[-1.2431875E-1,8.947752E-2,-3.6946673E0,-1.6828325E0,5.771258E-1,-4.8624654E0,6.2218266E0,-4.1424133E-2,-3.656288E-1,2.042611E-1,3.54498E-3,-4.2271885E-1,-6.0486574E-2,6.057728E-1,-6.890193E-2],"categories":[],"categories_nodes":[],"categories_segments":[],"categories_sizes":[],"default_left":[0,0,0,0,0,0,0,0,0,0,0,0,0,0,0],"id":61,"left_children":[1,3,5,7,9,11,13,-1,-1,-1,-1,-1,-1,-1,-1],"loss_changes":[1.4321757E3,1.5302726E3,1.2873557E3,1.8211454E3,2.4640542E3,1.2342615E3,5.762494E2,0E0,0E0,0E0,0E0,0E0,0E0,0E0,0E0],"parents":[2147483647,0,0,1,1,2,2,3,3,4,4,5,5,6,6],"right_children":[2,4,6,8,10,12,14,-1,-1,-1,-1,-1,-1,-1,-1],"split_conditions":[1.9439024E1,9.8315E1,6.209122E0,1.65E0,3.887068E1,-1.0952202E0,5.239856E0,-4.1424133E-2,-3.656288E-1,2.042611E-1,3.54498E-3,-4.2271885E-1,-6.0486574E-2,6.057728E-1,-6.890193E-2],"split_indices":[67,50,12,51,4,8,13,0,0,0,0,0,0,0,0],"split_type":[0,0,0,0,0,0,0,0,0,0,0,0,0,0,0],"sum_hessian":[1.871E3,1.767E3,1.04E2,3.8E2,1.387E3,9.4E1,1E1,3.32E2,4.8E1,1.73E2,1.214E3,4.6E1,4.8E1,5E0,5E0],"tree_param":{"num_deleted":"0","num_feature":"88","num_nodes":"15","size_leaf_vector":"1"}},{"base_weights":[6.7796126E-2,-3.9615282E-1,2.1552804E0,-1.8430469E0,1.2875772E-1,-4.169224E0,2.9590533E0,-3.3224124E-2,-2.3555155E-1,-1.2291775E-1,2.3909656E-2,1.6369154E-1,-3.2787272E-1,2.5900564E-1,4.834641E-2],"categories":[],"categories_nodes":[],"categories_segments":[],"categories_sizes":[],"default_left":[0,0,0,0,0,0,0,0,0,0,0,0,0,0,0],"id":62,"left_children":[1,3,5,7,9,11,13,-1,-1,-1,-1,-1,-1,-1,-1],"loss_changes":[1.853364E3,1.1899335E3,1.7931149E3,1.4005549E3,1.0409941E3,7.55607E2,1.3585435E3,0E0,0E0,0E0,0E0,0E0,0E0,0E0,0E0],"parents":[2147483647,0,0,1,1,2,2,3,3,4,4,5,5,6,6],"right_children":[2,4,6,8,10,12,14,-1,-1,-1,-1,-1,-1,-1,-1],"split_conditions":[1.176E2,1.124E2,-5.228101E0,1.0019E2,9.699E1,4.037276E1,3E0,-3.3224124E-2,-2.3555155E-1,-1.2291775E-1,2.3909656E-2,1.6369154E-1,-3.2787272E-1,2.5900564E-1,4.834641E-2],"split_indices":[39,36,32,50,49,4,73,0,0,0,0,0,0,0,0],"split_type":[0,0,0,0,0,0,0,0,0,0,0,0,0,0,0],"sum_hessian":[1.909E3,1.563E3,3.46E2,4.15E2,1.148E3,3.8E1,3.08E2,2.96E2,1.19E2,1.35E2,1.013E3,9E0,2.9E1,1.44E2,1.64E2],"tree_param":{"num_deleted":"0","num_feature":"88","num_nodes":"15","size_leaf_vector":"1"}},{"base_weights":[2.4218488E-1,1.8653877E0,-2.636927E-1,4.614484E0,5.135429E-1,-5.422524E-1,3.0140226E0,3.1030783E-1,-2.6782224E-2,-2.3024474E-1,6.0475755E-2,-2.24242E-1,-1.5733955E-2,-3.497288E-1,2.2447713E-1],"categories":[],"categories_nodes":[],"categories_segments":[],"categories_sizes":[],"default_left":[0,0,0,0,0,0,0,0,0,0,0,0,0,0,0],"id":63,"left_children":[1,3,5,7,9,11,13,-1,-1,-1,-1,-1,-1,-1,-1],"loss_changes":[1.5241816E3,1.6316074E3,1.2939836E3,1.198095E3,1.0710043E3,1.1665571E3,1.7007876E3,0E0,0E0,0E0,0E0,0E0,0E0,0E0,0E0],"parents":[2147483647,0,0,1,1,2,2,3,3,4,4,5,5,6,6],"right_children":[2,4,6,8,10,12,14,-1,-1,-1,-1,-1,-1,-1,-1],"split_conditions":[2.3456892E1,1.4741497E1,5.2E-2,1.17E1,1.103E2,9.410908E1,2.4380402E1,3.1030783E-1,-2.6782224E-2,-2.3024474E-1,6.0475755E-2,-2.24242E-1,-1.5733955E-2,-3.497288E-1,2.2447713E-1],"split_indices":[7,76,59,61,39,0,7,0,0,0,0,0,0,0,0],"split_type":[0,0,0,0,0,0,0,0,0,0,0,0,0,0,0],"sum_hessian":[1.852E3,4.39E2,1.413E3,1.43E2,2.96E2,1.304E3,1.09E2,1.09E2,3.4E1,3.4E1,2.62E2,6.9E1,1.235E3,1.3E1,9.6E1],"tree_param":{"num_deleted":"0","num_feature":"88","num_nodes":"15","size_leaf_vector":"1"}},{"base_weights":[-1.5783425E-1,-5.7440215E-1,1.849633E0,-4.756372E0,-3.7669453E-1,1.4273387E0,6.761231E-1,5.033322E-2,-3.2552406E-1,5.1082473E-2,-4.5699213E-2,-3.7592247E-2,1.7036757E-1],"categories":[],"categories_nodes":[],"categories_segments":[],"categories_sizes":[],"default_left":[0,0,0,0,0,0,0,0,0,0,0,0,0],"id":64,"left_children":[1,3,5,7,9,11,-1,-1,-1,-1,-1,-1,-1],"loss_changes":[1.5719581E3,1.2811892E3,1.5461088E3,7.2348926E2,1.1205231E3,1.361302E3,0E0,0E0,0E0,0E0,0E0,0E0,0E0],"parents":[2147483647,0,0,1,1,2,2,3,3,4,4,5,5],"right_children":[2,4,6,8,10,12,-1,-1,-1,-1,-1,-1,-1],"split_conditions":[1.177E2,5.3040485E1,5.897339E0,3.1571043E0,1.0712424E2,3.9727257E1,6.761231E-1,5.033322E-2,-3.2552406E-1,5.1082473E-2,-4.5699213E-2,-3.7592247E-2,1.7036757E-1],"split_indices":[39,24,20,12,1,28,0,0,0,0,0,0,0],"split_type":[0,0,0,0,0,0,0,0,0,0,0,0,0],"sum_hessian":[1.876E3,1.555E3,3.21E2,6.8E1,1.487E3,3.12E2,9E0,1.6E1,5.2E1,4.12E2,1.075E3,1.49E2,1.63E2],"tree_param":{"num_deleted":"0","num_feature":"88","num_nodes":"13","size_leaf_vector":"1"}},{"base_weights":[1.5138556E-1,-1.411392E-1,3.1366513E0,-3.5246105E0,6.902258E-2,-1.2245598E0,4.648407E0,-1.0048988E-1,-4.540054E-1,-4.9130794E-2,3.6954608E-2,1.9673848E-1,-1.9122824E-1,-3.2823715E-1,2.6122004E-1],"categories":[],"categories_nodes":[],"categories_segments":[],"categories_sizes":[],"default_left":[0,0,0,0,0,0,0,0,0,0,0,0,0,0,0],"id":65,"left_children":[1,3,5,7,9,11,13,-1,-1,-1,-1,-1,-1,-1,-1],"loss_changes":[1.6537256E3,1.22811E3,1.1273276E3,8.0792615E2,1.1464209E3,6.336851E2,8.8172E2,0E0,0E0,0E0,0E0,0E0,0E0,0E0,0E0],"parents":[2147483647,0,0,1,1,2,2,3,3,4,4,5,5,6,6],"right_children":[2,4,6,8,10,12,14,-1,-1,-1,-1,-1,-1,-1,-1],"split_conditions":[1.19E1,-1.32E1,3.7310314E1,1.2877411E0,2.3648127E1,2.212213E1,-4.2E-2,-1.0048988E-1,-4.540054E-1,-4.9130794E-2,3.6954608E-2,1.9673848E-1,-1.9122824E-1,-3.2823715E-1,2.6122004E-1],"split_indices":[42,42,28,23,30,31,60,0,0,0,0,0,0,0,0],"split_type":[0,0,0,0,0,0,0,0,0,0,0,0,0,0,0],"sum_hessian":[1.889E3,1.722E3,1.67E2,9.9E1,1.623E3,4.3E1,1.24E2,8E1,1.9E1,6.31E2,9.92E2,1.4E1,2.9E1,5E0,1.19E2],"tree_param":{"num_deleted":"0","num_feature":"88","num_nodes":"15","size_leaf_vector":"1"}},{"base_weights":[2.3576124E-1,2.6652937E0,-5.375915E-2,4.178993E0,-1.6288831E0,-1.5333121E0,4.512008E-1,3.8396007E-1,1.2882347E-1,-2.0962694E-1,8.301801E-2,-2.3862648E-1,-3.6708564E-2,1.2166386E-2,3.1678596E-1],"categories":[],"categories_nodes":[],"categories_segments":[],"categories_sizes":[],"default_left":[0,0,0,0,0,0,0,0,0,0,0,0,0,0,0],"id":66,"left_children":[1,3,5,7,9,11,13,-1,-1,-1,-1,-1,-1,-1,-1],"loss_changes":[1.3345339E3,1.3279083E3,1.2682845E3,7.966765E2,4.705426E2,1.10851E3,1.5410173E3,0E0,0E0,0E0,0E0,0E0,0E0,0E0,0E0],"parents":[2147483647,0,0,1,1,2,2,3,3,4,4,5,5,6,6],"right_children":[2,4,6,8,10,12,14,-1,-1,-1,-1,-1,-1,-1,-1],"split_conditions":[6.166278E0,2.6391592E1,-8.4E0,-2.7E0,1.5207317E1,2.3248318E1,2.9E-2,3.8396007E-1,1.2882347E-1,-2.0962694E-1,8.301801E-2,-2.3862648E-1,-3.6708564E-2,1.2166386E-2,3.1678596E-1],"split_indices":[10,31,61,45,66,6,58,0,0,0,0,0,0,0,0],"split_type":[0,0,0,0,0,0,0,0,0,0,0,0,0,0,0],"sum_hessian":[1.893E3,2E2,1.693E3,1.48E2,5.2E1,4.3E2,1.263E3,4.4E1,1.04E2,2.9E1,2.3E1,8.3E1,3.47E2,1.222E3,4.1E1],"tree_param":{"num_deleted":"0","num_feature":"88","num_nodes":"15","size_leaf_vector":"1"}},{"base_weights":[-7.5187445E-2,1.4609911E0,-6.2928843E-1,6.0507727E0,6.741429E-1,-9.2272884E-1,3.5375178E0,1.0025125E-1,5.2150166E-1,-1.1474829E-1,1.1009969E-1,-2.1399274E-1,-2.971378E-2,6.093776E-1,6.376688E-2],"categories":[],"categories_nodes":[],"categories_segments":[],"categories_sizes":[],"default_left":[0,0,0,0,0,0,0,0,0,0,0,0,0,0,0],"id":67,"left_children":[1,3,5,7,9,11,13,-1,-1,-1,-1,-1,-1,-1,-1],"loss_changes":[1.6314672E3,1.8231018E3,1.7280183E3,1.263044E3,1.9879113E3,1.4457804E3,1.7820002E3,0E0,0E0,0E0,0E0,0E0,0E0,0E0,0E0],"parents":[2147483647,0,0,1,1,2,2,3,3,4,4,5,5,6,6],"right_children":[2,4,6,8,10,12,14,-1,-1,-1,-1,-1,-1,-1,-1],"split_conditions":[2.3686079E1,1.994697E1,5.3E-2,1.0547051E1,3.119576E-1,4.151515E0,3.0938137E1,1.0025125E-1,5.2150166E-1,-1.1474829E-1,1.1009969E-1,-2.1399274E-1,-2.971378E-2,6.093776E-1,6.376688E-2],"split_indices":[7,79,59,18,26,77,22,0,0,0,0,0,0,0,0],"split_type":[0,0,0,0,0,0,0,0,0,0,0,0,0,0,0],"sum_hessian":[1.913E3,5.06E2,1.407E3,7.2E1,4.34E2,1.316E3,9.1E1,3.9E1,3.3E1,1.47E2,2.87E2,1.15E2,1.201E3,1.7E1,7.4E1],"tree_param":{"num_deleted":"0","num_feature":"88","num_nodes":"15","size_leaf_vector":"1"}},{"base_weights":[-1.7541963E-1,-4.3380594E-1,2.619655E0,-9.3586093E-1,7.592816E-1,6.393031E0,1.008781E0,1.9162458E-1,-5.825171E-2,5.0878626E-1,1.8027565E-2,4.1515222E-1,-1.8366288E-1,1.9614297E-1,-8.695444E-2],"categories":[],"categories_nodes":[],"categories_segments":[],"categories_sizes":[],"default_left":[0,0,0,0,0,0,0,0,0,0,0,0,0,0,0],"id":68,"left_children":[1,3,5,7,9,11,13,-1,-1,-1,-1,-1,-1,-1,-1],"loss_changes":[1.3827657E3,1.0515487E3,9.6810706E2,1.3571779E3,1.9397974E3,9.861968E2,9.436072E2,0E0,0E0,0E0,0E0,0E0,0E0,0E0,0E0],"parents":[2147483647,0,0,1,1,2,2,3,3,4,4,5,5,6,6],"right_children":[2,4,6,8,10,12,14,-1,-1,-1,-1,-1,-1,-1,-1],"split_conditions":[1.19E1,1.9450116E0,1.0182103E2,-8.8E0,7.1655564E0,3.1E-2,4E0,1.9162458E-1,-5.825171E-2,5.0878626E-1,1.8027565E-2,4.1515222E-1,-1.8366288E-1,1.9614297E-1,-8.695444E-2],"split_indices":[42,23,1,45,19,59,74,0,0,0,0,0,0,0,0],"split_type":[0,0,0,0,0,0,0,0,0,0,0,0,0,0,0],"sum_hessian":[1.911E3,1.751E3,1.6E2,1.233E3,5.18E2,4.6E1,1.14E2,5.5E1,1.178E3,1.9E1,4.99E2,3.9E1,7E0,5.5E1,5.9E1],"tree_param":{"num_deleted":"0","num_feature":"88","num_nodes":"15","size_leaf_vector":"1"}},{"base_weights":[-8.746535E-3,1.7027581E0,-6.117853E-1,3.401826E0,1.3949347E-1,-1.1082804E0,2.2417665E0,2.1537542E-1,-2.669204E-1,-4.9299726E-1,2.6937902E-2,-1.8608977E-1,-3.7256256E-2,-3.5141226E-2,2.7204904E-1],"categories":[],"categories_nodes":[],"categories_segments":[],"categories_sizes":[],"default_left":[0,0,0,0,0,0,0,0,0,0,0,0,0,0,0],"id":69,"left_children":[1,3,5,7,9,11,13,-1,-1,-1,-1,-1,-1,-1,-1],"loss_changes":[1.953246E3,1.306734E3,1.9878866E3,1.9136218E3,1.0400009E3,1.1254598E3,1.9694559E3,0E0,0E0,0E0,0E0,0E0,0E0,0E0,0E0],"parents":[2147483647,0,0,1,1,2,2,3,3,4,4,5,5,6,6],"right_children":[2,4,6,8,10,12,14,-1,-1,-1,-1,-1,-1,-1,-1],"split_conditions":[2.3733746E1,5.1384483E1,4.665664E1,4.8102646E1,3.47597E1,2.0447643E1,-7.7305865E-1,2.1537542E-1,-2.669204E-1,-4.9299726E-1,2.6937902E-2,-1.8608977E-1,-3.7256256E-2,-3.5141226E-2,2.7204904E-1],"split_indices":[7,79,3,4,3,30,2,0,0,0,0,0,0,0,0],"split_type":[0,0,0,0,0,0,0,0,0,0,0,0,0,0,0],"sum_hessian":[1.889E3,4.91E2,1.398E3,2.34E2,2.57E2,1.192E3,2.06E2,2.13E2,2.1E1,8E0,2.49E2,1.43E2,1.049E3,1.08E2,9.8E1],"tree_param":{"num_deleted":"0","num_feature":"88","num_nodes":"15","size_leaf_vector":"1"}},{"base_weights":[1.088645E-1,-1.1597719E0,6.889719E-1,-4.1783123E0,-4.2107376E-1,1.5845596E0,-4.3622363E-1,-3.292538E-1,-5.3635042E-2,-2.800031E-1,3.3700403E-3,-5.6581654E-2,1.1702259E-1,-2.6130384E-1,-3.7016186E-3],"categories":[],"categories_nodes":[],"categories_segments":[],"categories_sizes":[],"default_left":[0,0,0,0,0,0,0,0,0,0,0,0,0,0,0],"id":70,"left_children":[1,3,5,7,9,11,13,-1,-1,-1,-1,-1,-1,-1,-1],"loss_changes":[1.4121699E3,1.3365154E3,1.3291124E3,8.6403125E2,1.233006E3,1.5129125E3,1.0114593E3,0E0,0E0,0E0,0E0,0E0,0E0,0E0,0E0],"parents":[2147483647,0,0,1,1,2,2,3,3,4,4,5,5,6,6],"right_children":[2,4,6,8,10,12,14,-1,-1,-1,-1,-1,-1,-1,-1],"split_conditions":[-1.8132979E0,2.2254646E1,5.8644478E1,4.0849205E1,1.0849008E1,1.102E2,9.660714E-1,-3.292538E-1,-5.3635042E-2,-2.800031E-1,3.3700403E-3,-5.6581654E-2,1.1702259E-1,-2.6130384E-1,-3.7016186E-3],"split_indices":[23,6,24,76,16,36,47,0,0,0,0,0,0,0,0],"split_type":[0,0,0,0,0,0,0,0,0,0,0,0,0,0,0],"sum_hessian":[1.915E3,6E2,1.315E3,1.16E2,4.84E2,7.32E2,5.83E2,6.4E1,5.2E1,4E1,4.44E2,1.59E2,5.73E2,3.9E1,5.44E2],"tree_param":{"num_deleted":"0","num_feature":"88","num_nodes":"15","size_leaf_vector":"1"}},{"base_weights":[-2.892055E-1,-4.963645E0,-1.5254882E-1,2.0931573E0,-7.5506835E0,-4.7490728E-1,1.7748098E0,3.195859E-1,-1.3074969E-1,-4.305976E-1,-7.7877723E-4,-9.848639E-3,-1.9684009E-1,1.1172378E-2,3.7877548E-1],"categories":[],"categories_nodes":[],"categories_segments":[],"categories_sizes":[],"default_left":[0,0,0,0,0,0,0,0,0,0,0,0,0,0,0],"id":71,"left_children":[1,3,5,7,9,11,13,-1,-1,-1,-1,-1,-1,-1,-1],"loss_changes":[1.2141066E3,1.0201741E3,1.153548E3,3.5912927E2,3.1528882E2,1.5272104E3,2.3864456E3,0E0,0E0,0E0,0E0,0E0,0E0,0E0,0E0],"parents":[2147483647,0,0,1,1,2,2,3,3,4,4,5,5,6,6],"right_children":[2,4,6,8,10,12,14,-1,-1,-1,-1,-1,-1,-1,-1],"split_conditions":[5.2328175E1,-1.7E-2,4.665664E1,5.097561E0,1.09E1,4.5847534E1,1.71E1,3.195859E-1,-1.3074969E-1,-4.305976E-1,-7.7877723E-4,-9.848639E-3,-1.9684009E-1,1.1172378E-2,3.7877548E-1],"split_indices":[24,60,3,72,42,3,63,0,0,0,0,0,0,0,0],"split_type":[0,0,0,0,0,0,0,0,0,0,0,0,0,0,0],"sum_hessian":[1.905E3,5.2E1,1.853E3,1.4E1,3.8E1,1.589E3,2.64E2,7E0,7E0,3.3E1,5E0,1.473E3,1.16E2,2.1E2,5.4E1],"tree_param":{"num_deleted":"0","num_feature":"88","num_nodes":"15","size_leaf_vector":"1"}}]},"name":"gbtree"},"learner_model_param":{"base_score":"[1.9528056E0]","boost_from_average":"1","num_class":"0","num_feature":"88","num_target":"1"},"objective":{"name":"reg:squarederror","reg_loss_param":{"scale_pos_weight":"1"}}},"version":[3,2,0]}