{"learner":{"attributes":{"best_iteration":"62","best_score":"18.42622908058182","scikit_learn":"{\"_estimator_type\": \"regressor\"}"},"feature_names":["home_points","away_points","diff_points","home_rebounds","away_rebounds","diff_rebounds","home_assists","away_assists","diff_assists","home_steals","away_steals","diff_steals","home_blocks","away_blocks","diff_blocks","home_turnovers","away_turnovers","diff_turnovers","home_oreb","away_oreb","diff_oreb","home_dreb","away_dreb","diff_dreb","home_ts_pct","away_ts_pct","diff_ts_pct","home_fg3_rate","away_fg3_rate","diff_fg3_rate","home_ft_rate","away_ft_rate","diff_ft_rate","home_to_margin","away_to_margin","diff_to_margin","home_off_rating","away_off_rating","home_def_rating","away_def_rating","home_net_rating","away_net_rating","diff_net_rating","home_matchup_edge","away_matchup_edge","diff_matchup_edge","home_def_factor_raw","away_def_factor_raw","home_pace","away_pace","avg_pace","diff_pace","home_court","home_fatigue","away_fatigue","diff_fatigue","combined_fatigue","ff_efg_edge","ff_tov_edge","ff_oreb_edge","ff_fta_edge","home_clutch_net","away_clutch_net","diff_clutch_net","home_clutch_efg","away_clutch_efg","home_deflections","away_deflections","diff_deflections","home_contested","away_contested","home_loose_balls","away_loose_balls","home_injured_count","away_injured_count","diff_injured_count","home_injury_ppg_lost","away_injury_ppg_lost","diff_injury_ppg_lost","home_injury_minutes_lost","away_injury_minutes_lost","diff_injury_minutes_lost","home_games_played","away_games_played","min_games_played","games_played_diff","home_roster_changed","away_roster_changed"],"feature_types":["float","float","float","float","float","float","float","float","float","float","float","float","float","float","float","float","float","float","float","float","float","float","float","float","float","float","float","float","float","float","float","float","float","float","float","float","float","float","float","float","float","float","float","float","float","float","float","float","float","float","float","float","float","float","float","float","float","float","float","float","float","float","float","float","float","float","float","float","float","float","float","float","float","int","int","int","int","int","int","int","int","int","int","int","int","int","int","int"],"gradient_booster":{"model":{"cats":{"enc":[],"feature_segments":[],"sorted_idx":[]},"gbtree_model_param":{"num_parallel_tree":"1","num_trees":"83"},"iteration_indptr":[0,1,2,3,4,5,6,7,8,9,10,11,12,13,14,15,16,17,18,19,20,21,22,23,24,25,26,27,28,29,30,31,32,33,34,35,36,37,38,39,40,41,42,43,44,45,46,47,48,49,50,51,52,53,54,55,56,57,58,59,60,61,62,63,64,65,66,67,68,69,70,71,72,73,74,75,76,77,78,79,80,81,82,83],"tree_info":[0,0,0,0,0,0,0,0,0,0,0,0,0,0,0,0,0,0,0,0,0,0,0,0,0,0,0,0,0,0,0,0,0,0,0,0,0,0,0,0,0,0,0,0,0,0,0,0,0,0,0,0,0,0,0,0,0,0,0,0,0,0,0,0,0,0,0,0,0,0,0,0,0,0,0,0,0,0,0,0,0,0,0],"trees":[{"base_weights":[-5.2926904E-1,-1.7925904E0,1.50554085E1,8.578969E0,-3.2887535E0,1.8360939E1,1.2041443E-1,7.69709E-1,1.4239933E-1,-4.7359046E-1,-5.5357922E-2,3.5095254E-1,1.1782596E0],"categories":[],"categories_nodes":[],"categories_segments":[],"categories_sizes":[],"default_left":[0,0,0,0,0,0,0,0,0,0,0,0,0],"id":0,"left_children":[1,3,5,7,9,11,-1,-1,-1,-1,-1,-1,-1],"loss_changes":[9.714377E3,7.129783E3,1.4479814E3,2.1685493E3,5.369307E3,1.3656514E3,0E0,0E0,0E0,0E0,0E0,0E0,0E0],"parents":[2147483647,0,0,1,1,2,2,3,3,4,4,5,5],"right_children":[2,4,6,8,10,12,-1,-1,-1,-1,-1,-1,-1],"split_conditions":[1.0244E2,3.667314E0,3.5319996E1,-1.3844217E0,9.9255E1,3.9357166E0,1.2041443E-1,7.69709E-1,1.4239933E-1,-4.7359046E-1,-5.5357922E-2,3.5095254E-1,1.1782596E0],"split_indices":[50,12,21,20,50,13,0,0,0,0,0,0,0],"split_type":[0,0,0,0,0,0,0,0,0,0,0,0,0],"sum_hessian":[4.89E2,4.54E2,3.5E1,5.6E1,3.98E2,2.7E1,8E0,2.4E1,3.2E1,1.02E2,2.96E2,1E1,1.7E1],"tree_param":{"num_deleted":"0","num_feature":"88","num_nodes":"13","size_leaf_vector":"1"}},{"base_weights":[1.8101718E-1,-7.359192E0,2.9740803E0,6.598878E-1,-8.396634E0,1.9983227E0,1.9787495E1,-5.5212843E-1,-4.7375664E-2,5.241217E-1,8.750216E-3,1.1841247E0,3.1362492E-1],"categories":[],"categories_nodes":[],"categories_segments":[],"categories_sizes":[],"default_left":[0,0,0,0,0,0,0,0,0,0,0,0,0],"id":1,"left_children":[1,3,5,-1,7,9,11,-1,-1,-1,-1,-1,-1],"loss_changes":[1.0129455E4,2.9916963E3,5.6684644E3,0E0,2.4368145E3,5.157727E3,6.88103E2,0E0,0E0,0E0,0E0,0E0,0E0],"parents":[2147483647,0,0,1,1,2,2,4,4,5,5,6,6],"right_children":[2,4,6,-1,8,10,12,-1,-1,-1,-1,-1,-1],"split_conditions":[9.939E1,2.5721367E1,1.207E2,6.598878E-1,5.330146E0,3.8428905E0,2.7732115E0,-5.5212843E-1,-4.7375664E-2,5.241217E-1,8.750216E-3,1.1841247E0,3.1362492E-1],"split_indices":[50,22,38,0,13,12,17,0,0,0,0,0,0],"split_type":[0,0,0,0,0,0,0,0,0,0,0,0,0],"sum_hessian":[4.77E2,1.28E2,3.49E2,5E0,1.23E2,3.32E2,1.7E1,9E1,3.3E1,5.7E1,2.75E2,1.2E1,5E0],"tree_param":{"num_deleted":"0","num_feature":"88","num_nodes":"13","size_leaf_vector":"1"}},{"base_weights":[-1.1252465E0,-2.4807086E0,1.1889826E1,5.7672815E0,-3.6835563E0,5.8940506E0,2.0078962E1,-1.09888375E-1,5.974879E-1,-2.9620525E-1,-1.8216308E-2,5.749249E-1,-4.8413298E-1,1.5238926E0,4.445818E-1],"categories":[],"categories_nodes":[],"categories_segments":[],"categories_sizes":[],"default_left":[0,0,0,0,0,0,0,0,0,0,0,0,0,0,0],"id":2,"left_children":[1,3,5,7,9,11,13,-1,-1,-1,-1,-1,-1,-1,-1],"loss_changes":[8.786797E3,4.50593E3,2.0580312E3,2.913538E3,2.9226763E3,2.842546E3,1.6486992E3,0E0,0E0,0E0,0E0,0E0,0E0,0E0,0E0],"parents":[2147483647,0,0,1,1,2,2,3,3,4,4,5,5,6,6],"right_children":[2,4,6,8,10,12,14,-1,-1,-1,-1,-1,-1,-1,-1],"split_conditions":[1.0288E2,3.6903644E0,1.0348214E0,4E-3,2.8505568E1,6.701726E-1,1.2962643E0,-1.09888375E-1,5.974879E-1,-2.9620525E-1,-1.8216308E-2,5.749249E-1,-4.8413298E-1,1.5238926E0,4.445818E-1],"split_indices":[48,12,47,60,30,14,29,0,0,0,0,0,0,0,0],"split_type":[0,0,0,0,0,0,0,0,0,0,0,0,0,0,0],"sum_hessian":[4.93E2,4.48E2,4.5E1,5.6E1,3.92E2,2.8E1,1.7E1,2.5E1,3.1E1,2.33E2,1.59E2,2.1E1,7E0,7E0,1E1],"tree_param":{"num_deleted":"0","num_feature":"88","num_nodes":"15","size_leaf_vector":"1"}},{"base_weights":[-6.911183E-2,-2.2525814E0,5.334363E0,1.017527E1,-3.2855384E0,9.082403E0,-4.2828575E-1,2.843813E-1,9.164857E-1,8.573821E-1,-2.012935E-1,5.910248E-1,-3.5216507E-1,8.077626E-1,-1.8364841E-1],"categories":[],"categories_nodes":[],"categories_segments":[],"categories_sizes":[],"default_left":[0,0,0,0,0,0,0,0,0,0,0,0,0,0,0],"id":3,"left_children":[1,3,5,7,9,11,13,-1,-1,-1,-1,-1,-1,-1,-1],"loss_changes":[5.945249E3,4.6720576E3,3.1439092E3,8.04125E2,5.168907E3,4.0544233E3,3.287125E3,0E0,0E0,0E0,0E0,0E0,0E0,0E0,0E0],"parents":[2147483647,0,0,1,1,2,2,3,3,4,4,5,5,6,6],"right_children":[2,4,6,8,10,12,14,-1,-1,-1,-1,-1,-1,-1,-1],"split_conditions":[2.7718409E1,3.139535E1,8.781583E0,6.7486244E-1,-8.7E0,6.1318726E1,3.8210033E1,2.843813E-1,9.164857E-1,8.573821E-1,-2.012935E-1,5.910248E-1,-3.5216507E-1,8.077626E-1,-1.8364841E-1],"split_indices":[6,27,10,33,45,24,27,0,0,0,0,0,0,0,0],"split_type":[0,0,0,0,0,0,0,0,0,0,0,0,0,0,0],"sum_hessian":[5E2,3.57E2,1.43E2,2.6E1,3.31E2,8.6E1,5.7E1,1.9E1,7E0,1E1,3.21E2,7.4E1,1.2E1,8E0,4.9E1],"tree_param":{"num_deleted":"0","num_feature":"88","num_nodes":"15","size_leaf_vector":"1"}},{"base_weights":[3.4823915E-1,-2.0638945E0,6.7676134E0,6.477104E0,-3.4095743E0,1.1626938E1,-9.728749E-3,4.960129E-1,-1.537915E-1,3.5254297E-1,-2.5182995E-1,-2.8354997E-2,6.7832446E-1,-5.37204E-1,3.1542322E-1],"categories":[],"categories_nodes":[],"categories_segments":[],"categories_sizes":[],"default_left":[0,0,0,0,0,0,0,0,0,0,0,0,0,0,0],"id":4,"left_children":[1,3,5,7,9,11,13,-1,-1,-1,-1,-1,-1,-1,-1],"loss_changes":[7.880872E3,4.295211E3,4.583764E3,1.7419509E3,5.5332397E3,1.9376152E3,4.207077E3,0E0,0E0,0E0,0E0,0E0,0E0,0E0,0E0],"parents":[2147483647,0,0,1,1,2,2,3,3,4,4,5,5,6,6],"right_children":[2,4,6,8,10,12,14,-1,-1,-1,-1,-1,-1,-1,-1],"split_conditions":[1.0135E2,3.6903644E0,3.2829594E1,1.1E-2,-9.9E0,1.0781034E2,5.600486E1,4.960129E-1,-1.537915E-1,3.5254297E-1,-2.5182995E-1,-2.8354997E-2,6.7832446E-1,-5.37204E-1,3.1542322E-1],"split_indices":[50,12,22,59,42,1,25,0,0,0,0,0,0,0,0],"split_type":[0,0,0,0,0,0,0,0,0,0,0,0,0,0,0],"sum_hessian":[5.05E2,3.68E2,1.37E2,4.9E1,3.19E2,7.9E1,5.8E1,3.6E1,1.3E1,4.2E1,2.77E2,1.1E1,6.8E1,2.1E1,3.7E1],"tree_param":{"num_deleted":"0","num_feature":"88","num_nodes":"15","size_leaf_vector":"1"}},{"base_weights":[6.1626714E-1,-7.002915E-1,1.3451099E1,-2.7742517E0,4.109988E0,1.6612438E1,-4.418528E-1,6.359755E-1,-1.790534E-1,-8.923019E-2,3.8473082E-1,1.0019886E0,9.648735E-2],"categories":[],"categories_nodes":[],"categories_segments":[],"categories_sizes":[],"default_left":[0,0,0,0,0,0,0,0,0,0,0,0,0],"id":5,"left_children":[1,3,5,7,9,11,-1,-1,-1,-1,-1,-1,-1],"loss_changes":[8.355835E3,4.501508E3,3.5386768E3,4.0242236E3,2.9040876E3,1.9748936E3,0E0,0E0,0E0,0E0,0E0,0E0,0E0],"parents":[2147483647,0,0,1,1,2,2,3,3,4,4,5,5],"right_children":[2,4,6,8,10,12,-1,-1,-1,-1,-1,-1,-1],"split_conditions":[1.02145E2,1.163E2,3.6059532E1,2.5721367E1,9.98E1,2.6423326E0,-4.418528E-1,6.359755E-1,-1.790534E-1,-8.923019E-2,3.8473082E-1,1.0019886E0,9.648735E-2],"split_indices":[50,38,21,22,50,34,0,0,0,0,0,0,0],"split_type":[0,0,0,0,0,0,0,0,0,0,0,0,0],"sum_hessian":[4.91E2,4.47E2,4.4E1,3.13E2,1.34E2,3.9E1,5E0,1.4E1,2.99E2,5.1E1,8.3E1,3.1E1,8E0],"tree_param":{"num_deleted":"0","num_feature":"88","num_nodes":"13","size_leaf_vector":"1"}},{"base_weights":[-1.7845346E-1,-1.0807304E0,1.2613138E1,-1.7255697E0,1.0463867E1,-2.1363449E-1,1.6700558E1,6.1399215E-1,-1.1531651E-1,-1.4219427E-1,7.495994E-1,1.1026723E0,2.429684E-1],"categories":[],"categories_nodes":[],"categories_segments":[],"categories_sizes":[],"default_left":[0,0,0,0,0,0,0,0,0,0,0,0,0],"id":6,"left_children":[1,3,5,7,9,-1,11,-1,-1,-1,-1,-1,-1],"loss_changes":[5.780734E3,3.5157268E3,2.4265693E3,3.6711929E3,1.597823E3,0E0,1.4835942E3,0E0,0E0,0E0,0E0,0E0,0E0],"parents":[2147483647,0,0,1,1,2,2,3,3,4,4,6,6],"right_children":[2,4,6,8,10,-1,12,-1,-1,-1,-1,-1,-1],"split_conditions":[1.0964285E0,3.0641356E1,4.237288E0,2.5721367E1,-7.1E0,-2.1363449E-1,1.3394437E0,6.1399215E-1,-1.1531651E-1,-1.4219427E-1,7.495994E-1,1.1026723E0,2.429684E-1],"split_indices":[46,6,72,22,62,0,14,0,0,0,0,0,0],"split_type":[0,0,0,0,0,0,0,0,0,0,0,0,0],"sum_hessian":[4.97E2,4.66E2,3.1E1,4.43E2,2.3E1,6E0,2.5E1,1.6E1,4.27E2,6E0,1.7E1,1.6E1,9E0],"tree_param":{"num_deleted":"0","num_feature":"88","num_nodes":"13","size_leaf_vector":"1"}},{"base_weights":[2.7277184E-1,-2.2048187E0,6.7578945E0,1.4481849E1,-2.7722476E0,-1.151212E1,8.55385E0,1.1168387E0,1.2089125E-1,-3.2097587E-1,-2.1610996E-2,1.4593266E-1,-1.0661758E0,2.8959766E-2,6.143559E-1],"categories":[],"categories_nodes":[],"categories_segments":[],"categories_sizes":[],"default_left":[0,0,0,0,0,0,0,0,0,0,0,0,0,0,0],"id":7,"left_children":[1,3,5,7,9,11,13,-1,-1,-1,-1,-1,-1,-1,-1],"loss_changes":[7.905141E3,3.445224E3,4.657916E3,1.01675366E3,2.9440352E3,1.9742928E3,3.7007744E3,0E0,0E0,0E0,0E0,0E0,0E0,0E0,0E0],"parents":[2147483647,0,0,1,1,2,2,3,3,4,4,5,5,6,6],"right_children":[2,4,6,8,10,12,14,-1,-1,-1,-1,-1,-1,-1,-1],"split_conditions":[1.0135E2,-7.823362E0,5.4238438E1,1.1E0,1.3417907E1,2.607953E1,-1.3882469E0,1.1168387E0,1.2089125E-1,-3.2097587E-1,-2.1610996E-2,1.4593266E-1,-1.0661758E0,2.8959766E-2,6.143559E-1],"split_indices":[50,23,25,45,15,31,23,0,0,0,0,0,0,0,0],"split_type":[0,0,0,0,0,0,0,0,0,0,0,0,0,0,0],"sum_hessian":[4.88E2,3.54E2,1.34E2,1E1,3.44E2,1.1E1,1.23E2,5E0,5E0,1.33E2,2.11E2,5E0,6E0,4E1,8.3E1],"tree_param":{"num_deleted":"0","num_feature":"88","num_nodes":"15","size_leaf_vector":"1"}},{"base_weights":[2.3224738E-1,-1.7591072E0,6.0497913E0,-2.7479763E0,9.647569E0,-6.948537E-1,7.099205E0,4.8712775E-1,-1.6701166E-1,-0E0,7.223874E-1,4.4413993E-1,-2.4663655E-1],"categories":[],"categories_nodes":[],"categories_segments":[],"categories_sizes":[],"default_left":[0,0,0,0,0,0,0,0,0,0,0,0,0],"id":8,"left_children":[1,3,5,7,9,-1,11,-1,-1,-1,-1,-1,-1],"loss_changes":[5.769487E3,4.234344E3,2.8523472E3,2.5992617E3,1.382481E3,0E0,2.7077388E3,0E0,0E0,0E0,0E0,0E0,0E0],"parents":[2147483647,0,0,1,1,2,2,3,3,4,4,6,6],"right_children":[2,4,6,8,10,-1,12,-1,-1,-1,-1,-1,-1],"split_conditions":[1.01415E2,2.7002866E0,9.956672E1,2.5822697E1,9.89E1,-6.948537E-1,1.1745829E1,4.8712775E-1,-1.6701166E-1,-0E0,7.223874E-1,4.4413993E-1,-2.4663655E-1],"split_indices":[50,11,0,22,48,0,2,0,0,0,0,0,0],"split_type":[0,0,0,0,0,0,0,0,0,0,0,0,0],"sum_hessian":[4.94E2,3.69E2,1.25E2,3.41E2,2.8E1,5E0,1.2E2,1.4E1,3.27E2,1E1,1.8E1,1.05E2,1.5E1],"tree_param":{"num_deleted":"0","num_feature":"88","num_nodes":"13","size_leaf_vector":"1"}},{"base_weights":[-3.8067847E-1,-2.6553724E0,4.170284E0,-4.731436E0,4.5781107E0,1.0057595E1,1.0674251E0,-9.7854406E-2,-4.8597503E-1,-2.2176778E-2,5.5056643E-1,6.0575623E-2,8.6912996E-1,-1.2437663E-1,4.4715962E-1],"categories":[],"categories_nodes":[],"categories_segments":[],"categories_sizes":[],"default_left":[0,0,0,0,0,0,0,0,0,0,0,0,0,0,0],"id":9,"left_children":[1,3,5,7,9,11,13,-1,-1,-1,-1,-1,-1,-1,-1],"loss_changes":[5.1560044E3,5.0290996E3,3.0053706E3,3.5403218E3,2.437953E3,3.6420479E3,3.1555012E3,0E0,0E0,0E0,0E0,0E0,0E0,0E0,0E0],"parents":[2147483647,0,0,1,1,2,2,3,3,4,4,5,5,6,6],"right_children":[2,4,6,8,10,12,14,-1,-1,-1,-1,-1,-1,-1,-1],"split_conditions":[4.242373E1,1.0218E2,4.008621E1,3.2890526E1,1.1260076E1,2.7383429E1,1.0535715E0,-9.7854406E-2,-4.8597503E-1,-2.2176778E-2,5.5056643E-1,6.0575623E-2,8.6912996E-1,-1.2437663E-1,4.4715962E-1],"split_indices":[70,48,69,21,18,31,47,0,0,0,0,0,0,0,0],"split_type":[0,0,0,0,0,0,0,0,0,0,0,0,0,0,0],"sum_hessian":[4.94E2,3.3E2,1.64E2,2.57E2,7.3E1,5.5E1,1.09E2,1.67E2,9E1,4.2E1,3.1E1,2.6E1,2.9E1,7.6E1,3.3E1],"tree_param":{"num_deleted":"0","num_feature":"88","num_nodes":"15","size_leaf_vector":"1"}},{"base_weights":[-5.3357862E-2,-3.044471E0,2.7036567E0,-4.5047874E0,3.7647326E0,-1.0547843E0,5.5948143E0,2.7580333E-1,-2.944791E-1,4.5903E-1,-2.2932592E-1,-3.8550898E-1,9.4796024E-2,-7.642463E-1,3.329204E-1],"categories":[],"categories_nodes":[],"categories_segments":[],"categories_sizes":[],"default_left":[0,0,0,0,0,0,0,0,0,0,0,0,0,0,0],"id":10,"left_children":[1,3,5,7,9,11,13,-1,-1,-1,-1,-1,-1,-1,-1],"loss_changes":[4.280095E3,2.5102432E3,2.9479592E3,2.923787E3,2.1218281E3,2.3690776E3,3.5969902E3,0E0,0E0,0E0,0E0,0E0,0E0,0E0,0E0],"parents":[2147483647,0,0,1,1,2,2,3,3,4,4,5,5,6,6],"right_children":[2,4,6,8,10,12,14,-1,-1,-1,-1,-1,-1,-1,-1],"split_conditions":[1.0303571E0,3.4040537E0,1.1371265E2,1.2036579E1,-8E-3,-2.3247366E0,-8.2E0,2.7580333E-1,-2.944791E-1,4.5903E-1,-2.2932592E-1,-3.8550898E-1,9.4796024E-2,-7.642463E-1,3.329204E-1],"split_indices":[46,20,0,16,60,32,43,0,0,0,0,0,0,0,0],"split_type":[0,0,0,0,0,0,0,0,0,0,0,0,0,0,0],"sum_hessian":[5.15E2,2.47E2,2.68E2,2.04E2,4.3E1,1.17E2,1.51E2,2.4E1,1.8E2,2.6E1,1.7E1,3.5E1,8.2E1,6E0,1.45E2],"tree_param":{"num_deleted":"0","num_feature":"88","num_nodes":"15","size_leaf_vector":"1"}},{"base_weights":[-3.835876E-1,-6.204688E0,1.3712164E0,7.1230125E-1,-7.622411E0,-1.5460451E0,4.761801E0,4.285368E-2,-4.514501E-1,-1.3347368E-1,5.943229E-1,3.2719418E-1,-2.7034318E-1],"categories":[],"categories_nodes":[],"categories_segments":[],"categories_sizes":[],"default_left":[0,0,0,0,0,0,0,0,0,0,0,0,0],"id":11,"left_children":[1,3,5,-1,7,9,11,-1,-1,-1,-1,-1,-1],"loss_changes":[4.983869E3,3.490125E3,3.72554E3,0E0,1.29577E3,3.1222153E3,3.2244558E3,0E0,0E0,0E0,0E0,0E0,0E0],"parents":[2147483647,0,0,1,1,2,2,4,4,5,5,6,6],"right_children":[2,4,6,-1,8,10,12,-1,-1,-1,-1,-1,-1],"split_conditions":[9.857E1,2.5721367E1,1.0348214E0,7.1230125E-1,-2.023063E0,1.28E0,5.8280754E0,4.285368E-2,-4.514501E-1,-1.3347368E-1,5.943229E-1,3.2719418E-1,-2.7034318E-1],"split_indices":[49,22,46,0,8,51,13,0,0,0,0,0,0],"split_type":[0,0,0,0,0,0,0,0,0,0,0,0,0],"sum_hessian":[4.84E2,1.11E2,3.73E2,6E0,1.05E2,2.01E2,1.72E2,1.5E1,9E1,1.87E2,1.4E1,1.47E2,2.5E1],"tree_param":{"num_deleted":"0","num_feature":"88","num_nodes":"13","size_leaf_vector":"1"}},{"base_weights":[7.663026E-2,-2.203325E0,4.680096E0,1.0158749E1,-3.4064581E0,-3.410707E-1,8.981117E0,2.071059E-1,9.876272E-1,-1.2202419E-1,-7.5080943E-1,1.7205894E-1,-4.5793653E-1,-4.0896645E-1,5.4420537E-1],"categories":[],"categories_nodes":[],"categories_segments":[],"categories_sizes":[],"default_left":[0,0,0,0,0,0,0,0,0,0,0,0,0,0,0],"id":12,"left_children":[1,3,5,7,9,11,13,-1,-1,-1,-1,-1,-1,-1,-1],"loss_changes":[5.227728E3,5.0186167E3,3.5738098E3,1.5560874E3,3.338462E3,2.6672383E3,3.0858013E3,0E0,0E0,0E0,0E0,0E0,0E0,0E0,0E0],"parents":[2147483647,0,0,1,1,2,2,3,3,4,4,5,5,6,6],"right_children":[2,4,6,8,10,12,14,-1,-1,-1,-1,-1,-1,-1,-1],"split_conditions":[2.745215E1,3.5038006E0,-3E-1,8.428896E0,9.8350935E0,1.2114067E0,-5.8653827E0,2.071059E-1,9.876272E-1,-1.2202419E-1,-7.5080943E-1,1.7205894E-1,-4.5793653E-1,-4.0896645E-1,5.4420537E-1],"split_indices":[6,12,52,10,29,11,32,0,0,0,0,0,0,0,0],"split_type":[0,0,0,0,0,0,0,0,0,0,0,0,0,0,0],"sum_hessian":[4.94E2,3.31E2,1.63E2,2.8E1,3.03E2,7.6E1,8.7E1,1.9E1,9E0,2.82E2,2.1E1,5.4E1,2.2E1,8E0,7.9E1],"tree_param":{"num_deleted":"0","num_feature":"88","num_nodes":"15","size_leaf_vector":"1"}},{"base_weights":[1.5521534E-1,-3.6416468E-1,1.4464593E1,7.2187996E0,-1.494562E0,1.0675437E0,6.586542E-2,1.1466606E-1,7.567694E-1,6.973096E-1,-1.0164012E-1],"categories":[],"categories_nodes":[],"categories_segments":[],"categories_sizes":[],"default_left":[0,0,0,0,0,0,0,0,0,0,0],"id":13,"left_children":[1,3,5,7,9,-1,-1,-1,-1,-1,-1],"loss_changes":[3.6072437E3,4.0303005E3,1.4715247E3,2.3004373E3,3.4498752E3,0E0,0E0,0E0,0E0,0E0,0E0],"parents":[2147483647,0,0,1,1,2,2,3,3,4,4],"right_children":[2,4,6,8,10,-1,-1,-1,-1,-1,-1],"split_conditions":[1.207E2,3.6903644E0,8.0287E0,5.8479134E1,-8.7E0,1.0675437E0,6.586542E-2,1.1466606E-1,7.567694E-1,6.973096E-1,-1.0164012E-1],"split_indices":[38,12,9,24,45,0,0,0,0,0,0],"split_type":[0,0,0,0,0,0,0,0,0,0,0],"sum_hessian":[4.81E2,4.66E2,1.5E1,5.9E1,4.07E2,9E0,6E0,3.8E1,2.1E1,1.2E1,3.95E2],"tree_param":{"num_deleted":"0","num_feature":"88","num_nodes":"11","size_leaf_vector":"1"}},{"base_weights":[9.85067E-2,-6.1839586E-1,9.324482E0,-1.5959214E0,5.1098113E0,1.7118917E1,3.1396866E0,-1.3539867E-1,2.0917904E-1,-1.9106339E-1,4.314301E-1,1.0312048E0,4.4166812E-1,4.75593E-1,-4.0613776E-1],"categories":[],"categories_nodes":[],"categories_segments":[],"categories_sizes":[],"default_left":[0,0,0,0,0,0,0,0,0,0,0,0,0,0,0],"id":14,"left_children":[1,3,5,7,9,11,13,-1,-1,-1,-1,-1,-1,-1,-1],"loss_changes":[3.2105078E3,2.534314E3,1.5696194E3,2.5027832E3,2.1425034E3,5.6546387E1,1.7340768E3,0E0,0E0,0E0,0E0,0E0,0E0,0E0,0E0],"parents":[2147483647,0,0,1,1,2,2,3,3,4,4,5,5,6,6],"right_children":[2,4,6,8,10,12,14,-1,-1,-1,-1,-1,-1,-1,-1],"split_conditions":[1.02485E2,6.0603294E1,-2.4E0,4.6961243E1,-1.0292656E0,4.293103E0,1.1895023E2,-1.3539867E-1,2.0917904E-1,-1.9106339E-1,4.314301E-1,1.0312048E0,4.4166812E-1,4.75593E-1,-4.0613776E-1],"split_indices":[50,25,44,4,11,72,1,0,0,0,0,0,0,0,0],"split_type":[0,0,0,0,0,0,0,0,0,0,0,0,0,0,0],"sum_hessian":[4.81E2,4.48E2,3.3E1,3.84E2,6.4E1,1.3E1,2E1,3.23E2,6.1E1,1.8E1,4.6E1,7E0,6E0,1.3E1,7E0],"tree_param":{"num_deleted":"0","num_feature":"88","num_nodes":"15","size_leaf_vector":"1"}},{"base_weights":[3.2233527E-1,-2.48684E0,3.237132E0,-4.1639004E0,3.9526708E0,-3.027855E0,5.7816896E0,-5.902315E-4,-3.3837506E-1,-1.10575415E-1,5.4034525E-1,4.1563898E-1,-3.2160646E-1,1.7214225E-1,7.459922E-1],"categories":[],"categories_nodes":[],"categories_segments":[],"categories_sizes":[],"default_left":[0,0,0,0,0,0,0,0,0,0,0,0,0,0,0],"id":15,"left_children":[1,3,5,7,9,11,13,-1,-1,-1,-1,-1,-1,-1,-1],"loss_changes":[3.971364E3,2.700486E3,3.8304949E3,2.1260989E3,2.2491345E3,2.8084614E3,3.5214482E3,0E0,0E0,0E0,0E0,0E0,0E0,0E0,0E0],"parents":[2147483647,0,0,1,1,2,2,3,3,4,4,5,5,6,6],"right_children":[2,4,6,8,10,12,14,-1,-1,-1,-1,-1,-1,-1,-1],"split_conditions":[1.0303571E0,1.0218E2,1.12E2,2.6335659E1,1.17E2,4.0872936E1,1.531916E0,-5.902315E-4,-3.3837506E-1,-1.10575415E-1,5.4034525E-1,4.1563898E-1,-3.2160646E-1,1.7214225E-1,7.459922E-1],"split_indices":[46,49,1,31,36,4,26,0,0,0,0,0,0,0,0],"split_type":[0,0,0,0,0,0,0,0,0,0,0,0,0,0,0],"sum_hessian":[4.81E2,2.45E2,2.36E2,1.95E2,5E1,6.8E1,1.68E2,7.6E1,1.19E2,2.7E1,2.3E1,1.5E1,5.3E1,1.36E2,3.2E1],"tree_param":{"num_deleted":"0","num_feature":"88","num_nodes":"15","size_leaf_vector":"1"}},{"base_weights":[1.0564045E-1,-6.221058E-1,1.578326E1,8.018145E-1,-3.981264E0,2.1513666E1,-8.76442E-2,-5.9747946E-2,1.9216569E-1,2.6465511E-2,-3.9167568E-1,4.9196044E-1,1.325025E0],"categories":[],"categories_nodes":[],"categories_segments":[],"categories_sizes":[],"default_left":[0,0,0,0,0,0,0,0,0,0,0,0,0],"id":16,"left_children":[1,3,5,7,9,11,-1,-1,-1,-1,-1,-1,-1],"loss_changes":[5.401012E3,2.1699685E3,2.1955762E3,1.9478552E3,2.3576855E3,3.9183887E2,0E0,0E0,0E0,0E0,0E0,0E0,0E0],"parents":[2147483647,0,0,1,1,2,2,3,3,4,4,5,5],"right_children":[2,4,6,8,10,12,-1,-1,-1,-1,-1,-1,-1],"split_conditions":[1.1241071E0,2.1E0,2.7732115E0,8.521106E0,-2.5525546E-1,1.4603708E1,-8.76442E-2,-5.9747946E-2,1.9216569E-1,2.6465511E-2,-3.9167568E-1,4.9196044E-1,1.325025E0],"split_indices":[46,45,17,9,14,15,0,0,0,0,0,0,0],"split_type":[0,0,0,0,0,0,0,0,0,0,0,0,0],"sum_hessian":[4.69E2,4.5E2,1.9E1,3.17E2,1.33E2,1.4E1,5E0,1.92E2,1.25E2,6.2E1,7.1E1,6E0,8E0],"tree_param":{"num_deleted":"0","num_feature":"88","num_nodes":"13","size_leaf_vector":"1"}},{"base_weights":[7.728885E-1,1.10985234E-1,1.445952E1,-3.2274704E0,2.0689697E0,1.5847038E-1,1.0211264E0,4.5379883E-1,-2.0155457E-1,2.0140146E-1,-1.7241885E-1],"categories":[],"categories_nodes":[],"categories_segments":[],"categories_sizes":[],"default_left":[0,0,0,0,0,0,0,0,0,0,0],"id":17,"left_children":[1,3,5,7,9,-1,-1,-1,-1,-1,-1],"loss_changes":[4.3198154E3,3.0065586E3,1.3398555E3,1.7514921E3,3.1626245E3,0E0,0E0,0E0,0E0,0E0,0E0],"parents":[2147483647,0,0,1,1,2,2,3,3,4,4],"right_children":[2,4,6,8,10,-1,-1,-1,-1,-1,-1],"split_conditions":[1.207E2,9.978E1,2.4545618E1,2.5822697E1,1.0423225E0,1.5847038E-1,1.0211264E0,4.5379883E-1,-2.0155457E-1,2.0140146E-1,-1.7241885E-1],"split_indices":[38,50,7,22,14,0,0,0,0,0,0],"split_type":[0,0,0,0,0,0,0,0,0,0,0],"sum_hessian":[4.76E2,4.56E2,2E1,1.68E2,2.88E2,8E0,1.2E1,9E0,1.59E2,2.13E2,7.5E1],"tree_param":{"num_deleted":"0","num_feature":"88","num_nodes":"11","size_leaf_vector":"1"}},{"base_weights":[1.4649333E-1,-2.6387696E0,2.844503E0,-7.68057E0,3.3290598E-1,-1.1596004E-1,6.9569554E0,3.0522254E-1,-4.6742734E-1,8.866804E-2,-4.8072615E-1,-2.1321066E-1,1.7328201E-1,-3.5027695E-1,3.969908E-1],"categories":[],"categories_nodes":[],"categories_segments":[],"categories_sizes":[],"default_left":[0,0,0,0,0,0,0,0,0,0,0,0,0,0,0],"id":18,"left_children":[1,3,5,7,9,11,13,-1,-1,-1,-1,-1,-1,-1,-1],"loss_changes":[3.7423894E3,3.6795237E3,3.085249E3,2.2081294E3,2.265476E3,2.243706E3,1.5663696E3,0E0,0E0,0E0,0E0,0E0,0E0,0E0,0E0],"parents":[2147483647,0,0,1,1,2,2,3,3,4,4,5,5,6,6],"right_children":[2,4,6,8,10,12,14,-1,-1,-1,-1,-1,-1,-1,-1],"split_conditions":[1.0303571E0,4.71E-1,2.8463705E1,3.3206353E0,4.7296753E1,-1.8E0,5.296978E1,3.0522254E-1,-4.6742734E-1,8.866804E-2,-4.8072615E-1,-2.1321066E-1,1.7328201E-1,-3.5027695E-1,3.969908E-1],"split_indices":[46,65,30,13,28,44,24,0,0,0,0,0,0,0,0],"split_type":[0,0,0,0,0,0,0,0,0,0,0,0,0,0,0],"sum_hessian":[4.94E2,2.43E2,2.51E2,8.9E1,1.54E2,1.47E2,1.04E2,9E0,8E1,1.36E2,1.8E1,6.8E1,7.9E1,6E0,9.8E1],"tree_param":{"num_deleted":"0","num_feature":"88","num_nodes":"15","size_leaf_vector":"1"}},{"base_weights":[1.776071E-1,7.81218E-1,-2.4662755E-1,-1.0691698E0,8.460118E0,4.0825054E-1,-8.3737776E-2,-1.0231006E-1,6.232758E-1],"categories":[],"categories_nodes":[],"categories_segments":[],"categories_sizes":[],"default_left":[0,0,0,0,0,0,0,0,0],"id":19,"left_children":[1,-1,3,5,7,-1,-1,-1,-1],"loss_changes":[3.1870708E3,0E0,3.4018633E3,2.4510696E3,1.7815847E3,0E0,0E0,0E0,0E0],"parents":[2147483647,0,0,2,2,3,3,4,4],"right_children":[2,-1,4,6,8,-1,-1,-1,-1],"split_conditions":[-8.7E0,7.81218E-1,1.0964285E0,3.139535E1,2.4267824E1,4.0825054E-1,-8.3737776E-2,-1.0231006E-1,6.232758E-1],"split_indices":[45,0,46,27,7,0,0,0,0],"split_type":[0,0,0,0,0,0,0,0,0],"sum_hessian":[4.82E2,1.1E1,4.71E2,4.32E2,3.9E1,2.5E1,4.07E2,1.1E1,2.8E1],"tree_param":{"num_deleted":"0","num_feature":"88","num_nodes":"9","size_leaf_vector":"1"}},{"base_weights":[-2.4321784E-1,-1.4412029E0,5.953599E0,-1.8257291E0,7.300534E-1,-5.2311025E0,9.800423E0,3.302707E-1,-1.2627926E-1,3.8417685E-1,-4.9814415E-1,-2.087086E-1,6.5259004E-1],"categories":[],"categories_nodes":[],"categories_segments":[],"categories_sizes":[],"default_left":[0,0,0,0,0,0,0,0,0,0,0,0,0],"id":20,"left_children":[1,3,5,7,-1,9,11,-1,-1,-1,-1,-1,-1],"loss_changes":[3.711904E3,2.6316023E3,3.5898906E3,2.456466E3,0E0,1.4986433E3,2.8850366E3,0E0,0E0,0E0,0E0,0E0,0E0],"parents":[2147483647,0,0,1,1,2,2,3,3,5,5,6,6],"right_children":[2,4,6,8,-1,10,12,-1,-1,-1,-1,-1,-1],"split_conditions":[1.075E0,1.2331746E1,1.2489471E1,3.5038006E0,7.300534E-1,4.2261105E1,-3.5743442E0,3.302707E-1,-1.2627926E-1,3.8417685E-1,-4.9814415E-1,-2.087086E-1,6.5259004E-1],"split_indices":[47,32,15,12,0,4,32,0,0,0,0,0,0],"split_type":[0,0,0,0,0,0,0,0,0,0,0,0,0],"sum_hessian":[4.96E2,4.17E2,7.9E1,4.09E2,8E0,2E1,5.9E1,3E1,3.79E2,5E0,1.5E1,1.1E1,4.8E1],"tree_param":{"num_deleted":"0","num_feature":"88","num_nodes":"13","size_leaf_vector":"1"}},{"base_weights":[-1.5380405E-1,-6.6408026E-1,1.5238135E1,-1.2364884E-1,-1.1440218E1,1.0392207E0,1.0486876E-1,-2.1807173E-1,7.537303E-2,-7.2857386E-1,-2.4173192E-3],"categories":[],"categories_nodes":[],"categories_segments":[],"categories_sizes":[],"default_left":[0,0,0,0,0,0,0,0,0,0,0],"id":21,"left_children":[1,3,5,7,9,-1,-1,-1,-1,-1,-1],"loss_changes":[3.91646E3,2.8042666E3,1.0674902E3,3.2080554E3,8.1171216E2,0E0,0E0,0E0,0E0,0E0,0E0],"parents":[2147483647,0,0,1,1,2,2,3,3,4,4],"right_children":[2,4,6,8,10,-1,-1,-1,-1,-1,-1],"split_conditions":[7.5E0,3.0517231E1,1.5E-2,9.939E1,1.3E-2,1.0392207E0,1.0486876E-1,-2.1807173E-1,7.537303E-2,-7.2857386E-1,-2.4173192E-3],"split_indices":[45,7,58,50,58,0,0,0,0,0,0],"split_type":[0,0,0,0,0,0,0,0,0,0,0],"sum_hessian":[4.95E2,4.81E2,1.4E1,4.6E2,2.1E1,9E0,5E0,1.27E2,3.33E2,1.6E1,5E0],"tree_param":{"num_deleted":"0","num_feature":"88","num_nodes":"11","size_leaf_vector":"1"}},{"base_weights":[4.9108982E-2,-7.1238816E-1,1.1535726E1,-1.8741257E0,5.170589E0,2.027474E1,3.429189E0,-2.2700875E-1,3.6984276E-2,-2.7073404E-1,4.612883E-1,1.1952603E0,4.8713946E-1,5.5208665E-1,-3.290759E-1],"categories":[],"categories_nodes":[],"categories_segments":[],"categories_sizes":[],"default_left":[0,0,0,0,0,0,0,0,0,0,0,0,0,0,0],"id":22,"left_children":[1,3,5,7,9,11,13,-1,-1,-1,-1,-1,-1,-1,-1],"loss_changes":[4.2204194E3,3.1069153E3,1.9743904E3,2.6496973E3,3.3212002E3,5.2671387E1,1.5192977E3,0E0,0E0,0E0,0E0,0E0,0E0,0E0,0E0],"parents":[2147483647,0,0,1,1,2,2,3,3,4,4,5,5,6,6],"right_children":[2,4,6,8,10,12,14,-1,-1,-1,-1,-1,-1,-1,-1],"split_conditions":[1.026E2,6.0603294E1,-1.6E0,2.7513222E1,3E-1,6.0757786E-1,-1.4E-2,-2.2700875E-1,3.6984276E-2,-2.7073404E-1,4.612883E-1,1.1952603E0,4.8713946E-1,5.5208665E-1,-3.290759E-1],"split_indices":[50,25,44,30,41,8,59,0,0,0,0,0,0,0,0],"split_type":[0,0,0,0,0,0,0,0,0,0,0,0,0,0,0],"sum_hessian":[4.78E2,4.5E2,2.8E1,3.77E2,7.3E1,1.2E1,1.6E1,1.86E2,1.91E2,2E1,5.3E1,7E0,5E0,9E0,7E0],"tree_param":{"num_deleted":"0","num_feature":"88","num_nodes":"15","size_leaf_vector":"1"}},{"base_weights":[4.523827E-1,-3.569302E-1,1.3582783E1,-2.7047906E0,2.021813E0,2.1637344E0,2.135932E1,5.3051066E-2,-2.6570258E-1,2.4069682E-1,-1.7510127E-1,4.1769838E-1,-2.2524662E-1,1.271676E0,6.015181E-1],"categories":[],"categories_nodes":[],"categories_segments":[],"categories_sizes":[],"default_left":[0,0,0,0,0,0,0,0,0,0,0,0,0,0,0],"id":23,"left_children":[1,3,5,7,9,11,13,-1,-1,-1,-1,-1,-1,-1,-1],"loss_changes":[5.308357E3,2.641793E3,2.471026E3,2.3519878E3,3.6588342E3,6.551211E2,1.5455566E1,0E0,0E0,0E0,0E0,0E0,0E0,0E0,0E0],"parents":[2147483647,0,0,1,1,2,2,3,3,4,4,5,5,6,6],"right_children":[2,4,6,8,10,12,14,-1,-1,-1,-1,-1,-1,-1,-1],"split_conditions":[1.026E2,2.7453156E1,1.3329647E1,2.451003E1,1.8105263E1,5E-1,1.0257E2,5.3051066E-2,-2.6570258E-1,2.4069682E-1,-1.7510127E-1,4.1769838E-1,-2.2524662E-1,1.271676E0,6.015181E-1],"split_indices":[50,30,16,30,67,55,49,0,0,0,0,0,0,0,0],"split_type":[0,0,0,0,0,0,0,0,0,0,0,0,0,0,0],"sum_hessian":[4.96E2,4.69E2,2.7E1,2.36E2,2.33E2,1.2E1,1.5E1,9.7E1,1.39E2,1.55E2,7.8E1,6E0,6E0,8E0,7E0],"tree_param":{"num_deleted":"0","num_feature":"88","num_nodes":"15","size_leaf_vector":"1"}},{"base_weights":[2.6199415E-1,-4.0359044E0,1.8934232E0,-6.5144515E0,1.8917482E0,-8.533916E-1,2.3771353E0,-6.327087E-2,-5.0579536E-1,4.3890658E-1,-2.4154337E-1,9.479205E-1,9.6071266E-2],"categories":[],"categories_nodes":[],"categories_segments":[],"categories_sizes":[],"default_left":[0,0,0,0,0,0,0,0,0,0,0,0,0],"id":24,"left_children":[1,3,5,7,9,-1,11,-1,-1,-1,-1,-1,-1],"loss_changes":[3.4148948E3,1.9956819E3,3.311442E3,1.7646025E3,1.9848602E3,0E0,2.5311702E3,0E0,0E0,0E0,0E0,0E0,0E0],"parents":[2147483647,0,0,1,1,2,2,3,3,4,4,6,6],"right_children":[2,4,6,8,10,-1,12,-1,-1,-1,-1,-1,-1],"split_conditions":[9.9405E1,2.911579E1,-8.6E0,2.404401E1,6.5E0,-8.533916E-1,-8.7E0,-6.327087E-2,-5.0579536E-1,4.3890658E-1,-2.4154337E-1,9.479205E-1,9.6071266E-2],"split_indices":[50,31,43,6,56,0,45,0,0,0,0,0,0],"split_type":[0,0,0,0,0,0,0,0,0,0,0,0,0],"sum_hessian":[4.83E2,1.32E2,3.51E2,9.3E1,3.9E1,7E0,3.44E2,3.9E1,5.4E1,1.9E1,2E1,7E0,3.37E2],"tree_param":{"num_deleted":"0","num_feature":"88","num_nodes":"13","size_leaf_vector":"1"}},{"base_weights":[4.8175056E-2,-3.8349621E0,2.1750412E0,-1.2764693E1,-2.3515441E0,-9.6403256E-2,7.5680823E0,-7.800334E-2,-1.0654874E0,3.8856253E-1,-1.8115121E-1,1.4088206E-1,-2.3394959E-1,3.517943E-2,5.7062197E-1],"categories":[],"categories_nodes":[],"categories_segments":[],"categories_sizes":[],"default_left":[0,0,0,0,0,0,0,0,0,0,0,0,0,0,0],"id":25,"left_children":[1,3,5,7,9,11,13,-1,-1,-1,-1,-1,-1,-1,-1],"loss_changes":[4.178344E3,2.303536E3,4.010943E3,2.3156792E3,2.062102E3,3.1253958E3,2.53767E3,0E0,0E0,0E0,0E0,0E0,0E0,0E0,0E0],"parents":[2147483647,0,0,1,1,2,2,3,3,4,4,5,5,6,6],"right_children":[2,4,6,8,10,12,14,-1,-1,-1,-1,-1,-1,-1,-1],"split_conditions":[1.1304149E2,1.06325745E2,1.0127E2,3.1519875E1,1.10033E2,8.444156E0,-9.283653E-1,-7.800334E-2,-1.0654874E0,3.8856253E-1,-1.8115121E-1,1.4088206E-1,-2.3394959E-1,3.517943E-2,5.7062197E-1],"split_indices":[1,0,50,22,0,9,11,0,0,0,0,0,0,0,0],"split_type":[0,0,0,0,0,0,0,0,0,0,0,0,0,0,0],"sum_hessian":[5.02E2,1.77E2,3.25E2,2.3E1,1.54E2,2.3E2,9.5E1,1.1E1,1.2E1,1.6E1,1.38E2,1.41E2,8.9E1,3.5E1,6E1],"tree_param":{"num_deleted":"0","num_feature":"88","num_nodes":"15","size_leaf_vector":"1"}},{"base_weights":[-8.512104E-2,-2.9208262E0,1.9463118E0,-3.7741709E0,1.0224599E1,-7.9730988E0,2.7944396E0,5.958445E-1,-2.2899412E-1,7.2504646E-1,1.1723109E-1,5.5672374E-2,-6.059447E-1,6.5518063E-1,9.675186E-2],"categories":[],"categories_nodes":[],"categories_segments":[],"categories_sizes":[],"default_left":[0,0,0,0,0,0,0,0,0,0,0,0,0,0,0],"id":26,"left_children":[1,3,5,7,9,11,13,-1,-1,-1,-1,-1,-1,-1,-1],"loss_changes":[2.8287634E3,2.3735576E3,2.4480684E3,2.558125E3,3.6164465E2,8.9892224E2,2.2895962E3,0E0,0E0,0E0,0E0,0E0,0E0,0E0,0E0],"parents":[2147483647,0,0,1,1,2,2,3,3,4,4,5,5,6,6],"right_children":[2,4,6,8,10,12,14,-1,-1,-1,-1,-1,-1,-1,-1],"split_conditions":[1.00095E2,2.9804724E1,1.044202E2,-7.823362E0,2.4582664E1,-1.7551848E0,2.247965E1,5.958445E-1,-2.2899412E-1,7.2504646E-1,1.1723109E-1,5.5672374E-2,-6.059447E-1,6.5518063E-1,9.675186E-2],"split_indices":[50,6,1,23,7,14,30,0,0,0,0,0,0,0,0],"split_type":[0,0,0,0,0,0,0,0,0,0,0,0,0,0,0],"sum_hessian":[4.87E2,2.03E2,2.84E2,1.92E2,1.1E1,2.1E1,2.63E2,8E0,1.84E2,6E0,5E0,7E0,1.4E1,1.8E1,2.45E2],"tree_param":{"num_deleted":"0","num_feature":"88","num_nodes":"15","size_leaf_vector":"1"}},{"base_weights":[2.1607932E-1,-1.2570038E0,3.9043345E0,-6.3338914E0,3.151337E-1,5.331366E0,-8.236279E0,-2.7253106E-3,-5.8904934E-1,-8.669168E-2,2.5594494E-1,1.8724516E-1,1.0198988E0,1.9689539E-1,-7.2657186E-1],"categories":[],"categories_nodes":[],"categories_segments":[],"categories_sizes":[],"default_left":[0,0,0,0,0,0,0,0,0,0,0,0,0,0,0],"id":27,"left_children":[1,3,5,7,9,11,13,-1,-1,-1,-1,-1,-1,-1,-1],"loss_changes":[2.760291E3,2.9043096E3,2.5984995E3,2.934377E3,2.7655728E3,2.9663943E3,1.3459586E3,0E0,0E0,0E0,0E0,0E0,0E0,0E0,0E0],"parents":[2147483647,0,0,1,1,2,2,3,3,4,4,5,5,6,6],"right_children":[2,4,6,8,10,12,14,-1,-1,-1,-1,-1,-1,-1,-1],"split_conditions":[1.4871611E1,5.5769676E1,1.0474437E1,2.5220621E1,1.0159E2,2.3457618E0,7.5193295E0,-2.7253106E-3,-5.8904934E-1,-8.669168E-2,2.5594494E-1,1.8724516E-1,1.0198988E0,1.9689539E-1,-7.2657186E-1],"split_indices":[15,25,9,30,49,11,10,0,0,0,0,0,0,0,0],"split_type":[0,0,0,0,0,0,0,0,0,0,0,0,0,0,0],"sum_hessian":[5.04E2,3.61E2,1.43E2,8.4E1,2.77E2,1.29E2,1.4E1,4E1,4.4E1,1.95E2,8.2E1,1.19E2,1E1,5E0,9E0],"tree_param":{"num_deleted":"0","num_feature":"88","num_nodes":"15","size_leaf_vector":"1"}},{"base_weights":[-1.0553185E0,-3.106029E0,3.10668E0,7.4546784E-1,-3.7093432E0,-2.7468727E0,6.2556677E0,3.440288E-1,-2.329177E-1,-4.0607268E-1,2.4886446E-1,3.6804625E-1,-5.703761E-1],"categories":[],"categories_nodes":[],"categories_segments":[],"categories_sizes":[],"default_left":[0,0,0,0,0,0,0,0,0,0,0,0,0],"id":28,"left_children":[1,3,5,-1,7,9,11,-1,-1,-1,-1,-1,-1],"loss_changes":[4.1844053E3,3.670019E3,3.0222295E3,0E0,3.2689258E3,2.4902373E3,2.235287E3,0E0,0E0,0E0,0E0,0E0,0E0],"parents":[2147483647,0,0,1,1,2,2,4,4,5,5,6,6],"right_children":[2,4,6,-1,8,10,12,-1,-1,-1,-1,-1,-1],"split_conditions":[2.755327E1,-8.7E0,4.2442146E1,7.4546784E-1,3.345884E0,6.343506E0,5.061561E1,3.440288E-1,-2.329177E-1,-4.0607268E-1,2.4886446E-1,3.6804625E-1,-5.703761E-1],"split_indices":[6,45,3,0,12,2,27,0,0,0,0,0,0],"split_type":[0,0,0,0,0,0,0,0,0,0,0,0,0],"sum_hessian":[4.86E2,3.26E2,1.6E2,9E0,3.17E2,5.6E1,1.04E2,2.5E1,2.92E2,3.3E1,2.3E1,9.9E1,5E0],"tree_param":{"num_deleted":"0","num_feature":"88","num_nodes":"13","size_leaf_vector":"1"}},{"base_weights":[5.514649E-1,7.247272E0,-3.2853454E-1,1.1214593E1,-2.0503435E0,-2.3395953E0,2.852661E0,1.0474488E0,2.2984205E-1,2.6624596E-1,-5.741976E-1,7.4367493E-1,-1.4542103E-1,-5.3861487E-1,1.9602409E-1],"categories":[],"categories_nodes":[],"categories_segments":[],"categories_sizes":[],"default_left":[0,0,0,0,0,0,0,0,0,0,0,0,0,0,0],"id":29,"left_children":[1,3,5,7,9,11,13,-1,-1,-1,-1,-1,-1,-1,-1],"loss_changes":[2.94259E3,2.189994E3,2.840821E3,2.4358384E3,1.4473131E3,2.7437515E3,2.5834692E3,0E0,0E0,0E0,0E0,0E0,0E0,0E0,0E0],"parents":[2147483647,0,0,1,1,2,2,3,3,4,4,5,5,6,6],"right_children":[2,4,6,8,10,12,14,-1,-1,-1,-1,-1,-1,-1,-1],"split_conditions":[3.6026978E0,5.7313776E0,3.1E0,-1.0151336E-1,3.2E0,-8.7E0,-7.7E0,1.0474488E0,2.2984205E-1,2.6624596E-1,-5.741976E-1,7.4367493E-1,-1.4542103E-1,-5.3861487E-1,1.9602409E-1],"split_indices":[12,29,52,17,45,45,43,0,0,0,0,0,0,0,0],"split_type":[0,0,0,0,0,0,0,0,0,0,0,0,0,0,0],"sum_hessian":[4.96E2,5.6E1,4.4E2,3.9E1,1.7E1,2.7E2,1.7E2,1.4E1,2.5E1,1E1,7E0,7E0,2.63E2,1.1E1,1.59E2],"tree_param":{"num_deleted":"0","num_feature":"88","num_nodes":"15","size_leaf_vector":"1"}},{"base_weights":[5.492468E-1,5.382489E-3,1.6425354E1,-4.152849E0,1.5540537E0,3.6540672E-1,1.0192031E0,6.0726166E-1,-2.5084606E-1,1.9392031E-1,-5.2065708E-2],"categories":[],"categories_nodes":[],"categories_segments":[],"categories_sizes":[],"default_left":[0,0,0,0,0,0,0,0,0,0,0],"id":30,"left_children":[1,3,5,7,9,-1,-1,-1,-1,-1,-1],"loss_changes":[4.170681E3,3.0382827E3,2.6569287E2,1.9208872E3,2.0846934E3,0E0,0E0,0E0,0E0,0E0,0E0],"parents":[2147483647,0,0,1,1,2,2,3,3,4,4],"right_children":[2,4,6,8,10,-1,-1,-1,-1,-1,-1],"split_conditions":[1.207E2,1.12E2,1.6261785E-1,2.0019712E1,1.6825167E-2,3.6540672E-1,1.0192031E0,6.0726166E-1,-2.5084606E-1,1.9392031E-1,-5.2065708E-2],"split_indices":[38,1,14,6,14,0,0,0,0,0,0],"split_type":[0,0,0,0,0,0,0,0,0,0,0],"sum_hessian":[4.82E2,4.68E2,1.4E1,1.26E2,3.42E2,6E0,8E0,5E0,1.21E2,1.8E2,1.62E2],"tree_param":{"num_deleted":"0","num_feature":"88","num_nodes":"11","size_leaf_vector":"1"}},{"base_weights":[6.9342446E-1,-4.0144243E0,2.453229E0,-7.546892E0,-3.0715457E-1,3.9803648E0,-1.0767109E0,-9.7365275E-2,-5.700195E-1,7.131057E-1,-1.077703E-1,1.1431247E-1,5.9055805E-1,-3.3466074E-1,1.6685085E-1],"categories":[],"categories_nodes":[],"categories_segments":[],"categories_sizes":[],"default_left":[0,0,0,0,0,0,0,0,0,0,0,0,0,0,0],"id":31,"left_children":[1,3,5,7,9,11,13,-1,-1,-1,-1,-1,-1,-1,-1],"loss_changes":[4.1696475E3,1.785563E3,1.9830186E3,1.4593853E3,1.9134371E3,3.3351108E3,2.8227974E3,0E0,0E0,0E0,0E0,0E0,0E0,0E0,0E0],"parents":[2147483647,0,0,1,1,2,2,3,3,4,4,5,5,6,6],"right_children":[2,4,6,8,10,12,14,-1,-1,-1,-1,-1,-1,-1,-1],"split_conditions":[1.0125E0,1.3925039E1,9E-1,4.3452382E-1,-3.171765E0,1.168E2,2.9E0,-9.7365275E-2,-5.700195E-1,7.131057E-1,-1.077703E-1,1.1431247E-1,5.9055805E-1,-3.3466074E-1,1.6685085E-1],"split_indices":[46,16,44,68,26,37,44,0,0,0,0,0,0,0,0],"split_type":[0,0,0,0,0,0,0,0,0,0,0,0,0,0,0],"sum_hessian":[4.99E2,1.35E2,3.64E2,6.8E1,6.7E1,2.54E2,1.1E2,2.9E1,3.9E1,6E0,6.1E1,2.11E2,4.3E1,4.8E1,6.2E1],"tree_param":{"num_deleted":"0","num_feature":"88","num_nodes":"15","size_leaf_vector":"1"}},{"base_weights":[-1.18761025E-1,-6.4146364E-1,1.2632372E1,5.1824727E0,-1.4350184E0,8.696372E-1,1.71123E-1,-1.8029077E-2,5.013579E-1,-1.3769512E-1,1.3517997E-1],"categories":[],"categories_nodes":[],"categories_segments":[],"categories_sizes":[],"default_left":[0,0,0,0,0,0,0,0,0,0,0],"id":32,"left_children":[1,3,5,7,9,-1,-1,-1,-1,-1,-1],"loss_changes":[3.2160999E3,2.1574285E3,7.035498E2,1.5159083E3,2.252842E3,0E0,0E0,0E0,0E0,0E0,0E0],"parents":[2147483647,0,0,1,1,2,2,3,3,4,4],"right_children":[2,4,6,8,10,-1,-1,-1,-1,-1,-1],"split_conditions":[1.207E2,3.6903644E0,1.168E2,1.003E2,1.01415E2,8.696372E-1,1.71123E-1,-1.8029077E-2,5.013579E-1,-1.3769512E-1,1.3517997E-1],"split_indices":[38,12,37,50,50,0,0,0,0,0,0],"split_type":[0,0,0,0,0,0,0,0,0,0,0],"sum_hessian":[4.79E2,4.62E2,1.7E1,5.4E1,4.08E2,1E1,7E0,2.6E1,2.8E1,3.1E2,9.8E1],"tree_param":{"num_deleted":"0","num_feature":"88","num_nodes":"11","size_leaf_vector":"1"}},{"base_weights":[-2.0770732E-2,7.2966087E-1,-6.72379E0,-3.1818536E-1,5.537762E0,4.2606744E-1,-9.20137E0,-3.4429133E-2,8.22967E-1,2.0137955E-2,5.195218E-1,-8.793017E-2,-8.2307684E-1],"categories":[],"categories_nodes":[],"categories_segments":[],"categories_sizes":[],"default_left":[0,0,0,0,0,0,0,0,0,0,0,0,0],"id":33,"left_children":[1,3,5,7,9,-1,11,-1,-1,-1,-1,-1,-1],"loss_changes":[2.4977073E3,2.2531492E3,2.045709E3,2.3016626E3,1.9797134E3,0E0,2.310563E3,0E0,0E0,0E0,0E0,0E0,0E0],"parents":[2147483647,0,0,1,1,2,2,3,3,4,4,6,6],"right_children":[2,4,6,8,10,-1,12,-1,-1,-1,-1,-1,-1],"split_conditions":[6.1741676E0,1.075E0,6.768619E0,9.065065E0,-8.7923133E-1,4.2606744E-1,-3E-1,-3.4429133E-2,8.22967E-1,2.0137955E-2,5.195218E-1,-8.793017E-2,-8.2307684E-1],"split_indices":[12,47,10,8,32,0,42,0,0,0,0,0,0],"split_type":[0,0,0,0,0,0,0,0,0,0,0,0,0],"sum_hessian":[4.92E2,4.44E2,4.8E1,3.66E2,7.8E1,6E0,4.2E1,3.6E2,6E0,3.9E1,3.9E1,2.2E1,2E1],"tree_param":{"num_deleted":"0","num_feature":"88","num_nodes":"13","size_leaf_vector":"1"}},{"base_weights":[-4.9410698E-1,-9.313779E-1,1.2107945E1,-7.358383E0,-3.3323142E-1,1.2394629E-2,1.0610894E0,-5.562206E-1,9.233304E-2,3.1072859E-2,-2.2241226E-1],"categories":[],"categories_nodes":[],"categories_segments":[],"categories_sizes":[],"default_left":[0,0,0,0,0,0,0,0,0,0,0],"id":34,"left_children":[1,3,5,7,9,-1,-1,-1,-1,-1,-1],"loss_changes":[2.628948E3,1.7596237E3,1.7081941E3,1.3977168E3,1.6692214E3,0E0,0E0,0E0,0E0,0E0,0E0],"parents":[2147483647,0,0,1,1,2,2,3,3,4,4],"right_children":[2,4,6,8,10,-1,-1,-1,-1,-1,-1],"split_conditions":[1.2710477E2,-2.3017383E0,5.0312986E0,1.143E2,1.7755482E0,1.2394629E-2,1.0610894E0,-5.562206E-1,9.233304E-2,3.1072859E-2,-2.2241226E-1],"split_indices":[0,11,13,39,11,0,0,0,0,0,0],"split_type":[0,0,0,0,0,0,0,0,0,0,0],"sum_hessian":[4.72E2,4.58E2,1.4E1,3.7E1,4.21E2,7E0,7E0,2.6E1,1.1E1,3.43E2,7.8E1],"tree_param":{"num_deleted":"0","num_feature":"88","num_nodes":"11","size_leaf_vector":"1"}},{"base_weights":[-5.5985785E-1,-3.224095E0,1.5968528E0,1.0979655E0,-7.271323E0,-1.8270872E0,4.3585334E0,3.2100835E-1,-1.1216738E-1,-4.4989833E-1,6.864108E-2,2.3198418E-1,-2.6687297E-1,4.3989882E-1,-4.0080752E-2],"categories":[],"categories_nodes":[],"categories_segments":[],"categories_sizes":[],"default_left":[0,0,0,0,0,0,0,0,0,0,0,0,0,0,0],"id":35,"left_children":[1,3,5,7,9,11,13,-1,-1,-1,-1,-1,-1,-1,-1],"loss_changes":[2.8783586E3,3.9373433E3,2.636457E3,1.9870393E3,1.7598594E3,2.8874736E3,3.5459636E3,0E0,0E0,0E0,0E0,0E0,0E0,0E0,0E0],"parents":[2147483647,0,0,1,1,2,2,3,3,4,4,5,5,6,6],"right_children":[2,4,6,8,10,12,14,-1,-1,-1,-1,-1,-1,-1,-1],"split_conditions":[2.6994864E1,2.4606253E1,1.0303571E0,-3.1862602E-1,8.6E0,2.6335659E1,3.5E0,3.2100835E-1,-1.1216738E-1,-4.4989833E-1,6.864108E-2,2.3198418E-1,-2.6687297E-1,4.3989882E-1,-4.0080752E-2],"split_indices":[30,30,46,17,42,31,53,0,0,0,0,0,0,0,0],"split_type":[0,0,0,0,0,0,0,0,0,0,0,0,0,0,0],"sum_hessian":[4.97E2,2.22E2,2.75E2,1.08E2,1.14E2,1.23E2,1.52E2,4.1E1,6.7E1,9.5E1,1.9E1,4.3E1,8E1,8.1E1,7.1E1],"tree_param":{"num_deleted":"0","num_feature":"88","num_nodes":"15","size_leaf_vector":"1"}},{"base_weights":[3.2046157E-1,-4.579799E0,1.2433587E0,-2.0601099E0,-1.334926E1,4.1933208E0,-7.4310863E-1,-5.832736E-1,4.469516E-2,-6.3735634E-2,-9.063102E-1,6.1950304E-2,4.2791492E-1,-7.781878E-2,5.2546424E-1],"categories":[],"categories_nodes":[],"categories_segments":[],"categories_sizes":[],"default_left":[0,0,0,0,0,0,0,0,0,0,0,0,0,0,0],"id":36,"left_children":[1,3,5,7,9,11,13,-1,-1,-1,-1,-1,-1,-1,-1],"loss_changes":[2.2257146E3,1.6608062E3,2.4339988E3,1.8138265E3,9.246384E2,2.127445E3,2.3068853E3,0E0,0E0,0E0,0E0,0E0,0E0,0E0,0E0],"parents":[2147483647,0,0,1,1,2,2,3,3,4,4,5,5,6,6],"right_children":[2,4,6,8,10,12,14,-1,-1,-1,-1,-1,-1,-1,-1],"split_conditions":[1.124E2,2.1492E0,4.1118645E1,5E-3,1.3710526E1,1.44317875E1,6.49795E0,-5.832736E-1,4.469516E-2,-6.3735634E-2,-9.063102E-1,6.1950304E-2,4.2791492E-1,-7.781878E-2,5.2546424E-1],"split_indices":[37,11,69,57,16,16,8,0,0,0,0,0,0,0,0],"split_type":[0,0,0,0,0,0,0,0,0,0,0,0,0,0,0],"sum_hessian":[4.88E2,7.6E1,4.12E2,6.1E1,1.5E1,1.65E2,2.47E2,1.3E1,4.8E1,5E0,1E1,1E2,6.5E1,2.32E2,1.5E1],"tree_param":{"num_deleted":"0","num_feature":"88","num_nodes":"15","size_leaf_vector":"1"}},{"base_weights":[3.0353975E-1,2.1536207E0,-3.2359004E0,-7.596281E-1,5.2811146E0,3.871831E0,-5.0468173E0,-1.342345E-1,4.076688E-1,4.5946357E-1,-1.1131805E-1,9.1276056E-1,-1.0259628E-2,-5.173184E-1,-1.2537532E-1],"categories":[],"categories_nodes":[],"categories_segments":[],"categories_sizes":[],"default_left":[0,0,0,0,0,0,0,0,0,0,0,0,0,0,0],"id":37,"left_children":[1,3,5,7,9,11,13,-1,-1,-1,-1,-1,-1,-1,-1],"loss_changes":[3.2809736E3,3.0078582E3,2.253568E3,2.9922346E3,4.7095215E3,2.1276062E3,1.7987808E3,0E0,0E0,0E0,0E0,0E0,0E0,0E0,0E0],"parents":[2147483647,0,0,1,1,2,2,3,3,4,4,5,5,6,6],"right_children":[2,4,6,8,10,12,14,-1,-1,-1,-1,-1,-1,-1,-1],"split_conditions":[1.6E0,1.0074E2,2.3684134E1,4.695601E1,5.1468983E0,-2.09E0,1.1369655E2,-1.342345E-1,4.076688E-1,4.5946357E-1,-1.1131805E-1,9.1276056E-1,-1.0259628E-2,-5.173184E-1,-1.2537532E-1],"split_indices":[43,50,30,4,13,20,1,0,0,0,0,0,0,0,0],"split_type":[0,0,0,0,0,0,0,0,0,0,0,0,0,0,0],"sum_hessian":[4.97E2,3.27E2,1.7E2,1.7E2,1.57E2,3.4E1,1.36E2,1.41E2,2.9E1,1.03E2,5.4E1,6E0,2.8E1,4.2E1,9.4E1],"tree_param":{"num_deleted":"0","num_feature":"88","num_nodes":"15","size_leaf_vector":"1"}},{"base_weights":[-3.8431656E-1,1.1268008E1,-8.100751E-1,1.6306603E-1,8.4855473E-1,-4.7791395E0,6.7041034E-1,2.740499E-1,-3.23502E-1,5.2383655E-1,-0E0],"categories":[],"categories_nodes":[],"categories_segments":[],"categories_sizes":[],"default_left":[0,0,0,0,0,0,0,0,0,0,0],"id":38,"left_children":[1,3,5,-1,-1,7,9,-1,-1,-1,-1],"loss_changes":[2.533254E3,7.0111816E2,2.8995242E3,0E0,0E0,2.3961682E3,2.3627212E3,0E0,0E0,0E0,0E0],"parents":[2147483647,0,0,1,1,2,2,5,5,6,6],"right_children":[2,4,6,-1,-1,8,10,-1,-1,-1,-1],"split_conditions":[2.5721367E1,5.1097153E1,1.1086857E2,1.6306603E-1,8.4855473E-1,-4.8E-2,1.4403509E1,2.740499E-1,-3.23502E-1,5.2383655E-1,-0E0],"split_indices":[22,24,0,0,0,59,67,0,0,0,0],"split_type":[0,0,0,0,0,0,0,0,0,0,0],"sum_hessian":[5.06E2,1.6E1,4.9E2,8E0,8E0,1.32E2,3.58E2,1.8E1,1.14E2,2.1E1,3.37E2],"tree_param":{"num_deleted":"0","num_feature":"88","num_nodes":"11","size_leaf_vector":"1"}},{"base_weights":[6.3322335E-1,-1.114531E0,3.5755625E0,-7.149003E0,2.001423E-1,-5.5564076E-1,4.3364367E0,-5.071614E-1,4.1232776E-2,1.2661378E-1,-2.2605906E-1,3.561079E-1,-1.3726688E-2],"categories":[],"categories_nodes":[],"categories_segments":[],"categories_sizes":[],"default_left":[0,0,0,0,0,0,0,0,0,0,0,0,0],"id":39,"left_children":[1,3,5,7,9,-1,11,-1,-1,-1,-1,-1,-1],"loss_changes":[2.3747441E3,2.3070105E3,2.0152654E3,1.2628845E3,2.6644846E3,0E0,2.1267388E3,0E0,0E0,0E0,0E0,0E0,0E0],"parents":[2147483647,0,0,1,1,2,2,3,3,4,4,6,6],"right_children":[2,4,6,8,10,-1,12,-1,-1,-1,-1,-1,-1],"split_conditions":[1.1704071E2,-3.515531E0,2.7449347E1,5.257181E0,5.1373034E0,-5.5564076E-1,-2.2739565E-1,-5.071614E-1,4.1232776E-2,1.2661378E-1,-2.2605906E-1,3.561079E-1,-1.3726688E-2],"split_indices":[1,2,21,12,12,0,26,0,0,0,0,0,0],"split_type":[0,0,0,0,0,0,0,0,0,0,0,0,0],"sum_hessian":[4.58E2,2.88E2,1.7E2,5E1,2.38E2,7E0,1.63E2,3.6E1,1.4E1,1.6E2,7.8E1,1.01E2,6.2E1],"tree_param":{"num_deleted":"0","num_feature":"88","num_nodes":"13","size_leaf_vector":"1"}},{"base_weights":[7.2613627E-1,-1.4592968E0,2.97988E0,6.9743094E0,-2.8537006E0,-5.6878924E0,4.8594913E0,8.1612027E-1,1.9999316E-1,6.2973326E-1,-1.8247359E-1,7.701284E-1,-5.622124E-1,-3.4171373E-1,3.0116105E-1],"categories":[],"categories_nodes":[],"categories_segments":[],"categories_sizes":[],"default_left":[0,0,0,0,0,0,0,0,0,0,0,0,0,0,0],"id":40,"left_children":[1,3,5,7,9,11,13,-1,-1,-1,-1,-1,-1,-1,-1],"loss_changes":[2.4229062E3,2.977708E3,3.9975405E3,8.602588E2,2.742821E3,5.50049E3,2.8036E3,0E0,0E0,0E0,0E0,0E0,0E0,0E0,0E0],"parents":[2147483647,0,0,1,1,2,2,3,3,4,4,5,5,6,6],"right_children":[2,4,6,8,10,12,14,-1,-1,-1,-1,-1,-1,-1,-1],"split_conditions":[2.7445477E1,1.1823558E1,1.302812E1,-4.2600584E0,2.1296528E1,2.772826E1,-3.9014094E0,8.1612027E-1,1.9999316E-1,6.2973326E-1,-1.8247359E-1,7.701284E-1,-5.622124E-1,-3.4171373E-1,3.0116105E-1],"split_indices":[30,15,15,20,30,30,20,0,0,0,0,0,0,0,0],"split_type":[0,0,0,0,0,0,0,0,0,0,0,0,0,0,0],"sum_hessian":[4.88E2,2.48E2,2.4E2,3.4E1,2.14E2,4.2E1,1.98E2,6E0,2.8E1,9E0,2.05E2,8E0,3.4E1,1.7E1,1.81E2],"tree_param":{"num_deleted":"0","num_feature":"88","num_nodes":"15","size_leaf_vector":"1"}},{"base_weights":[5.8538582E-2,-5.4033977E-1,7.735122E0,7.808954E0,-1.156682E0,1.2700543E1,-2.583366E0,8.553844E-2,6.640453E-1,-6.740976E-1,-3.629023E-2,8.079077E-1,2.815488E-1,-5.234744E-1,3.5480106E-1],"categories":[],"categories_nodes":[],"categories_segments":[],"categories_sizes":[],"default_left":[0,0,0,0,0,0,0,0,0,0,0,0,0,0,0],"id":41,"left_children":[1,3,5,7,9,11,13,-1,-1,-1,-1,-1,-1,-1,-1],"loss_changes":[2.223277E3,2.3201567E3,1.863926E3,9.8150134E2,2.1985012E3,3.9378467E2,1.1425969E3,0E0,0E0,0E0,0E0,0E0,0E0,0E0,0E0],"parents":[2147483647,0,0,1,1,2,2,3,3,4,4,5,5,6,6],"right_children":[2,4,6,8,10,12,14,-1,-1,-1,-1,-1,-1,-1,-1],"split_conditions":[1.0964285E0,-3.6686738E0,1.9462558E0,5.841546E1,1.093E2,1.6985576E0,5.8E1,8.553844E-2,6.640453E-1,-6.740976E-1,-3.629023E-2,8.079077E-1,2.815488E-1,-5.234744E-1,3.5480106E-1],"split_indices":[46,17,20,24,37,14,84,0,0,0,0,0,0,0,0],"split_type":[0,0,0,0,0,0,0,0,0,0,0,0,0,0,0],"sum_hessian":[4.79E2,4.46E2,3.3E1,2.9E1,4.17E2,2.2E1,1.1E1,1.5E1,1.4E1,1.2E1,4.05E2,1.3E1,9E0,6E0,5E0],"tree_param":{"num_deleted":"0","num_feature":"88","num_nodes":"15","size_leaf_vector":"1"}},{"base_weights":[-5.672743E-1,8.21206E0,-1.1217855E0,1.3573371E0,1.640136E1,7.7238755E0,-1.5833567E0,-2.5697795E-1,2.7520224E-1,1.056489E0,3.1199592E-1,8.486345E-2,6.972153E-1,-5.892789E-1,-5.8183897E-2],"categories":[],"categories_nodes":[],"categories_segments":[],"categories_sizes":[],"default_left":[0,0,0,0,0,0,0,0,0,0,0,0,0,0,0],"id":42,"left_children":[1,3,5,7,9,11,13,-1,-1,-1,-1,-1,-1,-1,-1],"loss_changes":[2.3759753E3,1.5745222E3,1.8913586E3,5.416921E2,3.472373E2,8.070708E2,1.8371797E3,0E0,0E0,0E0,0E0,0E0,0E0,0E0,0E0],"parents":[2147483647,0,0,1,1,2,2,3,3,4,4,5,5,6,6],"right_children":[2,4,6,8,10,12,14,-1,-1,-1,-1,-1,-1,-1,-1],"split_conditions":[-3.4E-2,-1.3004309E0,2.5822697E1,7.675584E-1,2.9875198E1,1.5662484E-1,6.0329943E0,-2.5697795E-1,2.7520224E-1,1.056489E0,3.1199592E-1,8.486345E-2,6.972153E-1,-5.892789E-1,-5.8183897E-2],"split_indices":[57,32,22,11,30,8,10,0,0,0,0,0,0,0,0],"split_type":[0,0,0,0,0,0,0,0,0,0,0,0,0,0,0],"sum_hessian":[4.83E2,2.7E1,4.56E2,1.6E1,1.1E1,2.1E1,4.35E2,6E0,1E1,6E0,5E0,1.2E1,9E0,1.5E1,4.2E2],"tree_param":{"num_deleted":"0","num_feature":"88","num_nodes":"15","size_leaf_vector":"1"}},{"base_weights":[8.7675166E-1,-5.1458836E0,1.6232235E0,-7.323381E0,2.9248902E-1,8.790057E-1,7.4245677E0,-5.505367E-1,-7.018746E-2,1.3259716E-1,-6.942937E-2,1.1299979E-1,8.8813746E-1],"categories":[],"categories_nodes":[],"categories_segments":[],"categories_sizes":[],"default_left":[0,0,0,0,0,0,0,0,0,0,0,0,0],"id":43,"left_children":[1,3,5,7,-1,9,11,-1,-1,-1,-1,-1,-1],"loss_changes":[2.1998684E3,1.3793407E3,1.8565751E3,9.669573E2,0E0,1.563853E3,2.525922E3,0E0,0E0,0E0,0E0,0E0,0E0],"parents":[2147483647,0,0,1,1,2,2,3,3,5,5,6,6],"right_children":[2,4,6,8,-1,10,12,-1,-1,-1,-1,-1,-1],"split_conditions":[-2.3017383E0,3.6452284E0,1.5971331E1,1.1321181E2,2.9248902E-1,8E-3,6.4E0,-5.505367E-1,-7.018746E-2,1.3259716E-1,-6.942937E-2,1.1299979E-1,8.8813746E-1],"split_indices":[11,26,16,0,0,59,61,0,0,0,0,0,0],"split_type":[0,0,0,0,0,0,0,0,0,0,0,0,0],"sum_hessian":[4.84E2,5.2E1,4.32E2,4.4E1,8E0,3.85E2,4.7E1,2.6E1,1.8E1,2.16E2,1.69E2,3.3E1,1.4E1],"tree_param":{"num_deleted":"0","num_feature":"88","num_nodes":"13","size_leaf_vector":"1"}},{"base_weights":[-2.713623E-1,1.3629983E1,-6.746542E-1,8.604997E-1,2.7864164E-1,-5.792697E0,3.1862548E-1,-1.0285546E-1,-7.121366E-1,-3.886174E-2,3.2534334E-1],"categories":[],"categories_nodes":[],"categories_segments":[],"categories_sizes":[],"default_left":[0,0,0,0,0,0,0,0,0,0,0],"id":44,"left_children":[1,3,5,-1,-1,7,9,-1,-1,-1,-1],"loss_changes":[2.5852048E3,1.717727E2,2.2839028E3,0E0,0E0,2.2375593E3,2.5695854E3,0E0,0E0,0E0,0E0],"parents":[2147483647,0,0,1,1,2,2,5,5,6,6],"right_children":[2,4,6,-1,-1,8,10,-1,-1,-1,-1],"split_conditions":[-8.7E0,3.301211E1,-4.1E0,8.604997E-1,2.7864164E-1,2.1E-2,1.075E0,-1.0285546E-1,-7.121366E-1,-3.886174E-2,3.2534334E-1],"split_indices":[45,21,45,0,0,60,47,0,0,0,0],"split_type":[0,0,0,0,0,0,0,0,0,0,0],"sum_hessian":[4.57E2,1.1E1,4.46E2,6E0,5E0,7.1E1,3.75E2,5.1E1,2E1,3.2E2,5.5E1],"tree_param":{"num_deleted":"0","num_feature":"88","num_nodes":"11","size_leaf_vector":"1"}},{"base_weights":[-4.2067176E-1,9.3917406E-1,-3.1720283E0,4.7449946E-1,1.2977409E1,-4.1124663E0,5.177196E-1,2.1671306E-1,-5.373919E-2,2.4563773E-1,8.631402E-1,-8.82046E-2,-4.6365643E-1],"categories":[],"categories_nodes":[],"categories_segments":[],"categories_sizes":[],"default_left":[0,0,0,0,0,0,0,0,0,0,0,0,0],"id":45,"left_children":[1,3,5,7,9,11,-1,-1,-1,-1,-1,-1,-1],"loss_changes":[1.8216636E3,1.8045576E3,2.1300854E3,1.9005834E3,2.3401892E2,1.803877E3,0E0,0E0,0E0,0E0,0E0,0E0,0E0],"parents":[2147483647,0,0,1,1,2,2,3,3,4,4,5,5],"right_children":[2,4,6,8,10,12,-1,-1,-1,-1,-1,-1,-1],"split_conditions":[7.9775417E-1,7.1957445E-1,3.8633199E0,-2.09E0,-1.8E0,4.372958E0,5.177196E-1,2.1671306E-1,-5.373919E-2,2.4563773E-1,8.631402E-1,-8.82046E-2,-4.6365643E-1],"split_indices":[14,14,17,20,45,13,0,0,0,0,0,0,0],"split_type":[0,0,0,0,0,0,0,0,0,0,0,0,0],"sum_hessian":[4.83E2,3.24E2,1.59E2,3.14E2,1E1,1.5E2,9E0,8.9E1,2.25E2,5E0,5E0,1.05E2,4.5E1],"tree_param":{"num_deleted":"0","num_feature":"88","num_nodes":"13","size_leaf_vector":"1"}},{"base_weights":[-7.53612E-1,-3.1064026E0,1.1338795E0,-1.4461503E0,-1.0937547E1,1.908927E0,-8.141354E0,-3.3349326E-1,5.8198906E-2,-8.592214E-1,7.9573635E-3,-0E0,3.0744144E-1,-7.5335497E-1,3.841487E-1],"categories":[],"categories_nodes":[],"categories_segments":[],"categories_sizes":[],"default_left":[0,0,0,0,0,0,0,0,0,0,0,0,0,0,0],"id":46,"left_children":[1,3,5,7,9,11,13,-1,-1,-1,-1,-1,-1,-1,-1],"loss_changes":[2.2462305E3,2.8875503E3,2.048004E3,2.5815786E3,2.7174517E3,2.1113716E3,2.6463076E3,0E0,0E0,0E0,0E0,0E0,0E0,0E0,0E0],"parents":[2147483647,0,0,1,1,2,2,3,3,4,4,5,5,6,6],"right_children":[2,4,6,8,10,12,14,-1,-1,-1,-1,-1,-1,-1,-1],"split_conditions":[2.6994864E1,2.6264452E1,4.8843018E1,-1.9481044E0,3E-1,3.8E0,4.2897476E1,-3.3349326E-1,5.8198906E-2,-8.592214E-1,7.9573635E-3,-0E0,3.0744144E-1,-7.5335497E-1,3.841487E-1],"split_indices":[30,30,27,29,40,52,28,0,0,0,0,0,0,0,0],"split_type":[0,0,0,0,0,0,0,0,0,0,0,0,0,0,0],"sum_hessian":[5.02E2,2.23E2,2.79E2,1.86E2,3.7E1,2.59E2,2E1,6.1E1,1.25E2,2.3E1,1.4E1,1.8E2,7.9E1,1.4E1,6E0],"tree_param":{"num_deleted":"0","num_feature":"88","num_nodes":"15","size_leaf_vector":"1"}},{"base_weights":[7.2561845E-2,7.921553E-1,-2.4026234E-1,-6.1006913E0,2.9131117E-1,-4.4459757E-1,2.279866E-1,5.0309528E-2,-2.1783686E-1],"categories":[],"categories_nodes":[],"categories_segments":[],"categories_sizes":[],"default_left":[0,0,0,0,0,0,0,0,0],"id":47,"left_children":[1,-1,3,5,7,-1,-1,-1,-1],"loss_changes":[2.5363857E3,0E0,1.5734294E3,1.3330088E3,1.5455455E3,0E0,0E0,0E0,0E0],"parents":[2147483647,0,0,2,2,3,3,4,4],"right_children":[2,-1,4,6,8,-1,-1,-1,-1],"split_conditions":[-8.7E0,7.921553E-1,4.051724E0,1.8905452E0,2.0793104E1,-4.4459757E-1,2.279866E-1,5.0309528E-2,-2.1783686E-1],"split_indices":[45,0,72,14,66,0,0,0,0],"split_type":[0,0,0,0,0,0,0,0,0],"sum_hessian":[5.09E2,8E0,5.01E2,4E1,4.61E2,3.2E1,8E0,4.01E2,6E1],"tree_param":{"num_deleted":"0","num_feature":"88","num_nodes":"9","size_leaf_vector":"1"}},{"base_weights":[-5.501761E-2,-9.010264E-1,4.8487244E0,-5.6817554E-2,-9.701274E0,-5.122125E0,9.251366E0,4.30233E-2,-3.4470347E-1,-2.578571E-1,-8.454512E-1,-6.070753E-1,3.1906846E-1,-2.7527484E-1,5.7626396E-1],"categories":[],"categories_nodes":[],"categories_segments":[],"categories_sizes":[],"default_left":[0,0,0,0,0,0,0,0,0,0,0,0,0,0,0],"id":48,"left_children":[1,3,5,7,9,11,13,-1,-1,-1,-1,-1,-1,-1,-1],"loss_changes":[2.0022448E3,3.0548682E3,3.2136013E3,2.385583E3,9.936687E2,2.015029E3,1.8077056E3,0E0,0E0,0E0,0E0,0E0,0E0,0E0,0E0],"parents":[2147483647,0,0,1,1,2,2,3,3,4,4,5,5,6,6],"right_children":[2,4,6,8,10,12,14,-1,-1,-1,-1,-1,-1,-1,-1],"split_conditions":[1.5748673E1,2.5E0,-2.4156387E0,6.1318555E0,1.0081E2,1.157E2,1.0049E2,4.30233E-2,-3.4470347E-1,-2.578571E-1,-8.454512E-1,-6.070753E-1,3.1906846E-1,-2.7527484E-1,5.7626396E-1],"split_indices":[15,55,5,12,49,38,48,0,0,0,0,0,0,0,0],"split_type":[0,0,0,0,0,0,0,0,0,0,0,0,0,0,0],"sum_hessian":[4.79E2,4.1E2,6.9E1,3.76E2,3.4E1,2.1E1,4.8E1,3.33E2,4.3E1,2.3E1,1.1E1,1.3E1,8E0,6E0,4.2E1],"tree_param":{"num_deleted":"0","num_feature":"88","num_nodes":"15","size_leaf_vector":"1"}},{"base_weights":[2.3572019E-1,4.1937246E0,-1.2313039E0,8.673083E0,2.4575424E-1,-8.6196375E-1,-8.0020183E-1,-3.2448933E-1,5.837526E-1,1.8834028E-1,-3.202403E-1,9.266157E-2,-1.4511053E-1],"categories":[],"categories_nodes":[],"categories_segments":[],"categories_sizes":[],"default_left":[0,0,0,0,0,0,0,0,0,0,0,0,0],"id":49,"left_children":[1,3,5,7,9,11,-1,-1,-1,-1,-1,-1,-1],"loss_changes":[2.9847305E3,2.4494053E3,2.0100391E3,3.11283E3,1.8266212E3,2.0498792E3,0E0,0E0,0E0,0E0,0E0,0E0,0E0],"parents":[2147483647,0,0,1,1,2,2,3,3,4,4,5,5],"right_children":[2,4,6,8,10,12,-1,-1,-1,-1,-1,-1,-1],"split_conditions":[4.008621E1,1.7135593E1,2.0410797E1,2.173648E1,1.5E-2,3.1995714E1,-8.0020183E-1,-3.2448933E-1,5.837526E-1,1.8834028E-1,-3.202403E-1,9.266157E-2,-1.4511053E-1],"split_indices":[69,67,2,6,59,21,0,0,0,0,0,0,0],"split_type":[0,0,0,0,0,0,0,0,0,0,0,0,0],"sum_hessian":[5.1E2,1.37E2,3.73E2,6.3E1,7.4E1,3.66E2,7E0,1E1,5.3E1,4.9E1,2.5E1,1.57E2,2.09E2],"tree_param":{"num_deleted":"0","num_feature":"88","num_nodes":"13","size_leaf_vector":"1"}},{"base_weights":[5.999972E-1,1.0760974E0,-8.851985E0,-1.2358191E0,3.0823455E0,1.4235173E-1,-1.3095773E1,-1.0392252E-1,5.772241E-1,8.8881683E-1,1.2917417E-1,-4.3677088E-2,-8.8118887E-1],"categories":[],"categories_nodes":[],"categories_segments":[],"categories_sizes":[],"default_left":[0,0,0,0,0,0,0,0,0,0,0,0,0],"id":50,"left_children":[1,3,5,7,9,-1,11,-1,-1,-1,-1,-1,-1],"loss_changes":[2.251708E3,2.2117236E3,1.2712484E3,2.4339922E3,1.7671897E3,0E0,9.5612305E2,0E0,0E0,0E0,0E0,0E0,0E0],"parents":[2147483647,0,0,1,1,2,2,3,3,4,4,6,6],"right_children":[2,4,6,8,10,-1,12,-1,-1,-1,-1,-1,-1],"split_conditions":[3.0517231E1,5.739361E1,-5E-1,3.2157292E0,-8.249817E0,1.4235173E-1,1.0125E0,-1.0392252E-1,5.772241E-1,8.8881683E-1,1.2917417E-1,-4.3677088E-2,-8.8118887E-1],"split_indices":[7,25,55,11,23,0,46,0,0,0,0,0,0],"split_type":[0,0,0,0,0,0,0,0,0,0,0,0,0],"sum_hessian":[4.95E2,4.73E2,2.2E1,2.2E2,2.53E2,6E0,1.6E1,2.08E2,1.2E1,6E0,2.47E2,5E0,1.1E1],"tree_param":{"num_deleted":"0","num_feature":"88","num_nodes":"13","size_leaf_vector":"1"}},{"base_weights":[8.413795E-2,6.858698E-1,-6.4553795E0,1.4992272E0,-5.430454E0,-1.199831E1,-3.0286893E-1,-4.1975923E-2,2.1323135E-1,-1.1873491E-1,-9.17542E-1,-8.280426E-1,3.1924248E-3,2.616822E-1,-2.1249843E-1],"categories":[],"categories_nodes":[],"categories_segments":[],"categories_sizes":[],"default_left":[0,0,0,0,0,0,0,0,0,0,0,0,0,0,0],"id":51,"left_children":[1,3,5,7,9,11,13,-1,-1,-1,-1,-1,-1,-1,-1],"loss_changes":[1.9616833E3,2.2877815E3,1.418905E3,2.628237E3,2.0344847E3,1.2211133E3,5.247635E2,0E0,0E0,0E0,0E0,0E0,0E0,0E0,0E0],"parents":[2147483647,0,0,1,1,2,2,3,3,4,4,5,5,6,6],"right_children":[2,4,6,8,10,12,14,-1,-1,-1,-1,-1,-1,-1,-1],"split_conditions":[1.0219101E1,5.6700153E0,1.18032465E1,2.7453156E1,4.5E0,5.9996372E1,4.6949153E0,-4.1975923E-2,2.1323135E-1,-1.1873491E-1,-9.17542E-1,-8.280426E-1,3.1924248E-3,2.616822E-1,-2.1249843E-1],"split_indices":[10,32,18,30,40,24,72,0,0,0,0,0,0,0,0],"split_type":[0,0,0,0,0,0,0,0,0,0,0,0,0,0,0],"sum_hessian":[4.95E2,4.55E2,4E1,4.03E2,5.2E1,2E1,2E1,2.19E2,1.84E2,4.4E1,8E0,1.4E1,6E0,8E0,1.2E1],"tree_param":{"num_deleted":"0","num_feature":"88","num_nodes":"15","size_leaf_vector":"1"}},{"base_weights":[1.1798856E-1,1.2286077E0,-3.3585455E0,-7.895612E-1,3.401505E0,-5.422739E0,8.267413E0,5.2073695E-2,-2.7986076E-1,-4.4870175E-2,3.042427E-1,6.398102E-2,-4.2220274E-1,6.9845456E-1,-1.5010834E-1],"categories":[],"categories_nodes":[],"categories_segments":[],"categories_sizes":[],"default_left":[0,0,0,0,0,0,0,0,0,0,0,0,0,0,0],"id":52,"left_children":[1,3,5,7,9,11,13,-1,-1,-1,-1,-1,-1,-1,-1],"loss_changes":[1.930018E3,1.6686962E3,2.9920276E3,1.7569272E3,2.124506E3,2.1311865E3,1.3102134E3,0E0,0E0,0E0,0E0,0E0,0E0,0E0,0E0],"parents":[2147483647,0,0,1,1,2,2,3,3,4,4,5,5,6,6],"right_children":[2,4,6,8,10,12,14,-1,-1,-1,-1,-1,-1,-1,-1],"split_conditions":[5.5769653E0,2.7282196E1,1.5748673E1,2.5936382E1,3.138433E1,3.2126163E1,6.436833E0,5.2073695E-2,-2.7986076E-1,-4.4870175E-2,3.042427E-1,6.398102E-2,-4.2220274E-1,6.9845456E-1,-1.5010834E-1],"split_indices":[12,30,15,30,22,21,2,0,0,0,0,0,0,0,0],"split_type":[0,0,0,0,0,0,0,0,0,0,0,0,0,0,0],"sum_hessian":[4.96E2,3.77E2,1.19E2,1.96E2,1.81E2,1.02E2,1.7E1,1.43E2,5.3E1,7E1,1.11E2,3.2E1,7E1,1.1E1,6E0],"tree_param":{"num_deleted":"0","num_feature":"88","num_nodes":"15","size_leaf_vector":"1"}},{"base_weights":[-4.458861E-1,-4.344919E0,5.6924564E-1,3.956788E0,-5.74534E0,-3.2046833E0,1.9020691E0,-2.4341813E-1,5.979104E-1,-1.5856518E-1,-6.4171004E-1,1.2989666E-1,-3.5356998E-1,4.2076357E-2,4.1965723E-1],"categories":[],"categories_nodes":[],"categories_segments":[],"categories_sizes":[],"default_left":[0,0,0,0,0,0,0,0,0,0,0,0,0,0,0],"id":53,"left_children":[1,3,5,7,9,11,13,-1,-1,-1,-1,-1,-1,-1,-1],"loss_changes":[1.9739763E3,1.2438267E3,2.0034124E3,1.2497985E3,1.5345771E3,2.372434E3,2.0051696E3,0E0,0E0,0E0,0E0,0E0,0E0,0E0,0E0],"parents":[2147483647,0,0,1,1,2,2,3,3,4,4,5,5,6,6],"right_children":[2,4,6,8,10,12,14,-1,-1,-1,-1,-1,-1,-1,-1],"split_conditions":[9.9145E1,-2.5198147E0,4.7E-1,1.15920204E2,3.9E0,4.068421E1,3.205845E1,-2.4341813E-1,5.979104E-1,-1.5856518E-1,-6.4171004E-1,1.2989666E-1,-3.5356998E-1,4.2076357E-2,4.1965723E-1],"split_indices":[50,17,64,1,52,70,30,0,0,0,0,0,0,0,0],"split_type":[0,0,0,0,0,0,0,0,0,0,0,0,0,0,0],"sum_hessian":[4.95E2,1.01E2,3.94E2,1.4E1,8.7E1,1.02E2,2.92E2,7E0,7E0,6.6E1,2.1E1,4.1E1,6.1E1,2.53E2,3.9E1],"tree_param":{"num_deleted":"0","num_feature":"88","num_nodes":"15","size_leaf_vector":"1"}},{"base_weights":[2.1460712E-1,-4.5990372E-1,6.341711E0,-2.7079277E0,1.5159652E0,-3.4013635E-1,8.503853E0,-1.8836439E-2,-3.5169062E-1,-1.0093564E-1,2.0330565E-1,7.454876E-1,1.5746231E-1],"categories":[],"categories_nodes":[],"categories_segments":[],"categories_sizes":[],"default_left":[0,0,0,0,0,0,0,0,0,0,0,0,0],"id":54,"left_children":[1,3,5,7,9,-1,11,-1,-1,-1,-1,-1,-1],"loss_changes":[2.0421108E3,1.9854077E3,1.5091359E3,2.098655E3,2.1627612E3,0E0,1.3720068E3,0E0,0E0,0E0,0E0,0E0,0E0],"parents":[2147483647,0,0,1,1,2,2,3,3,4,4,6,6],"right_children":[2,4,6,8,10,-1,12,-1,-1,-1,-1,-1,-1],"split_conditions":[1.0288E2,5.7476395E1,-2.1948352E0,3.3182587E1,1.0632348E1,-3.4013635E-1,-1.7406616E-1,-1.8836439E-2,-3.5169062E-1,-1.0093564E-1,2.0330565E-1,7.454876E-1,1.5746231E-1],"split_indices":[48,25,8,21,19,0,26,0,0,0,0,0,0],"split_type":[0,0,0,0,0,0,0,0,0,0,0,0,0],"sum_hessian":[4.9E2,4.43E2,4.7E1,2.07E2,2.36E2,6E0,4.1E1,1.36E2,7.1E1,9.9E1,1.37E2,1.7E1,2.4E1],"tree_param":{"num_deleted":"0","num_feature":"88","num_nodes":"13","size_leaf_vector":"1"}},{"base_weights":[-2.7116758E-1,-2.2572324E0,1.8729624E0,7.4388194E0,-3.1366386E0,9.135324E0,8.5949814E-1,8.1910676E-1,1.4258553E-1,-2.2426765E-1,1.0519711E-1,-1.0461601E-1,6.8178004E-1,1.2833153E-1,-1.9319949E-1],"categories":[],"categories_nodes":[],"categories_segments":[],"categories_sizes":[],"default_left":[0,0,0,0,0,0,0,0,0,0,0,0,0,0,0],"id":55,"left_children":[1,3,5,7,9,11,13,-1,-1,-1,-1,-1,-1,-1,-1],"loss_changes":[2.1165461E3,2.244421E3,1.7383733E3,7.9947595E2,1.7022598E3,1.5281292E3,1.7286733E3,0E0,0E0,0E0,0E0,0E0,0E0,0E0,0E0],"parents":[2147483647,0,0,1,1,2,2,3,3,4,4,5,5,6,6],"right_children":[2,4,6,8,10,12,14,-1,-1,-1,-1,-1,-1,-1,-1],"split_conditions":[1.00505E2,3.3560993E1,3.920339E1,-2.0126476E0,4.6845932E1,1.3245681E1,1.7E0,8.1910676E-1,1.4258553E-1,-2.2426765E-1,1.0519711E-1,-1.0461601E-1,6.8178004E-1,1.2833153E-1,-1.9319949E-1],"split_indices":[50,27,69,5,4,15,45,0,0,0,0,0,0,0,0],"split_type":[0,0,0,0,0,0,0,0,0,0,0,0,0,0,0],"sum_hessian":[4.93E2,2.56E2,2.37E2,2E1,2.36E2,2.7E1,2.1E2,5E0,1.5E1,1.88E2,4.8E1,8E0,1.9E1,1.55E2,5.5E1],"tree_param":{"num_deleted":"0","num_feature":"88","num_nodes":"15","size_leaf_vector":"1"}},{"base_weights":[-5.461204E-2,-1.480902E0,2.956977E0,-3.9711826E-2,-5.474099E0,-4.7390777E-1,9.121855E0,-3.231416E-1,6.2452316E-2,-1.19977355E-1,-5.145892E-1,2.9065028E-1,-1.9193307E-1,6.3663256E-1,-4.4248793E-3],"categories":[],"categories_nodes":[],"categories_segments":[],"categories_sizes":[],"default_left":[0,0,0,0,0,0,0,0,0,0,0,0,0,0,0],"id":56,"left_children":[1,3,5,7,9,11,13,-1,-1,-1,-1,-1,-1,-1,-1],"loss_changes":[2.1256516E3,1.9304735E3,3.3759768E3,2.079936E3,1.2625505E3,2.2436482E3,1.9042075E3,0E0,0E0,0E0,0E0,0E0,0E0,0E0,0E0],"parents":[2147483647,0,0,1,1,2,2,3,3,4,4,5,5,6,6],"right_children":[2,4,6,8,10,12,14,-1,-1,-1,-1,-1,-1,-1,-1],"split_conditions":[4.242373E1,2.1E0,6.4E0,-3.3632693E0,4.252256E1,-5E-1,1E0,-3.231416E-1,6.2452316E-2,-1.19977355E-1,-5.145892E-1,2.9065028E-1,-1.9193307E-1,6.3663256E-1,-4.4248793E-3],"split_indices":[70,45,61,20,28,55,85,0,0,0,0,0,0,0,0],"split_type":[0,0,0,0,0,0,0,0,0,0,0,0,0,0,0],"sum_hessian":[4.91E2,3.34E2,1.57E2,2.47E2,8.7E1,1.02E2,5.5E1,4E1,2.07E2,5.5E1,3.2E1,3.5E1,6.7E1,3.9E1,1.6E1],"tree_param":{"num_deleted":"0","num_feature":"88","num_nodes":"15","size_leaf_vector":"1"}},{"base_weights":[4.4068724E-1,-8.790903E-2,7.674349E0,-1.8130819E0,1.7738369E0,8.5245955E-1,2.9154706E0,-1.9311382E-2,-3.5799095E-1,4.3407226E-1,-2.3374006E-3,-2.582107E-1,3.6773205E-1],"categories":[],"categories_nodes":[],"categories_segments":[],"categories_sizes":[],"default_left":[0,0,0,0,0,0,0,0,0,0,0,0,0],"id":57,"left_children":[1,3,5,7,9,-1,11,-1,-1,-1,-1,-1,-1],"loss_changes":[1.9093383E3,1.5031663E3,1.4074716E3,1.8445466E3,2.8347036E3,0E0,9.7373444E2,0E0,0E0,0E0,0E0,0E0,0E0],"parents":[2147483647,0,0,1,1,2,2,3,3,4,4,6,6],"right_children":[2,4,6,8,10,-1,12,-1,-1,-1,-1,-1,-1],"split_conditions":[1.02485E2,2.7674019E1,4.2881355E0,2.6541739E1,-3.0253162E0,8.5245955E-1,-6.391641E-1,-1.9311382E-2,-3.5799095E-1,4.3407226E-1,-2.3374006E-3,-2.582107E-1,3.6773205E-1],"split_indices":[50,31,72,31,23,0,11,0,0,0,0,0,0],"split_type":[0,0,0,0,0,0,0,0,0,0,0,0,0],"sum_hessian":[4.96E2,4.64E2,3.2E1,2.41E2,2.23E2,9E0,2.3E1,1.92E2,4.9E1,4.5E1,1.78E2,8E0,1.5E1],"tree_param":{"num_deleted":"0","num_feature":"88","num_nodes":"13","size_leaf_vector":"1"}},{"base_weights":[7.0467687E-1,-4.0820847E0,1.657255E0,4.6347857E-1,-5.4591556E0,1.1300818E0,1.3092704E1,-3.760791E-1,2.5098965E-1,7.380128E-3,2.6336417E-1,8.471249E-1,1.340428E-1],"categories":[],"categories_nodes":[],"categories_segments":[],"categories_sizes":[],"default_left":[0,0,0,0,0,0,0,0,0,0,0,0,0],"id":58,"left_children":[1,3,5,-1,7,9,11,-1,-1,-1,-1,-1,-1],"loss_changes":[2.1417278E3,1.5334244E3,2.3204258E3,0E0,1.6328328E3,1.5240701E3,5.807661E2,0E0,0E0,0E0,0E0,0E0,0E0],"parents":[2147483647,0,0,1,1,2,2,4,4,5,5,6,6],"right_children":[2,4,6,-1,8,10,12,-1,-1,-1,-1,-1,-1],"split_conditions":[9.8865E1,2E1,1.2836137E1,4.6347857E-1,2.3270292E0,1.174E2,1.29122925E1,-3.760791E-1,2.5098965E-1,7.380128E-3,2.6336417E-1,8.471249E-1,1.340428E-1],"split_indices":[50,6,29,0,33,39,19,0,0,0,0,0,0],"split_type":[0,0,0,0,0,0,0,0,0,0,0,0,0],"sum_hessian":[4.65E2,7.6E1,3.89E2,6E0,7E1,3.74E2,1.5E1,5.9E1,1.1E1,3.04E2,7E1,1E1,5E0],"tree_param":{"num_deleted":"0","num_feature":"88","num_nodes":"13","size_leaf_vector":"1"}},{"base_weights":[8.767327E-2,-7.0449157E0,6.7377055E-1,7.3738866E-2,-9.431819E0,1.7778567E0,-3.523665E0,2.3168946E-2,-5.7339644E-1,2.1207646E-1,-4.6568452E-3,-2.8021008E-1,2.2579098E-1],"categories":[],"categories_nodes":[],"categories_segments":[],"categories_sizes":[],"default_left":[0,0,0,0,0,0,0,0,0,0,0,0,0],"id":59,"left_children":[1,3,5,-1,7,9,11,-1,-1,-1,-1,-1,-1],"loss_changes":[2.0923225E3,8.045542E2,2.157351E3,0E0,6.205615E2,1.6991659E3,1.673624E3,0E0,0E0,0E0,0E0,0E0,0E0],"parents":[2147483647,0,0,1,1,2,2,4,4,5,5,6,6],"right_children":[2,4,6,-1,8,10,12,-1,-1,-1,-1,-1,-1],"split_conditions":[1.0296279E2,1.2840454E1,3.8E0,7.3738866E-2,4.2711864E0,1.1465991E2,1.3848058E1,2.3168946E-2,-5.7339644E-1,2.1207646E-1,-4.6568452E-3,-2.8021008E-1,2.2579098E-1],"split_indices":[1,15,43,0,71,1,18,0,0,0,0,0,0],"split_type":[0,0,0,0,0,0,0,0,0,0,0,0,0],"sum_hessian":[4.97E2,3.6E1,4.61E2,8E0,2.8E1,3.66E2,9.5E1,5E0,2.3E1,1.57E2,2.09E2,7.6E1,1.9E1],"tree_param":{"num_deleted":"0","num_feature":"88","num_nodes":"13","size_leaf_vector":"1"}},{"base_weights":[-6.0629493E-1,-9.512014E0,-2.4447003E-1,-1.3793208E1,1.1541301E-1,-8.437764E-1,7.025771E0,-1.5835571E-1,-9.211416E-1,-8.2929984E-2,1.7628282E-1,5.2001685E-1,-1.5513854E-1],"categories":[],"categories_nodes":[],"categories_segments":[],"categories_sizes":[],"default_left":[0,0,0,0,0,0,0,0,0,0,0,0,0],"id":60,"left_children":[1,3,5,7,-1,9,11,-1,-1,-1,-1,-1,-1],"loss_changes":[1.6499614E3,1.0815166E3,2.1742449E3,6.1043286E2,0E0,1.6520671E3,1.3670071E3,0E0,0E0,0E0,0E0,0E0,0E0],"parents":[2147483647,0,0,1,1,2,2,3,3,5,5,6,6],"right_children":[2,4,6,8,-1,10,12,-1,-1,-1,-1,-1,-1],"split_conditions":[1.093E2,1.3382715E1,2.5840654E0,8.405318E0,1.1541301E-1,1.0233E2,4.6426807E1,-1.5835571E-1,-9.211416E-1,-8.2929984E-2,1.7628282E-1,5.2001685E-1,-1.5513854E-1],"split_indices":[37,18,11,9,0,49,3,0,0,0,0,0,0],"split_type":[0,0,0,0,0,0,0,0,0,0,0,0,0],"sum_hessian":[5.13E2,1.8E1,4.95E2,1.3E1,5E0,4.59E2,3.6E1,5E0,8E0,3.88E2,7.1E1,2.7E1,9E0],"tree_param":{"num_deleted":"0","num_feature":"88","num_nodes":"13","size_leaf_vector":"1"}},{"base_weights":[9.074836E-2,-3.3440113E0,1.3954971E0,-1.2448615E0,-8.2022705E0,3.9500484E0,-5.7311934E-1,8.658218E-2,-2.5830802E-1,-5.4824215E-1,1.4769871E-3,-2.0387736E-1,3.191919E-1,1.3412893E-1,-1.6063021E-1],"categories":[],"categories_nodes":[],"categories_segments":[],"categories_sizes":[],"default_left":[0,0,0,0,0,0,0,0,0,0,0,0,0,0,0],"id":61,"left_children":[1,3,5,7,9,11,13,-1,-1,-1,-1,-1,-1,-1,-1],"loss_changes":[2.1818855E3,1.3414155E3,1.781429E3,1.1400986E3,9.157544E2,3.0619854E3,1.7447675E3,0E0,0E0,0E0,0E0,0E0,0E0,0E0,0E0],"parents":[2147483647,0,0,1,1,2,2,3,3,4,4,5,5,6,6],"right_children":[2,4,6,8,10,12,14,-1,-1,-1,-1,-1,-1,-1,-1],"split_conditions":[9.9405E1,2.5916457E0,1.714035E1,2.6574768E1,2.014584E0,-2.5E-2,-7.0108496E-2,8.658218E-2,-2.5830802E-1,-5.4824215E-1,1.4769871E-3,-2.0387736E-1,3.191919E-1,1.3412893E-1,-1.6063021E-1],"split_indices":[50,8,67,7,26,59,26,0,0,0,0,0,0,0,0],"split_type":[0,0,0,0,0,0,0,0,0,0,0,0,0,0,0],"sum_hessian":[4.83E2,1.32E2,3.51E2,9.4E1,3.8E1,1.52E2,1.99E2,5.4E1,4E1,2.8E1,1E1,3.5E1,1.17E2,8.9E1,1.1E2],"tree_param":{"num_deleted":"0","num_feature":"88","num_nodes":"15","size_leaf_vector":"1"}},{"base_weights":[6.576143E-2,-3.4019092E-1,7.858547E0,5.780891E-1,-4.4390965E0,-5.6738507E-2,1.2253611E1,-4.7923505E-2,1.8000309E-1,-4.2422953E-1,4.1361332E-2,1.5323487E-1,9.011456E-1],"categories":[],"categories_nodes":[],"categories_segments":[],"categories_sizes":[],"default_left":[0,0,0,0,0,0,0,0,0,0,0,0,0],"id":62,"left_children":[1,3,5,7,9,-1,11,-1,-1,-1,-1,-1,-1],"loss_changes":[1.5971829E3,1.8099916E3,1.0215244E3,1.8330938E3,1.8926954E3,0E0,7.80218E2,0E0,0E0,0E0,0E0,0E0,0E0],"parents":[2147483647,0,0,1,1,2,2,3,3,4,4,6,6],"right_children":[2,4,6,8,10,-1,12,-1,-1,-1,-1,-1,-1],"split_conditions":[3.2157292E0,1.2951758E0,-5.3E0,2.7513407E1,2.0686507E0,-5.6738507E-2,6E-1,-4.7923505E-2,1.8000309E-1,-4.2422953E-1,4.1361332E-2,1.5323487E-1,9.011456E-1],"split_indices":[11,14,45,6,14,0,63,0,0,0,0,0,0],"split_type":[0,0,0,0,0,0,0,0,0,0,0,0,0],"sum_hessian":[5E2,4.77E2,2.3E1,3.91E2,8.6E1,8E0,1.5E1,2.6E2,1.31E2,4.8E1,3.8E1,7E0,8E0],"tree_param":{"num_deleted":"0","num_feature":"88","num_nodes":"13","size_leaf_vector":"1"}},{"base_weights":[-6.0105544E-1,-1.8127383E0,2.2709696E0,-3.5251606E0,1.9133836E0,8.872214E0,-5.7948047E-1,2.7396843E-1,-2.4373083E-1,1.5999036E-1,-5.577443E-1,9.157773E-2,8.380408E-1,2.071439E-1,-2.5991762E-1],"categories":[],"categories_nodes":[],"categories_segments":[],"categories_sizes":[],"default_left":[0,0,0,0,0,0,0,0,0,0,0,0,0,0,0],"id":63,"left_children":[1,3,5,7,9,11,13,-1,-1,-1,-1,-1,-1,-1,-1],"loss_changes":[1.6644763E3,2.158209E3,2.6863745E3,2.860048E3,1.8662214E3,2.3175684E3,2.246609E3,0E0,0E0,0E0,0E0,0E0,0E0,0E0,0E0],"parents":[2147483647,0,0,1,1,2,2,3,3,4,4,5,5,6,6],"right_children":[2,4,6,8,10,12,14,-1,-1,-1,-1,-1,-1,-1,-1],"split_conditions":[2.7718409E1,1.3898305E0,2.5915548E1,-1.3999855E1,6.621387E0,2.5935892E1,4.5762712E-1,2.7396843E-1,-2.4373083E-1,1.5999036E-1,-5.577443E-1,9.157773E-2,8.380408E-1,2.071439E-1,-2.5991762E-1],"split_indices":[6,68,31,2,12,7,68,0,0,0,0,0,0,0,0],"split_type":[0,0,0,0,0,0,0,0,0,0,0,0,0,0,0],"sum_hessian":[4.74E2,3.34E2,1.4E2,2.29E2,1.05E2,4.1E1,9.9E1,2.9E1,2E2,9.7E1,8E0,2.3E1,1.8E1,4.9E1,5E1],"tree_param":{"num_deleted":"0","num_feature":"88","num_nodes":"15","size_leaf_vector":"1"}},{"base_weights":[5.4097664E-1,-2.9316356E0,1.6171403E0,1.769027E0,-5.8202276E0,6.483221E0,8.319095E-1,-1.0846545E-1,3.5653973E-1,-8.0945694E-1,-1.9241881E-1,1.0934639E-2,6.355848E-1,-3.2586392E-2,2.3497012E-1],"categories":[],"categories_nodes":[],"categories_segments":[],"categories_sizes":[],"default_left":[0,0,0,0,0,0,0,0,0,0,0,0,0,0,0],"id":64,"left_children":[1,3,5,7,9,11,13,-1,-1,-1,-1,-1,-1,-1,-1],"loss_changes":[1.847477E3,1.6112786E3,1.4260713E3,1.00477484E3,1.3579319E3,2.0169348E3,1.884461E3,0E0,0E0,0E0,0E0,0E0,0E0,0E0,0E0],"parents":[2147483647,0,0,1,1,2,2,3,3,4,4,5,5,6,6],"right_children":[2,4,6,8,10,12,14,-1,-1,-1,-1,-1,-1,-1,-1],"split_conditions":[-2.705906E0,4.298714E0,4.0677967E0,1.1296805E1,1.0832266E2,1.6921463E0,5.38E-1,-1.0846545E-1,3.5653973E-1,-8.0945694E-1,-1.9241881E-1,1.0934639E-2,6.355848E-1,-3.2586392E-2,2.3497012E-1],"split_indices":[8,12,71,19,1,26,65,0,0,0,0,0,0,0,0],"split_type":[0,0,0,0,0,0,0,0,0,0,0,0,0,0,0],"sum_hessian":[4.9E2,1.15E2,3.75E2,4.4E1,7.1E1,5E1,3.25E2,2.6E1,1.8E1,9E0,6.2E1,2.6E1,2.4E1,2.36E2,8.9E1],"tree_param":{"num_deleted":"0","num_feature":"88","num_nodes":"15","size_leaf_vector":"1"}},{"base_weights":[-8.877E-2,1.7090304E0,-1.938615E0,5.971803E0,-1.1609936E0,-4.9212413E0,8.4055716E-1,9.841937E-2,5.418053E-1,2.4890044E-1,-2.1965957E-1,-1.6250217E-1,-9.68934E-1,-5.6774443E-1,1.02512956E-1],"categories":[],"categories_nodes":[],"categories_segments":[],"categories_sizes":[],"default_left":[0,0,0,0,0,0,0,0,0,0,0,0,0,0,0],"id":65,"left_children":[1,3,5,7,9,11,13,-1,-1,-1,-1,-1,-1,-1,-1],"loss_changes":[1.6728927E3,3.1360085E3,2.0660427E3,1.9567427E3,3.0991863E3,2.762071E3,1.9597799E3,0E0,0E0,0E0,0E0,0E0,0E0,0E0,0E0],"parents":[2147483647,0,0,1,1,2,2,3,3,4,4,5,5,6,6],"right_children":[2,4,6,8,10,12,14,-1,-1,-1,-1,-1,-1,-1,-1],"split_conditions":[3.206927E1,1.7135593E1,-1.1E0,3.8E0,4.023731E1,5.56E-1,3.5490458E0,9.841937E-2,5.418053E-1,2.4890044E-1,-2.1965957E-1,-1.6250217E-1,-9.68934E-1,-5.6774443E-1,1.02512956E-1],"split_indices":[21,67,62,52,27,64,13,0,0,0,0,0,0,0,0],"split_type":[0,0,0,0,0,0,0,0,0,0,0,0,0,0,0],"sum_hessian":[4.99E2,2.53E2,2.46E2,1.01E2,1.52E2,1.18E2,1.28E2,5.7E1,4.4E1,5.2E1,1E2,1.08E2,1E1,1E1,1.18E2],"tree_param":{"num_deleted":"0","num_feature":"88","num_nodes":"15","size_leaf_vector":"1"}},{"base_weights":[-3.381857E-1,-2.7256858E0,1.2593355E0,-3.533495E0,5.40042E0,-3.1336753E0,3.1562145E0,1.0299026E-2,-2.7360055E-1,5.045057E-1,-1.7539683E-1,-5.10729E-1,7.8194134E-2,2.4599695E-1,-2.3306492E-1],"categories":[],"categories_nodes":[],"categories_segments":[],"categories_sizes":[],"default_left":[0,0,0,0,0,0,0,0,0,0,0,0,0,0,0],"id":66,"left_children":[1,3,5,7,9,11,13,-1,-1,-1,-1,-1,-1,-1,-1],"loss_changes":[1.9222676E3,1.3632283E3,2.5363613E3,1.3459578E3,8.678539E2,3.0964666E3,2.9690388E3,0E0,0E0,0E0,0E0,0E0,0E0,0E0,0E0],"parents":[2147483647,0,0,1,1,2,2,3,3,4,4,5,5,6,6],"right_children":[2,4,6,8,10,12,14,-1,-1,-1,-1,-1,-1,-1,-1],"split_conditions":[5.8E1,2.7002866E0,-8.6664724E-1,-7.1278447E-1,1.9826144E0,8.070373E0,4.2E-2,1.0299026E-2,-2.7360055E-1,5.045057E-1,-1.7539683E-1,-5.10729E-1,7.8194134E-2,2.4599695E-1,-2.3306492E-1],"split_indices":[83,11,17,11,8,9,59,0,0,0,0,0,0,0,0],"split_type":[0,0,0,0,0,0,0,0,0,0,0,0,0,0,0],"sum_hessian":[5E2,2E2,3E2,1.83E2,1.7E1,9E1,2.1E2,6.3E1,1.2E2,1.1E1,6E0,3.5E1,5.5E1,1.72E2,3.8E1],"tree_param":{"num_deleted":"0","num_feature":"88","num_nodes":"15","size_leaf_vector":"1"}},{"base_weights":[5.8395233E-2,-5.9404737E-1,2.793733E-1,5.855522E-1,1.464025E-2,-1.1036756E-1,7.272296E-2],"categories":[],"categories_nodes":[],"categories_segments":[],"categories_sizes":[],"default_left":[0,0,0,0,0,0,0],"id":67,"left_children":[1,-1,3,-1,5,-1,-1],"loss_changes":[1.3068124E3,0E0,1.4706488E3,0E0,1.5384926E3,0E0,0E0],"parents":[2147483647,0,0,2,2,4,4],"right_children":[2,-1,4,-1,6,-1,-1],"split_conditions":[-8.6E0,-5.9404737E-1,-1.1334495E1,5.855522E-1,-1.2510312E0,-1.1036756E-1,7.272296E-2],"split_indices":[43,0,5,0,5,0,0],"split_type":[0,0,0,0,0,0,0],"sum_hessian":[4.93E2,7E0,4.86E2,9E0,4.77E2,1.87E2,2.9E2],"tree_param":{"num_deleted":"0","num_feature":"88","num_nodes":"7","size_leaf_vector":"1"}},{"base_weights":[3.557575E-1,1.04389515E1,5.7899285E-2,2.2717686E-1,6.831064E-1,-4.7257047E0,1.0155805E0,4.161306E-1,-3.1058896E-1,1.5622284E-1,-4.5991298E-2],"categories":[],"categories_nodes":[],"categories_segments":[],"categories_sizes":[],"default_left":[0,0,0,0,0,0,0,0,0,0,0],"id":68,"left_children":[1,3,5,-1,-1,7,9,-1,-1,-1,-1],"loss_changes":[1.4651902E3,1.32776E2,2.197542E3,0E0,0E0,1.6536027E3,1.6394634E3,0E0,0E0,0E0,0E0],"parents":[2147483647,0,0,1,1,2,2,5,5,6,6],"right_children":[2,4,6,-1,-1,8,10,-1,-1,-1,-1],"split_conditions":[-8.7E0,4.9E-1,-4.1E0,2.2717686E-1,6.831064E-1,5.5113113E1,4.1253693E1,4.161306E-1,-3.1058896E-1,1.5622284E-1,-4.5991298E-2],"split_indices":[45,51,45,0,0,24,27,0,0,0,0],"split_type":[0,0,0,0,0,0,0,0,0,0,0],"sum_hessian":[4.88E2,1.2E1,4.76E2,6E0,6E0,7.8E1,3.98E2,7E0,7.1E1,1.9E2,2.08E2],"tree_param":{"num_deleted":"0","num_feature":"88","num_nodes":"11","size_leaf_vector":"1"}},{"base_weights":[6.1215454E-1,-2.8329144E0,1.7275165E0,-5.6741457E0,3.1207557E0,6.342259E0,4.8974463E-1,4.1214362E-1,-3.5997722E-1,-1.3936993E-1,4.1154137E-1,-6.8077534E-2,5.241973E-1,8.557701E-1,1.1391853E-3],"categories":[],"categories_nodes":[],"categories_segments":[],"categories_sizes":[],"default_left":[0,0,0,0,0,0,0,0,0,0,0,0,0,0,0],"id":69,"left_children":[1,3,5,7,9,11,13,-1,-1,-1,-1,-1,-1,-1,-1],"loss_changes":[1.8843749E3,2.0665825E3,2.1038115E3,1.8589458E3,1.2562506E3,2.521837E3,2.2731294E3,0E0,0E0,0E0,0E0,0E0,0E0,0E0,0E0],"parents":[2147483647,0,0,1,1,2,2,3,3,4,4,5,5,6,6],"right_children":[2,4,6,8,10,12,14,-1,-1,-1,-1,-1,-1,-1,-1],"split_conditions":[-2.705906E0,4.5656784E1,-9.256039E-1,3.3190842E0,2.7790003E1,7.8223267E0,1.4254237E1,4.1214362E-1,-3.5997722E-1,-1.3936993E-1,4.1154137E-1,-6.8077534E-2,5.241973E-1,8.557701E-1,1.1391853E-3],"split_indices":[8,4,8,13,31,9,67,0,0,0,0,0,0,0,0],"split_type":[0,0,0,0,0,0,0,0,0,0,0,0,0,0,0],"sum_hessian":[4.86E2,1.18E2,3.68E2,8E1,3.8E1,7.6E1,2.92E2,7E0,7.3E1,1.8E1,2E1,2.7E1,4.9E1,6E0,2.86E2],"tree_param":{"num_deleted":"0","num_feature":"88","num_nodes":"15","size_leaf_vector":"1"}},{"base_weights":[-6.903572E-2,-2.841576E0,1.1170607E0,6.325727E0,-4.093395E0,-7.747653E-1,4.7469378E0,-1.19170465E-1,5.922479E-1,-8.54358E-2,-4.167007E-1,-8.72281E-2,5.203806E-1,3.4164873E-1,-1.04455315E-1],"categories":[],"categories_nodes":[],"categories_segments":[],"categories_sizes":[],"default_left":[0,0,0,0,0,0,0,0,0,0,0,0,0,0,0],"id":70,"left_children":[1,3,5,7,9,11,13,-1,-1,-1,-1,-1,-1,-1,-1],"loss_changes":[1.6679033E3,1.7949938E3,2.4471606E3,9.7448047E2,1.3316875E3,2.58047E3,1.7706707E3,0E0,0E0,0E0,0E0,0E0,0E0,0E0,0E0],"parents":[2147483647,0,0,1,1,2,2,3,3,4,4,5,5,6,6],"right_children":[2,4,6,8,10,12,14,-1,-1,-1,-1,-1,-1,-1,-1],"split_conditions":[9.9465E1,3.4787167E1,1.2159026E1,1.131E2,1.3E0,6.49795E0,5.3757424E0,-1.19170465E-1,5.922479E-1,-8.54358E-2,-4.167007E-1,-8.72281E-2,5.203806E-1,3.4164873E-1,-1.04455315E-1],"split_indices":[50,28,18,38,45,8,13,0,0,0,0,0,0,0,0],"split_type":[0,0,0,0,0,0,0,0,0,0,0,0,0,0,0],"sum_hessian":[5.03E2,1.5E2,3.53E2,1.7E1,1.33E2,2.33E2,1.2E2,7E0,1E1,8.7E1,4.6E1,2.16E2,1.7E1,9.2E1,2.8E1],"tree_param":{"num_deleted":"0","num_feature":"88","num_nodes":"15","size_leaf_vector":"1"}},{"base_weights":[2.543697E-1,-1.086887E0,2.6839106E0,3.9892282E0,-2.329549E0,7.0784986E-1,9.0955305E0,4.5533676E-2,6.842924E-1,-3.1634283E-1,1.1335798E-2,1.526091E-1,-2.1606539E-1,8.292503E-1,1.7398404E-1],"categories":[],"categories_nodes":[],"categories_segments":[],"categories_sizes":[],"default_left":[0,0,0,0,0,0,0,0,0,0,0,0,0,0,0],"id":71,"left_children":[1,3,5,7,9,11,13,-1,-1,-1,-1,-1,-1,-1,-1],"loss_changes":[1.6033652E3,2.0173594E3,2.1994282E3,1.8484241E3,2.6217727E3,1.6291864E3,1.5989968E3,0E0,0E0,0E0,0E0,0E0,0E0,0E0,0E0],"parents":[2147483647,0,0,1,1,2,2,3,3,4,4,5,5,6,6],"right_children":[2,4,6,8,10,12,14,-1,-1,-1,-1,-1,-1,-1,-1],"split_conditions":[2.5E0,2.4606253E1,3.1632853E0,4.379661E1,2.7527538E1,4.500055E1,4.4035087E0,4.5533676E-2,6.842924E-1,-3.1634283E-1,1.1335798E-2,1.526091E-1,-2.1606539E-1,8.292503E-1,1.7398404E-1],"split_indices":[41,30,2,69,30,3,71,0,0,0,0,0,0,0,0],"split_type":[0,0,0,0,0,0,0,0,0,0,0,0,0,0,0],"sum_hessian":[4.88E2,3.15E2,1.73E2,6.1E1,2.54E2,1.34E2,3.9E1,4.8E1,1.3E1,9.8E1,1.56E2,9.2E1,4.2E1,1.5E1,2.4E1],"tree_param":{"num_deleted":"0","num_feature":"88","num_nodes":"15","size_leaf_vector":"1"}},{"base_weights":[-3.4215358E-1,-1.8446344E0,2.5199614E0,2.1402888E-1,-4.185857E0,9.599424E0,-2.4458513E-1,-3.4616664E-1,7.100752E-2,-6.716178E-2,-3.7625304E-1,1.1239058E-1,6.799409E-1,-1.310437E-1,3.2934532E-1],"categories":[],"categories_nodes":[],"categories_segments":[],"categories_sizes":[],"default_left":[0,0,0,0,0,0,0,0,0,0,0,0,0,0,0],"id":72,"left_children":[1,3,5,7,9,11,13,-1,-1,-1,-1,-1,-1,-1,-1],"loss_changes":[2.0859907E3,1.5364705E3,3.2778145E3,1.4889705E3,1.3896716E3,1.312835E3,2.0130426E3,0E0,0E0,0E0,0E0,0E0,0E0,0E0,0E0],"parents":[2147483647,0,0,1,1,2,2,3,3,4,4,5,5,6,6],"right_children":[2,4,6,8,10,12,14,-1,-1,-1,-1,-1,-1,-1,-1],"split_conditions":[2.745215E1,1.7333334E1,2.6129496E1,2.1589657E1,6E-3,9.982143E-1,1.165E2,-3.4616664E-1,7.100752E-2,-6.716178E-2,-3.7625304E-1,1.1239058E-1,6.799409E-1,-1.310437E-1,3.2934532E-1],"split_indices":[6,67,31,6,59,47,38,0,0,0,0,0,0,0,0],"split_type":[0,0,0,0,0,0,0,0,0,0,0,0,0,0,0],"sum_hessian":[4.81E2,3.16E2,1.65E2,1.69E2,1.47E2,4.5E1,1.2E2,2.3E1,1.46E2,8.1E1,6.6E1,1.7E1,2.8E1,9E1,3E1],"tree_param":{"num_deleted":"0","num_feature":"88","num_nodes":"15","size_leaf_vector":"1"}},{"base_weights":[3.089919E-1,-1.8121921E0,1.9146099E0,-5.4798603E-1,-8.621189E0,6.64237E-1,8.403702E0,-6.0444194E-1,2.8064653E-2,-6.758136E-1,-1.5061842E-1,5.698594E-2,-6.584428E-1,6.352621E-1,-1.450228E-1],"categories":[],"categories_nodes":[],"categories_segments":[],"categories_sizes":[],"default_left":[0,0,0,0,0,0,0,0,0,0,0,0,0,0,0],"id":73,"left_children":[1,3,5,7,9,11,13,-1,-1,-1,-1,-1,-1,-1,-1],"loss_changes":[1.675838E3,1.8108579E3,2.2561616E3,2.3365012E3,8.1633984E2,1.5828425E3,2.2667415E3,0E0,0E0,0E0,0E0,0E0,0E0,0E0,0E0],"parents":[2147483647,0,0,1,1,2,2,3,3,4,4,5,5,6,6],"right_children":[2,4,6,8,10,12,14,-1,-1,-1,-1,-1,-1,-1,-1],"split_conditions":[5.7307083E1,5.6913628E1,1.7584801E0,3.725E1,4.3496384E1,3.012033E1,5.8826897E1,-6.0444194E-1,2.8064653E-2,-6.758136E-1,-1.5061842E-1,5.698594E-2,-6.584428E-1,6.352621E-1,-1.450228E-1],"split_indices":[25,25,26,69,4,7,25,0,0,0,0,0,0,0,0],"split_type":[0,0,0,0,0,0,0,0,0,0,0,0,0,0,0],"sum_hessian":[4.88E2,2.1E2,2.78E2,1.79E2,3.1E1,2.35E2,4.3E1,1.4E1,1.65E2,1.5E1,1.6E1,2.29E2,6E0,3.1E1,1.2E1],"tree_param":{"num_deleted":"0","num_feature":"88","num_nodes":"15","size_leaf_vector":"1"}},{"base_weights":[-3.705005E-1,-3.6966696E0,8.1482273E-1,-5.0121503E0,6.5207636E-1,2.2165692E-1,7.407064E0,-4.8427686E-1,-9.092734E-2,7.495404E-2,-1.578363E-1,7.790193E-1,1.771488E-1],"categories":[],"categories_nodes":[],"categories_segments":[],"categories_sizes":[],"default_left":[0,0,0,0,0,0,0,0,0,0,0,0,0],"id":74,"left_children":[1,3,5,7,-1,9,11,-1,-1,-1,-1,-1,-1],"loss_changes":[1.9511598E3,2.9891577E3,1.4201584E3,1.7798633E3,0E0,1.463002E3,8.275095E2,0E0,0E0,0E0,0E0,0E0,0E0],"parents":[2147483647,0,0,1,1,2,2,3,3,5,5,6,6],"right_children":[2,4,6,8,-1,10,12,-1,-1,-1,-1,-1,-1],"split_conditions":[1.1195072E2,4.4763603E0,8.014429E0,1.0981571E1,6.5207636E-1,1.0508666E0,-4.5E-2,-4.8427686E-1,-9.092734E-2,7.495404E-2,-1.578363E-1,7.790193E-1,1.771488E-1],"split_indices":[1,68,2,18,0,11,59,0,0,0,0,0,0],"split_type":[0,0,0,0,0,0,0,0,0,0,0,0,0],"sum_hessian":[4.91E2,1.28E2,3.63E2,1.2E2,8E0,3.35E2,2.8E1,4.7E1,7.3E1,2.44E2,9.1E1,7E0,2.1E1],"tree_param":{"num_deleted":"0","num_feature":"88","num_nodes":"13","size_leaf_vector":"1"}},{"base_weights":[-2.6660522E-2,-7.226336E-1,3.268328E0,1.07970915E1,-1.1136845E0,-8.29296E0,6.4400053E0,8.44475E-1,9.714556E-2,1.3398784E-1,-1.0183852E-1,-1.8196069E-1,-7.1506387E-1,3.4086037E-2,6.507145E-1],"categories":[],"categories_nodes":[],"categories_segments":[],"categories_sizes":[],"default_left":[0,0,0,0,0,0,0,0,0,0,0,0,0,0,0],"id":75,"left_children":[1,3,5,7,9,11,13,-1,-1,-1,-1,-1,-1,-1,-1],"loss_changes":[1.1707014E3,1.9202329E3,3.3693997E3,6.801599E2,1.44628E3,4.4616272E2,2.6632263E3,0E0,0E0,0E0,0E0,0E0,0E0,0E0,0E0],"parents":[2147483647,0,0,1,1,2,2,3,3,4,4,5,5,6,6],"right_children":[2,4,6,8,10,12,14,-1,-1,-1,-1,-1,-1,-1,-1],"split_conditions":[1.0233E2,-1.1E1,3.7080093E1,-4.7E0,3.5939964E1,1.1231957E2,3.5E0,8.44475E-1,9.714556E-2,1.3398784E-1,-1.0183852E-1,-1.8196069E-1,-7.1506387E-1,3.4086037E-2,6.507145E-1],"split_indices":[49,5,27,42,27,1,61,0,0,0,0,0,0,0,0],"split_type":[0,0,0,0,0,0,0,0,0,0,0,0,0,0,0],"sum_hessian":[5.07E2,4.2E2,8.7E1,1.2E1,4.08E2,1.8E1,6.9E1,6E0,6E0,7.9E1,3.29E2,1.2E1,6E0,3.8E1,3.1E1],"tree_param":{"num_deleted":"0","num_feature":"88","num_nodes":"15","size_leaf_vector":"1"}},{"base_weights":[-1.0206668E-2,-7.2465056E-1,3.6520042E0,5.533714E0,-1.2344161E0,-4.5531878E-1,5.0922894E0,2.6426775E-2,5.928862E-1,-5.486642E-1,-3.5213277E-2,6.039837E-1,7.637489E-2],"categories":[],"categories_nodes":[],"categories_segments":[],"categories_sizes":[],"default_left":[0,0,0,0,0,0,0,0,0,0,0,0,0],"id":76,"left_children":[1,3,5,7,9,-1,11,-1,-1,-1,-1,-1,-1],"loss_changes":[1.3146676E3,1.354628E3,1.5975459E3,9.9416205E2,1.9974641E3,0E0,1.8244359E3,0E0,0E0,0E0,0E0,0E0,0E0],"parents":[2147483647,0,0,1,1,2,2,3,3,4,4,6,6],"right_children":[2,4,6,8,10,-1,12,-1,-1,-1,-1,-1,-1],"split_conditions":[1.075E0,1.1883474E1,-1.4739106E0,4.2609364E1,1.220884E1,-4.5531878E-1,-4.924869E-1,2.6426775E-2,5.928862E-1,-5.486642E-1,-3.5213277E-2,6.039837E-1,7.637489E-2],"split_indices":[47,15,14,28,15,0,14,0,0,0,0,0,0],"split_type":[0,0,0,0,0,0,0,0,0,0,0,0,0],"sum_hessian":[4.99E2,4.19E2,8E1,3E1,3.89E2,7E0,7.3E1,1.8E1,1.2E1,1.8E1,3.71E2,2.3E1,5E1],"tree_param":{"num_deleted":"0","num_feature":"88","num_nodes":"13","size_leaf_vector":"1"}},{"base_weights":[2.3126526E-1,8.769366E-1,-4.1264305E0,1.865773E0,-2.7622793E0,1.5867811E0,-8.965194E0,6.900431E-2,6.1020106E-1,6.228612E-2,-4.194262E-1,-2.2800827E-1,3.6074373E-1,3.7326254E-2,-7.397265E-1],"categories":[],"categories_nodes":[],"categories_segments":[],"categories_sizes":[],"default_left":[0,0,0,0,0,0,0,0,0,0,0,0,0,0,0],"id":77,"left_children":[1,3,5,7,9,11,13,-1,-1,-1,-1,-1,-1,-1,-1],"loss_changes":[1.3955504E3,1.5644498E3,1.8014131E3,1.6717346E3,2.1216204E3,1.1395927E3,2.0105632E3,0E0,0E0,0E0,0E0,0E0,0E0,0E0,0E0],"parents":[2147483647,0,0,1,1,2,2,3,3,4,4,5,5,6,6],"right_children":[2,4,6,8,10,12,14,-1,-1,-1,-1,-1,-1,-1,-1],"split_conditions":[5.6700153E0,1.4845474E0,-1.2E-2,1.5374164E1,3.240465E1,3.239601E1,1.15082855E2,6.900431E-2,6.1020106E-1,6.228612E-2,-4.194262E-1,-2.2800827E-1,3.6074373E-1,3.7326254E-2,-7.397265E-1],"split_indices":[32,34,57,15,22,21,0,0,0,0,0,0,0,0,0],"split_type":[0,0,0,0,0,0,0,0,0,0,0,0,0,0,0],"sum_hessian":[4.92E2,4.3E2,6.2E1,3.39E2,9.1E1,2.9E1,3.3E1,3.26E2,1.3E1,5.4E1,3.7E1,1.4E1,1.5E1,1.3E1,2E1],"tree_param":{"num_deleted":"0","num_feature":"88","num_nodes":"15","size_leaf_vector":"1"}},{"base_weights":[-7.159063E-1,-3.678228E-1,-9.658755E0,-3.2352954E-2,-8.723196E0,-5.3340834E-2,-8.134471E-1,-2.1953775E-2,3.1918836E-1,-1.033686E-1,-6.7921907E-1],"categories":[],"categories_nodes":[],"categories_segments":[],"categories_sizes":[],"default_left":[0,0,0,0,0,0,0,0,0,0,0],"id":78,"left_children":[1,3,5,7,9,-1,-1,-1,-1,-1,-1],"loss_changes":[1.4945046E3,1.3068506E3,9.789177E2,1.1821641E3,5.1839954E2,0E0,0E0,0E0,0E0,0E0,0E0],"parents":[2147483647,0,0,1,1,2,2,3,3,4,4],"right_children":[2,4,6,8,10,-1,-1,-1,-1,-1,-1],"split_conditions":[6.214286E0,3.07599E1,3E0,2.9560879E1,-2.8485627E0,-5.3340834E-2,-8.134471E-1,-2.1953775E-2,3.1918836E-1,-1.033686E-1,-6.7921907E-1],"split_indices":[71,7,54,7,23,0,0,0,0,0,0],"split_type":[0,0,0,0,0,0,0,0,0,0,0],"sum_hessian":[4.82E2,4.66E2,1.6E1,4.5E2,1.6E1,8E0,8E0,4.25E2,2.5E1,8E0,8E0],"tree_param":{"num_deleted":"0","num_feature":"88","num_nodes":"11","size_leaf_vector":"1"}},{"base_weights":[6.4200476E-2,-3.1844592E0,1.1220887E0,-9.456781E0,-4.379667E-1,1.270867E1,4.6529374E-1,-6.5921545E-1,-7.069E-2,3.8767993E-1,-1.8159615E-1,2.3358174E-1,9.88069E-1,-9.3887314E-2,1.250504E-1],"categories":[],"categories_nodes":[],"categories_segments":[],"categories_sizes":[],"default_left":[0,0,0,0,0,0,0,0,0,0,0,0,0,0,0],"id":79,"left_children":[1,3,5,7,9,11,13,-1,-1,-1,-1,-1,-1,-1,-1],"loss_changes":[1.707291E3,2.0884497E3,2.8353394E3,1.0646965E3,2.3304849E3,9.3680493E2,1.7125082E3,0E0,0E0,0E0,0E0,0E0,0E0,0E0,0E0],"parents":[2147483647,0,0,1,1,2,2,3,3,4,4,5,5,6,6],"right_children":[2,4,6,8,10,12,14,-1,-1,-1,-1,-1,-1,-1,-1],"split_conditions":[7.565374E0,-1.34E1,2.247965E1,2.852409E1,-3.6E0,5.8E1,2.7453156E1,-6.5921545E-1,-7.069E-2,3.8767993E-1,-1.8159615E-1,2.3358174E-1,9.88069E-1,-9.3887314E-2,1.250504E-1],"split_indices":[9,63,30,31,63,83,30,0,0,0,0,0,0,0,0],"split_type":[0,0,0,0,0,0,0,0,0,0,0,0,0,0,0],"sum_hessian":[4.93E2,1.2E2,3.73E2,3.5E1,8.5E1,1.8E1,3.55E2,2.3E1,1.2E1,2.3E1,6.2E1,1E1,8E0,1.65E2,1.9E2],"tree_param":{"num_deleted":"0","num_feature":"88","num_nodes":"15","size_leaf_vector":"1"}},{"base_weights":[-1.9215157E-2,-6.3191164E-1,4.989251E0,-3.3678784E0,9.413105E-1,6.64932E0,-3.8740757E-1,-2.7786228E-1,2.0689979E-1,1.2211359E-2,4.4881055E-1,5.0136924E-1,2.057483E-2],"categories":[],"categories_nodes":[],"categories_segments":[],"categories_sizes":[],"default_left":[0,0,0,0,0,0,0,0,0,0,0,0,0],"id":80,"left_children":[1,3,5,7,9,11,-1,-1,-1,-1,-1,-1,-1],"loss_changes":[1.4924315E3,1.8756125E3,1.2231738E3,2.659567E3,1.5424807E3,9.9797314E2,0E0,0E0,0E0,0E0,0E0,0E0,0E0],"parents":[2147483647,0,0,1,1,2,2,3,3,4,4,5,5],"right_children":[2,4,6,8,10,12,-1,-1,-1,-1,-1,-1,-1],"split_conditions":[3.280127E1,1.131E2,6.0940065E0,1.3848058E1,3.5641827E1,2.1847458E0,-3.8740757E-1,-2.7786228E-1,2.0689979E-1,1.2211359E-2,4.4881055E-1,5.0136924E-1,2.057483E-2],"split_indices":[31,38,26,18,22,29,0,0,0,0,0,0,0],"split_type":[0,0,0,0,0,0,0,0,0,0,0,0,0],"sum_hessian":[4.83E2,4.32E2,5.1E1,1.57E2,2.75E2,4.6E1,5E0,1.22E2,3.5E1,2.55E2,2E1,2.9E1,1.7E1],"tree_param":{"num_deleted":"0","num_feature":"88","num_nodes":"13","size_leaf_vector":"1"}},{"base_weights":[3.7994763E-1,1.2893658E0,-3.4346337E0,-1.4092503E0,3.1683173E0,-1.1197316E1,-7.447217E-1,2.0071934E-1,-1.774932E-1,2.598326E-1,-1.00238495E-1,-7.2940797E-1,-1.1242719E-1,4.2166483E-2,-6.861233E-1],"categories":[],"categories_nodes":[],"categories_segments":[],"categories_sizes":[],"default_left":[0,0,0,0,0,0,0,0,0,0,0,0,0,0,0],"id":81,"left_children":[1,3,5,7,9,11,13,-1,-1,-1,-1,-1,-1,-1,-1],"loss_changes":[1.6937423E3,2.0076134E3,1.9401588E3,1.9206846E3,2.467243E3,6.5423047E2,1.513456E3,0E0,0E0,0E0,0E0,0E0,0E0,0E0,0E0],"parents":[2147483647,0,0,1,1,2,2,3,3,4,4,5,5,6,6],"right_children":[2,4,6,8,10,12,14,-1,-1,-1,-1,-1,-1,-1,-1],"split_conditions":[3.5E0,5.8E1,4.5E0,0E0,1.0336678E0,1.8283514E0,1.134E2,2.0071934E-1,-1.774932E-1,2.598326E-1,-1.00238495E-1,-7.2940797E-1,-1.1242719E-1,4.2166483E-2,-6.861233E-1],"split_indices":[43,83,43,55,33,33,39,0,0,0,0,0,0,0,0],"split_type":[0,0,0,0,0,0,0,0,0,0,0,0,0,0,0],"sum_hessian":[4.84E2,3.92E2,9.2E1,1.61E2,2.31E2,2.2E1,7E1,4.5E1,1.16E2,1.66E2,6.5E1,1.5E1,7E0,6.4E1,6E0],"tree_param":{"num_deleted":"0","num_feature":"88","num_nodes":"15","size_leaf_vector":"1"}},{"base_weights":[3.5015827E-1,1.1375561E1,4.394948E-2,8.958785E-1,2.8869519E-2,3.4938318E-1,-9.274848E0,-1.2191468E-1,7.4556306E-2,-8.880218E-2,-8.6330205E-1],"categories":[],"categories_nodes":[],"categories_segments":[],"categories_sizes":[],"default_left":[0,0,0,0,0,0,0,0,0,0,0],"id":82,"left_children":[1,3,5,-1,-1,7,9,-1,-1,-1,-1],"loss_changes":[1.6239347E3,8.884042E2,1.34546E3,0E0,0E0,1.4677078E3,8.280143E2,0E0,0E0,0E0,0E0],"parents":[2147483647,0,0,1,1,2,2,5,5,6,6],"right_children":[2,4,6,-1,-1,8,10,-1,-1,-1,-1],"split_conditions":[-1.0771171E1,1.125E2,1.56E1,8.958785E-1,2.8869519E-2,4.189599E1,5.590269E1,-1.2191468E-1,7.4556306E-2,-8.880218E-2,-8.6330205E-1],"split_indices":[5,39,42,0,0,3,25,0,0,0,0],"split_type":[0,0,0,0,0,0,0,0,0,0,0],"sum_hessian":[4.81E2,1.1E1,4.7E2,6E0,5E0,4.57E2,1.3E1,1.32E2,3.25E2,8E0,5E0],"tree_param":{"num_deleted":"0","num_feature":"88","num_nodes":"11","size_leaf_vector":"1"}}]},"name":"gbtree"},"learner_model_param":{"base_score":"[2.2992714E2]","boost_from_average":"1","num_class":"0","num_feature":"88","num_target":"1"},"objective":{"name":"reg:squarederror","reg_loss_param":{"scale_pos_weight":"1"}}},"version":[3,2,0]}