{"learner":{"attributes":{"best_iteration":"46","best_score":"20.133463425120816","scikit_learn":"{\"_estimator_type\": \"regressor\"}"},"feature_names":["home_points","away_points","diff_points","home_rebounds","away_rebounds","diff_rebounds","home_assists","away_assists","diff_assists","home_steals","away_steals","diff_steals","home_blocks","away_blocks","diff_blocks","home_turnovers","away_turnovers","diff_turnovers","home_oreb","away_oreb","diff_oreb","home_dreb","away_dreb","diff_dreb","home_ts_pct","away_ts_pct","diff_ts_pct","home_fg3_rate","away_fg3_rate","diff_fg3_rate","home_ft_rate","away_ft_rate","diff_ft_rate","home_to_margin","away_to_margin","diff_to_margin","home_off_rating","away_off_rating","home_def_rating","away_def_rating","home_net_rating","away_net_rating","diff_net_rating","home_matchup_edge","away_matchup_edge","diff_matchup_edge","home_def_factor_raw","away_def_factor_raw","home_pace","away_pace","avg_pace","diff_pace","home_court","home_fatigue","away_fatigue","diff_fatigue","combined_fatigue","ff_efg_edge","ff_tov_edge","ff_oreb_edge","ff_fta_edge","home_clutch_net","away_clutch_net","diff_clutch_net","home_clutch_efg","away_clutch_efg","home_deflections","away_deflections","diff_deflections","home_contested","away_contested","home_loose_balls","away_loose_balls","home_injured_count","away_injured_count","diff_injured_count","home_injury_ppg_lost","away_injury_ppg_lost","diff_injury_ppg_lost","home_injury_minutes_lost","away_injury_minutes_lost","diff_injury_minutes_lost","home_games_played","away_games_played","min_games_played","games_played_diff","home_roster_changed","away_roster_changed"],"feature_types":["float","float","float","float","float","float","float","float","float","float","float","float","float","float","float","float","float","float","float","float","float","float","float","float","float","float","float","float","float","float","float","float","float","float","float","float","float","float","float","float","float","float","float","float","float","float","float","float","float","float","float","float","float","float","float","float","float","float","float","float","float","float","float","float","float","float","float","float","float","float","float","float","float","int","int","int","float","float","float","float","float","float","float","float","float","float","int","int"],"gradient_booster":{"model":{"cats":{"enc":[],"feature_segments":[],"sorted_idx":[]},"gbtree_model_param":{"num_parallel_tree":"1","num_trees":"67"},"iteration_indptr":[0,1,2,3,4,5,6,7,8,9,10,11,12,13,14,15,16,17,18,19,20,21,22,23,24,25,26,27,28,29,30,31,32,33,34,35,36,37,38,39,40,41,42,43,44,45,46,47,48,49,50,51,52,53,54,55,56,57,58,59,60,61,62,63,64,65,66,67],"tree_info":[0,0,0,0,0,0,0,0,0,0,0,0,0,0,0,0,0,0,0,0,0,0,0,0,0,0,0,0,0,0,0,0,0,0,0,0,0,0,0,0,0,0,0,0,0,0,0,0,0,0,0,0,0,0,0,0,0,0,0,0,0,0,0,0,0,0,0],"trees":[{"base_weights":[-1.5264468E-1,-7.5742464E0,4.6062727E0,-1.3090691E1,-5.189056E0,1.691837E0,1.0327763E1,-2.741832E-1,-8.4083605E-1,-5.154983E-1,-1.5667573E-1,-1.2399216E-1,2.2822085E-1,-1.5726876E-1,5.5964947E-1],"categories":[],"categories_nodes":[],"categories_segments":[],"categories_sizes":[],"default_left":[0,0,0,0,0,0,0,0,0,0,0,0,0,0,0],"id":0,"left_children":[1,3,5,7,9,11,13,-1,-1,-1,-1,-1,-1,-1,-1],"loss_changes":[6.6894414E4,9.591754E3,1.9201898E4,6.096785E3,5.4023105E3,9.215013E3,4.609129E3,0E0,0E0,0E0,0E0,0E0,0E0,0E0,0E0],"parents":[2147483647,0,0,1,1,2,2,3,3,4,4,5,5,6,6],"right_children":[2,4,6,8,10,12,14,-1,-1,-1,-1,-1,-1,-1,-1],"split_conditions":[9.9035E1,9.7795E1,1.00525E2,7.052346E0,3.0723623E1,1.1110255E2,-8.82648E0,-2.741832E-1,-8.4083605E-1,-5.154983E-1,-1.5667573E-1,-1.2399216E-1,2.2822085E-1,-1.5726876E-1,5.5964947E-1],"split_indices":[50,50,50,10,21,1,29,0,0,0,0,0,0,0,0],"split_type":[0,0,0,0,0,0,0,0,0,0,0,0,0,0,0],"sum_hessian":[1.89E3,7.38E2,1.152E3,2.2E2,5.18E2,7.65E2,3.87E2,7.4E1,1.46E2,1.46E2,3.72E2,3.12E2,4.53E2,2.3E1,3.64E2],"tree_param":{"num_deleted":"0","num_feature":"88","num_nodes":"15","size_leaf_vector":"1"}},{"base_weights":[-6.419223E-2,-4.4369116E0,7.555559E0,-6.76468E0,2.0294182E0,2.3512137E0,1.0267851E1,-5.36931E-1,-1.7979023E-1,-4.701099E-2,3.429707E-1,-4.5302328E-2,5.502998E-1,6.501839E-1,3.1284678E-1],"categories":[],"categories_nodes":[],"categories_segments":[],"categories_sizes":[],"default_left":[0,0,0,0,0,0,0,0,0,0,0,0,0,0,0],"id":1,"left_children":[1,3,5,7,9,11,13,-1,-1,-1,-1,-1,-1,-1,-1],"loss_changes":[6.250536E4,1.797195E4,9.600547E3,1.0959598E4,4.5626973E3,6.7062324E3,4.7545977E3,0E0,0E0,0E0,0E0,0E0,0E0,0E0,0E0],"parents":[2147483647,0,0,1,1,2,2,3,3,4,4,5,5,6,6],"right_children":[2,4,6,8,10,12,14,-1,-1,-1,-1,-1,-1,-1,-1],"split_conditions":[9.989E1,1.16709435E2,1.0975442E2,9.858E1,1.1403181E2,2.9170538E1,1.6243902E1,-5.36931E-1,-1.7979023E-1,-4.701099E-2,3.429707E-1,-4.5302328E-2,5.502998E-1,6.501839E-1,3.1284678E-1],"split_indices":[50,0,1,50,1,6,67,0,0,0,0,0,0,0,0],"split_type":[0,0,0,0,0,0,0,0,0,0,0,0,0,0,0],"sum_hessian":[1.872E3,1.19E3,6.82E2,8.75E2,3.15E2,2.35E2,4.47E2,3.86E2,4.89E2,1.96E2,1.19E2,1.72E2,6.3E1,2.63E2,1.84E2],"tree_param":{"num_deleted":"0","num_feature":"88","num_nodes":"15","size_leaf_vector":"1"}},{"base_weights":[2.4989688E-1,-4.3108425E0,4.597834E0,-1.0637564E1,-1.3083196E0,-3.2138362E0,7.112961E0,-8.357547E-1,-3.328512E-1,-1.962622E-1,1.38927E-1,-4.188776E-1,-2.8531313E-2,8.155749E-2,5.020146E-1],"categories":[],"categories_nodes":[],"categories_segments":[],"categories_sizes":[],"default_left":[0,0,0,0,0,0,0,0,0,0,0,0,0,0,0],"id":2,"left_children":[1,3,5,7,9,11,13,-1,-1,-1,-1,-1,-1,-1,-1],"loss_changes":[3.6526633E4,1.7043709E4,1.8575111E4,6.757213E3,6.5677275E3,3.1388342E3,1.141902E4,0E0,0E0,0E0,0E0,0E0,0E0,0E0,0E0],"parents":[2147483647,0,0,1,1,2,2,3,3,4,4,5,5,6,6],"right_children":[2,4,6,8,10,12,14,-1,-1,-1,-1,-1,-1,-1,-1],"split_conditions":[9.946E1,9.824E1,9.793E1,1.07609055E2,1.1412573E2,3.9182926E1,1.1010355E2,-8.357547E-1,-3.328512E-1,-1.962622E-1,1.38927E-1,-4.188776E-1,-2.8531313E-2,8.155749E-2,5.020146E-1],"split_indices":[48,49,49,0,0,70,1,0,0,0,0,0,0,0,0],"split_type":[0,0,0,0,0,0,0,0,0,0,0,0,0,0,0],"sum_hessian":[1.838E3,8.97E2,9.41E2,2.87E2,6.1E2,2.29E2,7.12E2,1.11E2,1.76E2,3.72E2,2.38E2,7.6E1,1.53E2,2.49E2,4.63E2],"tree_param":{"num_deleted":"0","num_feature":"88","num_nodes":"15","size_leaf_vector":"1"}},{"base_weights":[9.1084786E-2,-3.8724382E0,4.4281406E0,-7.5993533E0,2.1245797E0,1.7915963E-1,7.5297213E0,-5.8457166E-1,-1.9168435E-1,-3.6067197E-1,2.2198239E-1,-7.057409E-2,3.261692E-1,1.3249056E-1,4.369487E-1],"categories":[],"categories_nodes":[],"categories_segments":[],"categories_sizes":[],"default_left":[0,0,0,0,0,0,0,0,0,0,0,0,0,0,0],"id":3,"left_children":[1,3,5,7,9,11,13,-1,-1,-1,-1,-1,-1,-1,-1],"loss_changes":[3.3262883E4,2.2631258E4,1.2170434E4,9.518066E3,8.472125E3,3.9767944E3,3.0991523E3,0E0,0E0,0E0,0E0,0E0,0E0,0E0,0E0],"parents":[2147483647,0,0,1,1,2,2,3,3,4,4,5,5,6,6],"right_children":[2,4,6,8,10,12,14,-1,-1,-1,-1,-1,-1,-1,-1],"split_conditions":[9.959E1,1.0009E2,9.891E1,1.1049697E2,1.102E2,1.0203E2,2.3832823E1,-5.8457166E-1,-1.9168435E-1,-3.6067197E-1,2.2198239E-1,-7.057409E-2,3.261692E-1,1.3249056E-1,4.369487E-1],"split_indices":[49,48,48,0,37,49,7,0,0,0,0,0,0,0,0],"split_type":[0,0,0,0,0,0,0,0,0,0,0,0,0,0,0],"sum_hessian":[1.931E3,1.009E3,9.22E2,6.22E2,3.87E2,3.9E2,5.32E2,2.96E2,3.26E2,7.6E1,3.11E2,3.13E2,7.7E1,1.07E2,4.25E2],"tree_param":{"num_deleted":"0","num_feature":"88","num_nodes":"15","size_leaf_vector":"1"}},{"base_weights":[6.619139E-2,-5.1198883E0,4.84197E0,-9.161704E0,-2.3507047E0,1.8934284E0,8.814733E0,-7.8078866E-1,-3.46343E-1,-4.0484387E-1,-3.365941E-2,-4.4434205E-2,2.908449E-1,-8.9859605E-2,5.0353914E-1],"categories":[],"categories_nodes":[],"categories_segments":[],"categories_sizes":[],"default_left":[0,0,0,0,0,0,0,0,0,0,0,0,0,0,0],"id":4,"left_children":[1,3,5,7,9,11,13,-1,-1,-1,-1,-1,-1,-1,-1],"loss_changes":[4.686014E4,1.0102793E4,1.1499412E4,5.080365E3,5.199574E3,6.2128257E3,5.6252344E3,0E0,0E0,0E0,0E0,0E0,0E0,0E0,0E0],"parents":[2147483647,0,0,1,1,2,2,3,3,4,4,5,5,6,6],"right_children":[2,4,6,8,10,12,14,-1,-1,-1,-1,-1,-1,-1,-1],"split_conditions":[9.929E1,1.0914196E2,1.1480514E2,2.3092207E1,9.787E1,2.7611845E1,5.202532E0,-7.8078866E-1,-3.46343E-1,-4.0484387E-1,-3.365941E-2,-4.4434205E-2,2.908449E-1,-8.9859605E-2,5.0353914E-1],"split_indices":[50,1,1,6,50,6,77,0,0,0,0,0,0,0,0],"split_type":[0,0,0,0,0,0,0,0,0,0,0,0,0,0,0],"sum_hessian":[1.888E3,9.05E2,9.83E2,3.66E2,5.39E2,5.66E2,4.17E2,9.1E1,2.75E2,1.2E2,4.19E2,3.32E2,2.34E2,4.4E1,3.73E2],"tree_param":{"num_deleted":"0","num_feature":"88","num_nodes":"15","size_leaf_vector":"1"}},{"base_weights":[8.427382E-2,-5.090187E0,5.0053716E0,-7.639873E0,-5.2815425E-1,1.6235952E0,8.781629E0,-9.986687E-1,-3.3526847E-1,-1.9379206E-1,1.5347007E-1,-4.3663014E-2,3.3590266E-1,1.6875298E-1,6.1509436E-1],"categories":[],"categories_nodes":[],"categories_segments":[],"categories_sizes":[],"default_left":[0,0,0,0,0,0,0,0,0,0,0,0,0,0,0],"id":5,"left_children":[1,3,5,7,9,11,13,-1,-1,-1,-1,-1,-1,-1,-1],"loss_changes":[4.8636277E4,1.0817006E4,1.24685625E4,6.5996523E3,4.0708086E3,6.6164004E3,8.702145E3,0E0,0E0,0E0,0E0,0E0,0E0,0E0,0E0],"parents":[2147483647,0,0,1,1,2,2,3,3,4,4,5,5,6,6],"right_children":[2,4,6,8,10,12,14,-1,-1,-1,-1,-1,-1,-1,-1],"split_conditions":[9.929E1,1.1367629E2,1.14224236E2,9.7155E1,1.1223623E2,1.1830955E2,1.0008E2,-9.986687E-1,-3.3526847E-1,-1.9379206E-1,1.5347007E-1,-4.3663014E-2,3.3590266E-1,1.6875298E-1,6.1509436E-1],"split_indices":[50,1,1,50,0,0,48,0,0,0,0,0,0,0,0],"split_type":[0,0,0,0,0,0,0,0,0,0,0,0,0,0,0],"sum_hessian":[1.906E3,9.29E2,9.77E2,5.95E2,3.34E2,5.17E2,4.6E2,3.9E1,5.56E2,1.73E2,1.61E2,3.48E2,1.69E2,1.83E2,2.77E2],"tree_param":{"num_deleted":"0","num_feature":"88","num_nodes":"15","size_leaf_vector":"1"}},{"base_weights":[1.4604925E-1,-3.9063654E0,4.5927405E0,-7.450485E0,-1.2383378E0,1.9064246E0,9.734822E0,-6.698709E-1,-2.6597688E-1,-2.28301E-1,4.8164587E-2,-2.2227769E-1,2.3684335E-1,3.536511E-1,8.939924E-1],"categories":[],"categories_nodes":[],"categories_segments":[],"categories_sizes":[],"default_left":[0,0,0,0,0,0,0,0,0,0,0,0,0,0,0],"id":6,"left_children":[1,3,5,7,9,11,13,-1,-1,-1,-1,-1,-1,-1,-1],"loss_changes":[3.420184E4,9.366824E3,1.2458057E4,5.246635E3,4.179276E3,1.077567E4,6.4555293E3,0E0,0E0,0E0,0E0,0E0,0E0,0E0,0E0],"parents":[2147483647,0,0,1,1,2,2,3,3,4,4,5,5,6,6],"right_children":[2,4,6,8,10,12,14,-1,-1,-1,-1,-1,-1,-1,-1],"split_conditions":[1.025E0,1.1068159E2,2.7303747E1,3.4217686E1,5.6812923E1,3.9292683E1,1.2033319E2,-6.698709E-1,-2.6597688E-1,-2.28301E-1,4.8164587E-2,-2.2227769E-1,2.3684335E-1,3.536511E-1,8.939924E-1],"split_indices":[46,0,7,79,25,70,0,0,0,0,0,0,0,0,0],"split_type":[0,0,0,0,0,0,0,0,0,0,0,0,0,0,0],"sum_hessian":[1.894E3,9.91E2,9.03E2,4.24E2,5.67E2,5.95E2,3.08E2,1.09E2,3.15E2,2.25E2,3.42E2,1.83E2,4.12E2,2.35E2,7.3E1],"tree_param":{"num_deleted":"0","num_feature":"88","num_nodes":"15","size_leaf_vector":"1"}},{"base_weights":[1.3373193E-1,-5.0969806E0,5.1937084E0,-1.0779612E1,-3.1150568E0,2.6669276E0,8.353298E0,-9.615038E-1,-4.4148564E-1,-3.103406E-1,5.452053E-3,1.5677935E-1,-6.6236997E-1,4.8095527E-1,-9.873711E-2],"categories":[],"categories_nodes":[],"categories_segments":[],"categories_sizes":[],"default_left":[0,0,0,0,0,0,0,0,0,0,0,0,0,0,0],"id":7,"left_children":[1,3,5,7,9,11,13,-1,-1,-1,-1,-1,-1,-1,-1],"loss_changes":[5.0976043E4,1.0591521E4,7.765871E3,3.6669023E3,7.0319277E3,4.1577637E3,5.715631E3,0E0,0E0,0E0,0E0,0E0,0E0,0E0,0E0],"parents":[2147483647,0,0,1,1,2,2,3,3,4,4,5,5,6,6],"right_children":[2,4,6,8,10,12,14,-1,-1,-1,-1,-1,-1,-1,-1],"split_conditions":[9.9325E1,9.7895E1,1.00465E2,5.5056675E1,1.147E2,8.077597E1,3.112639E0,-9.615038E-1,-4.4148564E-1,-3.103406E-1,5.452053E-3,1.5677935E-1,-6.6236997E-1,4.8095527E-1,-9.873711E-2],"split_indices":[50,50,50,25,36,81,17,0,0,0,0,0,0,0,0],"split_type":[0,0,0,0,0,0,0,0,0,0,0,0,0,0,0],"sum_hessian":[1.922E3,9.45E2,9.77E2,2.42E2,7.03E2,5.45E2,4.32E2,4.2E1,2E2,3.58E2,3.45E2,5.31E2,1.4E1,3.85E2,4.7E1],"tree_param":{"num_deleted":"0","num_feature":"88","num_nodes":"15","size_leaf_vector":"1"}},{"base_weights":[-3.807058E-2,-4.922504E0,4.332303E0,-7.5964866E0,-3.9960468E-1,2.4627812E0,8.587471E0,-7.705602E-1,-3.0892465E-1,-3.479977E-1,4.0773746E-2,1.5784612E-2,3.2164413E-1,1.4244983E-1,6.152748E-1],"categories":[],"categories_nodes":[],"categories_segments":[],"categories_sizes":[],"default_left":[0,0,0,0,0,0,0,0,0,0,0,0,0,0,0],"id":8,"left_children":[1,3,5,7,9,11,13,-1,-1,-1,-1,-1,-1,-1,-1],"loss_changes":[4.0004152E4,1.069326E4,7.819797E3,5.9599277E3,2.6529392E3,5.874235E3,6.344379E3,0E0,0E0,0E0,0E0,0E0,0E0,0E0,0E0],"parents":[2147483647,0,0,1,1,2,2,3,3,4,4,5,5,6,6],"right_children":[2,4,6,8,10,12,14,-1,-1,-1,-1,-1,-1,-1,-1],"split_conditions":[9.929E1,1.139956E2,1.1830955E2,9.678571E-1,1.09E2,1.0062E2,2.5802965E1,-7.705602E-1,-3.0892465E-1,-3.479977E-1,4.0773746E-2,1.5784612E-2,3.2164413E-1,1.4244983E-1,6.152748E-1],"split_indices":[50,0,0,46,37,50,7,0,0,0,0,0,0,0,0],"split_type":[0,0,0,0,0,0,0,0,0,0,0,0,0,0,0],"sum_hessian":[1.87E3,8.83E2,9.87E2,5.54E2,3.29E2,6.88E2,2.99E2,8.2E1,4.72E2,5E1,2.79E2,4.48E2,2.4E2,1.19E2,1.8E2],"tree_param":{"num_deleted":"0","num_feature":"88","num_nodes":"15","size_leaf_vector":"1"}},{"base_weights":[-5.790534E-2,-3.1820223E0,2.8933342E0,-5.8782E0,7.258041E-1,-2.1958854E0,4.692203E0,-2.2123192E-1,-5.717835E-1,-2.038691E-1,1.7174597E-1,4.2403156E-1,-1.646518E-1,3.0059699E-2,3.5332406E-1],"categories":[],"categories_nodes":[],"categories_segments":[],"categories_sizes":[],"default_left":[0,0,0,0,0,0,0,0,0,0,0,0,0,0,0],"id":9,"left_children":[1,3,5,7,9,11,13,-1,-1,-1,-1,-1,-1,-1,-1],"loss_changes":[1.721389E4,9.5674375E3,8.8105E3,4.228826E3,4.8682974E3,3.005124E3,6.884037E3,0E0,0E0,0E0,0E0,0E0,0E0,0E0,0E0],"parents":[2147483647,0,0,1,1,2,2,3,3,4,4,5,5,6,6],"right_children":[2,4,6,8,10,12,14,-1,-1,-1,-1,-1,-1,-1,-1],"split_conditions":[1.1203882E2,1.1457511E2,1.0698548E2,1.2402719E1,1.151E2,4.304878E0,1.0071429E0,-2.2123192E-1,-5.717835E-1,-2.038691E-1,1.7174597E-1,4.2403156E-1,-1.646518E-1,3.0059699E-2,3.5332406E-1],"split_indices":[1,0,0,18,36,72,47,0,0,0,0,0,0,0,0],"split_type":[0,0,0,0,0,0,0,0,0,0,0,0,0,0,0],"sum_hessian":[1.863E3,9.05E2,9.58E2,5.35E2,3.7E2,2.5E2,7.08E2,4.27E2,1.08E2,1.33E2,2.37E2,2.2E1,2.28E2,2.61E2,4.47E2],"tree_param":{"num_deleted":"0","num_feature":"88","num_nodes":"15","size_leaf_vector":"1"}},{"base_weights":[2.8694022E-1,-3.925116E0,2.611131E0,-6.8597703E0,-5.2311665E-1,-8.4742576E-2,6.981748E0,-5.772115E-1,-1.7768024E-1,6.922936E-1,-8.26525E-2,-1.5103547E-1,1.3569069E-1,-4.3158585E-1,3.8625324E-1],"categories":[],"categories_nodes":[],"categories_segments":[],"categories_sizes":[],"default_left":[0,0,0,0,0,0,0,0,0,0,0,0,0,0,0],"id":10,"left_children":[1,3,5,7,9,11,13,-1,-1,-1,-1,-1,-1,-1,-1],"loss_changes":[1.8473277E4,6.6881895E3,1.4332309E4,5.4859375E3,5.1215464E3,6.211766E3,5.5179805E3,0E0,0E0,0E0,0E0,0E0,0E0,0E0,0E0],"parents":[2147483647,0,0,1,1,2,2,3,3,4,4,5,5,6,6],"right_children":[2,4,6,8,10,12,14,-1,-1,-1,-1,-1,-1,-1,-1],"split_conditions":[1.0914196E2,1.0241071E0,1.0026E2,1.1027125E2,3.228976E0,9.977E1,-1.1268675E1,-5.772115E-1,-1.7768024E-1,6.922936E-1,-8.26525E-2,-1.5103547E-1,1.3569069E-1,-4.3158585E-1,3.8625324E-1],"split_indices":[1,46,48,0,13,49,29,0,0,0,0,0,0,0,0],"split_type":[0,0,0,0,0,0,0,0,0,0,0,0,0,0,0],"sum_hessian":[1.883E3,6.69E2,1.214E3,3.58E2,3.11E2,7.52E2,4.62E2,1.46E2,2.12E2,2.1E1,2.9E2,3.67E2,3.85E2,2E1,4.42E2],"tree_param":{"num_deleted":"0","num_feature":"88","num_nodes":"15","size_leaf_vector":"1"}},{"base_weights":[-2.3738945E-2,-2.992977E0,3.396606E0,-6.8946276E0,-2.9252675E-1,2.2176087E-1,6.7243075E0,-6.37362E-1,-2.3885083E-1,-2.8395852E-1,7.436944E-2,-2.2139028E-1,1.703892E-1,2.7570082E-2,4.331889E-1],"categories":[],"categories_nodes":[],"categories_segments":[],"categories_sizes":[],"default_left":[0,0,0,0,0,0,0,0,0,0,0,0,0,0,0],"id":11,"left_children":[1,3,5,7,9,11,13,-1,-1,-1,-1,-1,-1,-1,-1],"loss_changes":[1.925525E4,1.0686627E4,9.301254E3,5.0127754E3,5.790828E3,6.740241E3,5.133867E3,0E0,0E0,0E0,0E0,0E0,0E0,0E0,0E0],"parents":[2147483647,0,0,1,1,2,2,3,3,4,4,5,5,6,6],"right_children":[2,4,6,8,10,12,14,-1,-1,-1,-1,-1,-1,-1,-1],"split_conditions":[1.025E0,9.891E1,9.946E1,9.75E-1,4.67E-1,1.124E2,1.0715188E2,-6.37362E-1,-2.3885083E-1,-2.8395852E-1,7.436944E-2,-2.2139028E-1,1.703892E-1,2.7570082E-2,4.331889E-1],"split_indices":[46,49,49,46,64,36,0,0,0,0,0,0,0,0,0],"split_type":[0,0,0,0,0,0,0,0,0,0,0,0,0,0,0],"sum_hessian":[1.892E3,1.013E3,8.79E2,4.13E2,6E2,4.51E2,4.28E2,1.07E2,3.06E2,1.48E2,4.52E2,1.83E2,2.68E2,1.03E2,3.25E2],"tree_param":{"num_deleted":"0","num_feature":"88","num_nodes":"15","size_leaf_vector":"1"}},{"base_weights":[3.9600223E-1,-3.597556E0,4.4831142E0,-8.780273E0,-2.1272643E0,2.030761E0,8.411934E0,-5.512515E-1,-3.4383204E-2,-1.72316E-1,1.3649307E-1,2.1579094E-1,-1.4205317E-1,4.4428807E-1,-7.26808E-1],"categories":[],"categories_nodes":[],"categories_segments":[],"categories_sizes":[],"default_left":[0,0,0,0,0,0,0,0,0,0,0,0,0,0,0],"id":12,"left_children":[1,3,5,7,9,11,13,-1,-1,-1,-1,-1,-1,-1,-1],"loss_changes":[3.0914152E4,7.257253E3,8.978836E3,3.8119932E3,4.817881E3,6.4709214E3,4.1590625E3,0E0,0E0,0E0,0E0,0E0,0E0,0E0,0E0],"parents":[2147483647,0,0,1,1,2,2,3,3,4,4,5,5,6,6],"right_children":[2,4,6,8,10,12,14,-1,-1,-1,-1,-1,-1,-1,-1],"split_conditions":[9.94E1,9.7795E1,1.00555E2,3.5598404E0,9.9E0,1.6243902E1,2.5877182E1,-5.512515E-1,-3.4383204E-2,-1.72316E-1,1.3649307E-1,2.1579094E-1,-1.4205317E-1,4.4428807E-1,-7.26808E-1],"split_indices":[50,50,50,23,62,67,2,0,0,0,0,0,0,0,0],"split_type":[0,0,0,0,0,0,0,0,0,0,0,0,0,0,0],"sum_hessian":[1.89E3,9.56E2,9.34E2,2.09E2,7.47E2,5.77E2,3.57E2,1.63E2,4.6E1,5.88E2,1.59E2,3.93E2,1.84E2,3.51E2,6E0],"tree_param":{"num_deleted":"0","num_feature":"88","num_nodes":"15","size_leaf_vector":"1"}},{"base_weights":[-1.8236233E-1,-4.642125E0,1.5016909E0,-7.4210753E0,-8.4271336E-1,-2.665732E0,3.1017106E0,-7.024365E-1,-1.9053452E-1,-1.8165605E-1,2.7881214E-1,-4.804321E-1,-5.112892E-2,1.371931E-1,8.1109583E-1],"categories":[],"categories_nodes":[],"categories_segments":[],"categories_sizes":[],"default_left":[0,0,0,0,0,0,0,0,0,0,0,0,0,0,0],"id":13,"left_children":[1,3,5,7,9,11,13,-1,-1,-1,-1,-1,-1,-1,-1],"loss_changes":[1.4247867E4,5.473717E3,9.198533E3,7.0625117E3,4.015901E3,4.3443994E3,4.5777617E3,0E0,0E0,0E0,0E0,0E0,0E0,0E0,0E0],"parents":[2147483647,0,0,1,1,2,2,3,3,4,4,5,5,6,6],"right_children":[2,4,6,8,10,12,14,-1,-1,-1,-1,-1,-1,-1,-1],"split_conditions":[9.798E1,2.6606375E1,2.4158966E1,2.3869734E1,2E0,1.11E2,1.196E2,-7.024365E-1,-1.9053452E-1,-1.8165605E-1,2.7881214E-1,-4.804321E-1,-5.112892E-2,1.371931E-1,8.1109583E-1],"split_indices":[49,6,6,7,75,38,38,0,0,0,0,0,0,0,0],"split_type":[0,0,0,0,0,0,0,0,0,0,0,0,0,0,0],"sum_hessian":[1.893E3,5.18E2,1.375E3,2.98E2,2.2E2,3.81E2,9.94E2,1.03E2,1.95E2,1.54E2,6.6E1,7.1E1,3.1E2,9.7E2,2.4E1],"tree_param":{"num_deleted":"0","num_feature":"88","num_nodes":"15","size_leaf_vector":"1"}},{"base_weights":[1.6525327E-1,-3.0327132E0,4.177242E0,-5.0059166E0,1.975216E-1,1.8230485E0,7.0805717E0,-5.1841444E-1,-1.5801452E-1,9.5961064E-1,-2.6921779E-2,1.7717454E-1,-1.5890573E-1,1.9183311E-1,5.908559E-1],"categories":[],"categories_nodes":[],"categories_segments":[],"categories_sizes":[],"default_left":[0,0,0,0,0,0,0,0,0,0,0,0,0,0,0],"id":14,"left_children":[1,3,5,7,9,11,13,-1,-1,-1,-1,-1,-1,-1,-1],"loss_changes":[2.4210844E4,6.6969873E3,5.690625E3,6.380503E3,5.621706E3,4.0236646E3,5.6479805E3,0E0,0E0,0E0,0E0,0E0,0E0,0E0,0E0],"parents":[2147483647,0,0,1,1,2,2,3,3,4,4,5,5,6,6],"right_children":[2,4,6,8,10,12,14,-1,-1,-1,-1,-1,-1,-1,-1],"split_conditions":[9.958E1,1.139956E2,1.00555E2,1.0423994E2,3.568727E1,1.6317074E1,5.859765E1,-5.1841444E-1,-1.5801452E-1,9.5961064E-1,-2.6921779E-2,1.7717454E-1,-1.5890573E-1,1.9183311E-1,5.908559E-1],"split_indices":[50,0,50,1,4,66,25,0,0,0,0,0,0,0,0],"split_type":[0,0,0,0,0,0,0,0,0,0,0,0,0,0,0],"sum_hessian":[1.883E3,1.048E3,8.35E2,6.5E2,3.98E2,4.63E2,3.72E2,1.64E2,4.86E2,1.3E1,3.85E2,3.45E2,1.18E2,2.23E2,1.49E2],"tree_param":{"num_deleted":"0","num_feature":"88","num_nodes":"15","size_leaf_vector":"1"}},{"base_weights":[-9.526386E-2,-1.5785562E0,4.7188783E0,-3.8847554E0,1.7294066E0,-2.7287552E-1,6.6193132E0,-5.0962543E-1,-1.3980038E-1,-1.0936141E-1,2.8180397E-1,-2.174687E-1,3.1761935E-1,2.0246299E-1,5.83953E-1],"categories":[],"categories_nodes":[],"categories_segments":[],"categories_sizes":[],"default_left":[0,0,0,0,0,0,0,0,0,0,0,0,0,0,0],"id":15,"left_children":[1,3,5,7,9,11,13,-1,-1,-1,-1,-1,-1,-1,-1],"loss_changes":[1.3430853E4,1.0984759E4,4.2093076E3,5.7601943E3,9.084576E3,3.4032322E3,4.0717783E3,0E0,0E0,0E0,0E0,0E0,0E0,0E0,0E0],"parents":[2147483647,0,0,1,1,2,2,3,3,4,4,5,5,6,6],"right_children":[2,4,6,8,10,12,14,-1,-1,-1,-1,-1,-1,-1,-1],"split_conditions":[1.18449234E2,1.0294642E0,3.9182926E1,9.75E-1,1.1226273E2,1.172E2,1.0392857E0,-5.0962543E-1,-1.3980038E-1,-1.0936141E-1,2.8180397E-1,-2.174687E-1,3.1761935E-1,2.0246299E-1,5.83953E-1],"split_indices":[0,47,70,46,1,36,46,0,0,0,0,0,0,0,0],"split_type":[0,0,0,0,0,0,0,0,0,0,0,0,0,0,0],"sum_hessian":[1.877E3,1.436E3,4.41E2,8.46E2,5.9E2,1.22E2,3.19E2,1.22E2,7.24E2,2.95E2,2.95E2,7.6E1,4.6E1,2.14E2,1.05E2],"tree_param":{"num_deleted":"0","num_feature":"88","num_nodes":"15","size_leaf_vector":"1"}},{"base_weights":[-6.88075E-2,-2.4719303E0,2.961795E0,-4.6848574E0,1.0955541E0,1.4109866E-1,6.032344E0,-7.8510404E-1,-1.9865116E-1,-5.2046366E-2,2.702131E-1,-7.358053E-2,3.0844998E-1,2.0792226E-1,6.4512193E-1],"categories":[],"categories_nodes":[],"categories_segments":[],"categories_sizes":[],"default_left":[0,0,0,0,0,0,0,0,0,0,0,0,0,0,0],"id":16,"left_children":[1,3,5,7,9,11,13,-1,-1,-1,-1,-1,-1,-1,-1],"loss_changes":[1.348778E4,8.1671636E3,7.0886406E3,4.868869E3,3.6680059E3,4.190923E3,4.930716E3,0E0,0E0,0E0,0E0,0E0,0E0,0E0,0E0],"parents":[2147483647,0,0,1,1,2,2,3,3,4,4,5,5,6,6],"right_children":[2,4,6,8,10,12,14,-1,-1,-1,-1,-1,-1,-1,-1],"split_conditions":[9.991E1,2.7133646E1,5.05E-1,9.659E1,1.159E2,8.490433E0,1.0216E2,-7.8510404E-1,-1.9865116E-1,-5.2046366E-2,2.702131E-1,-7.358053E-2,3.0844998E-1,2.0792226E-1,6.4512193E-1],"split_indices":[49,6,64,48,37,9,49,0,0,0,0,0,0,0,0],"split_type":[0,0,0,0,0,0,0,0,0,0,0,0,0,0,0],"sum_hessian":[1.848E3,1.031E3,8.17E2,6.36E2,3.95E2,4.27E2,3.9E2,3.6E1,6E2,2.65E2,1.3E2,3.38E2,8.9E1,3.09E2,8.1E1],"tree_param":{"num_deleted":"0","num_feature":"88","num_nodes":"15","size_leaf_vector":"1"}},{"base_weights":[6.645403E-1,-2.5369165E0,3.7800612E0,-4.077475E0,1.0261462E0,1.8354051E0,7.2211003E0,-4.2761192E-1,-8.781793E-2,-3.674835E-1,9.938428E-2,4.3076385E-2,4.9384475E-1,1.1867397E-1,5.182097E-1],"categories":[],"categories_nodes":[],"categories_segments":[],"categories_sizes":[],"default_left":[0,0,0,0,0,0,0,0,0,0,0,0,0,0,0],"id":17,"left_children":[1,3,5,7,9,11,13,-1,-1,-1,-1,-1,-1,-1,-1],"loss_changes":[1.8521951E4,5.037916E3,6.265795E3,6.612131E3,2.2654587E3,4.7077935E3,5.109617E3,0E0,0E0,0E0,0E0,0E0,0E0,0E0,0E0],"parents":[2147483647,0,0,1,1,2,2,3,3,4,4,5,5,6,6],"right_children":[2,4,6,8,10,12,14,-1,-1,-1,-1,-1,-1,-1,-1],"split_conditions":[9.9325E1,1.163E2,1.159E2,2.4161255E1,5.641713E1,2.0334527E0,2.544441E1,-4.2761192E-1,-8.781793E-2,-3.674835E-1,9.938428E-2,4.3076385E-2,4.9384475E-1,1.1867397E-1,5.182097E-1],"split_indices":[50,36,36,7,24,11,7,0,0,0,0,0,0,0,0],"split_type":[0,0,0,0,0,0,0,0,0,0,0,0,0,0,0],"sum_hessian":[1.853E3,9.14E2,9.39E2,6.38E2,2.76E2,6.02E2,3.37E2,2.16E2,4.22E2,2.7E1,2.49E2,5.39E2,6.3E1,1.34E2,2.03E2],"tree_param":{"num_deleted":"0","num_feature":"88","num_nodes":"15","size_leaf_vector":"1"}},{"base_weights":[-1.2453489E-1,-2.353127E0,3.6914504E0,-5.343099E0,6.48859E-1,-2.3838089E0,5.8403187E0,-5.553761E-1,-1.7941836E-1,-1.10986665E-1,1.8108557E-1,-6.488662E-1,-6.4350985E-2,-1.9235088E-2,3.924791E-1],"categories":[],"categories_nodes":[],"categories_segments":[],"categories_sizes":[],"default_left":[0,0,0,0,0,0,0,0,0,0,0,0,0,0,0],"id":18,"left_children":[1,3,5,7,9,11,13,-1,-1,-1,-1,-1,-1,-1,-1],"loss_changes":[1.61238E4,1.0753378E4,9.154968E3,5.981949E3,5.124992E3,2.0973325E3,6.476258E3,0E0,0E0,0E0,0E0,0E0,0E0,0E0,0E0],"parents":[2147483647,0,0,1,1,2,2,3,3,4,4,5,5,6,6],"right_children":[2,4,6,8,10,12,14,-1,-1,-1,-1,-1,-1,-1,-1],"split_conditions":[1.0321429E0,1.15E2,9.8839283E-1,4.67E-1,1.0232143E0,2.9687645E1,1.0617249E2,-5.553761E-1,-1.7941836E-1,-1.10986665E-1,1.8108557E-1,-6.488662E-1,-6.4350985E-2,-1.9235088E-2,3.924791E-1],"split_indices":[46,36,47,65,47,22,0,0,0,0,0,0,0,0,0],"split_type":[0,0,0,0,0,0,0,0,0,0,0,0,0,0,0],"sum_hessian":[1.892E3,1.195E3,6.97E2,5.98E2,5.97E2,1.82E2,5.15E2,1.37E2,4.61E2,3.04E2,2.93E2,1.5E1,1.67E2,1.26E2,3.89E2],"tree_param":{"num_deleted":"0","num_feature":"88","num_nodes":"15","size_leaf_vector":"1"}},{"base_weights":[-6.4206295E-2,-3.5649695E0,1.5895572E0,-5.331011E0,6.889492E-1,-6.090119E-1,4.573021E0,-2.9484087E-1,4.9191317E-1,-1.613249E-1,3.343812E-1,-1.7572065E-1,1.0500025E-1,-1.5098317E-1,2.7150542E-1],"categories":[],"categories_nodes":[],"categories_segments":[],"categories_sizes":[],"default_left":[0,0,0,0,0,0,0,0,0,0,0,0,0,0,0],"id":19,"left_children":[1,3,5,7,9,11,13,-1,-1,-1,-1,-1,-1,-1,-1],"loss_changes":[1.0844353E4,4.5247373E3,8.351047E3,3.7617793E3,4.2256597E3,5.79262E3,3.5480996E3,0E0,0E0,0E0,0E0,0E0,0E0,0E0,0E0],"parents":[2147483647,0,0,1,1,2,2,3,3,4,4,5,5,6,6],"right_children":[2,4,6,8,10,12,14,-1,-1,-1,-1,-1,-1,-1,-1],"split_conditions":[1.0800221E2,4.616778E1,1.0285715E0,1.08125E0,3.6979523E0,1.0232143E0,1.09E2,-2.9484087E-1,4.9191317E-1,-1.613249E-1,3.343812E-1,-1.7572065E-1,1.0500025E-1,-1.5098317E-1,2.7150542E-1],"split_indices":[1,77,47,47,23,46,36,0,0,0,0,0,0,0,0],"split_type":[0,0,0,0,0,0,0,0,0,0,0,0,0,0,0],"sum_hessian":[1.869E3,5.99E2,1.27E3,4.23E2,1.76E2,7.32E2,5.38E2,4.09E2,1.4E1,1.07E2,6.9E1,3.53E2,3.79E2,5.4E1,4.84E2],"tree_param":{"num_deleted":"0","num_feature":"88","num_nodes":"15","size_leaf_vector":"1"}},{"base_weights":[-3.701593E-2,-2.2322052E0,2.6277008E0,-4.3004446E0,6.9378376E-1,-2.7270195E0,4.105764E0,-4.3350735E-1,-1.4854908E-1,5.6829596E-1,-1.0824978E-3,-2.9924074E-1,1.394462E-1,-6.506148E-2,2.8268102E-1],"categories":[],"categories_nodes":[],"categories_segments":[],"categories_sizes":[],"default_left":[0,0,0,0,0,0,0,0,0,0,0,0,0,0,0],"id":20,"left_children":[1,3,5,7,9,11,13,-1,-1,-1,-1,-1,-1,-1,-1],"loss_changes":[1.1008701E4,6.2530693E3,6.750504E3,3.4573232E3,3.2816677E3,3.3593958E3,5.5991797E3,0E0,0E0,0E0,0E0,0E0,0E0,0E0,0E0],"parents":[2147483647,0,0,1,1,2,2,3,3,4,4,5,5,6,6],"right_children":[2,4,6,8,10,12,14,-1,-1,-1,-1,-1,-1,-1,-1],"split_conditions":[9.991E1,1.0294642E0,9.8660713E-1,2.3092207E1,3.5409096E1,4.4575264E1,1.102E2,-4.3350735E-1,-1.4854908E-1,5.6829596E-1,-1.0824978E-3,-2.9924074E-1,1.394462E-1,-6.506148E-2,2.8268102E-1],"split_indices":[48,47,47,6,4,4,37,0,0,0,0,0,0,0,0],"split_type":[0,0,0,0,0,0,0,0,0,0,0,0,0,0,0],"sum_hessian":[1.878E3,1.03E3,8.48E2,6.03E2,4.27E2,1.83E2,6.65E2,1.38E2,4.65E2,2.5E1,4.02E2,1.15E2,6.8E1,1.48E2,5.17E2],"tree_param":{"num_deleted":"0","num_feature":"88","num_nodes":"15","size_leaf_vector":"1"}},{"base_weights":[1.2769228E-1,-1.9472606E0,3.8500404E0,-5.0668325E0,-1.2278536E-1,7.5723023E0,2.0118415E0,-4.223519E-1,-1.0332141E-1,-5.589661E-2,3.2946864E-1,-3.6918536E-2,4.9688098E-1,1.3684139E-1,-4.200208E-1],"categories":[],"categories_nodes":[],"categories_segments":[],"categories_sizes":[],"default_left":[0,0,0,0,0,0,0,0,0,0,0,0,0,0,0],"id":21,"left_children":[1,3,5,7,9,11,13,-1,-1,-1,-1,-1,-1,-1,-1],"loss_changes":[1.4544221E4,6.8772817E3,4.576421E3,4.483157E3,5.121878E3,4.383213E3,3.4702773E3,0E0,0E0,0E0,0E0,0E0,0E0,0E0,0E0],"parents":[2147483647,0,0,1,1,2,2,3,3,4,4,5,5,6,6],"right_children":[2,4,6,8,10,12,14,-1,-1,-1,-1,-1,-1,-1,-1],"split_conditions":[9.989E1,1.08403534E2,1.447561E1,2.5095114E1,1.2063035E2,1.08101875E2,1.39E1,-4.223519E-1,-1.0332141E-1,-5.589661E-2,3.2946864E-1,-3.6918536E-2,4.9688098E-1,1.3684139E-1,-4.200208E-1],"split_indices":[50,0,67,7,1,0,42,0,0,0,0,0,0,0,0],"split_type":[0,0,0,0,0,0,0,0,0,0,0,0,0,0,0],"sum_hessian":[1.879E3,1.207E3,6.72E2,4.44E2,7.63E2,2.2E2,4.52E2,2.07E2,2.37E2,6.66E2,9.7E1,4.9E1,1.71E2,4.24E2,2.8E1],"tree_param":{"num_deleted":"0","num_feature":"88","num_nodes":"15","size_leaf_vector":"1"}},{"base_weights":[-1.4268923E-1,-6.5929294E0,7.057946E-1,-9.477991E0,-3.4560513E-1,-8.550529E-1,3.402405E0,-6.4591473E-1,2.651268E-2,-2.5095746E-1,3.3759415E-1,-1.2632945E-1,1.10409476E-1,-1.6464859E-1,2.4642752E-1],"categories":[],"categories_nodes":[],"categories_segments":[],"categories_sizes":[],"default_left":[0,0,0,0,0,0,0,0,0,0,0,0,0,0,0],"id":22,"left_children":[1,3,5,7,9,11,13,-1,-1,-1,-1,-1,-1,-1,-1],"loss_changes":[1.0263037E4,3.91775E3,6.9814014E3,5.150172E3,2.4220112E3,5.3927744E3,6.2458936E3,0E0,0E0,0E0,0E0,0E0,0E0,0E0,0E0],"parents":[2147483647,0,0,1,1,2,2,3,3,4,4,5,5,6,6],"right_children":[2,4,6,8,10,12,14,-1,-1,-1,-1,-1,-1,-1,-1],"split_conditions":[9.7795E1,5.12E-1,1.1548115E2,5.22E-1,4.0067795E1,1.162E2,-1.7E-2,-6.4591473E-1,2.651268E-2,-2.5095746E-1,3.3759415E-1,-1.2632945E-1,1.10409476E-1,-1.6464859E-1,2.4642752E-1],"split_indices":[50,64,1,65,70,36,58,0,0,0,0,0,0,0,0],"split_type":[0,0,0,0,0,0,0,0,0,0,0,0,0,0,0],"sum_hessian":[1.871E3,2.16E2,1.655E3,1.47E2,6.9E1,1.049E3,6.06E2,1.09E2,3.8E1,4.2E1,2.7E1,6.79E2,3.7E2,1.12E2,4.94E2],"tree_param":{"num_deleted":"0","num_feature":"88","num_nodes":"15","size_leaf_vector":"1"}},{"base_weights":[1.9344291E-1,-3.0698185E0,1.9648684E0,-7.77054E0,-1.9449879E0,-3.305188E0,2.8975093E0,-7.261636E-2,-4.9534804E-1,1.8874569E-1,-1.5320139E-1,-3.0537155E-1,8.284169E-2,-1.1639446E-1,1.9688772E-1],"categories":[],"categories_nodes":[],"categories_segments":[],"categories_sizes":[],"default_left":[0,0,0,0,0,0,0,0,0,0,0,0,0,0,0],"id":23,"left_children":[1,3,5,7,9,11,13,-1,-1,-1,-1,-1,-1,-1,-1],"loss_changes":[1.1040943E4,3.518126E3,6.1038066E3,1.7068325E3,3.5112122E3,2.6226592E3,5.742922E3,0E0,0E0,0E0,0E0,0E0,0E0,0E0,0E0],"parents":[2147483647,0,0,1,1,2,2,3,3,4,4,5,5,6,6],"right_children":[2,4,6,8,10,12,14,-1,-1,-1,-1,-1,-1,-1,-1],"split_conditions":[9.8875E1,1.099E2,9.9464285E-1,-1.1E-2,-1.5983217E0,4.1589916E1,1.097E2,-7.261636E-2,-4.9534804E-1,1.8874569E-1,-1.5320139E-1,-3.0537155E-1,8.284169E-2,-1.1639446E-1,1.9688772E-1],"split_indices":[50,36,47,59,14,27,37,0,0,0,0,0,0,0,0],"split_type":[0,0,0,0,0,0,0,0,0,0,0,0,0,0,0],"sum_hessian":[1.906E3,6.7E2,1.236E3,1.27E2,5.43E2,1.85E2,1.051E3,3.3E1,9.4E1,8.8E1,4.55E2,1.18E2,6.7E1,1.74E2,8.77E2],"tree_param":{"num_deleted":"0","num_feature":"88","num_nodes":"15","size_leaf_vector":"1"}},{"base_weights":[-1.3289422E-1,-2.0215287E0,3.1551065E0,-2.8674586E0,3.0902467E0,-5.645929E0,3.712457E0,1.6150968E-1,-1.7209502E-1,1.1254138E-2,5.6985575E-1,-5.884506E-1,4.657204E-1,1.5941036E-1,8.4080774E-1],"categories":[],"categories_nodes":[],"categories_segments":[],"categories_sizes":[],"default_left":[0,0,0,0,0,0,0,0,0,0,0,0,0,0,0],"id":24,"left_children":[1,3,5,7,9,11,13,-1,-1,-1,-1,-1,-1,-1,-1],"loss_changes":[1.1506588E4,5.107199E3,3.3569092E3,3.5636162E3,3.9875493E3,3.976209E3,4.258714E3,0E0,0E0,0E0,0E0,0E0,0E0,0E0,0E0],"parents":[2147483647,0,0,1,1,2,2,3,3,4,4,5,5,6,6],"right_children":[2,4,6,8,10,12,14,-1,-1,-1,-1,-1,-1,-1,-1],"split_conditions":[9.989E1,1.2088586E2,9.5488846E1,3.2545435E0,1.151E2,1.151E2,1.02435E2,1.6150968E-1,-1.7209502E-1,1.1254138E-2,5.6985575E-1,-5.884506E-1,4.657204E-1,1.5941036E-1,8.4080774E-1],"split_indices":[50,0,1,13,38,38,50,0,0,0,0,0,0,0,0],"split_type":[0,0,0,0,0,0,0,0,0,0,0,0,0,0,0],"sum_hessian":[1.849E3,1.175E3,6.74E2,1.009E3,1.66E2,3.9E1,6.35E2,8.6E1,9.23E2,1.25E2,4.1E1,2.8E1,1.1E1,6.13E2,2.2E1],"tree_param":{"num_deleted":"0","num_feature":"88","num_nodes":"15","size_leaf_vector":"1"}},{"base_weights":[-1.3310817E-2,-4.472437E0,1.3754222E0,-6.3402033E0,1.3752092E0,-1.8258492E0,3.200309E0,-3.5927114E-1,2.2492312E-1,3.5659873E-1,-2.0612966E-1,5.4733604E-2,-1.9046079E-1,9.7146235E-2,3.9577892E-1],"categories":[],"categories_nodes":[],"categories_segments":[],"categories_sizes":[],"default_left":[0,0,0,0,0,0,0,0,0,0,0,0,0,0,0],"id":25,"left_children":[1,3,5,7,9,11,13,-1,-1,-1,-1,-1,-1,-1,-1],"loss_changes":[1.178586E4,4.9566807E3,8.489056E3,3.2082314E3,3.5734102E3,3.0681177E3,5.448552E3,0E0,0E0,0E0,0E0,0E0,0E0,0E0,0E0],"parents":[2147483647,0,0,1,1,2,2,3,3,4,4,5,5,6,6],"right_children":[2,4,6,8,10,12,14,-1,-1,-1,-1,-1,-1,-1,-1],"split_conditions":[2.3494555E1,1.18449234E2,9.9025E1,1.0723214E0,3.8E0,1.4756098E1,1.2033319E2,-3.5927114E-1,2.2492312E-1,3.5659873E-1,-2.0612966E-1,5.4733604E-2,-1.9046079E-1,9.7146235E-2,3.9577892E-1],"split_indices":[7,0,50,46,42,66,0,0,0,0,0,0,0,0,0],"split_type":[0,0,0,0,0,0,0,0,0,0,0,0,0,0,0],"sum_hessian":[1.899E3,4.5E2,1.449E3,3.41E2,1.09E2,5.26E2,9.23E2,3.17E2,2.4E1,5.3E1,5.6E1,2.13E2,3.13E2,7.31E2,1.92E2],"tree_param":{"num_deleted":"0","num_feature":"88","num_nodes":"15","size_leaf_vector":"1"}},{"base_weights":[-2.303778E-1,-3.3124402E0,1.7757597E0,-7.7697062E0,-1.5178386E0,5.8726025E-1,7.84277E0,-6.075596E-1,-2.2124553E-1,-7.854187E-1,-3.93016E-2,-7.042721E-2,1.4623544E-1,2.8017837E-1,7.041616E-1],"categories":[],"categories_nodes":[],"categories_segments":[],"categories_sizes":[],"default_left":[0,0,0,0,0,0,0,0,0,0,0,0,0,0,0],"id":26,"left_children":[1,3,5,7,9,11,13,-1,-1,-1,-1,-1,-1,-1,-1],"loss_changes":[1.1667564E4,5.9230396E3,8.228334E3,3.0057285E3,5.502118E3,4.4781533E3,2.4453984E3,0E0,0E0,0E0,0E0,0E0,0E0,0E0,0E0],"parents":[2147483647,0,0,1,1,2,2,3,3,4,4,5,5,6,6],"right_children":[2,4,6,8,10,12,14,-1,-1,-1,-1,-1,-1,-1,-1],"split_conditions":[1.10206924E2,5.618886E1,1.2063035E2,2.3565132E1,9.722E1,1.142E2,1.2121333E2,-6.075596E-1,-2.2124553E-1,-7.854187E-1,-3.93016E-2,-7.042721E-2,1.4623544E-1,2.8017837E-1,7.041616E-1],"split_indices":[0,25,1,7,50,38,0,0,0,0,0,0,0,0,0],"split_type":[0,0,0,0,0,0,0,0,0,0,0,0,0,0,0],"sum_hessian":[1.883E3,7.42E2,1.141E3,2.11E2,5.31E2,9.56E2,1.85E2,8.9E1,1.22E2,2.4E1,5.07E2,5.16E2,4.4E2,1.39E2,4.6E1],"tree_param":{"num_deleted":"0","num_feature":"88","num_nodes":"15","size_leaf_vector":"1"}},{"base_weights":[-6.8152264E-2,-2.0708218E0,2.1487663E0,-5.267586E0,-3.902068E-1,-1.2499111E0,3.8814268E0,1.6780699E-2,-3.4409153E-1,6.3825476E-1,-4.6420377E-2,3.242863E-1,-1.6114299E-1,-2.5632098E-1,2.263404E-1],"categories":[],"categories_nodes":[],"categories_segments":[],"categories_sizes":[],"default_left":[0,0,0,0,0,0,0,0,0,0,0,0,0,0,0],"id":27,"left_children":[1,3,5,7,9,11,13,-1,-1,-1,-1,-1,-1,-1,-1],"loss_changes":[8.466594E3,5.376335E3,5.340341E3,3.1283955E3,4.6836304E3,4.7256123E3,3.53421E3,0E0,0E0,0E0,0E0,0E0,0E0,0E0,0E0],"parents":[2147483647,0,0,1,1,2,2,3,3,4,4,5,5,6,6],"right_children":[2,4,6,8,10,12,14,-1,-1,-1,-1,-1,-1,-1,-1],"split_conditions":[5.05E-1,2.3918762E1,1.0885555E2,-1.2695407E0,3.5409096E1,4.003118E0,-8.82648E0,1.6780699E-2,-3.4409153E-1,6.3825476E-1,-4.6420377E-2,3.242863E-1,-1.6114299E-1,-2.5632098E-1,2.263404E-1],"split_indices":[64,6,1,14,4,12,29,0,0,0,0,0,0,0,0],"split_type":[0,0,0,0,0,0,0,0,0,0,0,0,0,0,0],"sum_hessian":[1.903E3,1E3,9.03E2,3.43E2,6.57E2,3.05E2,5.98E2,7.7E1,2.66E2,2.4E1,6.33E2,6.1E1,2.44E2,3.9E1,5.59E2],"tree_param":{"num_deleted":"0","num_feature":"88","num_nodes":"15","size_leaf_vector":"1"}},{"base_weights":[3.431138E-2,-2.0497963E0,2.475573E0,-4.9699497E0,-8.118198E-1,5.7991414E0,9.643295E-1,-5.226852E-1,-1.0533594E-1,-1.2998478E-1,1.1851195E-1,6.1989862E-2,4.3361327E-1,1.3743751E-1,-1.0866411E-1],"categories":[],"categories_nodes":[],"categories_segments":[],"categories_sizes":[],"default_left":[0,0,0,0,0,0,0,0,0,0,0,0,0,0,0],"id":28,"left_children":[1,3,5,7,9,11,13,-1,-1,-1,-1,-1,-1,-1,-1],"loss_changes":[9.489031E3,3.625812E3,4.2999507E3,4.6443496E3,4.0460286E3,3.4842227E3,3.332335E3,0E0,0E0,0E0,0E0,0E0,0E0,0E0,0E0],"parents":[2147483647,0,0,1,1,2,2,3,3,4,4,5,5,6,6],"right_children":[2,4,6,8,10,12,14,-1,-1,-1,-1,-1,-1,-1,-1],"split_conditions":[9.948E1,2.3874609E1,1.447561E1,4.67E-1,2.5605507E1,1.1173418E2,1E-2,-5.226852E-1,-1.0533594E-1,-1.2998478E-1,1.1851195E-1,6.1989862E-2,4.3361327E-1,1.3743751E-1,-1.0866411E-1],"split_indices":[50,6,67,64,31,0,60,0,0,0,0,0,0,0,0],"split_type":[0,0,0,0,0,0,0,0,0,0,0,0,0,0,0],"sum_hessian":[1.861E3,1.004E3,8.57E2,2.97E2,7.07E2,2.66E2,5.91E2,1E2,1.97E2,4.53E2,2.54E2,1.04E2,1.62E2,3.77E2,2.14E2],"tree_param":{"num_deleted":"0","num_feature":"88","num_nodes":"15","size_leaf_vector":"1"}},{"base_weights":[-8.936909E-2,-3.0538132E0,1.5399767E0,-1.414818E1,-2.5687215E0,8.377753E-2,5.1276174E0,-8.966207E-1,1.1283188E-1,2.1662493E-1,-1.6599461E-1,-8.9328244E-2,1.20534085E-1,-2.540726E-1,2.9149467E-1],"categories":[],"categories_nodes":[],"categories_segments":[],"categories_sizes":[],"default_left":[0,0,0,0,0,0,0,0,0,0,0,0,0,0,0],"id":29,"left_children":[1,3,5,7,9,11,13,-1,-1,-1,-1,-1,-1,-1,-1],"loss_changes":[9.259812E3,3.5785693E3,6.4590176E3,1.8270024E3,3.4185923E3,3.8474844E3,2.619165E3,0E0,0E0,0E0,0E0,0E0,0E0,0E0,0E0],"parents":[2147483647,0,0,1,1,2,2,3,3,4,4,5,5,6,6],"right_children":[2,4,6,8,10,12,14,-1,-1,-1,-1,-1,-1,-1,-1],"split_conditions":[1.0914196E2,9.659E1,8.5E0,4.5E-2,3.6313427E1,9.977E1,-1.7445353E1,-8.966207E-1,1.1283188E-1,2.1662493E-1,-1.6599461E-1,-8.9328244E-2,1.20534085E-1,-2.540726E-1,2.9149467E-1],"split_indices":[1,48,63,59,4,48,2,0,0,0,0,0,0,0,0],"split_type":[0,0,0,0,0,0,0,0,0,0,0,0,0,0,0],"sum_hessian":[1.913E3,6.78E2,1.235E3,2.6E1,6.52E2,8.8E2,3.55E2,2.1E1,5E0,6.3E1,5.89E2,4.88E2,3.92E2,2.2E1,3.33E2],"tree_param":{"num_deleted":"0","num_feature":"88","num_nodes":"15","size_leaf_vector":"1"}},{"base_weights":[-2.5782597E-1,-1.8874009E0,2.5692978E0,-1.1801273E1,-1.4189774E0,1.5679353E0,7.527501E0,2.044791E-1,-6.799958E-1,-2.3773177E-1,-3.0820528E-2,1.889799E-2,2.649444E-1,1.4501785E-1,8.080778E-1],"categories":[],"categories_nodes":[],"categories_segments":[],"categories_sizes":[],"default_left":[0,0,0,0,0,0,0,0,0,0,0,0,0,0,0],"id":30,"left_children":[1,3,5,7,9,11,13,-1,-1,-1,-1,-1,-1,-1,-1],"loss_changes":[8.744248E3,5.5511436E3,3.4175273E3,1.6594175E3,3.0754583E3,2.5682065E3,4.5310396E3,0E0,0E0,0E0,0E0,0E0,0E0,0E0,0E0],"parents":[2147483647,0,0,1,1,2,2,3,3,4,4,5,5,6,6],"right_children":[2,4,6,8,10,12,14,-1,-1,-1,-1,-1,-1,-1,-1],"split_conditions":[9.989E1,9.5714283E-1,1.219342E2,-6.3712306E0,2.2977177E1,2.9170538E1,1.0625E0,2.044791E-1,-6.799958E-1,-2.3773177E-1,-3.0820528E-2,1.889799E-2,2.649444E-1,1.4501785E-1,8.080778E-1],"split_indices":[50,46,1,8,6,6,46,0,0,0,0,0,0,0,0],"split_type":[0,0,0,0,0,0,0,0,0,0,0,0,0,0,0],"sum_hessian":[1.894E3,1.202E3,6.92E2,5.2E1,1.15E3,5.78E2,1.14E2,5E0,4.7E1,2.21E2,9.29E2,4.4E2,1.38E2,7.6E1,3.8E1],"tree_param":{"num_deleted":"0","num_feature":"88","num_nodes":"15","size_leaf_vector":"1"}},{"base_weights":[-7.437209E-2,-1.2843664E0,3.3420918E0,-2.7864592E0,1.1296672E0,2.0521805E0,9.782579E0,-3.519301E-1,-9.756626E-2,-6.367492E-2,2.0504943E-1,-4.9547744E-1,1.3106558E-1,1.0127491E0,3.1800333E-1],"categories":[],"categories_nodes":[],"categories_segments":[],"categories_sizes":[],"default_left":[0,0,0,0,0,0,0,0,0,0,0,0,0,0,0],"id":31,"left_children":[1,3,5,7,9,11,13,-1,-1,-1,-1,-1,-1,-1,-1],"loss_changes":[7.729685E3,5.0147705E3,4.016376E3,2.9935806E3,3.8035056E3,2.8395024E3,2.6322432E3,0E0,0E0,0E0,0E0,0E0,0E0,0E0,0E0],"parents":[2147483647,0,0,1,1,2,2,3,3,4,4,5,5,6,6],"right_children":[2,4,6,8,10,12,14,-1,-1,-1,-1,-1,-1,-1,-1],"split_conditions":[1.18106804E2,1.0015E2,1.2079284E2,1.093E2,1.0276786E0,-3.0555604E0,-1.03E1,-3.519301E-1,-9.756626E-2,-6.367492E-2,2.0504943E-1,-4.9547744E-1,1.3106558E-1,1.0127491E0,3.1800333E-1],"split_indices":[0,49,1,36,46,11,63,0,0,0,0,0,0,0,0],"split_type":[0,0,0,0,0,0,0,0,0,0,0,0,0,0,0],"sum_hessian":[1.866E3,1.379E3,4.87E2,8.5E2,5.29E2,4.08E2,7.9E1,1.37E2,7.13E2,2.93E2,2.36E2,1.7E1,3.91E2,1.7E1,6.2E1],"tree_param":{"num_deleted":"0","num_feature":"88","num_nodes":"15","size_leaf_vector":"1"}},{"base_weights":[6.346215E-2,-3.0833614E0,1.704809E0,-6.8489695E0,-1.4844675E0,-2.0208326E-1,4.0667048E0,-1.7439692E-1,-8.0887794E-1,1.2411354E-1,-1.4074919E-1,-7.508021E-2,1.8555589E-1,2.4168181E-1,-3.2640553E-1],"categories":[],"categories_nodes":[],"categories_segments":[],"categories_sizes":[],"default_left":[0,0,0,0,0,0,0,0,0,0,0,0,0,0,0],"id":32,"left_children":[1,3,5,7,9,11,13,-1,-1,-1,-1,-1,-1,-1,-1],"loss_changes":[9.689088E3,3.8468784E3,5.5568613E3,5.865866E3,2.4102666E3,3.4883762E3,4.539409E3,0E0,0E0,0E0,0E0,0E0,0E0,0E0,0E0],"parents":[2147483647,0,0,1,1,2,2,3,3,4,4,5,5,6,6],"right_children":[2,4,6,8,10,12,14,-1,-1,-1,-1,-1,-1,-1,-1],"split_conditions":[9.8875E1,3.0723623E1,1.14224236E2,-1.2129306E0,-1E0,1.1925793E2,9.4E0,-1.7439692E-1,-8.0887794E-1,1.2411354E-1,-1.4074919E-1,-7.508021E-2,1.8555589E-1,2.4168181E-1,-3.2640553E-1],"split_indices":[50,21,1,5,75,0,41,0,0,0,0,0,0,0,0],"split_type":[0,0,0,0,0,0,0,0,0,0,0,0,0,0,0],"sum_hessian":[1.872E3,6.41E2,1.231E3,1.89E2,4.52E2,6.82E2,5.49E2,1.41E2,4.8E1,1.13E2,3.39E2,5.13E2,1.69E2,5.13E2,3.6E1],"tree_param":{"num_deleted":"0","num_feature":"88","num_nodes":"15","size_leaf_vector":"1"}},{"base_weights":[-4.455489E-2,-1.9146913E0,2.0673099E0,-4.0876546E0,4.6892348E-1,-2.0938594E0,3.3711421E0,3.844289E-2,-2.5284785E-1,-1.4602904E-1,1.18259504E-1,-1.7439674E-1,4.0909162E-1,-7.790085E-3,2.34949E-1],"categories":[],"categories_nodes":[],"categories_segments":[],"categories_sizes":[],"default_left":[0,0,0,0,0,0,0,0,0,0,0,0,0,0,0],"id":33,"left_children":[1,3,5,7,9,11,13,-1,-1,-1,-1,-1,-1,-1,-1],"loss_changes":[7.4683984E3,5.2006885E3,4.832571E3,2.4813193E3,3.098691E3,3.1059724E3,3.1742686E3,0E0,0E0,0E0,0E0,0E0,0E0,0E0,0E0],"parents":[2147483647,0,0,1,1,2,2,3,3,4,4,5,5,6,6],"right_children":[2,4,6,8,10,12,14,-1,-1,-1,-1,-1,-1,-1,-1],"split_conditions":[1.025E0,1.0276786E0,9.8839283E-1,3.6716892E1,-6E-1,6.415012E0,1.0744696E2,3.844289E-2,-2.5284785E-1,-1.4602904E-1,1.18259504E-1,-1.7439674E-1,4.0909162E-1,-7.790085E-3,2.34949E-1],"split_indices":[46,47,47,28,44,13,0,0,0,0,0,0,0,0,0],"split_type":[0,0,0,0,0,0,0,0,0,0,0,0,0,0,0],"sum_hessian":[1.887E3,1.001E3,8.86E2,5.23E2,4.78E2,2.11E2,6.75E2,8.7E1,4.36E2,1.71E2,3.07E2,1.87E2,2.4E1,1.85E2,4.9E2],"tree_param":{"num_deleted":"0","num_feature":"88","num_nodes":"15","size_leaf_vector":"1"}},{"base_weights":[2.2393333E-2,-2.6131306E0,1.0690188E0,1.4585801E0,-4.006599E0,3.9378658E-1,7.3998127E0,-2.9911464E-1,2.235503E-1,1.0226746E-2,-2.6553667E-1,-6.738997E-2,1.0418397E-1,2.3901753E-1,8.4129614E-1],"categories":[],"categories_nodes":[],"categories_segments":[],"categories_sizes":[],"default_left":[0,0,0,0,0,0,0,0,0,0,0,0,0,0,0],"id":34,"left_children":[1,3,5,7,9,11,13,-1,-1,-1,-1,-1,-1,-1,-1],"loss_changes":[5.1244175E3,3.0087278E3,5.6757007E3,3.1011887E3,2.1685283E3,3.54947E3,2.9888203E3,0E0,0E0,0E0,0E0,0E0,0E0,0E0,0E0],"parents":[2147483647,0,0,1,1,2,2,3,3,4,4,5,5,6,6],"right_children":[2,4,6,8,10,12,14,-1,-1,-1,-1,-1,-1,-1,-1],"split_conditions":[1.124E2,-1.2201585E0,1.0216E2,1.13E2,-3.6702895E0,1.1231724E2,4.6E0,-2.9911464E-1,2.235503E-1,1.0226746E-2,-2.6553667E-1,-6.738997E-2,1.0418397E-1,2.3901753E-1,8.4129614E-1],"split_indices":[39,14,48,38,32,0,52,0,0,0,0,0,0,0,0],"split_type":[0,0,0,0,0,0,0,0,0,0,0,0,0,0,0],"sum_hessian":[1.854E3,5.26E2,1.328E3,1.34E2,3.92E2,1.202E3,1.26E2,3.8E1,9.6E1,9.3E1,2.99E2,5.92E2,6.1E2,1.01E2,2.5E1],"tree_param":{"num_deleted":"0","num_feature":"88","num_nodes":"15","size_leaf_vector":"1"}},{"base_weights":[2.3902027E-1,-1.3449725E0,2.5103192E0,-9.37402E0,-7.5686365E-1,-2.521113E0,3.4804587E0,-7.184671E-1,-2.0736311E-1,1.3175276E-1,-8.431684E-2,1.460601E-1,-3.823614E-1,4.8268247E-1,1.400242E-1],"categories":[],"categories_nodes":[],"categories_segments":[],"categories_sizes":[],"default_left":[0,0,0,0,0,0,0,0,0,0,0,0,0,0,0],"id":35,"left_children":[1,3,5,7,9,11,13,-1,-1,-1,-1,-1,-1,-1,-1],"loss_changes":[6.8214185E3,5.255167E3,3.820477E3,1.8558647E3,3.2966763E3,3.5900786E3,2.6849429E3,0E0,0E0,0E0,0E0,0E0,0E0,0E0,0E0],"parents":[2147483647,0,0,1,1,2,2,3,3,4,4,5,5,6,6],"right_children":[2,4,6,8,10,12,14,-1,-1,-1,-1,-1,-1,-1,-1],"split_conditions":[1.1409785E2,9.7375E1,1.0387536E2,5.69106E1,4.029524E0,4.774171E0,3.008906E1,-7.184671E-1,-2.0736311E-1,1.3175276E-1,-8.431684E-2,1.460601E-1,-3.823614E-1,4.8268247E-1,1.400242E-1],"split_indices":[1,50,0,24,12,12,22,0,0,0,0,0,0,0,0],"split_type":[0,0,0,0,0,0,0,0,0,0,0,0,0,0,0],"sum_hessian":[1.892E3,1.115E3,7.77E2,7.4E1,1.041E3,1.25E2,6.52E2,3.6E1,3.8E1,2.23E2,8.18E2,6.1E1,6.4E1,6.2E1,5.9E2],"tree_param":{"num_deleted":"0","num_feature":"88","num_nodes":"15","size_leaf_vector":"1"}},{"base_weights":[-2.5928855E-1,-9.754627E-1,4.1760855E0,-2.9894583E0,8.812689E-1,2.3573275E0,1.0530023E1,-1.8424153E-1,3.5806474E-1,-6.1211637E-3,2.453254E-1,5.2172667E-1,4.754512E-2,-3.137196E-1,6.9763505E-1],"categories":[],"categories_nodes":[],"categories_segments":[],"categories_sizes":[],"default_left":[0,0,0,0,0,0,0,0,0,0,0,0,0,0,0],"id":36,"left_children":[1,3,5,7,9,11,13,-1,-1,-1,-1,-1,-1,-1,-1],"loss_changes":[5.918013E3,6.0044E3,2.9369854E3,5.4861226E3,3.3811177E3,2.2918994E3,3.4573457E3,0E0,0E0,0E0,0E0,0E0,0E0,0E0,0E0],"parents":[2147483647,0,0,1,1,2,2,3,3,4,4,5,5,6,6],"right_children":[2,4,6,8,10,12,14,-1,-1,-1,-1,-1,-1,-1,-1],"split_conditions":[1.2107744E2,5.04E-1,1.0625E0,2.4975045E0,1.0544643E0,3.87054E0,-1.456071E0,-1.8424153E-1,3.5806474E-1,-6.1211637E-3,2.453254E-1,5.2172667E-1,4.754512E-2,-3.137196E-1,6.9763505E-1],"split_indices":[1,64,46,11,47,12,34,0,0,0,0,0,0,0,0],"split_type":[0,0,0,0,0,0,0,0,0,0,0,0,0,0,0],"sum_hessian":[1.859E3,1.602E3,2.57E2,7.68E2,8.34E2,2.02E2,5.5E1,7.2E2,4.8E1,6.69E2,1.65E2,2.8E1,1.74E2,9E0,4.6E1],"tree_param":{"num_deleted":"0","num_feature":"88","num_nodes":"15","size_leaf_vector":"1"}},{"base_weights":[6.140241E-2,-2.1011682E0,2.4716854E0,-7.830918E0,-1.3405395E0,1.2052151E0,7.1356416E0,-1.2289167E-2,-5.417374E-1,-2.4216865E-1,3.984229E-3,-2.3699115E-1,1.185416E-1,5.0685644E-1,3.7763737E-2],"categories":[],"categories_nodes":[],"categories_segments":[],"categories_sizes":[],"default_left":[0,0,0,0,0,0,0,0,0,0,0,0,0,0,0],"id":37,"left_children":[1,3,5,7,9,11,13,-1,-1,-1,-1,-1,-1,-1,-1],"loss_changes":[9.830746E3,4.306482E3,5.247462E3,2.6321294E3,4.380985E3,4.899754E3,3.6178525E3,0E0,0E0,0E0,0E0,0E0,0E0,0E0,0E0],"parents":[2147483647,0,0,1,1,2,2,3,3,4,4,5,5,6,6],"right_children":[2,4,6,8,10,12,14,-1,-1,-1,-1,-1,-1,-1,-1],"split_conditions":[1.025E0,1.09E2,1.0446428E0,-1.26E1,5.6064888E1,1.118E2,8.3323E0,-1.2289167E-2,-5.417374E-1,-2.4216865E-1,3.984229E-3,-2.3699115E-1,1.185416E-1,5.0685644E-1,3.7763737E-2],"split_indices":[46,36,47,63,25,37,81,0,0,0,0,0,0,0,0],"split_type":[0,0,0,0,0,0,0,0,0,0,0,0,0,0,0],"sum_hessian":[1.882E3,9.92E2,8.9E2,1.14E2,8.78E2,7.02E2,1.88E2,3.3E1,8.1E1,2.52E2,6.26E2,1.14E2,5.88E2,1.27E2,6.1E1],"tree_param":{"num_deleted":"0","num_feature":"88","num_nodes":"15","size_leaf_vector":"1"}},{"base_weights":[-6.135202E-1,-2.027729E0,1.6571404E0,-3.6007047E0,7.140674E-1,-1.31588E1,2.195732E0,5.2333068E-2,-2.250133E-1,1.7619018E-1,-8.849328E-2,-9.874207E-1,6.4213105E-2,-1.7289044E-3,1.9529715E-1],"categories":[],"categories_nodes":[],"categories_segments":[],"categories_sizes":[],"default_left":[0,0,0,0,0,0,0,0,0,0,0,0,0,0,0],"id":38,"left_children":[1,3,5,7,9,11,13,-1,-1,-1,-1,-1,-1,-1,-1],"loss_changes":[6.140275E3,5.08704E3,5.909437E3,3.1424092E3,3.0213843E3,2.5344854E3,2.7103591E3,0E0,0E0,0E0,0E0,0E0,0E0,0E0,0E0],"parents":[2147483647,0,0,1,1,2,2,3,3,4,4,5,5,6,6],"right_children":[2,4,6,8,10,12,14,-1,-1,-1,-1,-1,-1,-1,-1],"split_conditions":[5.12E-1,1.0321429E0,9.049056E1,-1.515228E0,3.1760565E1,5.960724E0,4.0689655E1,5.2333068E-2,-2.250133E-1,1.7619018E-1,-8.849328E-2,-9.874207E-1,6.4213105E-2,-1.7289044E-3,1.9529715E-1],"split_indices":[64,47,1,14,22,5,70,0,0,0,0,0,0,0,0],"split_type":[0,0,0,0,0,0,0,0,0,0,0,0,0,0,0],"sum_hessian":[1.908E3,1.176E3,7.32E2,7.47E2,4.29E2,2.4E1,7.08E2,1.21E2,6.26E2,2.01E2,2.28E2,1.6E1,8E0,3.08E2,4E2],"tree_param":{"num_deleted":"0","num_feature":"88","num_nodes":"15","size_leaf_vector":"1"}},{"base_weights":[3.073123E-1,-1.4335096E0,2.2416494E0,-3.884456E0,2.1577787E-1,3.311868E-1,4.854994E0,-2.310657E-1,4.7397557E-1,2.1329103E-1,-4.9054135E-2,-1.10983364E-1,1.3818423E-1,-1.2633169E-2,3.0611652E-1],"categories":[],"categories_nodes":[],"categories_segments":[],"categories_sizes":[],"default_left":[0,0,0,0,0,0,0,0,0,0,0,0,0,0,0],"id":39,"left_children":[1,3,5,7,9,11,13,-1,-1,-1,-1,-1,-1,-1,-1],"loss_changes":[6.1993623E3,3.9205137E3,4.347822E3,3.9256523E3,2.826315E3,3.1522441E3,2.3881377E3,0E0,0E0,0E0,0E0,0E0,0E0,0E0,0E0],"parents":[2147483647,0,0,1,1,2,2,3,3,4,4,5,5,6,6],"right_children":[2,4,6,8,10,12,14,-1,-1,-1,-1,-1,-1,-1,-1],"split_conditions":[1.025E0,1.10206924E2,1.1409785E2,3.0818348E1,-2.2E-2,9.300672E-1,9.8660713E-1,-2.310657E-1,4.7397557E-1,2.1329103E-1,-4.9054135E-2,-1.10983364E-1,1.3818423E-1,-1.2633169E-2,3.0611652E-1],"split_indices":[46,0,1,7,59,26,47,0,0,0,0,0,0,0,0],"split_type":[0,0,0,0,0,0,0,0,0,0,0,0,0,0,0],"sum_hessian":[1.837E3,9.67E2,8.7E2,3.88E2,5.79E2,5.04E2,3.66E2,3.69E2,1.9E1,1.31E2,4.48E2,2.46E2,2.58E2,7.3E1,2.93E2],"tree_param":{"num_deleted":"0","num_feature":"88","num_nodes":"15","size_leaf_vector":"1"}},{"base_weights":[2.8692825E-2,-8.210575E-1,3.0152068E0,-2.6869168E0,4.964584E-1,1.0016551E1,1.600111E0,-1.1298408E-3,-2.1064699E-1,-1.3232331E-1,8.836458E-2,1.8237291E-1,7.657141E-1,1.0635096E-2,4.5426303E-1],"categories":[],"categories_nodes":[],"categories_segments":[],"categories_sizes":[],"default_left":[0,0,0,0,0,0,0,0,0,0,0,0,0,0,0],"id":40,"left_children":[1,3,5,7,9,11,13,-1,-1,-1,-1,-1,-1,-1,-1],"loss_changes":[4.7314155E3,3.5707554E3,4.053964E3,2.4412456E3,3.4119158E3,2.2069834E3,3.5846836E3,0E0,0E0,0E0,0E0,0E0,0E0,0E0,0E0],"parents":[2147483647,0,0,1,1,2,2,3,3,4,4,5,5,6,6],"right_children":[2,4,6,8,10,12,14,-1,-1,-1,-1,-1,-1,-1,-1],"split_conditions":[1.1925793E2,1.0107143E0,6.472236E0,-6.0855305E-1,1.0701926E2,3.9263123E1,1.2107744E2,-1.1298408E-3,-2.1064699E-1,-1.3232331E-1,8.836458E-2,1.8237291E-1,7.657141E-1,1.0635096E-2,4.5426303E-1],"split_indices":[0,47,10,20,1,27,1,0,0,0,0,0,0,0,0],"split_type":[0,0,0,0,0,0,0,0,0,0,0,0,0,0,0],"sum_hessian":[1.86E3,1.449E3,4.11E2,5.99E2,8.5E2,6.7E1,3.44E2,2.19E2,3.8E2,2.44E2,6.06E2,3.2E1,3.5E1,2.92E2,5.2E1],"tree_param":{"num_deleted":"0","num_feature":"88","num_nodes":"15","size_leaf_vector":"1"}},{"base_weights":[-1.0532857E-1,-1.1525829E0,2.8970687E0,-2.545334E0,9.322759E-1,-1.0201348E1,3.5080214E0,-1.6371763E-1,2.1869679E-1,-8.589478E-2,1.7421633E-1,-8.768632E-1,-5.6177076E-2,8.709089E-2,3.4791416E-1],"categories":[],"categories_nodes":[],"categories_segments":[],"categories_sizes":[],"default_left":[0,0,0,0,0,0,0,0,0,0,0,0,0,0,0],"id":41,"left_children":[1,3,5,7,9,11,13,-1,-1,-1,-1,-1,-1,-1,-1],"loss_changes":[5.87302E3,4.0271626E3,3.9334392E3,4.2198867E3,3.7732898E3,1.4163303E3,2.7928691E3,0E0,0E0,0E0,0E0,0E0,0E0,0E0,0E0],"parents":[2147483647,0,0,1,1,2,2,3,3,4,4,5,5,6,6],"right_children":[2,4,6,8,10,12,14,-1,-1,-1,-1,-1,-1,-1,-1],"split_conditions":[1.18106804E2,1.0294642E0,-3.0555604E0,1.54E1,1.1175414E2,2.5532833E1,1.0348214E0,-1.6371763E-1,2.1869679E-1,-8.589478E-2,1.7421633E-1,-8.768632E-1,-5.6177076E-2,8.709089E-2,3.4791416E-1],"split_indices":[0,47,11,61,1,30,46,0,0,0,0,0,0,0,0],"split_type":[0,0,0,0,0,0,0,0,0,0,0,0,0,0,0],"sum_hessian":[1.864E3,1.383E3,4.81E2,8.29E2,5.54E2,2E1,4.61E2,7.51E2,7.8E1,2.72E2,2.82E2,1E1,1E1,3.07E2,1.54E2],"tree_param":{"num_deleted":"0","num_feature":"88","num_nodes":"15","size_leaf_vector":"1"}},{"base_weights":[3.5612058E-2,-1.0814897E0,1.6858722E0,-1.9533712E0,2.6359634E0,8.573168E-2,3.860761E0,1.8189669E-1,-1.3067342E-1,4.504004E-2,5.672585E-1,-1.5302378E-1,1.0704553E-1,-3.3432108E-1,2.3063278E-1],"categories":[],"categories_nodes":[],"categories_segments":[],"categories_sizes":[],"default_left":[0,0,0,0,0,0,0,0,0,0,0,0,0,0,0],"id":42,"left_children":[1,3,5,7,9,11,13,-1,-1,-1,-1,-1,-1,-1,-1],"loss_changes":[3.4384048E3,3.6141475E3,2.6179011E3,3.347609E3,3.1771577E3,2.8318286E3,2.5904355E3,0E0,0E0,0E0,0E0,0E0,0E0,0E0,0E0],"parents":[2147483647,0,0,1,1,2,2,3,3,4,4,5,5,6,6],"right_children":[2,4,6,8,10,12,14,-1,-1,-1,-1,-1,-1,-1,-1],"split_conditions":[1.14224236E2,1.0607142E0,1.0008E2,3.5420814E0,2.8493042E1,9.723386E0,-2.7E-2,1.8189669E-1,-1.3067342E-1,4.504004E-2,5.672585E-1,-1.5302378E-1,1.0704553E-1,-3.3432108E-1,2.3063278E-1],"split_indices":[1,47,48,12,7,19,58,0,0,0,0,0,0,0,0],"split_type":[0,0,0,0,0,0,0,0,0,0,0,0,0,0,0],"sum_hessian":[1.861E3,1.11E3,7.51E2,9E2,2.1E2,4.34E2,3.17E2,9.4E1,8.06E2,1.77E2,3.3E1,1.71E2,2.63E2,2E1,2.97E2],"tree_param":{"num_deleted":"0","num_feature":"88","num_nodes":"15","size_leaf_vector":"1"}},{"base_weights":[-2.3143734E-1,-1.6338433E0,1.609818E0,-1.0370522E0,-1.4329542E0,2.619038E-1,4.4187717E0,-2.5297475E-1,-3.6853936E-2,3.1799942E-1,-4.1055225E-2,5.957326E-1,1.4286378E-1],"categories":[],"categories_nodes":[],"categories_segments":[],"categories_sizes":[],"default_left":[0,0,0,0,0,0,0,0,0,0,0,0,0],"id":43,"left_children":[1,3,5,-1,7,9,11,-1,-1,-1,-1,-1,-1],"loss_changes":[4.8856064E3,4.051943E3,3.09248E3,0E0,2.6772988E3,3.6785874E3,3.0262964E3,0E0,0E0,0E0,0E0,0E0,0E0],"parents":[2147483647,0,0,1,1,2,2,4,4,5,5,6,6],"right_children":[2,4,6,-1,8,10,12,-1,-1,-1,-1,-1,-1],"split_conditions":[1.15E2,8.143424E1,6.390553E1,-1.0370522E0,1.115E2,3.5614467E0,-3.3E-2,-2.5297475E-1,-3.6853936E-2,3.1799942E-1,-4.1055225E-2,5.957326E-1,1.4286378E-1],"split_indices":[36,0,79,0,38,13,59,0,0,0,0,0,0],"split_type":[0,0,0,0,0,0,0,0,0,0,0,0,0],"sum_hessian":[1.888E3,1.072E3,8.16E2,9E0,1.063E3,5.53E2,2.63E2,1.69E2,8.94E2,8.2E1,4.71E2,4.3E1,2.2E2],"tree_param":{"num_deleted":"0","num_feature":"88","num_nodes":"13","size_leaf_vector":"1"}},{"base_weights":[-1.9952871E-1,-4.222532E0,3.967775E-1,-6.951757E0,7.3120326E-1,-5.619173E-1,2.765172E0,-5.7236934E-1,-1.9330755E-1,-2.0812848E-1,3.0923268E-1,-1.8452488E-1,2.6763825E-2,3.406373E-1,7.7103064E-3],"categories":[],"categories_nodes":[],"categories_segments":[],"categories_sizes":[],"default_left":[0,0,0,0,0,0,0,0,0,0,0,0,0,0,0],"id":44,"left_children":[1,3,5,7,9,11,13,-1,-1,-1,-1,-1,-1,-1,-1],"loss_changes":[4.4600986E3,3.2580415E3,3.680258E3,2.0539487E3,2.3743506E3,3.9668167E3,4.929707E3,0E0,0E0,0E0,0E0,0E0,0E0,0E0,0E0],"parents":[2147483647,0,0,1,1,2,2,3,3,4,4,5,5,6,6],"right_children":[2,4,6,8,10,12,14,-1,-1,-1,-1,-1,-1,-1,-1],"split_conditions":[9.75E-1,1.137722E2,1.03E1,3.1461794E1,1.9E0,-2.8E0,-1.2835394E-1,-5.7236934E-1,-1.9330755E-1,-2.0812848E-1,3.0923268E-1,-1.8452488E-1,2.6763825E-2,3.406373E-1,7.7103064E-3],"split_indices":[46,0,63,22,41,62,8,0,0,0,0,0,0,0,0],"split_type":[0,0,0,0,0,0,0,0,0,0,0,0,0,0,0],"sum_hessian":[1.855E3,2.38E2,1.617E3,1.53E2,8.5E1,1.152E3,4.65E2,6E1,9.3E1,4.5E1,4E1,2.98E2,8.54E2,1.81E2,2.84E2],"tree_param":{"num_deleted":"0","num_feature":"88","num_nodes":"15","size_leaf_vector":"1"}},{"base_weights":[-2.597926E-1,-2.1970732E0,1.3242599E0,-8.310927E0,-1.3520384E0,-4.0464717E-1,4.3521614E0,-7.29852E-1,-2.1684924E-1,-5.2826967E-2,-7.381607E-1,-8.670052E-2,1.3728799E-1,2.744182E-1,-1.2657954E-1],"categories":[],"categories_nodes":[],"categories_segments":[],"categories_sizes":[],"default_left":[0,0,0,0,0,0,0,0,0,0,0,0,0,0,0],"id":45,"left_children":[1,3,5,7,9,11,13,-1,-1,-1,-1,-1,-1,-1,-1],"loss_changes":[5.812338E3,4.374485E3,5.460324E3,2.4369253E3,2.9371006E3,2.7940596E3,2.9935537E3,0E0,0E0,0E0,0E0,0E0,0E0,0E0,0E0],"parents":[2147483647,0,0,1,1,2,2,3,3,4,4,5,5,6,6],"right_children":[2,4,6,8,10,12,14,-1,-1,-1,-1,-1,-1,-1,-1],"split_conditions":[4.0689655E1,9.7655E1,1.0321429E0,3.0641598E1,1.5580381E1,1.169E2,3.538369E1,-7.29852E-1,-2.1684924E-1,-5.2826967E-2,-7.381607E-1,-8.670052E-2,1.3728799E-1,2.744182E-1,-1.2657954E-1],"split_indices":[70,50,46,21,19,36,21,0,0,0,0,0,0,0,0],"split_type":[0,0,0,0,0,0,0,0,0,0,0,0,0,0,0],"sum_hessian":[1.89E3,8.5E2,1.04E3,1.01E2,7.49E2,6.63E2,3.77E2,3.7E1,6.4E1,7.35E2,1.4E1,4.67E2,1.96E2,3.24E2,5.3E1],"tree_param":{"num_deleted":"0","num_feature":"88","num_nodes":"15","size_leaf_vector":"1"}},{"base_weights":[2.2158292E-1,-5.1473796E-1,5.43535E0,-1.845902E0,1.3731253E0,1.5289897E1,3.5061324E0,2.9133072E-1,-1.12682775E-1,-3.3253548E-1,1.0233133E-1,9.263131E-1,-2.1321814E-1,1.3532458E-1,1.0979198E0],"categories":[],"categories_nodes":[],"categories_segments":[],"categories_sizes":[],"default_left":[0,0,0,0,0,0,0,0,0,0,0,0,0,0,0],"id":46,"left_children":[1,3,5,7,9,11,13,-1,-1,-1,-1,-1,-1,-1,-1],"loss_changes":[7.3213613E3,4.2046216E3,4.3701147E3,3.0935295E3,3.7645325E3,2.569955E3,2.8198445E3,0E0,0E0,0E0,0E0,0E0,0E0,0E0,0E0],"parents":[2147483647,0,0,1,1,2,2,3,3,4,4,5,5,6,6],"right_children":[2,4,6,8,10,12,14,-1,-1,-1,-1,-1,-1,-1,-1],"split_conditions":[1.0660714E0,1.0294642E0,1.1212954E1,-6E-2,1.965551E1,1.58175E1,1.1223215E0,2.9133072E-1,-1.12682775E-1,-3.3253548E-1,1.0233133E-1,9.263131E-1,-2.1321814E-1,1.3532458E-1,1.0979198E0],"split_indices":[46,47,16,59,30,15,46,0,0,0,0,0,0,0,0],"split_type":[0,0,0,0,0,0,0,0,0,0,0,0,0,0,0],"sum_hessian":[1.903E3,1.669E3,2.34E2,9.79E2,6.9E2,3.6E1,1.98E2,4.8E1,9.31E2,5.2E1,6.38E2,3.1E1,5E0,1.92E2,6E0],"tree_param":{"num_deleted":"0","num_feature":"88","num_nodes":"15","size_leaf_vector":"1"}},{"base_weights":[1.5311515E-1,-6.296812E-1,2.6994028E0,-3.665089E0,3.327577E-2,3.4976214E-1,5.3595743E0,1.950187E-1,-2.6473728E-1,6.79804E-2,-9.522618E-2,6.4591795E-1,-4.597718E-2,-1.2131368E-1,3.376719E-1],"categories":[],"categories_nodes":[],"categories_segments":[],"categories_sizes":[],"default_left":[0,0,0,0,0,0,0,0,0,0,0,0,0,0,0],"id":47,"left_children":[1,3,5,7,9,11,13,-1,-1,-1,-1,-1,-1,-1,-1],"loss_changes":[3.7636562E3,2.9078855E3,2.7685945E3,3.2352393E3,3.0556929E3,3.8266643E3,2.2922354E3,0E0,0E0,0E0,0E0,0E0,0E0,0E0,0E0],"parents":[2147483647,0,0,1,1,2,2,3,3,4,4,5,5,6,6],"right_children":[2,4,6,8,10,12,14,-1,-1,-1,-1,-1,-1,-1,-1],"split_conditions":[1.0446428E0,1.099E2,2.3865904E1,-1.38E1,2.3E0,3.5027242E0,-3.30074E0,1.950187E-1,-2.6473728E-1,6.79804E-2,-9.522618E-2,6.4591795E-1,-4.597718E-2,-1.2131368E-1,3.376719E-1],"split_indices":[47,36,31,42,44,13,23,0,0,0,0,0,0,0,0],"split_type":[0,0,0,0,0,0,0,0,0,0,0,0,0,0,0],"sum_hessian":[1.884E3,1.442E3,4.42E2,2.57E2,1.185E3,2.36E2,2.06E2,4.5E1,2.12E2,7.04E2,4.81E2,2E1,2.16E2,3.1E1,1.75E2],"tree_param":{"num_deleted":"0","num_feature":"88","num_nodes":"15","size_leaf_vector":"1"}},{"base_weights":[-1.8081616E-1,7.774401E0,-5.0293016E-1,1.1382565E0,5.774774E0,-4.1646547E0,7.14147E-2,-1.3861295E-3,4.804739E-1,5.0133152E-5,-2.969571E-1,-3.1401798E-1,2.2714538E-2],"categories":[],"categories_nodes":[],"categories_segments":[],"categories_sizes":[],"default_left":[0,0,0,0,0,0,0,0,0,0,0,0,0],"id":48,"left_children":[1,3,5,-1,7,9,11,-1,-1,-1,-1,-1,-1],"loss_changes":[4.8729097E3,1.9410171E3,3.8470957E3,0E0,1.5183816E3,1.8361724E3,3.8501255E3,0E0,0E0,0E0,0E0,0E0,0E0],"parents":[2147483647,0,0,1,1,2,2,4,4,5,5,6,6],"right_children":[2,4,6,-1,8,10,12,-1,-1,-1,-1,-1,-1],"split_conditions":[4.2459016E0,-7.2E0,9.75E-1,1.1382565E0,2.322859E1,-8.1034416E-1,5.3205635E1,-1.3861295E-3,4.804739E-1,5.0133152E-5,-2.969571E-1,-3.1401798E-1,2.2714538E-2],"split_indices":[71,44,47,0,77,20,25,0,0,0,0,0,0],"split_type":[0,0,0,0,0,0,0,0,0,0,0,0,0],"sum_hessian":[1.898E3,7.2E1,1.826E3,6E0,6.6E1,2.46E2,1.58E3,2.7E1,3.9E1,7.4E1,1.72E2,8.8E1,1.492E3],"tree_param":{"num_deleted":"0","num_feature":"88","num_nodes":"13","size_leaf_vector":"1"}},{"base_weights":[4.685316E-2,-1.9952768E0,1.2529054E0,7.1003523E0,-2.3735948E0,6.506916E-1,5.4054594E0,1.3685979E-1,7.3964554E-1,-1.2959577E-1,6.448466E-1,2.6002648E-1,-4.057088E-3,1.4669208E-1,9.2125434E-1],"categories":[],"categories_nodes":[],"categories_segments":[],"categories_sizes":[],"default_left":[0,0,0,0,0,0,0,0,0,0,0,0,0,0,0],"id":49,"left_children":[1,3,5,7,9,11,13,-1,-1,-1,-1,-1,-1,-1,-1],"loss_changes":[4.743278E3,2.491686E3,3.0183164E3,8.83604E2,2.3554077E3,3.5329102E3,4.804679E3,0E0,0E0,0E0,0E0,0E0,0E0,0E0,0E0],"parents":[2147483647,0,0,1,1,2,2,3,3,4,4,5,5,6,6],"right_children":[2,4,6,8,10,12,14,-1,-1,-1,-1,-1,-1,-1,-1],"split_conditions":[1.096745E2,4.237288E0,1.0199E2,2.7232805E1,1.204E2,-5.7405295E0,1.0798424E0,1.3685979E-1,7.3964554E-1,-1.2959577E-1,6.448466E-1,2.6002648E-1,-4.057088E-3,1.4669208E-1,9.2125434E-1],"split_indices":[1,71,49,30,37,5,11,0,0,0,0,0,0,0,0],"split_type":[0,0,0,0,0,0,0,0,0,0,0,0,0,0,0],"sum_hessian":[1.922E3,7.13E2,1.209E3,2.7E1,6.86E2,1.058E3,1.51E2,1.9E1,8E0,6.78E2,8E0,1.45E2,9.13E2,1.29E2,2.2E1],"tree_param":{"num_deleted":"0","num_feature":"88","num_nodes":"15","size_leaf_vector":"1"}},{"base_weights":[1.05694495E-1,-3.2461483E0,7.3368806E-1,-6.794202E0,-1.2714783E0,-4.1877335E-1,2.654767E0,5.5351794E-2,-4.6331817E-1,-4.5048842E-1,3.0127982E-2,-9.112426E-2,1.00826696E-1,-2.640629E-1,1.6531049E-1],"categories":[],"categories_nodes":[],"categories_segments":[],"categories_sizes":[],"default_left":[0,0,0,0,0,0,0,0,0,0,0,0,0,0,0],"id":50,"left_children":[1,3,5,7,9,11,13,-1,-1,-1,-1,-1,-1,-1,-1],"loss_changes":[3.975521E3,2.0665474E3,3.5257668E3,2.095108E3,2.8284204E3,3.4120483E3,3.1203428E3,0E0,0E0,0E0,0E0,0E0,0E0,0E0,0E0],"parents":[2147483647,0,0,1,1,2,2,3,3,4,4,5,5,6,6],"right_children":[2,4,6,8,10,12,14,-1,-1,-1,-1,-1,-1,-1,-1],"split_conditions":[1.097E2,1.3219279E1,9.989E1,9.795E1,1.7E0,3E-3,-2.3E-2,5.5351794E-2,-4.6331817E-1,-4.5048842E-1,3.0127982E-2,-9.112426E-2,1.00826696E-1,-2.640629E-1,1.6531049E-1],"split_indices":[37,16,50,48,42,57,58,0,0,0,0,0,0,0,0],"split_type":[0,0,0,0,0,0,0,0,0,0,0,0,0,0,0],"sum_hessian":[1.885E3,2.96E2,1.589E3,1.04E2,1.92E2,9.94E2,5.95E2,2.5E1,7.9E1,3.6E1,1.56E2,6.31E2,3.63E2,4.4E1,5.51E2],"tree_param":{"num_deleted":"0","num_feature":"88","num_nodes":"15","size_leaf_vector":"1"}},{"base_weights":[1.7370707E-1,-6.967478E0,4.0640178E-1,-1.3851957E0,-1.2440746E1,-1.0588008E-1,2.95022E0,-2.0188974E-1,3.1177005E-1,-8.138493E-1,-1.4048053E-1,-3.4133073E-2,1.512696E-1,-2.3345399E-1,2.2295563E-1],"categories":[],"categories_nodes":[],"categories_segments":[],"categories_sizes":[],"default_left":[0,0,0,0,0,0,0,0,0,0,0,0,0,0,0],"id":51,"left_children":[1,3,5,7,9,11,13,-1,-1,-1,-1,-1,-1,-1,-1],"loss_changes":[3.1596433E3,1.7918206E3,2.4024526E3,6.9611615E2,1.0074126E3,2.775261E3,3.5940166E3,0E0,0E0,0E0,0E0,0E0,0E0,0E0,0E0],"parents":[2147483647,0,0,1,1,2,2,3,3,4,4,5,5,6,6],"right_children":[2,4,6,8,10,12,14,-1,-1,-1,-1,-1,-1,-1,-1],"split_conditions":[5.252497E1,5.142823E1,2.9139122E1,3.4E-2,4.6E-1,4.616778E1,2.1333704E1,-2.0188974E-1,3.1177005E-1,-8.138493E-1,-1.4048053E-1,-3.4133073E-2,1.512696E-1,-2.3345399E-1,2.2295563E-1],"split_indices":[24,24,7,59,51,77,30,0,0,0,0,0,0,0,0],"split_type":[0,0,0,0,0,0,0,0,0,0,0,0,0,0,0],"sum_hessian":[1.898E3,5.8E1,1.84E3,3E1,2.8E1,1.533E3,3.07E2,2.3E1,7E0,1.9E1,9E0,1.296E3,2.37E2,5E1,2.57E2],"tree_param":{"num_deleted":"0","num_feature":"88","num_nodes":"15","size_leaf_vector":"1"}},{"base_weights":[3.2389525E-1,-3.5433028E0,9.249482E-1,2.4692192E0,-5.951764E0,7.2666006E0,6.18751E-1,-6.2774676E-1,2.608449E-1,-3.5909948E-1,1.8127535E-1,-1.4801246E-1,5.187412E-1,-3.4752816E-2,9.836932E-2],"categories":[],"categories_nodes":[],"categories_segments":[],"categories_sizes":[],"default_left":[0,0,0,0,0,0,0,0,0,0,0,0,0,0,0],"id":52,"left_children":[1,3,5,7,9,11,13,-1,-1,-1,-1,-1,-1,-1,-1],"loss_changes":[4.3890464E3,3.7092898E3,3.15996E3,3.1821611E3,2.1982148E3,2.4491812E3,2.769224E3,0E0,0E0,0E0,0E0,0E0,0E0,0E0,0E0],"parents":[2147483647,0,0,1,1,2,2,3,3,4,4,5,5,6,6],"right_children":[2,4,6,8,10,12,14,-1,-1,-1,-1,-1,-1,-1,-1],"split_conditions":[9.787E1,6.701464E0,-6.3E-2,-1.7445353E1,5.698325E0,-8.7E0,1.146E2,-6.2774676E-1,2.608449E-1,-3.5909948E-1,1.8127535E-1,-1.4801246E-1,5.187412E-1,-3.4752816E-2,9.836932E-2],"split_indices":[50,9,59,2,23,63,39,0,0,0,0,0,0,0,0],"split_type":[0,0,0,0,0,0,0,0,0,0,0,0,0,0,0],"sum_hessian":[1.884E3,2.52E2,1.632E3,7.2E1,1.8E2,7.3E1,1.559E3,1E1,6.2E1,1.6E2,2E1,1.7E1,5.6E1,7.9E2,7.69E2],"tree_param":{"num_deleted":"0","num_feature":"88","num_nodes":"15","size_leaf_vector":"1"}},{"base_weights":[-2.2126889E-1,-2.9935849E0,3.6437058E-1,-2.4522405E0,-8.534641E-1,-1.9008602E0,1.1822281E0,-2.8418463E-1,-2.71803E-2,-4.450813E-1,-6.577042E-2,1.1739389E-2,2.0762968E-1],"categories":[],"categories_nodes":[],"categories_segments":[],"categories_sizes":[],"default_left":[0,0,0,0,0,0,0,0,0,0,0,0,0],"id":53,"left_children":[1,3,5,7,-1,9,11,-1,-1,-1,-1,-1,-1],"loss_changes":[3.1094001E3,2.451536E3,2.9331523E3,1.989029E3,0E0,1.6928894E3,3.268822E3,0E0,0E0,0E0,0E0,0E0,0E0],"parents":[2147483647,0,0,1,1,2,2,3,3,5,5,6,6],"right_children":[2,4,6,8,-1,10,12,-1,-1,-1,-1,-1,-1],"split_conditions":[1.115E2,1.0571001E1,9.9464285E-1,5.639597E1,-8.534641E-1,6.0516458E0,2.6E0,-2.8418463E-1,-2.71803E-2,-4.450813E-1,-6.577042E-2,1.1739389E-2,2.0762968E-1],"split_indices":[38,32,47,25,0,10,41,0,0,0,0,0,0],"split_type":[0,0,0,0,0,0,0,0,0,0,0,0,0],"sum_hessian":[1.911E3,3.32E2,1.579E3,3.22E2,1E1,4.18E2,1.161E3,1.18E2,2.04E2,3E1,3.88E2,8.82E2,2.79E2],"tree_param":{"num_deleted":"0","num_feature":"88","num_nodes":"13","size_leaf_vector":"1"}},{"base_weights":[1.0025162E-1,-6.875771E-1,3.4260178E0,-1.6737194E0,1.8545264E0,2.6229894E0,1.3613501E1,-1.0450208E-1,1.8898913E-1,-1.5979813E-1,1.5890448E-1,2.4730034E-1,-3.52865E-2,7.916317E-2,8.5196227E-1],"categories":[],"categories_nodes":[],"categories_segments":[],"categories_sizes":[],"default_left":[0,0,0,0,0,0,0,0,0,0,0,0,0,0,0],"id":54,"left_children":[1,3,5,7,9,11,13,-1,-1,-1,-1,-1,-1,-1,-1],"loss_changes":[4.9659946E3,3.8466511E3,2.8901094E3,2.5237625E3,2.888016E3,2.6304773E3,1.0082588E3,0E0,0E0,0E0,0E0,0E0,0E0,0E0,0E0],"parents":[2147483647,0,0,1,1,2,2,3,3,4,4,5,5,6,6],"right_children":[2,4,6,8,10,12,14,-1,-1,-1,-1,-1,-1,-1,-1],"split_conditions":[1.00555E2,1.1697244E2,1.0982143E0,4.783857E1,2.7835861E1,1.3795124E1,-1.4E0,-1.0450208E-1,1.8898913E-1,-1.5979813E-1,1.5890448E-1,2.4730034E-1,-3.52865E-2,7.916317E-2,8.5196227E-1],"split_indices":[50,0,46,4,79,15,45,0,0,0,0,0,0,0,0],"split_type":[0,0,0,0,0,0,0,0,0,0,0,0,0,0,0],"sum_hessian":[1.891E3,1.53E3,3.61E2,1.103E3,4.27E2,3.37E2,2.4E1,1.026E3,7.7E1,8.8E1,3.39E2,1.98E2,1.39E2,6E0,1.8E1],"tree_param":{"num_deleted":"0","num_feature":"88","num_nodes":"15","size_leaf_vector":"1"}},{"base_weights":[1.4607346E-1,-5.8163314E0,5.3242236E-1,-1.066781E1,1.82214E-1,-3.8193512E-1,2.6724818E0,-7.9995936E-1,-1.0733928E-2,2.9953557E-1,-3.033938E-1,9.408834E-2,-8.0191374E-2,1.14602044E-1,1.1811818E0],"categories":[],"categories_nodes":[],"categories_segments":[],"categories_sizes":[],"default_left":[0,0,0,0,0,0,0,0,0,0,0,0,0,0,0],"id":55,"left_children":[1,3,5,7,9,11,13,-1,-1,-1,-1,-1,-1,-1,-1],"loss_changes":[4.239814E3,3.2685342E3,3.386458E3,3.4402568E3,1.9604523E3,3.3610552E3,4.0075603E3,0E0,0E0,0E0,0E0,0E0,0E0,0E0,0E0],"parents":[2147483647,0,0,1,1,2,2,3,3,4,4,5,5,6,6],"right_children":[2,4,6,8,10,12,14,-1,-1,-1,-1,-1,-1,-1,-1],"split_conditions":[9.5488846E1,4.380789E0,1.03E1,1.15E2,1.2795287E1,-1.26E1,6.414652E0,-7.9995936E-1,-1.0733928E-2,2.9953557E-1,-3.033938E-1,9.408834E-2,-8.0191374E-2,1.14602044E-1,1.1811818E0],"split_indices":[1,5,63,38,15,63,20,0,0,0,0,0,0,0,0],"split_type":[0,0,0,0,0,0,0,0,0,0,0,0,0,0,0],"sum_hessian":[1.837E3,1.1E2,1.727E3,6E1,5E1,1.211E3,5.16E2,3.9E1,2.1E1,2.6E1,2.4E1,4.24E2,7.87E2,5.09E2,7E0],"tree_param":{"num_deleted":"0","num_feature":"88","num_nodes":"15","size_leaf_vector":"1"}},{"base_weights":[-6.700961E-2,-1.7981547E0,1.02227E0,-2.4621685E0,3.8260672E0,-3.1113338E0,1.7464905E0,-1.512519E-1,2.7464855E-1,-2.9425202E-3,5.031263E-1,1.00540414E-1,-3.5187086E-1,-4.721773E-3,1.6302148E-1],"categories":[],"categories_nodes":[],"categories_segments":[],"categories_sizes":[],"default_left":[0,0,0,0,0,0,0,0,0,0,0,0,0,0,0],"id":56,"left_children":[1,3,5,7,9,11,13,-1,-1,-1,-1,-1,-1,-1,-1],"loss_changes":[3.5736963E3,2.7518572E3,3.491789E3,2.9693726E3,1.8959801E3,3.5299473E3,2.7641648E3,0E0,0E0,0E0,0E0,0E0,0E0,0E0,0E0],"parents":[2147483647,0,0,1,1,2,2,3,3,4,4,5,5,6,6],"right_children":[2,4,6,8,10,12,14,-1,-1,-1,-1,-1,-1,-1,-1],"split_conditions":[1.0957374E2,4.801823E1,-1.5745122E1,1.0295E2,1.151E2,4.121916E1,1.0116072E0,-1.512519E-1,2.7464855E-1,-2.9425202E-3,5.031263E-1,1.00540414E-1,-3.5187086E-1,-4.721773E-3,1.6302148E-1],"split_indices":[1,28,2,48,38,3,47,0,0,0,0,0,0,0,0],"split_type":[0,0,0,0,0,0,0,0,0,0,0,0,0,0,0],"sum_hessian":[1.891E3,7.3E2,1.161E3,6.54E2,7.6E1,1.72E2,9.89E2,6.12E2,4.2E1,4.8E1,2.8E1,7.5E1,9.7E1,4.47E2,5.42E2],"tree_param":{"num_deleted":"0","num_feature":"88","num_nodes":"15","size_leaf_vector":"1"}},{"base_weights":[-1.7107569E-1,-2.1695693E0,6.032245E-1,1.9720224E0,-3.3492985E0,-0E0,5.2603993E0,-8.572854E-2,5.413388E-1,-5.126414E-1,-1.3050821E-1,-3.4427416E-1,1.8615315E-2,6.46821E-2,4.5438263E-1],"categories":[],"categories_nodes":[],"categories_segments":[],"categories_sizes":[],"default_left":[0,0,0,0,0,0,0,0,0,0,0,0,0,0,0],"id":57,"left_children":[1,3,5,7,9,11,13,-1,-1,-1,-1,-1,-1,-1,-1],"loss_changes":[2.9203135E3,2.5887974E3,3.8219243E3,3.8936594E3,2.037228E3,3.0982617E3,2.3396553E3,0E0,0E0,0E0,0E0,0E0,0E0,0E0,0E0],"parents":[2147483647,0,0,1,1,2,2,3,3,4,4,5,5,6,6],"right_children":[2,4,6,8,10,12,14,-1,-1,-1,-1,-1,-1,-1,-1],"split_conditions":[1.0701926E2,4.0152287E0,1.0126E2,3.773102E0,5.460943E1,7.670267E0,5.7662888E1,-8.572854E-2,5.413388E-1,-5.126414E-1,-1.3050821E-1,-3.4427416E-1,1.8615315E-2,6.46821E-2,4.5438263E-1],"split_indices":[1,12,50,12,24,19,24,0,0,0,0,0,0,0,0],"split_type":[0,0,0,0,0,0,0,0,0,0,0,0,0,0,0],"sum_hessian":[1.883E3,5.25E2,1.358E3,1.16E2,4.09E2,1.204E3,1.54E2,8.3E1,3.3E1,3.7E1,3.72E2,6E1,1.144E3,7.7E1,7.7E1],"tree_param":{"num_deleted":"0","num_feature":"88","num_nodes":"15","size_leaf_vector":"1"}},{"base_weights":[9.026685E-2,-5.4056793E-1,2.722596E0,-3.9732947E0,1.10741965E-1,-3.4549026E0,4.050537E0,1.6398977E-1,-3.1019756E-1,-2.100231E-2,2.1475135E-1,2.479919E-1,-4.3821192E-1,1.824194E-2,3.0458206E-1],"categories":[],"categories_nodes":[],"categories_segments":[],"categories_sizes":[],"default_left":[0,0,0,0,0,0,0,0,0,0,0,0,0,0,0],"id":58,"left_children":[1,3,5,7,9,11,13,-1,-1,-1,-1,-1,-1,-1,-1],"loss_changes":[3.0578135E3,3.3229282E3,2.9486807E3,3.876617E3,2.7817566E3,2.9481482E3,2.2040576E3,0E0,0E0,0E0,0E0,0E0,0E0,0E0,0E0],"parents":[2147483647,0,0,1,1,2,2,3,3,4,4,5,5,6,6],"right_children":[2,4,6,8,10,12,14,-1,-1,-1,-1,-1,-1,-1,-1],"split_conditions":[1.173E2,1.118E2,-5.2880684E1,6.7693744E0,9.631572E1,-3.7363422E1,4.7291744E1,1.6398977E-1,-3.1019756E-1,-2.100231E-2,2.1475135E-1,2.479919E-1,-4.3821192E-1,1.824194E-2,3.0458206E-1],"split_indices":[39,37,81,10,80,78,80,0,0,0,0,0,0,0,0],"split_type":[0,0,0,0,0,0,0,0,0,0,0,0,0,0,0],"sum_hessian":[1.837E3,1.483E3,3.54E2,2.35E2,1.248E3,6.2E1,2.92E2,5.5E1,1.8E2,1.109E3,1.39E2,2.4E1,3.8E1,1.05E2,1.87E2],"tree_param":{"num_deleted":"0","num_feature":"88","num_nodes":"15","size_leaf_vector":"1"}},{"base_weights":[-8.932593E-2,-4.8116937E0,2.4164891E-1,-3.7342325E-2,-1.1770753E1,-2.435798E0,8.360277E-1,1.5738428E-1,-3.3396062E-1,-6.38563E-2,-8.5420036E-1,-2.1953438E-1,1.9618343E-1,-2.3272179E-1,6.248019E-2],"categories":[],"categories_nodes":[],"categories_segments":[],"categories_sizes":[],"default_left":[0,0,0,0,0,0,0,0,0,0,0,0,0,0,0],"id":59,"left_children":[1,3,5,7,9,11,13,-1,-1,-1,-1,-1,-1,-1,-1],"loss_changes":[2.935207E3,4.079891E3,2.7946196E3,1.6304044E3,2.7349482E3,4.0005134E3,3.2729607E3,0E0,0E0,0E0,0E0,0E0,0E0,0E0,0E0],"parents":[2147483647,0,0,1,1,2,2,3,3,4,4,5,5,6,6],"right_children":[2,4,6,8,10,12,14,-1,-1,-1,-1,-1,-1,-1,-1],"split_conditions":[9.5488846E1,1.1029954E1,9.8035717E-1,-2.2750053E1,7.2145844E0,1E-2,-7.5E0,1.5738428E-1,-3.3396062E-1,-6.38563E-2,-8.5420036E-1,-2.1953438E-1,1.9618343E-1,-2.3272179E-1,6.248019E-2],"split_indices":[1,19,47,78,9,58,43,0,0,0,0,0,0,0,0],"split_type":[0,0,0,0,0,0,0,0,0,0,0,0,0,0,0],"sum_hessian":[1.873E3,1.21E2,1.752E3,7.3E1,4.8E1,3.17E2,1.435E3,5E1,2.3E1,1.7E1,3.1E1,2.43E2,7.4E1,9.9E1,1.336E3],"tree_param":{"num_deleted":"0","num_feature":"88","num_nodes":"15","size_leaf_vector":"1"}},{"base_weights":[-8.410764E-2,2.8287663E0,-7.0113957E-1,1.738983E0,9.58897E0,-3.0392435E0,2.4485122E-1,-9.564043E-2,2.5766984E-1,-2.9306272E-2,7.805673E-1,-5.786086E-2,-3.468438E-1,-2.4505557E-2,1.8209091E-1],"categories":[],"categories_nodes":[],"categories_segments":[],"categories_sizes":[],"default_left":[0,0,0,0,0,0,0,0,0,0,0,0,0,0,0],"id":60,"left_children":[1,3,5,7,9,11,13,-1,-1,-1,-1,-1,-1,-1,-1],"loss_changes":[3.444802E3,2.4289836E3,3.5019922E3,3.6497344E3,2.8446118E3,3.3248618E3,2.8213586E3,0E0,0E0,0E0,0E0,0E0,0E0,0E0,0E0],"parents":[2147483647,0,0,1,1,2,2,3,3,4,4,5,5,6,6],"right_children":[2,4,6,8,10,12,14,-1,-1,-1,-1,-1,-1,-1,-1],"split_conditions":[3.87054E0,3.773102E0,1.0701926E2,1.4775018E-1,7.316051E0,1.1E-2,1.176E2,-9.564043E-2,2.5766984E-1,-2.9306272E-2,7.805673E-1,-5.786086E-2,-3.468438E-1,-2.4505557E-2,1.8209091E-1],"split_indices":[12,12,1,29,9,60,39,0,0,0,0,0,0,0,0],"split_type":[0,0,0,0,0,0,0,0,0,0,0,0,0,0,0],"sum_hessian":[1.913E3,3.33E2,1.58E3,2.89E2,4.4E1,4.54E2,1.126E3,1.4E2,1.49E2,1.7E1,2.7E1,3.08E2,1.46E2,9.27E2,1.99E2],"tree_param":{"num_deleted":"0","num_feature":"88","num_nodes":"15","size_leaf_vector":"1"}},{"base_weights":[8.346368E-2,-1.8121068E0,1.0513905E0,-7.851216E-2,-3.873351E0,6.1118765E0,4.3190682E-1,-6.811996E-2,3.6957583E-1,-3.398484E-2,-3.165329E-1,2.1857761E-1,8.824033E-1,9.096327E-3,4.4013435E-1],"categories":[],"categories_nodes":[],"categories_segments":[],"categories_sizes":[],"default_left":[0,0,0,0,0,0,0,0,0,0,0,0,0,0,0],"id":61,"left_children":[1,3,5,7,9,11,13,-1,-1,-1,-1,-1,-1,-1,-1],"loss_changes":[3.4362915E3,2.2593542E3,3.878711E3,3.3354983E3,2.2559E3,2.5450483E3,2.3087358E3,0E0,0E0,0E0,0E0,0E0,0E0,0E0,0E0],"parents":[2147483647,0,0,1,1,2,2,3,3,4,4,5,5,6,6],"right_children":[2,4,6,8,10,12,14,-1,-1,-1,-1,-1,-1,-1,-1],"split_conditions":[1.0035714E0,8.086615E0,1.1140163E1,5.5487804E0,-1.5769187E0,6.361387E0,1.196E2,-6.811996E-2,3.6957583E-1,-3.398484E-2,-3.165329E-1,2.1857761E-1,8.824033E-1,9.096327E-3,4.4013435E-1],"split_indices":[47,10,16,71,11,13,38,0,0,0,0,0,0,0,0],"split_type":[0,0,0,0,0,0,0,0,0,0,0,0,0,0,0],"sum_hessian":[1.869E3,6.31E2,1.238E3,3.44E2,2.87E2,1.33E2,1.105E3,2.95E2,4.9E1,1.26E2,1.61E2,1.18E2,1.5E1,1.075E3,3E1],"tree_param":{"num_deleted":"0","num_feature":"88","num_nodes":"15","size_leaf_vector":"1"}},{"base_weights":[1.0956507E-1,-5.5513486E-2,1.0129842E1,-1.0666568E0,1.6907096E0,1.3814879E1,-3.190128E-1,-9.471351E-2,1.2524284E-1,-2.291458E-2,1.7984873E-1,8.864493E-1,1.2131204E-1],"categories":[],"categories_nodes":[],"categories_segments":[],"categories_sizes":[],"default_left":[0,0,0,0,0,0,0,0,0,0,0,0,0],"id":62,"left_children":[1,3,5,7,9,11,-1,-1,-1,-1,-1,-1,-1],"loss_changes":[3.1639016E3,3.3227766E3,2.0660527E3,3.5325361E3,2.8314966E3,1.0628774E3,0E0,0E0,0E0,0E0,0E0,0E0,0E0],"parents":[2147483647,0,0,1,1,2,2,3,3,4,4,5,5],"right_children":[2,4,6,8,10,12,-1,-1,-1,-1,-1,-1,-1],"split_conditions":[1.02435E2,1.157E2,1.5E-2,4.49218E1,1.2153665E1,5.397936E0,-3.190128E-1,-9.471351E-2,1.2524284E-1,-2.291458E-2,1.7984873E-1,8.864493E-1,1.2131204E-1],"split_indices":[50,36,57,28,15,12,0,0,0,0,0,0,0],"split_type":[0,0,0,0,0,0,0,0,0,0,0,0,0],"sum_hessian":[1.907E3,1.878E3,2.9E1,1.19E3,6.88E2,2.4E1,5E0,9.67E2,2.23E2,3.24E2,3.64E2,1.7E1,7E0],"tree_param":{"num_deleted":"0","num_feature":"88","num_nodes":"13","size_leaf_vector":"1"}},{"base_weights":[-2.936177E-1,-4.014575E0,1.6169463E-1,-1.1003866E1,-2.7128572E0,-2.070105E0,8.579438E-1,6.510115E-2,-7.040721E-1,2.3336239E-1,-2.2944072E-1,-3.513682E-1,-2.5328754E-2,-4.26824E-1,5.5460252E-2],"categories":[],"categories_nodes":[],"categories_segments":[],"categories_sizes":[],"default_left":[0,0,0,0,0,0,0,0,0,0,0,0,0,0,0],"id":63,"left_children":[1,3,5,7,9,11,13,-1,-1,-1,-1,-1,-1,-1,-1],"loss_changes":[3.1391846E3,1.771251E3,2.568416E3,1.2170994E3,2.437939E3,3.0351865E3,2.9893967E3,0E0,0E0,0E0,0E0,0E0,0E0,0E0,0E0],"parents":[2147483647,0,0,1,1,2,2,3,3,4,4,5,5,6,6],"right_children":[2,4,6,8,10,12,14,-1,-1,-1,-1,-1,-1,-1,-1],"split_conditions":[1.106E2,1.1437372E1,2.3494555E1,3.7643932E1,2.1775099E1,-1.2840515E0,1.7570253E1,6.510115E-2,-7.040721E-1,2.3336239E-1,-2.2944072E-1,-3.513682E-1,-2.5328754E-2,-4.26824E-1,5.5460252E-2],"split_indices":[38,16,7,28,31,2,30,0,0,0,0,0,0,0,0],"split_type":[0,0,0,0,0,0,0,0,0,0,0,0,0,0,0],"sum_hessian":[1.849E3,2E2,1.649E3,2.9E1,1.71E2,3.91E2,1.258E3,6E0,2.3E1,3.4E1,1.37E2,9.2E1,2.99E2,3.1E1,1.227E3],"tree_param":{"num_deleted":"0","num_feature":"88","num_nodes":"15","size_leaf_vector":"1"}},{"base_weights":[7.3942155E-2,6.6889334E0,-1.8943761E-1,1.2099734E1,3.0937095E0,-1.1857771E0,1.3313415E0,-9.138816E-2,7.654063E-1,-4.3717563E-2,4.4254428E-1,5.969337E-1,-6.955064E-2,5.2954342E-2,6.9400835E-1],"categories":[],"categories_nodes":[],"categories_segments":[],"categories_sizes":[],"default_left":[0,0,0,0,0,0,0,0,0,0,0,0,0,0,0],"id":64,"left_children":[1,3,5,7,9,11,13,-1,-1,-1,-1,-1,-1,-1,-1],"loss_changes":[3.2759963E3,1.3181558E3,2.741073E3,1.313876E3,1.0703276E3,2.9720513E3,2.4093271E3,0E0,0E0,0E0,0E0,0E0,0E0,0E0,0E0],"parents":[2147483647,0,0,1,1,2,2,3,3,4,4,5,5,6,6],"right_children":[2,4,6,8,10,12,14,-1,-1,-1,-1,-1,-1,-1,-1],"split_conditions":[4.2459016E0,4.559838E0,1.14224236E2,3.122426E0,1.6158537E1,-7.3E-2,5.0060993E1,-9.138816E-2,7.654063E-1,-4.3717563E-2,4.4254428E-1,5.969337E-1,-6.955064E-2,5.2954342E-2,6.9400835E-1],"split_indices":[71,12,1,12,66,59,4,0,0,0,0,0,0,0,0],"split_type":[0,0,0,0,0,0,0,0,0,0,0,0,0,0,0],"sum_hessian":[1.875E3,7E1,1.805E3,2.6E1,4.4E1,1.091E3,7.14E2,5E0,2.1E1,2.7E1,1.7E1,1.5E1,1.076E3,7.01E2,1.3E1],"tree_param":{"num_deleted":"0","num_feature":"88","num_nodes":"15","size_leaf_vector":"1"}},{"base_weights":[-1.209263E-1,-2.6280808E-1,1.2494259E1,-1.2525642E0,1.4081532E0,2.9658835E0,1.224206E0,-1.5873991E-1,-1.2202098E-2,1.0831914E-1,-3.0696258E-1,5.548785E-1,-1.9811453E-1],"categories":[],"categories_nodes":[],"categories_segments":[],"categories_sizes":[],"default_left":[0,0,0,0,0,0,0,0,0,0,0,0,0],"id":65,"left_children":[1,3,5,7,9,11,-1,-1,-1,-1,-1,-1,-1],"loss_changes":[3.379716E3,3.0944844E3,2.2401624E3,2.2746143E3,4.0075894E3,8.802395E2,0E0,0E0,0E0,0E0,0E0,0E0,0E0],"parents":[2147483647,0,0,1,1,2,2,3,3,4,4,5,5],"right_children":[2,4,6,8,10,12,-1,-1,-1,-1,-1,-1,-1],"split_conditions":[6.414652E0,1.0321429E0,9.1E0,-5.5E0,3.6140205E1,3.3649506E1,1.224206E0,-1.5873991E-1,-1.2202098E-2,1.0831914E-1,-3.0696258E-1,5.548785E-1,-1.9811453E-1],"split_indices":[20,46,63,62,22,21,0,0,0,0,0,0,0],"split_type":[0,0,0,0,0,0,0,0,0,0,0,0,0],"sum_hessian":[1.886E3,1.867E3,1.9E1,1.173E3,6.94E2,1.2E1,7E0,4.02E2,7.71E2,6.32E2,6.2E1,5E0,7E0],"tree_param":{"num_deleted":"0","num_feature":"88","num_nodes":"13","size_leaf_vector":"1"}},{"base_weights":[1.2719147E-1,-5.141275E0,4.2393658E-1,6.5812206E0,-7.344762E0,-1.8769972E-1,3.4850457E0,1.9406205E-2,5.972195E-1,-2.6237735E-1,-7.9164404E-1,-1.5517992E-1,2.3220386E-2,2.0316851E-1,-5.491056E-1],"categories":[],"categories_nodes":[],"categories_segments":[],"categories_sizes":[],"default_left":[0,0,0,0,0,0,0,0,0,0,0,0,0,0,0],"id":66,"left_children":[1,3,5,7,9,11,13,-1,-1,-1,-1,-1,-1,-1,-1],"loss_changes":[2.9615007E3,2.7059236E3,3.361837E3,5.492105E2,1.3542134E3,2.8507166E3,2.587436E3,0E0,0E0,0E0,0E0,0E0,0E0,0E0,0E0],"parents":[2147483647,0,0,1,1,2,2,3,3,4,4,5,5,6,6],"right_children":[2,4,6,8,10,12,14,-1,-1,-1,-1,-1,-1,-1,-1],"split_conditions":[-2.7749727E0,5.470684E1,1.176E2,9.503595E0,6.1E0,2.4927273E1,1.0979657E1,1.9406205E-2,5.972195E-1,-2.6237735E-1,-7.9164404E-1,-1.5517992E-1,2.3220386E-2,2.0316851E-1,-5.491056E-1],"split_indices":[11,24,36,10,43,79,9,0,0,0,0,0,0,0,0],"split_type":[0,0,0,0,0,0,0,0,0,0,0,0,0,0,0],"sum_hessian":[1.891E3,9.9E1,1.792E3,1.5E1,8.4E1,1.495E3,2.97E2,8E0,7E0,7E1,1.4E1,2.72E2,1.223E3,2.87E2,1E1],"tree_param":{"num_deleted":"0","num_feature":"88","num_nodes":"15","size_leaf_vector":"1"}}]},"name":"gbtree"},"learner_model_param":{"base_score":"[2.2857106E2]","boost_from_average":"1","num_class":"0","num_feature":"88","num_target":"1"},"objective":{"name":"reg:squarederror","reg_loss_param":{"scale_pos_weight":"1"}}},"version":[3,2,0]}