{"learner":{"attributes":{"best_iteration":"43","best_score":"18.759298819516424","scikit_learn":"{\"_estimator_type\": \"regressor\"}"},"feature_names":["home_points","away_points","diff_points","home_rebounds","away_rebounds","diff_rebounds","home_assists","away_assists","diff_assists","home_steals","away_steals","diff_steals","home_blocks","away_blocks","diff_blocks","home_turnovers","away_turnovers","diff_turnovers","home_oreb","away_oreb","diff_oreb","home_dreb","away_dreb","diff_dreb","home_ts_pct","away_ts_pct","diff_ts_pct","home_fg3_rate","away_fg3_rate","diff_fg3_rate","home_ft_rate","away_ft_rate","diff_ft_rate","home_to_margin","away_to_margin","diff_to_margin","home_off_rating","away_off_rating","home_def_rating","away_def_rating","home_net_rating","away_net_rating","diff_net_rating","home_matchup_edge","away_matchup_edge","diff_matchup_edge","home_def_factor_raw","away_def_factor_raw","home_pace","away_pace","avg_pace","diff_pace","home_court","home_fatigue","away_fatigue","diff_fatigue","combined_fatigue","ff_efg_edge","ff_tov_edge","ff_oreb_edge","ff_fta_edge","home_clutch_net","away_clutch_net","diff_clutch_net","home_clutch_efg","away_clutch_efg","home_deflections","away_deflections","diff_deflections","home_contested","away_contested","home_loose_balls","away_loose_balls","home_injured_count","away_injured_count","diff_injured_count","home_injury_ppg_lost","away_injury_ppg_lost","diff_injury_ppg_lost","home_injury_minutes_lost","away_injury_minutes_lost","diff_injury_minutes_lost","home_games_played","away_games_played","min_games_played","games_played_diff","home_roster_changed","away_roster_changed"],"feature_types":["float","float","float","float","float","float","float","float","float","float","float","float","float","float","float","float","float","float","float","float","float","float","float","float","float","float","float","float","float","float","float","float","float","float","float","float","float","float","float","float","float","float","float","float","float","float","float","float","float","float","float","float","float","float","float","float","float","float","float","float","float","float","float","float","float","float","float","float","float","float","float","float","float","int","int","int","int","int","int","int","int","int","int","int","int","int","int","int"],"gradient_booster":{"model":{"cats":{"enc":[],"feature_segments":[],"sorted_idx":[]},"gbtree_model_param":{"num_parallel_tree":"1","num_trees":"64"},"iteration_indptr":[0,1,2,3,4,5,6,7,8,9,10,11,12,13,14,15,16,17,18,19,20,21,22,23,24,25,26,27,28,29,30,31,32,33,34,35,36,37,38,39,40,41,42,43,44,45,46,47,48,49,50,51,52,53,54,55,56,57,58,59,60,61,62,63,64],"tree_info":[0,0,0,0,0,0,0,0,0,0,0,0,0,0,0,0,0,0,0,0,0,0,0,0,0,0,0,0,0,0,0,0,0,0,0,0,0,0,0,0,0,0,0,0,0,0,0,0,0,0,0,0,0,0,0,0,0,0,0,0,0,0,0,0],"trees":[{"base_weights":[1.7908649E-1,-6.47477E-1,2.1356174E1,1.0995652E1,-2.412243E0,1.7078379E-1,1.3846208E0,-1.403356E-1,6.910935E-1,-4.158403E-1,-1.0625403E-2],"categories":[],"categories_nodes":[],"categories_segments":[],"categories_sizes":[],"default_left":[0,0,0,0,0,0,0,0,0,0,0],"id":0,"left_children":[1,3,5,7,9,-1,-1,-1,-1,-1,-1],"loss_changes":[8.387517E3,9.521107E3,1.8414258E3,2.4626123E3,5.2135664E3,0E0,0E0,0E0,0E0,0E0,0E0],"parents":[2147483647,0,0,1,1,2,2,3,3,4,4],"right_children":[2,4,6,8,10,-1,-1,-1,-1,-1,-1],"split_conditions":[1.208E2,3.6222706E0,4.7982E0,-6.0865397E0,9.946E1,1.7078379E-1,1.3846208E0,-1.403356E-1,6.910935E-1,-4.158403E-1,-1.0625403E-2],"split_indices":[38,12,12,32,50,0,0,0,0,0,0],"split_type":[0,0,0,0,0,0,0,0,0,0,0],"sum_hessian":[4.75E2,4.59E2,1.6E1,5.9E1,4E2,5E0,1.1E1,1E1,4.9E1,1.07E2,2.93E2],"tree_param":{"num_deleted":"0","num_feature":"88","num_nodes":"11","size_leaf_vector":"1"}},{"base_weights":[-2.5539187E-1,-7.492893E0,1.8935883E0,6.3334376E-1,-8.746681E0,1.288438E1,7.6787263E-1,-5.544546E-1,-9.148728E-2,-1.58807E-1,8.353586E-1,1.1853462E0,9.401731E-3],"categories":[],"categories_nodes":[],"categories_segments":[],"categories_sizes":[],"default_left":[0,0,0,0,0,0,0,0,0,0,0,0,0],"id":1,"left_children":[1,3,5,-1,7,9,11,-1,-1,-1,-1,-1,-1],"loss_changes":[7.2012227E3,2.8988906E3,4.3903716E3,0E0,1.5893936E3,2.1389634E3,4.3152417E3,0E0,0E0,0E0,0E0,0E0,0E0],"parents":[2147483647,0,0,1,1,2,2,4,4,5,5,6,6],"right_children":[2,4,6,-1,8,10,12,-1,-1,-1,-1,-1,-1],"split_conditions":[9.921E1,2.5665384E1,4.0701756E0,6.3334376E-1,5.5468645E0,4.0733504E0,-9.1E0,-5.544546E-1,-9.148728E-2,-1.58807E-1,8.353586E-1,1.1853462E0,9.401731E-3],"split_indices":[50,22,71,0,13,13,45,0,0,0,0,0,0],"split_type":[0,0,0,0,0,0,0,0,0,0,0,0,0],"sum_hessian":[4.59E2,1.04E2,3.55E2,5E0,9.9E1,3.1E1,3.24E2,7.3E1,2.6E1,6E0,2.5E1,6E0,3.18E2],"tree_param":{"num_deleted":"0","num_feature":"88","num_nodes":"13","size_leaf_vector":"1"}},{"base_weights":[-2.7967906E-1,-1.6687734E0,1.2430319E1,7.3199778E0,-3.0551639E0,-1.4742218E-1,1.57489605E1,5.5526656E-1,-1.5432498E-1,-8.212498E-1,-1.1822366E-1,1.3106384E0,4.87399E-1],"categories":[],"categories_nodes":[],"categories_segments":[],"categories_sizes":[],"default_left":[0,0,0,0,0,0,0,0,0,0,0,0,0],"id":2,"left_children":[1,3,5,7,9,-1,11,-1,-1,-1,-1,-1,-1],"loss_changes":[8.422415E3,5.4012207E3,2.4979907E3,2.3573093E3,3.3666055E3,0E0,1.9199072E3,0E0,0E0,0E0,0E0,0E0,0E0],"parents":[2147483647,0,0,1,1,2,2,3,3,4,4,6,6],"right_children":[2,4,6,8,10,-1,12,-1,-1,-1,-1,-1,-1],"split_conditions":[1.0297E2,3.6713266E0,1.0899589E2,5.8414536E0,3.7903025E0,-1.4742218E-1,-2.801803E-1,5.5526656E-1,-1.5432498E-1,-8.212498E-1,-1.1822366E-1,1.3106384E0,4.87399E-1],"split_indices":[48,12,1,29,12,0,17,0,0,0,0,0,0],"split_type":[0,0,0,0,0,0,0,0,0,0,0,0,0],"sum_hessian":[4.73E2,4.28E2,4.5E1,5.6E1,3.72E2,8E0,3.7E1,4.1E1,1.5E1,1.6E1,3.56E2,1.1E1,2.6E1],"tree_param":{"num_deleted":"0","num_feature":"88","num_nodes":"13","size_leaf_vector":"1"}},{"base_weights":[6.2159586E-1,-5.0153923E-1,1.4640141E1,9.554291E0,-1.5575236E0,1.8916911E0,2.1659552E1,7.804467E-1,-2.8074265E-2,-1.3271613E-1,2.5814545E-1,6.7690194E-1,-3.294545E-1,2.4554782E-1,1.286925E0],"categories":[],"categories_nodes":[],"categories_segments":[],"categories_sizes":[],"default_left":[0,0,0,0,0,0,0,0,0,0,0,0,0,0,0],"id":3,"left_children":[1,3,5,7,9,11,13,-1,-1,-1,-1,-1,-1,-1,-1],"loss_changes":[7.642198E3,4.804223E3,3.1277964E3,2.6586917E3,3.0408782E3,1.6634329E3,1.3031562E3,0E0,0E0,0E0,0E0,0E0,0E0,0E0,0E0],"parents":[2147483647,0,0,1,1,2,2,3,3,4,4,5,5,6,6],"right_children":[2,4,6,8,10,12,14,-1,-1,-1,-1,-1,-1,-1,-1],"split_conditions":[1.0307E2,3.5010383E0,-1.4210855E-14,4.6181817E0,5.8E1,3E-3,4.773891E0,7.804467E-1,-2.8074265E-2,-1.3271613E-1,2.5814545E-1,6.7690194E-1,-3.294545E-1,2.4554782E-1,1.286925E0],"split_indices":[48,12,45,72,83,60,12,0,0,0,0,0,0,0,0],"split_type":[0,0,0,0,0,0,0,0,0,0,0,0,0,0,0],"sum_hessian":[4.82E2,4.48E2,3.4E1,4.1E1,4.07E2,1.3E1,2.1E1,2.5E1,1.6E1,3.51E2,5.6E1,5E0,8E0,5E0,1.6E1],"tree_param":{"num_deleted":"0","num_feature":"88","num_nodes":"15","size_leaf_vector":"1"}},{"base_weights":[-1.054708E-2,-1.0428427E0,1.394172E1,7.5421963E0,-2.3695595E0,-4.254532E-2,1.6568098E1,-7.8033626E-2,5.2622086E-1,-4.0645346E-1,-3.575666E-2,3.484824E-2,9.8978347E-1],"categories":[],"categories_nodes":[],"categories_segments":[],"categories_sizes":[],"default_left":[0,0,0,0,0,0,0,0,0,0,0,0,0],"id":4,"left_children":[1,3,5,7,9,-1,11,-1,-1,-1,-1,-1,-1],"loss_changes":[7.1088384E3,5.2725186E3,1.3569888E3,1.7204316E3,3.7954255E3,0E0,1.4476924E3,0E0,0E0,0E0,0E0,0E0,0E0],"parents":[2147483647,0,0,1,1,2,2,3,3,4,4,6,6],"right_children":[2,4,6,8,10,-1,12,-1,-1,-1,-1,-1,-1],"split_conditions":[1.0307E2,3.6713266E0,1.0802875E2,-3.4338813E0,5.5854633E1,-4.254532E-2,5E-1,-7.8033626E-2,5.2622086E-1,-4.0645346E-1,-3.575666E-2,3.484824E-2,9.8978347E-1],"split_indices":[48,12,1,32,25,0,53,0,0,0,0,0,0],"split_type":[0,0,0,0,0,0,0,0,0,0,0,0,0],"sum_hessian":[4.9E2,4.58E2,3.2E1,6E1,3.98E2,5E0,2.7E1,1.5E1,4.5E1,8.7E1,3.11E2,5E0,2.2E1],"tree_param":{"num_deleted":"0","num_feature":"88","num_nodes":"13","size_leaf_vector":"1"}},{"base_weights":[8.6822367E-1,-4.1994765E-1,1.2599906E1,-5.2662263E0,1.2621673E0,1.7192839E1,-3.6199543E0,3.4391615E-1,-3.730847E-1,2.2262512E-1,-1.0941106E-1,1.0331057E0,-2.4315452E-2,-6.1406666E-1,3.0021343E-1],"categories":[],"categories_nodes":[],"categories_segments":[],"categories_sizes":[],"default_left":[0,0,0,0,0,0,0,0,0,0,0,0,0,0,0],"id":5,"left_children":[1,3,5,7,9,11,13,-1,-1,-1,-1,-1,-1,-1,-1],"loss_changes":[7.179958E3,3.512503E3,3.6326074E3,3.0625288E3,3.5431445E3,2.2995352E3,1.1509277E3,0E0,0E0,0E0,0E0,0E0,0E0,0E0,0E0],"parents":[2147483647,0,0,1,1,2,2,3,3,4,4,5,5,6,6],"right_children":[2,4,6,8,10,12,14,-1,-1,-1,-1,-1,-1,-1,-1],"split_conditions":[1.02265E2,9.922E1,3.5620766E1,1.1819125E1,3E-3,3.1192448E0,1.1247828E1,3.4391615E-1,-3.730847E-1,2.2262512E-1,-1.0941106E-1,1.0331057E0,-2.4315452E-2,-6.1406666E-1,3.0021343E-1],"split_indices":[50,50,21,15,58,34,19,0,0,0,0,0,0,0,0],"split_type":[0,0,0,0,0,0,0,0,0,0,0,0,0,0,0],"sum_hessian":[4.72E2,4.27E2,4.5E1,1.09E2,3.18E2,3.5E1,1E1,1.6E1,9.3E1,1.65E2,1.53E2,2.9E1,6E0,5E0,5E0],"tree_param":{"num_deleted":"0","num_feature":"88","num_nodes":"15","size_leaf_vector":"1"}},{"base_weights":[-5.8650273E-1,-1.4492875E0,1.2492741E1,-1.9065301E0,1.5668569E1,1.1189117E0,1.8042763E1,5.242362E-1,-1.2250693E-1,1.1158961E0,2.235527E-1,-2.8705424E-1,3.865324E-1,1.3277508E0,3.9502132E-1],"categories":[],"categories_nodes":[],"categories_segments":[],"categories_sizes":[],"default_left":[0,0,0,0,0,0,0,0,0,0,0,0,0,0,0],"id":6,"left_children":[1,3,5,7,9,11,13,-1,-1,-1,-1,-1,-1,-1,-1],"loss_changes":[5.469853E3,3.6063281E3,1.843793E3,3.0381401E3,6.80511E2,6.340372E2,1.2898633E3,0E0,0E0,0E0,0E0,0E0,0E0,0E0,0E0],"parents":[2147483647,0,0,1,1,2,2,3,3,4,4,5,5,6,6],"right_children":[2,4,6,8,10,12,14,-1,-1,-1,-1,-1,-1,-1,-1],"split_conditions":[1.0955358E0,4.5894737E1,2.4843842E1,2.5665384E1,1.16668686E2,-1.4E-2,8.40153E0,5.242362E-1,-1.2250693E-1,1.1158961E0,2.235527E-1,-2.8705424E-1,3.865324E-1,1.3277508E0,3.9502132E-1],"split_indices":[46,70,7,22,0,60,10,0,0,0,0,0,0,0,0],"split_type":[0,0,0,0,0,0,0,0,0,0,0,0,0,0,0],"sum_hessian":[4.8E2,4.52E2,2.8E1,4.42E2,1E1,1E1,1.8E1,1.7E1,4.25E2,5E0,5E0,5E0,5E0,8E0,1E1],"tree_param":{"num_deleted":"0","num_feature":"88","num_nodes":"15","size_leaf_vector":"1"}},{"base_weights":[-5.838779E-1,-1.6563432E0,1.1122688E1,-5.4744015E0,1.8479513E-1,2.8832405E0,1.7579214E1,7.683343E-1,-3.231503E-1,-7.4063224E-1,5.180881E-2,-7.345764E-2,5.7287216E-1,1.79462E-1,1.1797985E0],"categories":[],"categories_nodes":[],"categories_segments":[],"categories_sizes":[],"default_left":[0,0,0,0,0,0,0,0,0,0,0,0,0,0,0],"id":7,"left_children":[1,3,5,7,9,11,13,-1,-1,-1,-1,-1,-1,-1,-1],"loss_changes":[5.9831294E3,3.0695625E3,2.0163271E3,3.1198882E3,3.8032954E3,7.8502576E2,1.6688579E3,0E0,0E0,0E0,0E0,0E0,0E0,0E0,0E0],"parents":[2147483647,0,0,1,1,2,2,3,3,4,4,5,5,6,6],"right_children":[2,4,6,8,10,12,14,-1,-1,-1,-1,-1,-1,-1,-1],"split_conditions":[1.02265E2,9.9395E1,5.735521E1,-8.217435E0,1.094E2,1.162E2,-1.4E-2,7.683343E-1,-3.231503E-1,-7.4063224E-1,5.180881E-2,-7.345764E-2,5.7287216E-1,1.79462E-1,1.1797985E0],"split_indices":[50,50,25,23,37,38,57,0,0,0,0,0,0,0,0],"split_type":[0,0,0,0,0,0,0,0,0,0,0,0,0,0,0],"sum_hessian":[4.72E2,4.34E2,3.8E1,1.4E2,2.94E2,1.8E1,2E1,5E0,1.35E2,1.4E1,2.8E2,1.3E1,5E0,7E0,1.3E1],"tree_param":{"num_deleted":"0","num_feature":"88","num_nodes":"15","size_leaf_vector":"1"}},{"base_weights":[1.7292042E-1,-3.5060294E0,4.561366E0,-3.9986145E0,6.473779E-1,1.161362E1,1.9172311E0,-1.2347575E-1,-4.9891916E-1,-2.6494188E-2,7.2145003E-1,-3.6672255E-1,1.7066664E-1],"categories":[],"categories_nodes":[],"categories_segments":[],"categories_sizes":[],"default_left":[0,0,0,0,0,0,0,0,0,0,0,0,0],"id":8,"left_children":[1,3,5,7,-1,9,11,-1,-1,-1,-1,-1,-1],"loss_changes":[7.717471E3,2.2063162E3,4.013773E3,2.2669824E3,0E0,2.0393677E3,2.2765837E3,0E0,0E0,0E0,0E0,0E0,0E0],"parents":[2147483647,0,0,1,1,2,2,3,3,5,5,6,6],"right_children":[2,4,6,8,-1,10,12,-1,-1,-1,-1,-1,-1],"split_conditions":[1.0063E2,1.7502972E1,-8E-3,3.33E0,6.473779E-1,1.113E2,1.2486561E1,-1.2347575E-1,-4.9891916E-1,-2.6494188E-2,7.2145003E-1,-3.6672255E-1,1.7066664E-1],"split_indices":[50,15,58,51,0,39,15,0,0,0,0,0,0],"split_type":[0,0,0,0,0,0,0,0,0,0,0,0,0],"sum_hessian":[4.74E2,2.58E2,2.16E2,2.52E2,6E0,5.7E1,1.59E2,2.03E2,4.9E1,1.1E1,4.6E1,2.1E1,1.38E2],"tree_param":{"num_deleted":"0","num_feature":"88","num_nodes":"13","size_leaf_vector":"1"}},{"base_weights":[5.258412E-1,-1.108374E0,5.93881E0,1.0015761E1,-2.1205611E0,-8.207982E-1,1.1932729E1,-4.9273226E-1,7.796515E-1,-2.5152466E-1,3.971156E-2,1.0767024E-1,-8.1129515E-1,-2.4435382E-1,6.84019E-1],"categories":[],"categories_nodes":[],"categories_segments":[],"categories_sizes":[],"default_left":[0,0,0,0,0,0,0,0,0,0,0,0,0,0,0],"id":9,"left_children":[1,3,5,7,9,11,13,-1,-1,-1,-1,-1,-1,-1,-1],"loss_changes":[4.2351006E3,4.1821025E3,4.5224805E3,3.7456973E3,2.885455E3,2.551085E3,1.8724248E3,0E0,0E0,0E0,0E0,0E0,0E0,0E0,0E0],"parents":[2147483647,0,0,1,1,2,2,3,3,4,4,5,5,6,6],"right_children":[2,4,6,8,10,12,14,-1,-1,-1,-1,-1,-1,-1,-1],"split_conditions":[1.0221E2,3.3537605E1,1.1368356E1,-1.35E0,5.7E1,7.760374E-1,9.50506E0,-4.9273226E-1,7.796515E-1,-2.5152466E-1,3.971156E-2,1.0767024E-1,-8.1129515E-1,-2.4435382E-1,6.84019E-1],"split_indices":[48,27,18,51,83,33,19,0,0,0,0,0,0,0,0],"split_type":[0,0,0,0,0,0,0,0,0,0,0,0,0,0,0],"sum_hessian":[4.75E2,3.66E2,1.09E2,2.9E1,3.37E2,5.2E1,5.7E1,6E0,2.3E1,1.68E2,1.69E2,4.5E1,7E0,5E0,5.2E1],"tree_param":{"num_deleted":"0","num_feature":"88","num_nodes":"15","size_leaf_vector":"1"}},{"base_weights":[-5.4686274E-2,-1.503048E0,5.4564734E0,5.6916833E0,-2.4131238E0,-3.7166018E0,9.460563E0,4.2931506E-1,-6.201878E-1,-2.5871549E-2,-3.6650664E-1,-3.830168E-1,3.418027E-1,2.8786054E-1,1.0476555E0],"categories":[],"categories_nodes":[],"categories_segments":[],"categories_sizes":[],"default_left":[0,0,0,0,0,0,0,0,0,0,0,0,0,0,0],"id":10,"left_children":[1,3,5,7,9,11,13,-1,-1,-1,-1,-1,-1,-1,-1],"loss_changes":[3.989538E3,2.61874E3,3.8930955E3,2.5681682E3,3.278852E3,1.4785016E3,2.8523315E3,0E0,0E0,0E0,0E0,0E0,0E0,0E0,0E0],"parents":[2147483647,0,0,1,1,2,2,3,3,4,4,5,5,6,6],"right_children":[2,4,6,8,10,12,14,-1,-1,-1,-1,-1,-1,-1,-1],"split_conditions":[1.0227E2,1.1892378E1,2.4267824E1,3.021449E0,3.2974785E1,2.0452192E0,1.0221E2,4.2931506E-1,-6.201878E-1,-2.5871549E-2,-3.6650664E-1,-3.830168E-1,3.418027E-1,2.8786054E-1,1.0476555E0],"split_indices":[48,15,7,32,21,32,49,0,0,0,0,0,0,0,0],"split_type":[0,0,0,0,0,0,0,0,0,0,0,0,0,0,0],"sum_hessian":[4.96E2,3.94E2,1.02E2,4.3E1,3.51E2,3.1E1,7.1E1,3.8E1,5E0,2.55E2,9.6E1,2.3E1,8E0,5.6E1,1.5E1],"tree_param":{"num_deleted":"0","num_feature":"88","num_nodes":"15","size_leaf_vector":"1"}},{"base_weights":[-1.0666725E-1,-3.9234538E0,3.1658862E0,8.190579E-1,-7.4310474E0,-1.3931677E0,6.3701005E0,-2.439122E-1,3.0189067E-1,-1.2287728E-1,-5.6945163E-1,-3.770342E-1,1.4344868E-1,-1.0192629E-1,5.462502E-1],"categories":[],"categories_nodes":[],"categories_segments":[],"categories_sizes":[],"default_left":[0,0,0,0,0,0,0,0,0,0,0,0,0,0,0],"id":11,"left_children":[1,3,5,7,9,11,13,-1,-1,-1,-1,-1,-1,-1,-1],"loss_changes":[5.8708394E3,3.6252314E3,3.7161091E3,2.854373E3,2.397729E3,2.8229714E3,5.7557563E3,0E0,0E0,0E0,0E0,0E0,0E0,0E0,0E0],"parents":[2147483647,0,0,1,1,2,2,3,3,4,4,5,5,6,6],"right_children":[2,4,6,8,10,12,14,-1,-1,-1,-1,-1,-1,-1,-1],"split_conditions":[1.0285715E0,7.9598455E0,1.0021E2,2.6245522E1,1.7127274E1,5.7859665E1,1.12093185E2,-2.439122E-1,3.0189067E-1,-1.2287728E-1,-5.6945163E-1,-3.770342E-1,1.4344868E-1,-1.0192629E-1,5.462502E-1],"split_indices":[46,10,49,7,66,25,0,0,0,0,0,0,0,0,0],"split_type":[0,0,0,0,0,0,0,0,0,0,0,0,0,0,0],"sum_hessian":[4.66E2,2.15E2,2.51E2,9.2E1,1.23E2,1.04E2,1.47E2,4.4E1,4.8E1,5.6E1,6.7E1,4.2E1,6.2E1,5.2E1,9.5E1],"tree_param":{"num_deleted":"0","num_feature":"88","num_nodes":"15","size_leaf_vector":"1"}},{"base_weights":[6.7648715E-1,8.243084E0,-4.9528864E-1,7.292159E-1,1.3332614E1,-3.8404958E0,2.5746968E0,4.348564E-1,-2.317986E-1,1.7872E-1,9.353103E-1,-2.7450472E-1,2.547925E-1,-4.3644977E-1,2.2069363E-1],"categories":[],"categories_nodes":[],"categories_segments":[],"categories_sizes":[],"default_left":[0,0,0,0,0,0,0,0,0,0,0,0,0,0,0],"id":12,"left_children":[1,3,5,7,9,11,13,-1,-1,-1,-1,-1,-1,-1,-1],"loss_changes":[4.232425E3,2.4210156E3,4.27208E3,1.2796516E3,1.8477261E3,2.989685E3,4.586217E3,0E0,0E0,0E0,0E0,0E0,0E0,0E0,0E0],"parents":[2147483647,0,0,1,1,2,2,3,3,4,4,5,5,6,6],"right_children":[2,4,6,8,10,12,14,-1,-1,-1,-1,-1,-1,-1,-1],"split_conditions":[3.6903644E0,1.0015E2,5.7E1,-1E-1,7.589971E0,1.181E2,1E0,4.348564E-1,-2.317986E-1,1.7872E-1,9.353103E-1,-2.7450472E-1,2.547925E-1,-4.3644977E-1,2.2069363E-1],"split_indices":[12,50,83,52,9,38,46,0,0,0,0,0,0,0,0],"split_type":[0,0,0,0,0,0,0,0,0,0,0,0,0,0,0],"sum_hessian":[4.74E2,6.2E1,4.12E2,2.6E1,3.6E1,1.97E2,2.15E2,1E1,1.6E1,1.4E1,2.2E1,1.67E2,3E1,2.9E1,1.86E2],"tree_param":{"num_deleted":"0","num_feature":"88","num_nodes":"15","size_leaf_vector":"1"}},{"base_weights":[1.0677897E-1,-5.200576E-1,1.36421795E1,-3.3413677E0,2.2180965E0,2.0695974E1,-1.532152E-2,1.5317878E-1,-2.8894836E-1,1.9909152E-1,-3.771393E-1,5.0923747E-1,1.2108357E0],"categories":[],"categories_nodes":[],"categories_segments":[],"categories_sizes":[],"default_left":[0,0,0,0,0,0,0,0,0,0,0,0,0],"id":13,"left_children":[1,3,5,7,9,11,-1,-1,-1,-1,-1,-1,-1],"loss_changes":[4.0254272E3,3.514892E3,2.089082E3,3.5340076E3,4.0350913E3,7.6186523E0,0E0,0E0,0E0,0E0,0E0,0E0,0E0],"parents":[2147483647,0,0,1,1,2,2,3,3,4,4,5,5],"right_children":[2,4,6,8,10,12,-1,-1,-1,-1,-1,-1,-1],"split_conditions":[1.208E2,5.7E1,8.134439E0,3.7265594E1,2.0464285E1,1.6255826E-2,-1.532152E-2,1.5317878E-1,-2.8894836E-1,1.9909152E-1,-3.771393E-1,5.0923747E-1,1.2108357E0],"split_indices":[38,83,9,27,66,14,0,0,0,0,0,0,0],"split_type":[0,0,0,0,0,0,0,0,0,0,0,0,0],"sum_hessian":[4.7E2,4.51E2,1.9E1,2.22E2,2.29E2,1.2E1,7E0,6.1E1,1.61E2,1.95E2,3.4E1,5E0,7E0],"tree_param":{"num_deleted":"0","num_feature":"88","num_nodes":"13","size_leaf_vector":"1"}},{"base_weights":[1.9012219E-1,-1.2248492E0,7.3753586E0,-0E0,-8.355196E0,-6.083374E-1,1.0955459E1,-1.4272429E-1,1.1958627E-1,-6.984602E-1,-1.08375445E-1,5.971248E-1,-3.2578748E-1,6.372021E-2,7.8556484E-1],"categories":[],"categories_nodes":[],"categories_segments":[],"categories_sizes":[],"default_left":[0,0,0,0,0,0,0,0,0,0,0,0,0,0,0],"id":14,"left_children":[1,3,5,7,9,11,13,-1,-1,-1,-1,-1,-1,-1,-1],"loss_changes":[4.8199214E3,3.4548386E3,2.2479321E3,2.335087E3,1.9461626E3,2.0806318E3,2.437705E3,0E0,0E0,0E0,0E0,0E0,0E0,0E0,0E0],"parents":[2147483647,0,0,1,1,2,2,3,3,4,4,5,5,6,6],"right_children":[2,4,6,8,10,12,14,-1,-1,-1,-1,-1,-1,-1,-1],"split_conditions":[1.56899E1,5.9141846E0,4.21263E1,5.756383E1,1.1478067E1,1.5E0,5.6E1,-1.4272429E-1,1.1958627E-1,-6.984602E-1,-1.08375445E-1,5.971248E-1,-3.2578748E-1,6.372021E-2,7.8556484E-1],"split_indices":[15,12,3,25,19,54,83,0,0,0,0,0,0,0,0],"split_type":[0,0,0,0,0,0,0,0,0,0,0,0,0,0,0],"sum_hessian":[4.7E2,3.94E2,7.6E1,3.38E2,5.6E1,2.4E1,5.2E1,1.54E2,1.84E2,2.8E1,2.8E1,7E0,1.7E1,1.8E1,3.4E1],"tree_param":{"num_deleted":"0","num_feature":"88","num_nodes":"15","size_leaf_vector":"1"}},{"base_weights":[5.914902E-1,-1.8742476E0,3.4031408E0,1.8961045E0,-4.6794524E0,-4.9809513E0,5.5709233E0,-5.3768802E-2,4.364898E-1,-3.4873518E-1,2.4430883E-1,4.2747495E-1,-4.3738952E-1,-3.0442464E-1,3.7540147E-1],"categories":[],"categories_nodes":[],"categories_segments":[],"categories_sizes":[],"default_left":[0,0,0,0,0,0,0,0,0,0,0,0,0,0,0],"id":15,"left_children":[1,3,5,7,9,11,13,-1,-1,-1,-1,-1,-1,-1,-1],"loss_changes":[3.2511353E3,2.6632898E3,4.0360928E3,2.2156702E3,3.230798E3,2.4941611E3,4.044601E3,0E0,0E0,0E0,0E0,0E0,0E0,0E0,0E0],"parents":[2147483647,0,0,1,1,2,2,3,3,4,4,5,5,6,6],"right_children":[2,4,6,8,10,12,14,-1,-1,-1,-1,-1,-1,-1,-1],"split_conditions":[1.0366071E0,2.635463E1,1.09934105E2,2.6929874E1,1.0758928E0,2.5E0,-1.8206285E0,-5.3768802E-2,4.364898E-1,-3.4873518E-1,2.4430883E-1,4.2747495E-1,-4.3738952E-1,-3.0442464E-1,3.7540147E-1],"split_indices":[46,31,1,6,47,53,17,0,0,0,0,0,0,0,0],"split_type":[0,0,0,0,0,0,0,0,0,0,0,0,0,0,0],"sum_hessian":[4.65E2,2.48E2,2.17E2,1.06E2,1.42E2,4.4E1,1.73E2,7.5E1,3.1E1,1.15E2,2.7E1,9E0,3.5E1,2.4E1,1.49E2],"tree_param":{"num_deleted":"0","num_feature":"88","num_nodes":"15","size_leaf_vector":"1"}},{"base_weights":[-7.2061464E-2,-6.831396E-1,9.997041E0,-1.5461144E0,5.623278E0,3.2421894E0,9.286629E-1,3.700364E-1,-1.1242177E-1,-6.072652E-1,4.0205064E-1,3.7365398E-1,-1.6616659E-1],"categories":[],"categories_nodes":[],"categories_segments":[],"categories_sizes":[],"default_left":[0,0,0,0,0,0,0,0,0,0,0,0,0],"id":16,"left_children":[1,3,5,7,9,11,-1,-1,-1,-1,-1,-1,-1],"loss_changes":[2.7963145E3,2.350088E3,1.374864E3,2.4121719E3,2.4271738E3,5.2397186E2,0E0,0E0,0E0,0E0,0E0,0E0,0E0],"parents":[2147483647,0,0,1,1,2,2,3,3,4,4,5,5],"right_children":[2,4,6,8,10,12,-1,-1,-1,-1,-1,-1,-1],"split_conditions":[1.0307E2,1.0297E2,1.3845037E1,-3.672644E0,3.461895E1,4.4851715E1,9.286629E-1,3.700364E-1,-1.1242177E-1,-6.072652E-1,4.0205064E-1,3.7365398E-1,-1.6616659E-1],"split_indices":[48,49,16,17,27,4,0,0,0,0,0,0,0],"split_type":[0,0,0,0,0,0,0,0,0,0,0,0,0],"sum_hessian":[4.51E2,4.27E2,2.4E1,3.77E2,5E1,1.5E1,9E0,2.6E1,3.51E2,5E0,4.5E1,9E0,6E0],"tree_param":{"num_deleted":"0","num_feature":"88","num_nodes":"13","size_leaf_vector":"1"}},{"base_weights":[4.9120644E-1,-5.5800986E0,1.7105486E0,5.560834E-1,-7.311844E0,-5.33323E-1,6.2997684E0,-7.452821E-2,-5.868154E-1,-4.9477234E-1,1.8690046E-2,6.0672283E-2,5.03693E-1],"categories":[],"categories_nodes":[],"categories_segments":[],"categories_sizes":[],"default_left":[0,0,0,0,0,0,0,0,0,0,0,0,0],"id":17,"left_children":[1,3,5,-1,7,9,11,-1,-1,-1,-1,-1,-1],"loss_changes":[3.4077283E3,2.3878223E3,3.9535913E3,0E0,1.7870784E3,2.211744E3,2.3886353E3,0E0,0E0,0E0,0E0,0E0,0E0],"parents":[2147483647,0,0,1,1,2,2,4,4,5,5,6,6],"right_children":[2,4,6,-1,8,10,12,-1,-1,-1,-1,-1,-1],"split_conditions":[9.874E1,2.6353683E1,3.9E0,5.560834E-1,-3.021518E-1,2.7905142E1,5.7E1,-7.452821E-2,-5.868154E-1,-4.9477234E-1,1.8690046E-2,6.0672283E-2,5.03693E-1],"split_indices":[50,22,52,0,17,21,83,0,0,0,0,0,0],"split_type":[0,0,0,0,0,0,0,0,0,0,0,0,0],"sum_hessian":[4.56E2,7.5E1,3.81E2,6E0,6.9E1,2.57E2,1.24E2,3.1E1,3.8E1,2.1E1,2.36E2,5.4E1,7E1],"tree_param":{"num_deleted":"0","num_feature":"88","num_nodes":"13","size_leaf_vector":"1"}},{"base_weights":[2.7274603E-1,-2.5709605E0,3.092763E0,9.829306E-1,-3.213365E0,-1.8313481E0,6.359046E0,-2.3729108E-1,3.055308E-1,-2.2411294E-1,3.1239462E-1,-1.6738258E-2,4.4048882E-1],"categories":[],"categories_nodes":[],"categories_segments":[],"categories_sizes":[],"default_left":[0,0,0,0,0,0,0,0,0,0,0,0,0],"id":18,"left_children":[1,3,5,-1,7,9,11,-1,-1,-1,-1,-1,-1],"loss_changes":[3.865428E3,3.5454082E3,3.917772E3,0E0,3.4151372E3,2.1540266E3,2.4052266E3,0E0,0E0,0E0,0E0,0E0,0E0],"parents":[2147483647,0,0,1,1,2,2,4,4,5,5,6,6],"right_children":[2,4,6,-1,8,10,12,-1,-1,-1,-1,-1,-1],"split_conditions":[2.7447422E1,-8.217435E0,1.0285715E0,9.829306E-1,5.8E1,1.0625E0,1.11901695E2,-2.3729108E-1,3.055308E-1,-2.2411294E-1,3.1239462E-1,-1.6738258E-2,4.4048882E-1],"split_indices":[30,23,46,0,83,47,0,0,0,0,0,0,0],"split_type":[0,0,0,0,0,0,0,0,0,0,0,0,0],"sum_hessian":[4.78E2,2.38E2,2.4E2,5E0,2.33E2,9.6E1,1.44E2,2.01E2,3.2E1,7.3E1,2.3E1,3.9E1,1.05E2],"tree_param":{"num_deleted":"0","num_feature":"88","num_nodes":"13","size_leaf_vector":"1"}},{"base_weights":[-7.549955E-1,-1.9521017E0,5.6111145E0,-2.4142783E0,7.350806E-1,9.56999E0,-3.5781624E0,-3.0768567E-1,-1.8818019E-2,-5.7403606E-1,6.125777E-1,2.60143E-1,-4.786912E-1],"categories":[],"categories_nodes":[],"categories_segments":[],"categories_sizes":[],"default_left":[0,0,0,0,0,0,0,0,0,0,0,0,0],"id":19,"left_children":[1,3,5,7,-1,9,11,-1,-1,-1,-1,-1,-1],"loss_changes":[3.6095264E3,3.1282314E3,2.7999224E3,2.95654E3,0E0,3.2734854E3,1.365361E3,0E0,0E0,0E0,0E0,0E0,0E0],"parents":[2147483647,0,0,1,1,2,2,3,3,5,5,6,6],"right_children":[2,4,6,8,-1,10,12,-1,-1,-1,-1,-1,-1],"split_conditions":[1.56899E1,1.1241071E0,1.1E0,4.76E-1,7.350806E-1,1.00231415E2,1.0065E2,-3.0768567E-1,-1.8818019E-2,-5.7403606E-1,6.125777E-1,2.60143E-1,-4.786912E-1],"split_indices":[15,46,43,65,0,1,48,0,0,0,0,0,0],"split_type":[0,0,0,0,0,0,0,0,0,0,0,0,0],"sum_hessian":[4.69E2,3.96E2,7.3E1,3.87E2,9E0,5.1E1,2.2E1,1.35E2,2.52E2,5E0,4.6E1,9E0,1.3E1],"tree_param":{"num_deleted":"0","num_feature":"88","num_nodes":"13","size_leaf_vector":"1"}},{"base_weights":[-2.484761E-1,-3.094403E0,2.4608343E0,2.1054554E0,-6.9622617E0,-4.5049386E0,4.5205927E0,2.0154916E-1,-4.847552E-1,-5.6016433E-1,-6.51422E-2,9.264612E-1,-3.9425024E-1,-2.3735383E-1,3.0394018E-1],"categories":[],"categories_nodes":[],"categories_segments":[],"categories_sizes":[],"default_left":[0,0,0,0,0,0,0,0,0,0,0,0,0,0,0],"id":20,"left_children":[1,3,5,7,9,11,13,-1,-1,-1,-1,-1,-1,-1,-1],"loss_changes":[3.7628489E3,4.8184775E3,3.62769E3,2.4157268E3,3.2527925E3,4.80259E3,2.8599297E3,0E0,0E0,0E0,0E0,0E0,0E0,0E0,0E0],"parents":[2147483647,0,0,1,1,2,2,3,3,4,4,5,5,6,6],"right_children":[2,4,6,8,10,12,14,-1,-1,-1,-1,-1,-1,-1,-1],"split_conditions":[2.7447422E1,2.464114E1,1.3270072E1,6.0437374E0,3E-3,2.7723969E1,-8.747863E0,2.0154916E-1,-4.847552E-1,-5.6016433E-1,-6.51422E-2,9.264612E-1,-3.9425024E-1,-2.3735383E-1,3.0394018E-1],"split_indices":[30,30,15,5,57,30,2,0,0,0,0,0,0,0,0],"split_type":[0,0,0,0,0,0,0,0,0,0,0,0,0,0,0],"sum_hessian":[4.84E2,2.36E2,2.48E2,1.01E2,1.35E2,5.6E1,1.92E2,8.8E1,1.3E1,7.6E1,5.9E1,6E0,5E1,2.7E1,1.65E2],"tree_param":{"num_deleted":"0","num_feature":"88","num_nodes":"15","size_leaf_vector":"1"}},{"base_weights":[1.7224392E-1,-1.2983721E0,4.1893535E0,-1.7875687E0,7.139849E-1,-6.897411E-1,5.759165E0,-2.229386E-3,-2.7608496E-1,-4.7369385E-1,3.9670143E-1],"categories":[],"categories_nodes":[],"categories_segments":[],"categories_sizes":[],"default_left":[0,0,0,0,0,0,0,0,0,0,0],"id":21,"left_children":[1,3,5,7,-1,-1,9,-1,-1,-1,-1],"loss_changes":[2.8657073E3,2.7501682E3,3.8250054E3,2.2486716E3,0E0,0E0,4.158265E3,0E0,0E0,0E0,0E0],"parents":[2147483647,0,0,1,1,2,2,3,3,6,6],"right_children":[2,4,6,8,-1,-1,10,-1,-1,-1,-1],"split_conditions":[1.0134E2,4.84634E0,9.900809E1,1.9E-2,7.139849E-1,-6.897411E-1,-1.6E1,-2.229386E-3,-2.7608496E-1,-4.7369385E-1,3.9670143E-1],"split_indices":[50,34,1,59,0,0,63,0,0,0,0],"split_type":[0,0,0,0,0,0,0,0,0,0,0],"sum_hessian":[4.81E2,3.53E2,1.28E2,3.44E2,9E0,9E0,1.19E2,2.36E2,1.08E2,1.4E1,1.05E2],"tree_param":{"num_deleted":"0","num_feature":"88","num_nodes":"11","size_leaf_vector":"1"}},{"base_weights":[-4.374165E-1,-1.2534009E0,7.038764E0,-5.420198E0,2.3544918E-1,1.5702076E1,2.6591516E0,-5.0340134E-1,1.8298744E-3,-8.1593156E-2,2.1158944E-1,3.6708316E-1,9.794324E-1,2.9151553E-1,-3.5186708E-1],"categories":[],"categories_nodes":[],"categories_segments":[],"categories_sizes":[],"default_left":[0,0,0,0,0,0,0,0,0,0,0,0,0,0,0],"id":22,"left_children":[1,3,5,7,9,11,13,-1,-1,-1,-1,-1,-1,-1,-1],"loss_changes":[2.8514602E3,2.6169175E3,1.6526406E3,2.8209622E3,2.3433845E3,1.8630884E2,1.0961774E3,0E0,0E0,0E0,0E0,0E0,0E0,0E0,0E0],"parents":[2147483647,0,0,1,1,2,2,3,3,4,4,5,5,6,6],"right_children":[2,4,6,8,10,12,14,-1,-1,-1,-1,-1,-1,-1,-1],"split_conditions":[1.02265E2,1.1199382E2,4.232143E0,8.490259E0,1.2564566E1,-4.7074866E-1,8E-1,-5.0340134E-1,1.8298744E-3,-8.1593156E-2,2.1158944E-1,3.6708316E-1,9.794324E-1,2.9151553E-1,-3.5186708E-1],"split_indices":[50,1,72,9,19,17,42,0,0,0,0,0,0,0,0],"split_type":[0,0,0,0,0,0,0,0,0,0,0,0,0,0,0],"sum_hessian":[4.63E2,4.19E2,4.4E1,1.09E2,3.1E2,1.3E1,3.1E1,5.8E1,5.1E1,2.12E2,9.8E1,6E0,7E0,2.4E1,7E0],"tree_param":{"num_deleted":"0","num_feature":"88","num_nodes":"15","size_leaf_vector":"1"}},{"base_weights":[1.1007802E-1,7.7238836E0,-1.0158793E0,1.1244449E1,-7.687462E-1,-2.2177498E0,5.590239E0,7.92828E-1,5.799661E-2,-3.9478824E-1,3.2262948E-1,2.319517E-1,-1.6333751E-1,-1.2865365E-1,4.5423922E-1],"categories":[],"categories_nodes":[],"categories_segments":[],"categories_sizes":[],"default_left":[0,0,0,0,0,0,0,0,0,0,0,0,0,0,0],"id":23,"left_children":[1,3,5,7,9,11,13,-1,-1,-1,-1,-1,-1,-1,-1],"loss_changes":[4.1254277E3,1.8762546E3,3.3498433E3,2.001187E3,1.1319496E3,2.590249E3,1.9042666E3,0E0,0E0,0E0,0E0,0E0,0E0,0E0,0E0],"parents":[2147483647,0,0,1,1,2,2,3,3,4,4,5,5,6,6],"right_children":[2,4,6,8,10,12,14,-1,-1,-1,-1,-1,-1,-1,-1],"split_conditions":[3.667162E0,4.3240955E1,1.181E2,-8.4910446E-1,4.5250134E1,3.5696716E1,1.0226463E1,7.92828E-1,5.799661E-2,-3.9478824E-1,3.2262948E-1,2.319517E-1,-1.6333751E-1,-1.2865365E-1,4.5423922E-1],"split_indices":[12,27,38,14,27,28,19,0,0,0,0,0,0,0,0],"split_type":[0,0,0,0,0,0,0,0,0,0,0,0,0,0,0],"sum_hessian":[4.77E2,6E1,4.17E2,4.2E1,1.8E1,3.54E2,6.3E1,2.8E1,1.4E1,9E0,9E0,4.6E1,3.08E2,1.9E1,4.4E1],"tree_param":{"num_deleted":"0","num_feature":"88","num_nodes":"15","size_leaf_vector":"1"}},{"base_weights":[3.1172004E-1,-6.5481586E0,1.1751347E0,-8.825882E0,2.3667291E-1,1.6666473E1,7.067815E-1,-7.266323E-1,-2.4975128E-2,3.539761E-1,1.0710074E0,-2.8673396E-1,9.904682E-2],"categories":[],"categories_nodes":[],"categories_segments":[],"categories_sizes":[],"default_left":[0,0,0,0,0,0,0,0,0,0,0,0,0],"id":24,"left_children":[1,3,5,7,-1,9,11,-1,-1,-1,-1,-1,-1],"loss_changes":[2.7550151E3,1.4218132E3,2.964242E3,2.068699E3,0E0,2.2933984E2,3.3284324E3,0E0,0E0,0E0,0E0,0E0,0E0],"parents":[2147483647,0,0,1,1,2,2,3,3,5,5,6,6],"right_children":[2,4,6,8,-1,10,12,-1,-1,-1,-1,-1,-1],"split_conditions":[3.7175438E1,1.5931723E1,-9.1E0,8.858E0,2.3667291E-1,-2.1920953E0,-4.5E0,-7.266323E-1,-2.4975128E-2,3.539761E-1,1.0710074E0,-2.8673396E-1,9.904682E-2],"split_indices":[70,16,45,9,0,8,45,0,0,0,0,0,0],"split_type":[0,0,0,0,0,0,0,0,0,0,0,0,0],"sum_hessian":[4.61E2,5E1,4.11E2,4.2E1,8E0,1E1,4.01E2,2.4E1,1.8E1,5E0,5E0,6.5E1,3.36E2],"tree_param":{"num_deleted":"0","num_feature":"88","num_nodes":"13","size_leaf_vector":"1"}},{"base_weights":[1.9131526E-2,-1.7412059E0,4.0818267E0,8.75132E-1,-2.1355908E0,-4.677662E0,6.4120827E0,-1.2807058E-1,4.3672553E-1,-6.453442E-1,1.564582E-1,4.6775314E-1,2.4413208E-2],"categories":[],"categories_nodes":[],"categories_segments":[],"categories_sizes":[],"default_left":[0,0,0,0,0,0,0,0,0,0,0,0,0],"id":25,"left_children":[1,3,5,-1,7,9,11,-1,-1,-1,-1,-1,-1],"loss_changes":[3.4768145E3,2.639907E3,3.0613967E3,0E0,1.5876497E3,2.1414756E3,2.0256826E3,0E0,0E0,0E0,0E0,0E0,0E0],"parents":[2147483647,0,0,1,1,2,2,4,4,5,5,6,6],"right_children":[2,4,6,-1,8,10,12,-1,-1,-1,-1,-1,-1],"split_conditions":[1.01305E2,-8.217435E0,1.0899589E2,8.75132E-1,9.065065E0,1.1478067E1,5.158393E0,-1.2807058E-1,4.3672553E-1,-6.453442E-1,1.564582E-1,4.6775314E-1,2.4413208E-2],"split_indices":[50,23,1,0,8,19,13,0,0,0,0,0,0],"split_type":[0,0,0,0,0,0,0,0,0,0,0,0,0],"sum_hessian":[4.82E2,3.37E2,1.45E2,5E0,3.32E2,3E1,1.15E2,3.21E2,1.1E1,1.4E1,1.6E1,7.6E1,3.9E1],"tree_param":{"num_deleted":"0","num_feature":"88","num_nodes":"13","size_leaf_vector":"1"}},{"base_weights":[-2.8580394E-1,-1.942374E0,3.6387777E0,7.3620695E-1,-2.4432342E0,1.0445504E1,-2.1203861E0,-1.9010803E-1,9.1213435E-2,-2.2810058E-1,6.674563E-1,8.220274E-1,-1.9244792E-1],"categories":[],"categories_nodes":[],"categories_segments":[],"categories_sizes":[],"default_left":[0,0,0,0,0,0,0,0,0,0,0,0,0],"id":26,"left_children":[1,3,5,-1,7,9,11,-1,-1,-1,-1,-1,-1],"loss_changes":[3.0884236E3,2.853904E3,5.575808E3,0E0,1.9054078E3,2.9586401E3,2.6228071E3,0E0,0E0,0E0,0E0,0E0,0E0],"parents":[2147483647,0,0,1,1,2,2,4,4,5,5,6,6],"right_children":[2,4,6,-1,8,10,12,-1,-1,-1,-1,-1,-1],"split_conditions":[1.0134E2,-8.217435E0,-1.7449571E-1,7.3620695E-1,1.19492165E2,-6.3E0,1.0141E2,-1.9010803E-1,9.1213435E-2,-2.2810058E-1,6.674563E-1,8.220274E-1,-1.9244792E-1],"split_indices":[50,23,26,0,0,44,50,0,0,0,0,0,0],"split_type":[0,0,0,0,0,0,0,0,0,0,0,0,0],"sum_hessian":[4.71E2,3.32E2,1.39E2,8E0,3.24E2,6.3E1,7.6E1,2.46E2,7.8E1,1E1,5.3E1,5E0,7.1E1],"tree_param":{"num_deleted":"0","num_feature":"88","num_nodes":"13","size_leaf_vector":"1"}},{"base_weights":[9.570434E-1,-3.9600648E-2,5.610921E0,-2.8494031E0,2.2517145E0,3.336136E-1,1.1374619E1,-1.9743644E-1,4.5092192E-1,1.746243E-1,-3.9172965E-1,-5.0143754E-1,1.6644223E-1,1.8106328E-1,8.552915E-1],"categories":[],"categories_nodes":[],"categories_segments":[],"categories_sizes":[],"default_left":[0,0,0,0,0,0,0,0,0,0,0,0,0,0,0],"id":27,"left_children":[1,3,5,7,9,11,13,-1,-1,-1,-1,-1,-1,-1,-1],"loss_changes":[2.2620627E3,2.6077024E3,2.6024016E3,2.4431726E3,2.8433535E3,1.522189E3,1.687627E3,0E0,0E0,0E0,0E0,0E0,0E0,0E0,0E0],"parents":[2147483647,0,0,1,1,2,2,3,3,4,4,5,5,6,6],"right_children":[2,4,6,8,10,12,14,-1,-1,-1,-1,-1,-1,-1,-1],"split_conditions":[1.0245E2,2.6945663E1,5.14E-1,4.928912E1,8.541946E0,3.6508785E1,1.4020611E1,-1.9743644E-1,4.5092192E-1,1.746243E-1,-3.9172965E-1,-5.0143754E-1,1.6644223E-1,1.8106328E-1,8.552915E-1],"split_indices":[49,30,64,27,29,28,16,0,0,0,0,0,0,0,0],"split_type":[0,0,0,0,0,0,0,0,0,0,0,0,0,0,0],"sum_hessian":[4.85E2,4.01E2,8.4E1,1.8E2,2.21E2,4.5E1,3.9E1,1.66E2,1.4E1,1.98E2,2.3E1,9E0,3.6E1,1.8E1,2.1E1],"tree_param":{"num_deleted":"0","num_feature":"88","num_nodes":"15","size_leaf_vector":"1"}},{"base_weights":[-7.7123135E-1,-3.5129173E0,1.7732797E0,1.0167916E1,-4.4413595E0,-1.7666653E0,6.154424E0,-1.3312108E-2,9.713432E-1,3.185345E-1,-2.661439E-1,-1.7124613E-1,4.4330937E-1,-1.9182542E-1,5.4629165E-1],"categories":[],"categories_nodes":[],"categories_segments":[],"categories_sizes":[],"default_left":[0,0,0,0,0,0,0,0,0,0,0,0,0,0,0],"id":28,"left_children":[1,3,5,7,9,11,13,-1,-1,-1,-1,-1,-1,-1,-1],"loss_changes":[3.2921663E3,2.970779E3,3.8236472E3,1.469065E3,2.106934E3,2.473596E3,5.33117E3,0E0,0E0,0E0,0E0,0E0,0E0,0E0,0E0],"parents":[2147483647,0,0,1,1,2,2,3,3,4,4,5,5,6,6],"right_children":[2,4,6,8,10,12,14,-1,-1,-1,-1,-1,-1,-1,-1],"split_conditions":[2.5887796E1,-3.5E0,-1.768405E0,-8E-1,2.0019712E1,3.5611435E1,-3.535372E0,-1.3312108E-2,9.713432E-1,3.185345E-1,-2.661439E-1,-1.7124613E-1,4.4330937E-1,-1.9182542E-1,5.4629165E-1],"split_indices":[7,55,8,45,6,22,32,0,0,0,0,0,0,0,0],"split_type":[0,0,0,0,0,0,0,0,0,0,0,0,0,0,0],"sum_hessian":[4.68E2,2.25E2,2.43E2,1.3E1,2.12E2,1.35E2,1.08E2,7E0,6E0,1.5E1,1.97E2,1.18E2,1.7E1,3.5E1,7.3E1],"tree_param":{"num_deleted":"0","num_feature":"88","num_nodes":"15","size_leaf_vector":"1"}},{"base_weights":[3.7729713E-1,-2.4744284E0,2.5074508E0,4.8363166E0,-4.286419E0,5.1783886E0,-8.676316E-1,5.400279E-1,-2.144145E-1,-3.3537102E-1,1.7343645E-1,-2.2098427E-1,3.0988127E-1,5.371588E-1,-1.2726234E-1],"categories":[],"categories_nodes":[],"categories_segments":[],"categories_sizes":[],"default_left":[0,0,0,0,0,0,0,0,0,0,0,0,0,0,0],"id":29,"left_children":[1,3,5,7,9,11,13,-1,-1,-1,-1,-1,-1,-1,-1],"loss_changes":[2.9403892E3,2.783315E3,2.5081948E3,2.381585E3,3.1836147E3,1.5719922E3,2.4659187E3,0E0,0E0,0E0,0E0,0E0,0E0,0E0,0E0],"parents":[2147483647,0,0,1,1,2,2,3,3,4,4,5,5,6,6],"right_children":[2,4,6,8,10,12,14,-1,-1,-1,-1,-1,-1,-1,-1],"split_conditions":[2.6999083E1,2.247965E1,3E-1,3.1901814E1,7.5E0,-2.4943192E0,-2.5E0,5.400279E-1,-2.144145E-1,-3.3537102E-1,1.7343645E-1,-2.2098427E-1,3.0988127E-1,5.371588E-1,-1.2726234E-1],"split_indices":[30,30,42,21,56,11,55,0,0,0,0,0,0,0,0],"split_type":[0,0,0,0,0,0,0,0,0,0,0,0,0,0,0],"sum_hessian":[4.8E2,2.05E2,2.75E2,4E1,1.65E2,1.53E2,1.22E2,2.4E1,1.6E1,1.26E2,3.9E1,1.4E1,1.39E2,1.4E1,1.08E2],"tree_param":{"num_deleted":"0","num_feature":"88","num_nodes":"15","size_leaf_vector":"1"}},{"base_weights":[4.8207256E-1,5.2573028E0,-1.1933361E0,2.058611E0,1.748354E1,7.5437536E0,-2.0666072E0,2.8143182E-1,-2.5414142E-1,1.0993973E0,2.2669695E-1,1.713296E-1,8.624185E-1,-2.6835513E-1,5.0859243E-2],"categories":[],"categories_nodes":[],"categories_segments":[],"categories_sizes":[],"default_left":[0,0,0,0,0,0,0,0,0,0,0,0,0,0,0],"id":30,"left_children":[1,3,5,7,9,11,13,-1,-1,-1,-1,-1,-1,-1,-1],"loss_changes":[3.758796E3,4.6894165E3,2.6836284E3,2.5815085E3,1.2456128E3,1.1500315E3,3.249711E3,0E0,0E0,0E0,0E0,0E0,0E0,0E0,0E0],"parents":[2147483647,0,0,1,1,2,2,3,3,4,4,5,5,6,6],"right_children":[2,4,6,8,10,12,14,-1,-1,-1,-1,-1,-1,-1,-1],"split_conditions":[3.975E1,1.01255E2,3.393581E1,1.3E-2,4.201256E0,5.7164054E0,5.12E-1,2.8143182E-1,-2.5414142E-1,1.0993973E0,2.2669695E-1,1.713296E-1,8.624185E-1,-2.6835513E-1,5.0859243E-2],"split_indices":[69,50,28,59,32,8,65,0,0,0,0,0,0,0,0],"split_type":[0,0,0,0,0,0,0,0,0,0,0,0,0,0,0],"sum_hessian":[4.66E2,1.2E2,3.46E2,9.7E1,2.3E1,3E1,3.16E2,6.5E1,3.2E1,1.6E1,7E0,2.3E1,7E0,1.52E2,1.64E2],"tree_param":{"num_deleted":"0","num_feature":"88","num_nodes":"15","size_leaf_vector":"1"}},{"base_weights":[7.8530437E-1,-1.6173024E0,2.4591575E0,-3.327799E0,4.731374E0,-1.8635379E0,4.196243E0,-1.1144262E-1,-8.781511E-1,6.149376E-1,-9.160205E-3,-1.9641887E-1,6.160285E-1,-5.5067685E-2,2.9442018E-1],"categories":[],"categories_nodes":[],"categories_segments":[],"categories_sizes":[],"default_left":[0,0,0,0,0,0,0,0,0,0,0,0,0,0,0],"id":31,"left_children":[1,3,5,7,9,11,13,-1,-1,-1,-1,-1,-1,-1,-1],"loss_changes":[1.9467916E3,2.1918066E3,2.1568398E3,2.3835264E3,1.6097544E3,2.5234993E3,1.8440984E3,0E0,0E0,0E0,0E0,0E0,0E0,0E0,0E0],"parents":[2147483647,0,0,1,1,2,2,3,3,4,4,5,5,6,6],"right_children":[2,4,6,8,10,12,14,-1,-1,-1,-1,-1,-1,-1,-1],"split_conditions":[1.025E0,3.4082034E0,1.12E2,2.9728978E0,4.820178E0,7.3E0,9.649788E0,-1.1144262E-1,-8.781511E-1,6.149376E-1,-9.160205E-3,-1.9641887E-1,6.160285E-1,-5.5067685E-2,2.9442018E-1],"split_indices":[46,20,1,20,12,42,19,0,0,0,0,0,0,0,0],"split_type":[0,0,0,0,0,0,0,0,0,0,0,0,0,0,0],"sum_hessian":[4.8E2,1.97E2,2.83E2,1.56E2,4.1E1,8.1E1,2.02E2,1.47E2,9E0,1.5E1,2.6E1,7.2E1,9E0,4.9E1,1.53E2],"tree_param":{"num_deleted":"0","num_feature":"88","num_nodes":"15","size_leaf_vector":"1"}},{"base_weights":[-2.2636998E-1,-7.0968693E-1,1.1827078E1,5.8534436E0,-1.6759521E0,1.6644632E1,7.9073906E-2,6.114561E-1,1.1802162E-1,-5.9090304E-1,-6.0481764E-2,1.0324036E0,3.9070773E-1],"categories":[],"categories_nodes":[],"categories_segments":[],"categories_sizes":[],"default_left":[0,0,0,0,0,0,0,0,0,0,0,0,0],"id":32,"left_children":[1,3,5,7,9,11,-1,-1,-1,-1,-1,-1,-1],"loss_changes":[2.7201492E3,2.8649656E3,8.2669775E2,1.2266514E3,1.8235631E3,8.730176E1,0E0,0E0,0E0,0E0,0E0,0E0,0E0],"parents":[2147483647,0,0,1,1,2,2,3,3,4,4,5,5],"right_children":[2,4,6,8,10,12,-1,-1,-1,-1,-1,-1,-1],"split_conditions":[1.208E2,3.667162E0,4.201256E0,-1E-1,3.66519E1,1.5E0,7.9073906E-2,6.114561E-1,1.1802162E-1,-5.9090304E-1,-6.0481764E-2,1.0324036E0,3.9070773E-1],"split_indices":[38,12,32,52,3,41,0,0,0,0,0,0,0],"split_type":[0,0,0,0,0,0,0,0,0,0,0,0,0],"sum_hessian":[4.63E2,4.47E2,1.6E1,5.6E1,3.91E2,1E1,6E0,1.8E1,3.8E1,1.5E1,3.76E2,5E0,5E0],"tree_param":{"num_deleted":"0","num_feature":"88","num_nodes":"13","size_leaf_vector":"1"}},{"base_weights":[-2.3218827E-1,1.0000951E1,-7.67332E-1,7.898865E-1,1.6431728E1,-3.2413402E0,1.217849E0,-2.396323E-1,3.109083E-1,1.0026577E0,3.504702E-1,-2.1687236E-1,2.8938165E-1,1.5969752E-1,-2.892234E-1],"categories":[],"categories_nodes":[],"categories_segments":[],"categories_sizes":[],"default_left":[0,0,0,0,0,0,0,0,0,0,0,0,0,0,0],"id":33,"left_children":[1,3,5,7,9,11,13,-1,-1,-1,-1,-1,-1,-1,-1],"loss_changes":[2.6447837E3,1.387054E3,2.263218E3,4.2395825E2,1.830586E2,2.0783096E3,3.5780005E3,0E0,0E0,0E0,0E0,0E0,0E0,0E0,0E0],"parents":[2147483647,0,0,1,1,2,2,3,3,4,4,5,5,6,6],"right_children":[2,4,6,8,10,12,14,-1,-1,-1,-1,-1,-1,-1,-1],"split_conditions":[2.6209759E1,5.1097153E1,2.696731E1,-1.6E0,1.165E2,1.0297E2,5.6700153E0,-2.396323E-1,3.109083E-1,1.0026577E0,3.504702E-1,-2.1687236E-1,2.8938165E-1,1.5969752E-1,-2.892234E-1],"split_indices":[22,24,30,42,36,49,32,0,0,0,0,0,0,0,0],"split_type":[0,0,0,0,0,0,0,0,0,0,0,0,0,0,0],"sum_hessian":[4.79E2,2.2E1,4.57E2,1E1,1.2E1,2.03E2,2.54E2,5E0,5E0,7E0,5E0,1.82E2,2.1E1,1.99E2,5.5E1],"tree_param":{"num_deleted":"0","num_feature":"88","num_nodes":"15","size_leaf_vector":"1"}},{"base_weights":[-1.0156695E0,-2.0394611E0,5.3909597E0,-3.4090054E0,3.9612098E0,-5.0285655E-1,7.9659414E0,1.6115531E-1,-2.2479033E-1,7.382458E-2,7.7728957E-1,8.6928207E-1,2.1489315E-1],"categories":[],"categories_nodes":[],"categories_segments":[],"categories_sizes":[],"default_left":[0,0,0,0,0,0,0,0,0,0,0,0,0],"id":34,"left_children":[1,3,5,7,9,-1,11,-1,-1,-1,-1,-1,-1],"loss_changes":[3.0440376E3,3.3057869E3,2.7050107E3,2.3793567E3,2.1044138E3,0E0,1.7746389E3,0E0,0E0,0E0,0E0,0E0,0E0],"parents":[2147483647,0,0,1,1,2,2,3,3,4,4,6,6],"right_children":[2,4,6,8,10,-1,12,-1,-1,-1,-1,-1,-1],"split_conditions":[6.0867184E1,1.0245E2,1.137E2,2.8663036E1,-5.8E-1,-5.0285655E-1,6.133792E1,1.6115531E-1,-2.2479033E-1,7.382458E-2,7.7728957E-1,8.6928207E-1,2.1489315E-1],"split_indices":[25,49,37,21,51,0,25,0,0,0,0,0,0],"split_type":[0,0,0,0,0,0,0,0,0,0,0,0,0],"sum_hessian":[4.59E2,3.97E2,6.2E1,3.24E2,7.3E1,8E0,5.4E1,4.5E1,2.79E2,6.2E1,1.1E1,1.3E1,4.1E1],"tree_param":{"num_deleted":"0","num_feature":"88","num_nodes":"13","size_leaf_vector":"1"}},{"base_weights":[-6.9046617E-1,-2.0746822E0,2.3296423E0,6.2299913E-1,-2.5133736E0,-9.969782E-1,6.8205647E0,1.708766E-1,-1.737502E-1,-6.0367674E-1,2.7236138E-2,-1.1939116E-2,7.5445276E-1],"categories":[],"categories_nodes":[],"categories_segments":[],"categories_sizes":[],"default_left":[0,0,0,0,0,0,0,0,0,0,0,0,0],"id":35,"left_children":[1,3,5,-1,7,9,11,-1,-1,-1,-1,-1,-1],"loss_changes":[2.0203514E3,2.1681921E3,2.28733E3,0E0,1.8659594E3,1.5387476E3,3.808691E3,0E0,0E0,0E0,0E0,0E0,0E0],"parents":[2147483647,0,0,1,1,2,2,4,4,5,5,6,6],"right_children":[2,4,6,-1,8,10,12,-1,-1,-1,-1,-1,-1],"split_conditions":[1.162E2,-1.7670685E1,2.7956467E1,6.2299913E-1,1E0,1.1941871E1,4.121818E1,1.708766E-1,-1.737502E-1,-6.0367674E-1,2.7236138E-2,-1.1939116E-2,7.5445276E-1],"split_indices":[38,2,31,0,53,15,70,0,0,0,0,0,0],"split_type":[0,0,0,0,0,0,0,0,0,0,0,0,0],"sum_hessian":[4.79E2,3.29E2,1.5E2,8E0,3.21E2,8.7E1,6.3E1,4.4E1,2.77E2,9E0,7.8E1,3.5E1,2.8E1],"tree_param":{"num_deleted":"0","num_feature":"88","num_nodes":"13","size_leaf_vector":"1"}},{"base_weights":[4.4602796E-2,1.4124948E1,-3.5070822E-1,2.8367212E-1,8.9631385E-1,-7.984487E-1,-4.047276E-3,-6.149395E-2,2.63208E-1],"categories":[],"categories_nodes":[],"categories_segments":[],"categories_sizes":[],"default_left":[0,0,0,0,0,0,0,0,0],"id":36,"left_children":[1,3,5,-1,-1,-1,7,-1,-1],"loss_changes":[2.649567E3,2.0244336E2,2.493264E3,0E0,0E0,0E0,2.9428342E3,0E0,0E0],"parents":[2147483647,0,0,1,1,2,2,6,6],"right_children":[2,4,6,-1,-1,-1,8,-1,-1],"split_conditions":[-9.1E0,1.5439397E0,-7.8E0,2.8367212E-1,8.9631385E-1,-7.984487E-1,1.0625E0,-6.149395E-2,2.63208E-1],"split_indices":[45,11,43,0,0,0,47,0,0],"split_type":[0,0,0,0,0,0,0,0,0],"sum_hessian":[4.71E2,1.1E1,4.6E2,5E0,6E0,8E0,4.52E2,3.68E2,8.4E1],"tree_param":{"num_deleted":"0","num_feature":"88","num_nodes":"9","size_leaf_vector":"1"}},{"base_weights":[3.625281E-2,-1.3857296E0,3.9611535E0,4.4058504E0,-2.3498714E0,-7.4730654E0,6.349609E0,8.018128E-1,3.873574E-2,6.382002E-2,-2.4669667E-1,-6.852593E-1,8.860037E-2,7.4059516E-1,2.1498321E-1],"categories":[],"categories_nodes":[],"categories_segments":[],"categories_sizes":[],"default_left":[0,0,0,0,0,0,0,0,0,0,0,0,0,0,0],"id":37,"left_children":[1,3,5,7,9,11,13,-1,-1,-1,-1,-1,-1,-1,-1],"loss_changes":[2.6856316E3,1.9907969E3,3.5900361E3,2.120558E3,2.863059E3,1.379715E3,1.7192256E3,0E0,0E0,0E0,0E0,0E0,0E0,0E0,0E0],"parents":[2147483647,0,0,1,1,2,2,3,3,4,4,5,5,6,6],"right_children":[2,4,6,8,10,12,14,-1,-1,-1,-1,-1,-1,-1,-1],"split_conditions":[5.7E1,2.3594381E1,2.3486097E1,-1.3302834E0,-1.4E0,1.018E2,3.807946E0,8.018128E-1,3.873574E-2,6.382002E-2,-2.4669667E-1,-6.852593E-1,8.860037E-2,7.4059516E-1,2.1498321E-1],"split_indices":[84,30,31,20,43,50,12,0,0,0,0,0,0,0,0],"split_type":[0,0,0,0,0,0,0,0,0,0,0,0,0,0,0],"sum_hessian":[4.77E2,3.51E2,1.26E2,4.9E1,3.02E2,2.1E1,1.05E2,1E1,3.9E1,1.26E2,1.76E2,1.2E1,9E0,1.8E1,8.7E1],"tree_param":{"num_deleted":"0","num_feature":"88","num_nodes":"15","size_leaf_vector":"1"}},{"base_weights":[-6.5741736E-1,1.1429724E1,-1.1946045E0,8.2192767E-1,4.8916764E0,-3.3628438E0,1.307458E0,4.7333843E-1,-5.0480433E-2,-9.3836E-2,-4.4453025E-1,3.558404E-1,-2.6346175E-2],"categories":[],"categories_nodes":[],"categories_segments":[],"categories_sizes":[],"default_left":[0,0,0,0,0,0,0,0,0,0,0,0,0],"id":38,"left_children":[1,3,5,-1,7,9,11,-1,-1,-1,-1,-1,-1],"loss_changes":[3.203788E3,5.162178E2,2.5650293E3,0E0,3.4733115E2,2.0396248E3,2.3552393E3,0E0,0E0,0E0,0E0,0E0,0E0],"parents":[2147483647,0,0,1,1,2,2,4,4,5,5,6,6],"right_children":[2,4,6,-1,8,10,12,-1,-1,-1,-1,-1,-1],"split_conditions":[2.5804117E1,6E-3,2.7927183E1,8.2192767E-1,1.13E2,3.4E-2,3.975E1,4.7333843E-1,-5.0480433E-2,-9.3836E-2,-4.4453025E-1,3.558404E-1,-2.6346175E-2],"split_indices":[22,57,31,0,37,59,69,0,0,0,0,0,0],"split_type":[0,0,0,0,0,0,0,0,0,0,0,0,0],"sum_hessian":[4.88E2,1.9E1,4.69E2,9E0,1E1,2.51E2,2.18E2,5E0,5E0,2E2,5.1E1,5.1E1,1.67E2],"tree_param":{"num_deleted":"0","num_feature":"88","num_nodes":"13","size_leaf_vector":"1"}},{"base_weights":[1.097965E0,-2.1608944E0,2.6360564E0,4.0402694E0,-4.628463E0,6.1974144E-1,6.7936835E0,-3.5389736E-1,3.3413264E-1,2.6567442E-2,-4.0745115E-1,-2.4437657E-1,1.3905028E-1,-3.7410006E-1,4.023982E-1],"categories":[],"categories_nodes":[],"categories_segments":[],"categories_sizes":[],"default_left":[0,0,0,0,0,0,0,0,0,0,0,0,0,0,0],"id":39,"left_children":[1,3,5,7,9,11,13,-1,-1,-1,-1,-1,-1,-1,-1],"loss_changes":[2.247171E3,2.241153E3,2.5363306E3,1.3283019E3,1.9016731E3,2.489984E3,1.8933784E3,0E0,0E0,0E0,0E0,0E0,0E0,0E0,0E0],"parents":[2147483647,0,0,1,1,2,2,3,3,4,4,5,5,6,6],"right_children":[2,4,6,8,10,12,14,-1,-1,-1,-1,-1,-1,-1,-1],"split_conditions":[1.12E2,-1.941847E0,1.16E2,-2.1084933E0,-3.0565524E0,3.0486082E1,-4.8070173E0,-3.5389736E-1,3.3413264E-1,2.6567442E-2,-4.0745115E-1,-2.4437657E-1,1.3905028E-1,-3.7410006E-1,4.023982E-1],"split_indices":[0,20,38,11,26,22,68,0,0,0,0,0,0,0,0],"split_type":[0,0,0,0,0,0,0,0,0,0,0,0,0,0,0],"sum_hessian":[4.44E2,1.42E2,3.02E2,4E1,1.02E2,2.05E2,9.7E1,7E0,3.3E1,4.2E1,6E1,5.7E1,1.48E2,7E0,9E1],"tree_param":{"num_deleted":"0","num_feature":"88","num_nodes":"15","size_leaf_vector":"1"}},{"base_weights":[9.4215363E-1,1.5842768E0,-6.731319E0,-9.426986E-2,5.867416E0,2.3120775E0,-1.2458785E1,-6.716509E-1,2.347743E-2,-2.0551322E-1,3.8779768E-1,6.853256E-1,-2.656925E-1,-8.4559697E-1,-1.6186479E-1],"categories":[],"categories_nodes":[],"categories_segments":[],"categories_sizes":[],"default_left":[0,0,0,0,0,0,0,0,0,0,0,0,0,0,0],"id":40,"left_children":[1,3,5,7,9,11,13,-1,-1,-1,-1,-1,-1,-1,-1],"loss_changes":[2.3592292E3,3.1673506E3,1.9791273E3,2.4106575E3,2.4021406E3,1.540155E3,8.24916E2,0E0,0E0,0E0,0E0,0E0,0E0,0E0,0E0],"parents":[2147483647,0,0,1,1,2,2,3,3,4,4,5,5,6,6],"right_children":[2,4,6,8,10,12,14,-1,-1,-1,-1,-1,-1,-1,-1],"split_conditions":[6.3079276E0,2.91775E1,1.1286963E2,1.094E2,1.3270072E1,2.0491856E1,1.4536331E0,-6.716509E-1,2.347743E-2,-2.0551322E-1,3.8779768E-1,6.853256E-1,-2.656925E-1,-8.4559697E-1,-1.6186479E-1],"split_indices":[32,30,0,37,15,31,17,0,0,0,0,0,0,0,0],"split_type":[0,0,0,0,0,0,0,0,0,0,0,0,0,0,0],"sum_hessian":[4.73E2,4.38E2,3.5E1,3.16E2,1.22E2,1.4E1,2.1E1,1.1E1,3.05E2,1.9E1,1.03E2,5E0,9E0,1.3E1,8E0],"tree_param":{"num_deleted":"0","num_feature":"88","num_nodes":"15","size_leaf_vector":"1"}},{"base_weights":[-4.5949236E-1,-3.894445E0,8.172853E-1,-7.2732644E0,2.7984762E0,9.2774816E-2,1.0836124E1,-6.984008E-1,-2.0865496E-1,-4.635821E-1,3.9599365E-1,-7.678116E-2,2.2919965E-1,1.3097E-1,9.6390575E-1],"categories":[],"categories_nodes":[],"categories_segments":[],"categories_sizes":[],"default_left":[0,0,0,0,0,0,0,0,0,0,0,0,0,0,0],"id":41,"left_children":[1,3,5,7,9,11,13,-1,-1,-1,-1,-1,-1,-1,-1],"loss_changes":[2.0560127E3,2.914945E3,2.475019E3,1.6385107E3,2.8660823E3,2.3632332E3,1.4834639E3,0E0,0E0,0E0,0E0,0E0,0E0,0E0,0E0],"parents":[2147483647,0,0,1,1,2,2,3,3,4,4,5,5,6,6],"right_children":[2,4,6,8,10,12,14,-1,-1,-1,-1,-1,-1,-1,-1],"split_conditions":[1.12E2,2.743588E1,1.0307E2,-3.71612E0,7.7373023E0,3.4001774E1,1.3765437E1,-6.984008E-1,-2.0865496E-1,-4.635821E-1,3.9599365E-1,-7.678116E-2,2.2919965E-1,1.3097E-1,9.6390575E-1],"split_indices":[1,6,48,5,10,22,16,0,0,0,0,0,0,0,0],"split_type":[0,0,0,0,0,0,0,0,0,0,0,0,0,0,0],"sum_hessian":[4.65E2,1.25E2,3.4E2,8.3E1,4.2E1,3.19E2,2.1E1,2.4E1,5.9E1,1.2E1,3E1,2.35E2,8.4E1,1.2E1,9E0],"tree_param":{"num_deleted":"0","num_feature":"88","num_nodes":"15","size_leaf_vector":"1"}},{"base_weights":[-2.6178274E-1,5.3990498E0,-9.794874E-1,-1.9413629E0,8.987099E0,4.7957478E0,-1.8823234E0,7.632583E-2,-4.1969377E-1,-1.1403618E-1,5.7046884E-1,8.310214E-1,1.3715117E-1,-2.8059432E-1,-2.1966456E-2],"categories":[],"categories_nodes":[],"categories_segments":[],"categories_sizes":[],"default_left":[0,0,0,0,0,0,0,0,0,0,0,0,0,0,0],"id":42,"left_children":[1,3,5,7,9,11,13,-1,-1,-1,-1,-1,-1,-1,-1],"loss_changes":[1.913823E3,1.4343182E3,2.196087E3,4.5421463E2,1.039185E3,1.2826879E3,1.9456143E3,0E0,0E0,0E0,0E0,0E0,0E0,0E0,0E0],"parents":[2147483647,0,0,1,1,2,2,3,3,4,4,5,5,6,6],"right_children":[2,4,6,8,10,12,14,-1,-1,-1,-1,-1,-1,-1,-1],"split_conditions":[3.5940623E0,-5.9E0,3.5696716E1,3.2041397E1,-3.8919115E0,-2.265168E0,1.1251029E2,7.632583E-2,-4.1969377E-1,-1.1403618E-1,5.7046884E-1,8.310214E-1,1.3715117E-1,-2.8059432E-1,-2.1966456E-2],"split_indices":[12,42,28,22,20,33,1,0,0,0,0,0,0,0,0],"split_type":[0,0,0,0,0,0,0,0,0,0,0,0,0,0,0],"sum_hessian":[4.67E2,5.1E1,4.16E2,1.7E1,3.4E1,5.5E1,3.61E2,1.2E1,5E0,6E0,2.8E1,6E0,4.9E1,9.9E1,2.62E2],"tree_param":{"num_deleted":"0","num_feature":"88","num_nodes":"15","size_leaf_vector":"1"}},{"base_weights":[-3.5330662E-1,-9.4066435E-1,6.1581073E0,3.9058855E-1,-4.2954473E0,1.6219901E0,1.399089E1,-1.310636E-2,4.9694076E-1,-3.185485E-1,9.9469E-2,5.7715505E-1,-1.8720338E-1,3.6855355E-1,8.525243E-1],"categories":[],"categories_nodes":[],"categories_segments":[],"categories_sizes":[],"default_left":[0,0,0,0,0,0,0,0,0,0,0,0,0,0,0],"id":43,"left_children":[1,3,5,7,9,11,13,-1,-1,-1,-1,-1,-1,-1,-1],"loss_changes":[1.8026808E3,1.934648E3,1.3324935E3,1.9482872E3,1.6319883E3,1.5277417E3,1.9984375E1,0E0,0E0,0E0,0E0,0E0,0E0,0E0,0E0],"parents":[2147483647,0,0,1,1,2,2,3,3,4,4,5,5,6,6],"right_children":[2,4,6,8,10,12,14,-1,-1,-1,-1,-1,-1,-1,-1],"split_conditions":[2.6821253E0,8.718667E0,5.25E-1,8.541921E0,5.7E1,2.5321104E1,9E-1,-1.310636E-2,4.9694076E-1,-3.185485E-1,9.9469E-2,5.7715505E-1,-1.8720338E-1,3.6855355E-1,8.525243E-1],"split_indices":[11,9,64,9,84,6,44,0,0,0,0,0,0,0,0],"split_type":[0,0,0,0,0,0,0,0,0,0,0,0,0,0,0],"sum_hessian":[4.67E2,4.3E2,3.7E1,3.09E2,1.21E2,2.5E1,1.2E1,2.91E2,1.8E1,9.1E1,3E1,8E0,1.7E1,6E0,6E0],"tree_param":{"num_deleted":"0","num_feature":"88","num_nodes":"15","size_leaf_vector":"1"}},{"base_weights":[1.4796048E-1,1.18929405E1,-3.1375384E-1,8.310173E-1,1.5970286E-2,-3.6486864E0,1.3084651E0,5.322488E-1,-2.2756231E-1,2.8934479E-3,4.171643E-1],"categories":[],"categories_nodes":[],"categories_segments":[],"categories_sizes":[],"default_left":[0,0,0,0,0,0,0,0,0,0,0],"id":44,"left_children":[1,3,5,-1,-1,7,9,-1,-1,-1,-1],"loss_changes":[2.4372554E3,9.110303E2,2.3478347E3,0E0,0E0,1.9257747E3,2.563768E3,0E0,0E0,0E0,0E0],"parents":[2147483647,0,0,1,1,2,2,5,5,6,6],"right_children":[2,4,6,-1,-1,8,10,-1,-1,-1,-1],"split_conditions":[-8.3E0,2.8190765E1,1.12E2,8.310173E-1,1.5970286E-2,2.6652863E1,1.0245E2,5.322488E-1,-2.2756231E-1,2.8934479E-3,4.171643E-1],"split_indices":[45,31,0,0,0,22,49,0,0,0,0],"split_type":[0,0,0,0,0,0,0,0,0,0,0],"sum_hessian":[4.45E2,1.5E1,4.3E2,1E1,5E0,1.4E2,2.9E2,7E0,1.33E2,2.48E2,4.2E1],"tree_param":{"num_deleted":"0","num_feature":"88","num_nodes":"11","size_leaf_vector":"1"}},{"base_weights":[7.10124E-1,-1.0638691E1,1.1531707E0,3.362309E-2,-1.1077418E0,-5.780884E-1,3.4846876E0,-8.744674E-2,2.530665E-1,3.0034885E-1,-7.162366E-2],"categories":[],"categories_nodes":[],"categories_segments":[],"categories_sizes":[],"default_left":[0,0,0,0,0,0,0,0,0,0,0],"id":45,"left_children":[1,3,5,-1,-1,7,9,-1,-1,-1,-1],"loss_changes":[2.4081196E3,2.3852334E3,1.8582173E3,0E0,0E0,1.7658146E3,2.450387E3,0E0,0E0,0E0,0E0],"parents":[2147483647,0,0,1,1,2,2,5,5,6,6],"right_children":[2,4,6,-1,-1,8,10,-1,-1,-1,-1],"split_conditions":[1.094E2,2.576843E1,1.422102E1,3.362309E-2,-1.1077418E0,6.0487217E1,1.6234885E0,-8.744674E-2,2.530665E-1,3.0034885E-1,-7.162366E-2],"split_indices":[37,6,16,0,0,25,23,0,0,0,0],"split_type":[0,0,0,0,0,0,0,0,0,0,0],"sum_hessian":[4.73E2,1.6E1,4.57E2,9E0,7E0,2.63E2,1.94E2,2.19E2,4.4E1,1.28E2,6.6E1],"tree_param":{"num_deleted":"0","num_feature":"88","num_nodes":"11","size_leaf_vector":"1"}},{"base_weights":[-2.9831448E-1,-2.50902E0,1.2934226E0,5.741794E-1,-3.2791264E0,-2.0480244E0,4.6201735E0,-2.4589768E-1,1.4370745E-1,-2.2808658E-1,1.8733372E-1,-2.5939667E-1,3.2061452E-1],"categories":[],"categories_nodes":[],"categories_segments":[],"categories_sizes":[],"default_left":[0,0,0,0,0,0,0,0,0,0,0,0,0],"id":46,"left_children":[1,3,5,-1,7,9,11,-1,-1,-1,-1,-1,-1],"loss_changes":[1.7067086E3,2.258697E3,3.154968E3,0E0,1.9856172E3,2.1029868E3,2.563118E3,0E0,0E0,0E0,0E0,0E0,0E0],"parents":[2147483647,0,0,1,1,2,2,4,4,5,5,6,6],"right_children":[2,4,6,-1,8,10,12,-1,-1,-1,-1,-1,-1],"split_conditions":[1.025E0,2.0933615E1,5.7E1,5.741794E-1,3.565143E0,4.614045E1,-3.2581558E0,-2.4589768E-1,1.4370745E-1,-2.2808658E-1,1.8733372E-1,-2.5939667E-1,3.2061452E-1],"split_indices":[46,31,83,0,20,4,32,0,0,0,0,0,0],"split_type":[0,0,0,0,0,0,0,0,0,0,0,0,0],"sum_hessian":[4.81E2,2.01E2,2.8E2,9E0,1.92E2,1.4E2,1.4E2,1.52E2,4E1,9.8E1,4.2E1,2.1E1,1.19E2],"tree_param":{"num_deleted":"0","num_feature":"88","num_nodes":"13","size_leaf_vector":"1"}},{"base_weights":[2.6038766E-1,1.3708636E1,-7.446659E-2,2.8497392E-1,8.864806E-1,1.3766788E0,-3.678756E0,1.20318666E-1,-1.8964455E-1,4.9313284E-3,-3.4557098E-1],"categories":[],"categories_nodes":[],"categories_segments":[],"categories_sizes":[],"default_left":[0,0,0,0,0,0,0,0,0,0,0],"id":47,"left_children":[1,3,5,-1,-1,7,9,-1,-1,-1,-1],"loss_changes":[2.2244348E3,1.7264209E2,2.5323076E3,0E0,0E0,1.8540225E3,1.7020997E3,0E0,0E0,0E0,0E0],"parents":[2147483647,0,0,1,1,2,2,5,5,6,6],"right_children":[2,4,6,-1,-1,8,10,-1,-1,-1,-1],"split_conditions":[-9.1E0,6.2E-1,1E0,2.8497392E-1,8.864806E-1,2.0339285E1,1.6255826E-2,1.20318666E-1,-1.8964455E-1,4.9313284E-3,-3.4557098E-1],"split_indices":[45,51,55,0,0,66,14,0,0,0,0],"split_type":[0,0,0,0,0,0,0,0,0,0,0],"sum_hessian":[4.9E2,1E1,4.8E2,5E0,5E0,3.43E2,1.37E2,2.87E2,5.6E1,6.4E1,7.3E1],"tree_param":{"num_deleted":"0","num_feature":"88","num_nodes":"11","size_leaf_vector":"1"}},{"base_weights":[6.994919E-2,9.3797654E-1,-7.642292E0,-3.2756898E0,2.3560424E0,-4.292886E0,-1.4888337E1,2.0337503E-1,-3.1439683E-1,1.4823334E-1,-4.659458E-1,-4.172852E-1,1.905611E-1,-8.787137E-1,-3.554875E-1],"categories":[],"categories_nodes":[],"categories_segments":[],"categories_sizes":[],"default_left":[0,0,0,0,0,0,0,0,0,0,0,0,0,0,0],"id":48,"left_children":[1,3,5,7,9,11,13,-1,-1,-1,-1,-1,-1,-1,-1],"loss_changes":[3.1105085E3,2.5126328E3,1.00326904E3,2.3969294E3,2.2832563E3,1.2154385E3,3.026001E1,0E0,0E0,0E0,0E0,0E0,0E0,0E0,0E0],"parents":[2147483647,0,0,1,1,2,2,3,3,4,4,5,5,6,6],"right_children":[2,4,6,8,10,12,14,-1,-1,-1,-1,-1,-1,-1,-1],"split_conditions":[2.5E0,-2.6954577E0,8.718667E0,-3.1273587E0,6.2E0,4.9486413E0,-1.2E0,2.0337503E-1,-3.1439683E-1,1.4823334E-1,-4.659458E-1,-4.172852E-1,1.905611E-1,-8.787137E-1,-3.554875E-1],"split_indices":[55,8,9,23,71,13,62,0,0,0,0,0,0,0,0],"split_type":[0,0,0,0,0,0,0,0,0,0,0,0,0,0,0],"sum_hessian":[4.61E2,4.16E2,4.5E1,1.04E2,3.12E2,3.3E1,1.2E1,3E1,7.4E1,2.98E2,1.4E1,2.2E1,1.1E1,7E0,5E0],"tree_param":{"num_deleted":"0","num_feature":"88","num_nodes":"15","size_leaf_vector":"1"}},{"base_weights":[4.81839E-1,-1.3579234E1,9.1937E-1,-2.4933885E-1,-1.0951482E0,3.6731753E0,-8.0974287E-1,5.427253E-2,3.6917114E-1,1.1579337E-1,-1.6037172E-1],"categories":[],"categories_nodes":[],"categories_segments":[],"categories_sizes":[],"default_left":[0,0,0,0,0,0,0,0,0,0,0],"id":49,"left_children":[1,3,5,-1,-1,7,9,-1,-1,-1,-1],"loss_changes":[3.0578035E3,8.409241E2,2.2977295E3,0E0,0E0,1.7655413E3,2.2410935E3,0E0,0E0,0E0,0E0],"parents":[2147483647,0,0,1,1,2,2,5,5,6,6],"right_children":[2,4,6,-1,-1,8,10,-1,-1,-1,-1],"split_conditions":[1.094E2,5.847062E1,4.070909E1,-2.4933885E-1,-1.0951482E0,1.0096E2,-4E-3,5.427253E-2,3.6917114E-1,1.1579337E-1,-1.6037172E-1],"split_indices":[37,24,69,0,0,49,60,0,0,0,0],"split_type":[0,0,0,0,0,0,0,0,0,0,0],"sum_hessian":[4.92E2,1.3E1,4.79E2,8E0,5E0,1.84E2,2.95E2,1.1E2,7.4E1,1.28E2,1.67E2],"tree_param":{"num_deleted":"0","num_feature":"88","num_nodes":"11","size_leaf_vector":"1"}},{"base_weights":[-5.6275178E-2,-1.030872E0,2.8401496E0,-4.733589E0,6.128066E-1,1.1619256E1,6.494541E-1,-8.972531E-2,-4.8259017E-1,6.3719645E-2,-7.7681494E-1,-2.2566034E-2,7.860353E-1,-5.62432E-1,1.2774535E-1],"categories":[],"categories_nodes":[],"categories_segments":[],"categories_sizes":[],"default_left":[0,0,0,0,0,0,0,0,0,0,0,0,0,0,0],"id":50,"left_children":[1,3,5,7,9,11,13,-1,-1,-1,-1,-1,-1,-1,-1],"loss_changes":[1.3570944E3,2.1988496E3,2.3058877E3,1.564146E3,2.714158E3,1.209989E3,2.2975857E3,0E0,0E0,0E0,0E0,0E0,0E0,0E0,0E0],"parents":[2147483647,0,0,1,1,2,2,3,3,4,4,5,5,6,6],"right_children":[2,4,6,8,10,12,14,-1,-1,-1,-1,-1,-1,-1,-1],"split_conditions":[1.08E1,-2.216971E0,1.34E1,4.176401E1,1.7265242E1,5.5622303E1,-5.4E0,-8.972531E-2,-4.8259017E-1,6.3719645E-2,-7.7681494E-1,-2.2566034E-2,7.860353E-1,-5.62432E-1,1.2774535E-1],"split_indices":[63,23,63,28,16,25,45,0,0,0,0,0,0,0,0],"split_type":[0,0,0,0,0,0,0,0,0,0,0,0,0,0,0],"sum_hessian":[4.77E2,3.58E2,1.19E2,1.09E2,2.49E2,2.2E1,9.7E1,7E1,3.9E1,2.41E2,8E0,6E0,1.6E1,1.2E1,8.5E1],"tree_param":{"num_deleted":"0","num_feature":"88","num_nodes":"15","size_leaf_vector":"1"}},{"base_weights":[4.9950856E-1,3.1985705E0,-8.3067673E-1,4.020202E0,-7.494784E0,1.6875961E0,-2.6828709E0,2.3062575E-1,-3.7549695E-1,-6.0859275E-1,-3.0245861E-2,-1.2807749E-1,2.7740556E-1,-3.2313082E-1,9.849555E-3],"categories":[],"categories_nodes":[],"categories_segments":[],"categories_sizes":[],"default_left":[0,0,0,0,0,0,0,0,0,0,0,0,0,0,0],"id":51,"left_children":[1,3,5,7,9,11,13,-1,-1,-1,-1,-1,-1,-1,-1],"loss_changes":[1.7298191E3,1.4554977E3,1.5161316E3,1.0854187E3,3.6557855E2,2.2936536E3,2.0412008E3,0E0,0E0,0E0,0E0,0E0,0E0,0E0,0E0],"parents":[2147483647,0,0,1,1,2,2,3,3,4,4,5,5,6,6],"right_children":[2,4,6,8,10,12,14,-1,-1,-1,-1,-1,-1,-1,-1],"split_conditions":[-1.3517119E0,7.481483E0,0E0,2.9972654E1,-2.1391738E-2,5.7E1,3E-3,2.3062575E-1,-3.7549695E-1,-6.0859275E-1,-3.0245861E-2,-1.2807749E-1,2.7740556E-1,-3.2313082E-1,9.849555E-3],"split_indices":[26,32,60,7,20,83,57,0,0,0,0,0,0,0,0],"split_type":[0,0,0,0,0,0,0,0,0,0,0,0,0,0,0],"sum_hessian":[4.78E2,1.57E2,3.21E2,1.47E2,1E1,1.36E2,1.85E2,1.41E2,6E0,5E0,5E0,6.5E1,7.1E1,7.9E1,1.06E2],"tree_param":{"num_deleted":"0","num_feature":"88","num_nodes":"15","size_leaf_vector":"1"}},{"base_weights":[2.0473777E-1,-1.795732E-1,9.59478E0,1.8788303E0,-2.152081E0,6.7980535E-2,7.0651805E-1,4.5201516E-1,3.709143E-2,-1.6910946E-1,2.981252E-1],"categories":[],"categories_nodes":[],"categories_segments":[],"categories_sizes":[],"default_left":[0,0,0,0,0,0,0,0,0,0,0],"id":52,"left_children":[1,3,5,7,9,-1,-1,-1,-1,-1,-1],"loss_changes":[1.7439364E3,1.8921641E3,6.6350574E2,1.8382104E3,2.4147153E3,0E0,0E0,0E0,0E0,0E0,0E0],"parents":[2147483647,0,0,1,1,2,2,3,3,4,4],"right_children":[2,4,6,8,10,-1,-1,-1,-1,-1,-1],"split_conditions":[1.208E2,3.205698E1,1.3006584E1,2.3129633E1,1.56899E1,6.7980535E-2,7.0651805E-1,4.5201516E-1,3.709143E-2,-1.6910946E-1,2.981252E-1],"split_indices":[38,21,16,30,15,0,0,0,0,0,0],"split_type":[0,0,0,0,0,0,0,0,0,0,0],"sum_hessian":[4.79E2,4.62E2,1.7E1,2.26E2,2.36E2,7E0,1E1,2.9E1,1.97E2,2.06E2,3E1],"tree_param":{"num_deleted":"0","num_feature":"88","num_nodes":"11","size_leaf_vector":"1"}},{"base_weights":[2.308273E-1,-3.3074775E-1,7.9068484E0,-2.196228E0,2.051129E0,1.2042682E1,-1.9820526E-1,-2.288698E-1,1.3199577E-1,1.2784584E-1,-6.2405103E-1,1.9239101E-1,8.070032E-1],"categories":[],"categories_nodes":[],"categories_segments":[],"categories_sizes":[],"default_left":[0,0,0,0,0,0,0,0,0,0,0,0,0],"id":53,"left_children":[1,3,5,7,9,11,-1,-1,-1,-1,-1,-1,-1],"loss_changes":[2.0867573E3,2.0130305E3,1.7196938E3,2.9501167E3,1.5215496E3,7.0523486E2,0E0,0E0,0E0,0E0,0E0,0E0,0E0],"parents":[2147483647,0,0,1,1,2,2,3,3,4,4,5,5],"right_children":[2,4,6,8,10,12,-1,-1,-1,-1,-1,-1,-1],"split_conditions":[3.377265E1,2.0736544E0,1.4670526E0,5.9564384E1,6.375257E1,1.127E2,-1.9820526E-1,-2.288698E-1,1.3199577E-1,1.2784584E-1,-6.2405103E-1,1.9239101E-1,8.070032E-1],"split_indices":[30,2,14,25,24,39,0,0,0,0,0,0,0],"split_type":[0,0,0,0,0,0,0,0,0,0,0,0,0],"sum_hessian":[4.8E2,4.49E2,3.1E1,2.52E2,1.97E2,2.3E1,8E0,1.69E2,8.3E1,1.92E2,5E0,9E0,1.4E1],"tree_param":{"num_deleted":"0","num_feature":"88","num_nodes":"13","size_leaf_vector":"1"}},{"base_weights":[-1.050611E-1,-1.2164165E0,3.1264248E0,-2.6404338E0,2.9063814E0,-4.7410235E-1,4.302888E0,3.3852887E-1,-1.6915517E-1,4.5889935E-1,-7.221109E-2,3.2736626E-2,4.9913675E-1],"categories":[],"categories_nodes":[],"categories_segments":[],"categories_sizes":[],"default_left":[0,0,0,0,0,0,0,0,0,0,0,0,0],"id":54,"left_children":[1,3,5,7,9,-1,11,-1,-1,-1,-1,-1,-1],"loss_changes":[1.7125325E3,2.0993972E3,1.888686E3,1.8962743E3,2.5406216E3,0E0,2.3230784E3,0E0,0E0,0E0,0E0,0E0,0E0],"parents":[2147483647,0,0,1,1,2,2,3,3,4,4,6,6],"right_children":[2,4,6,8,10,-1,12,-1,-1,-1,-1,-1,-1],"split_conditions":[5.7E1,4.6216938E1,-6.1E-2,8E0,-9.941379E-1,-4.7410235E-1,4.5E0,3.3852887E-1,-1.6915517E-1,4.5889935E-1,-7.221109E-2,3.2736626E-2,4.9913675E-1],"split_indices":[84,4,59,19,17,0,54,0,0,0,0,0,0],"split_type":[0,0,0,0,0,0,0,0,0,0,0,0,0],"sum_hessian":[4.73E2,3.53E2,1.2E2,2.63E2,9E1,9E0,1.11E2,1.8E1,2.45E2,3.6E1,5.4E1,6.9E1,4.2E1],"tree_param":{"num_deleted":"0","num_feature":"88","num_nodes":"13","size_leaf_vector":"1"}},{"base_weights":[-4.3155846E-1,-1.3273091E0,4.7588167E0,-2.483773E0,2.7884712E0,-3.7713192E0,7.187293E0,1.21099256E-1,-1.702607E-1,-1.5532486E-1,3.669397E-1,-4.7427198E-1,1.03782654E-1,-1.625587E-2,5.2457136E-1],"categories":[],"categories_nodes":[],"categories_segments":[],"categories_sizes":[],"default_left":[0,0,0,0,0,0,0,0,0,0,0,0,0,0,0],"id":55,"left_children":[1,3,5,7,9,11,13,-1,-1,-1,-1,-1,-1,-1,-1],"loss_changes":[2.2425728E3,1.9699575E3,1.5267006E3,1.472544E3,2.4886968E3,6.11057E2,1.4019375E3,0E0,0E0,0E0,0E0,0E0,0E0,0E0,0E0],"parents":[2147483647,0,0,1,1,2,2,3,3,4,4,5,5,6,6],"right_children":[2,4,6,8,10,12,14,-1,-1,-1,-1,-1,-1,-1,-1],"split_conditions":[1.57805195E1,4.6664032E1,-3.3E-2,2.3129633E1,1.146E2,-3.2E0,-2.2639546E0,1.21099256E-1,-1.702607E-1,-1.5532486E-1,3.669397E-1,-4.7427198E-1,1.03782654E-1,-1.625587E-2,5.2457136E-1],"split_indices":[15,4,60,30,38,43,5,0,0,0,0,0,0,0,0],"split_type":[0,0,0,0,0,0,0,0,0,0,0,0,0,0,0],"sum_hessian":[4.78E2,4.09E2,6.9E1,3.2E2,8.9E1,1.5E1,5.4E1,5E1,2.7E2,3.9E1,5E1,7E0,8E0,1.7E1,3.7E1],"tree_param":{"num_deleted":"0","num_feature":"88","num_nodes":"15","size_leaf_vector":"1"}},{"base_weights":[-1.21504866E-1,-2.7695396E0,2.291535E0,-4.15351E0,3.0013413E0,-1.2515684E0,5.4043403E0,-2.738602E-1,1.4949648E-1,-3.0464262E-1,3.346368E-1,-4.929876E-1,6.9504336E-2,6.394288E-2,5.186358E-1],"categories":[],"categories_nodes":[],"categories_segments":[],"categories_sizes":[],"default_left":[0,0,0,0,0,0,0,0,0,0,0,0,0,0,0],"id":56,"left_children":[1,3,5,7,9,11,13,-1,-1,-1,-1,-1,-1,-1,-1],"loss_changes":[3.0417034E3,1.8384957E3,2.7618228E3,1.7738501E3,1.5925172E3,2.7149492E3,2.6937375E3,0E0,0E0,0E0,0E0,0E0,0E0,0E0,0E0],"parents":[2147483647,0,0,1,1,2,2,3,3,4,4,5,5,6,6],"right_children":[2,4,6,8,10,12,14,-1,-1,-1,-1,-1,-1,-1,-1],"split_conditions":[5.7E1,3.1842861E1,1.025E0,7.9E0,-1.9E0,3.7140392E1,-2.2E0,-2.738602E-1,1.4949648E-1,-3.0464262E-1,3.346368E-1,-4.929876E-1,6.9504336E-2,6.394288E-2,5.186358E-1],"split_indices":[83,31,46,42,45,27,42,0,0,0,0,0,0,0,0],"split_type":[0,0,0,0,0,0,0,0,0,0,0,0,0,0,0],"sum_hessian":[4.72E2,2.25E2,2.47E2,1.82E2,4.3E1,1.16E2,1.31E2,1.54E2,2.8E1,1.2E1,3.1E1,2.6E1,9E1,7.3E1,5.8E1],"tree_param":{"num_deleted":"0","num_feature":"88","num_nodes":"15","size_leaf_vector":"1"}},{"base_weights":[-1.6824715E-1,-6.580448E-1,7.493982E0,-1.8889713E0,2.572287E0,1.3429797E1,1.2991434E-1,-1.5019767E-1,2.0889083E-1,4.9667995E-2,5.4081327E-1,8.4946233E-1,2.780268E-1,4.6824828E-1,-4.026167E-1],"categories":[],"categories_nodes":[],"categories_segments":[],"categories_sizes":[],"default_left":[0,0,0,0,0,0,0,0,0,0,0,0,0,0,0],"id":57,"left_children":[1,3,5,7,9,11,13,-1,-1,-1,-1,-1,-1,-1,-1],"loss_changes":[1.8116097E3,1.8146171E3,1.2573713E3,2.256752E3,1.6127031E3,2.4795044E2,1.2849282E3,0E0,0E0,0E0,0E0,0E0,0E0,0E0,0E0],"parents":[2147483647,0,0,1,1,2,2,3,3,4,4,5,5,6,6],"right_children":[2,4,6,8,10,12,14,-1,-1,-1,-1,-1,-1,-1,-1],"split_conditions":[1.0264E2,4.7E0,-1.3E0,1.3836723E1,1.8083909E0,3.9E0,2.3004938E-2,-1.5019767E-1,2.0889083E-1,4.9667995E-2,5.4081327E-1,8.4946233E-1,2.780268E-1,4.6824828E-1,-4.026167E-1],"split_indices":[50,41,44,18,23,45,26,0,0,0,0,0,0,0,0],"split_type":[0,0,0,0,0,0,0,0,0,0,0,0,0,0,0],"sum_hessian":[4.79E2,4.52E2,2.7E1,3.28E2,1.24E2,1.4E1,1.3E1,2.78E2,5E1,1.06E2,1.8E1,8E0,6E0,6E0,7E0],"tree_param":{"num_deleted":"0","num_feature":"88","num_nodes":"15","size_leaf_vector":"1"}},{"base_weights":[7.8020793E-1,-9.947091E0,1.1206686E0,1.0063062E-2,-7.8426725E-1,6.296364E-1,1.0787391E1,4.920876E-2,-5.7587504E-1,9.0821736E-2,6.666255E-1],"categories":[],"categories_nodes":[],"categories_segments":[],"categories_sizes":[],"default_left":[0,0,0,0,0,0,0,0,0,0,0],"id":58,"left_children":[1,3,5,-1,-1,7,9,-1,-1,-1,-1],"loss_changes":[1.6613821E3,8.293292E2,2.0597495E3,0E0,0E0,1.8218823E3,4.2346533E2,0E0,0E0,0E0,0E0],"parents":[2147483647,0,0,1,1,2,2,5,5,6,6],"right_children":[2,4,6,-1,-1,8,10,-1,-1,-1,-1],"split_conditions":[1.094E2,1.6454184E0,3.1218896E0,1.0063062E-2,-7.8426725E-1,1.07165E1,-3.629227E0,4.920876E-2,-5.7587504E-1,9.0821736E-2,6.666255E-1],"split_indices":[37,11,11,0,0,9,29,0,0,0,0],"split_type":[0,0,0,0,0,0,0,0,0,0,0],"sum_hessian":[4.48E2,1.2E1,4.36E2,5E0,7E0,4.17E2,1.9E1,4.07E2,1E1,5E0,1.4E1],"tree_param":{"num_deleted":"0","num_feature":"88","num_nodes":"11","size_leaf_vector":"1"}},{"base_weights":[1.1266499E-1,-1.9174329E0,2.0220556E0,8.776035E-1,-2.4954836E0,-1.5058129E0,3.926572E0,1.6298084E-1,-1.8536793E-1,-2.367605E-1,2.7425116E-1,3.60584E-1,3.1840634E-3],"categories":[],"categories_nodes":[],"categories_segments":[],"categories_sizes":[],"default_left":[0,0,0,0,0,0,0,0,0,0,0,0,0],"id":59,"left_children":[1,3,5,-1,7,9,11,-1,-1,-1,-1,-1,-1],"loss_changes":[1.8800354E3,2.7248477E3,1.6927568E3,0E0,1.6285195E3,2.060851E3,2.063916E3,0E0,0E0,0E0,0E0,0E0,0E0],"parents":[2147483647,0,0,1,1,2,2,4,4,5,5,6,6],"right_children":[2,4,6,-1,8,10,12,-1,-1,-1,-1,-1,-1],"split_conditions":[1.3814774E1,-8.217435E0,-2.3925622E0,8.776035E-1,1.1824897E1,1.167E2,3.321696E1,1.6298084E-1,-1.8536793E-1,-2.367605E-1,2.7425116E-1,3.60584E-1,3.1840634E-3],"split_indices":[15,23,5,0,15,38,21,0,0,0,0,0,0],"split_type":[0,0,0,0,0,0,0,0,0,0,0,0,0],"sum_hessian":[4.81E2,2.33E2,2.48E2,5E0,2.28E2,8.7E1,1.61E2,3.9E1,1.89E2,6E1,2.7E1,8.6E1,7.5E1],"tree_param":{"num_deleted":"0","num_feature":"88","num_nodes":"13","size_leaf_vector":"1"}},{"base_weights":[-2.9157636E-1,-9.411487E0,6.959333E-2,-3.987441E-2,-8.477294E-1,-5.347818E-1,7.5671525E0,-9.222763E-2,9.602457E-2,7.973823E-1,1.7869148E-1],"categories":[],"categories_nodes":[],"categories_segments":[],"categories_sizes":[],"default_left":[0,0,0,0,0,0,0,0,0,0,0],"id":60,"left_children":[1,3,5,-1,-1,7,9,-1,-1,-1,-1],"loss_changes":[1.6430171E3,1.1986307E3,2.1866523E3,0E0,0E0,1.441314E3,1.0810273E3,0E0,0E0,0E0,0E0],"parents":[2147483647,0,0,1,1,2,2,5,5,6,6],"right_children":[2,4,6,-1,-1,8,10,-1,-1,-1,-1],"split_conditions":[1.094E2,2.6500423E1,2.6821253E0,-3.987441E-2,-8.477294E-1,2.7456045E1,2.5321104E1,-9.222763E-2,9.602457E-2,7.973823E-1,1.7869148E-1],"split_indices":[37,6,11,0,0,6,6,0,0,0,0],"split_type":[0,0,0,0,0,0,0,0,0,0,0],"sum_hessian":[4.95E2,1.7E1,4.78E2,9E0,8E0,4.44E2,3.4E1,2.9E2,1.54E2,9E0,2.5E1],"tree_param":{"num_deleted":"0","num_feature":"88","num_nodes":"11","size_leaf_vector":"1"}},{"base_weights":[-5.7659805E-1,-1.9775794E-1,-1.0596611E1,-9.620679E-1,4.8449464E0,2.5570352E-2,-7.675926E-1,-6.612005E-2,5.922287E-1,2.0231692E-2,5.300576E-1],"categories":[],"categories_nodes":[],"categories_segments":[],"categories_sizes":[],"default_left":[0,0,0,0,0,0,0,0,0,0,0],"id":61,"left_children":[1,3,5,7,9,-1,-1,-1,-1,-1,-1],"loss_changes":[1.7707275E3,1.7571829E3,9.210845E2,1.85347E3,1.5194795E3,0E0,0E0,0E0,0E0,0E0,0E0],"parents":[2147483647,0,0,1,1,2,2,3,3,4,4],"right_children":[2,4,6,8,10,-1,-1,-1,-1,-1,-1],"split_conditions":[6.2E0,6.0867184E1,5.683528E1,9.065065E0,4.6738872E-1,2.5570352E-2,-7.675926E-1,-6.612005E-2,5.922287E-1,2.0231692E-2,5.300576E-1],"split_indices":[71,25,25,8,11,0,0,0,0,0,0],"split_type":[0,0,0,0,0,0,0,0,0,0,0],"sum_hessian":[4.67E2,4.52E2,1.5E1,3.94E2,5.8E1,5E0,1E1,3.85E2,9E0,3.4E1,2.4E1],"tree_param":{"num_deleted":"0","num_feature":"88","num_nodes":"11","size_leaf_vector":"1"}},{"base_weights":[-5.602874E-1,5.803911E0,-1.1492276E0,8.8537765E-1,1.3347198E1,-2.6658995E0,1.0439948E0,2.6005724E-1,-3.146155E-1,8.35828E-1,2.0837848E-1,-3.255586E-1,-2.1694401E-2,-3.7234816E-1,1.24705434E-1],"categories":[],"categories_nodes":[],"categories_segments":[],"categories_sizes":[],"default_left":[0,0,0,0,0,0,0,0,0,0,0,0,0,0,0],"id":62,"left_children":[1,3,5,7,9,11,13,-1,-1,-1,-1,-1,-1,-1,-1],"loss_changes":[1.8138644E3,1.490427E3,1.4766455E3,9.01294E2,3.450952E2,2.2395425E3,2.2756104E3,0E0,0E0,0E0,0E0,0E0,0E0,0E0,0E0],"parents":[2147483647,0,0,1,1,2,2,3,3,4,4,5,5,6,6],"right_children":[2,4,6,8,10,12,14,-1,-1,-1,-1,-1,-1,-1,-1],"split_conditions":[3.5010383E0,5.6E1,2.1353185E0,4.86E-1,1.06777315E1,1.16451546E2,1.03902016E2,2.6005724E-1,-3.146155E-1,8.35828E-1,2.0837848E-1,-3.255586E-1,-2.1694401E-2,-3.7234816E-1,1.24705434E-1],"split_indices":[12,84,2,65,19,1,1,0,0,0,0,0,0,0,0],"split_type":[0,0,0,0,0,0,0,0,0,0,0,0,0,0,0],"sum_hessian":[4.79E2,3.9E1,4.4E2,2.5E1,1.4E1,2.6E2,1.8E2,1.6E1,9E0,9E0,5E0,9.4E1,1.66E2,2.5E1,1.55E2],"tree_param":{"num_deleted":"0","num_feature":"88","num_nodes":"15","size_leaf_vector":"1"}},{"base_weights":[-2.242456E-1,1.130952E0,-2.43932E0,-3.2947185E0,3.1337218E0,-7.967241E-1,-1.599019E0,2.427824E-1,-3.1225067E-1,3.1192892E-4,3.1280145E-1,-2.6030517E-1,7.985889E-2],"categories":[],"categories_nodes":[],"categories_segments":[],"categories_sizes":[],"default_left":[0,0,0,0,0,0,0,0,0,0,0,0,0],"id":63,"left_children":[1,3,5,7,9,-1,11,-1,-1,-1,-1,-1,-1],"loss_changes":[1.384027E3,2.5555583E3,1.9247737E3,2.2254805E3,1.9302537E3,0E0,1.9437694E3,0E0,0E0,0E0,0E0,0E0,0E0],"parents":[2147483647,0,0,1,1,2,2,3,3,4,4,6,6],"right_children":[2,4,6,8,10,-1,12,-1,-1,-1,-1,-1,-1],"split_conditions":[1.3E-2,4.71E-1,-4.8070173E0,-1.2944666E1,2.7890962E-1,-7.967241E-1,2.5887796E1,2.427824E-1,-3.1225067E-1,3.1192892E-4,3.1280145E-1,-2.6030517E-1,7.985889E-2],"split_indices":[59,64,68,2,32,0,7,0,0,0,0,0,0],"split_type":[0,0,0,0,0,0,0,0,0,0,0,0,0],"sum_hessian":[4.57E2,2.84E2,1.73E2,8.8E1,1.96E2,8E0,1.65E2,2.3E1,6.5E1,9.9E1,9.7E1,7.7E1,8.8E1],"tree_param":{"num_deleted":"0","num_feature":"88","num_nodes":"13","size_leaf_vector":"1"}}]},"name":"gbtree"},"learner_model_param":{"base_score":"[2.3031805E2]","boost_from_average":"1","num_class":"0","num_feature":"88","num_target":"1"},"objective":{"name":"reg:squarederror","reg_loss_param":{"scale_pos_weight":"1"}}},"version":[3,2,0]}